-3.506098687648773193e-02
-6.428744178265333176e-03
4.798590019345283508e-02
-6.831267382949590683e-03
-1.334574539214372635e-02
-7.401585113257169724e-03
-5.028838291764259338e-02
-2.332426980137825012e-02
-1.021722480654716492e-01
-1.027062535285949707e-01
-5.770349130034446716e-02
-8.442110568284988403e-02
9.981075674295425415e-02
-1.987789943814277649e-02
8.138761855661869049e-03
4.624735563993453979e-03
2.608825080096721649e-02
7.617118954658508301e-02
2.808448858559131622e-02
5.969385150820016861e-03
5.451627448201179504e-02
-7.602609694004058838e-02
-8.558388054370880127e-02
2.260805666446685791e-02
1.019634772092103958e-02
-1.689511351287364960e-03
-1.411025598645210266e-02
-5.369909852743148804e-02
6.008530035614967346e-02
-2.754794899374246597e-03
-5.497018806636333466e-03
4.681142792105674744e-02
4.583513736724853516e-02
8.654933422803878784e-02
-5.182151682674884796e-03
-4.598767682909965515e-02
6.317144259810447693e-03
2.127340435981750488e-02
4.291751235723495483e-02
-5.732477642595767975e-03
-1.265419870615005493e-01
4.145498387515544891e-03
1.570068672299385071e-02
-1.060924306511878967e-02
-9.243654459714889526e-02
-7.500561326742172241e-02
-5.929186195135116577e-02
-5.308970808982849121e-02
1.318179257214069366e-02
-5.913235619664192200e-02
-5.877707526087760925e-02
-7.355039566755294800e-02
-2.746903710067272186e-02
7.574769109487533569e-02
3.711855039000511169e-02
-3.961984068155288696e-02
-6.947482377290725708e-02
2.236194122815504670e-04
1.116369217634201050e-01
-2.539306133985519409e-02
4.235564917325973511e-02
-8.636491000652313232e-02
6.253673345781862736e-04
-4.630183801054954529e-02
-3.159874677658081055e-02
6.221629213541746140e-03
-8.258014172315597534e-02
3.698985651135444641e-02
-7.715879008173942566e-03
-2.760956250131130219e-02
4.422532021999359131e-02
-7.134992629289627075e-02
-6.892602145671844482e-02
2.423148043453693390e-02
-9.271083027124404907e-02
-5.195649340748786926e-02
-3.025135211646556854e-02
1.572242006659507751e-02
2.995947003364562988e-02
-5.261924583464860916e-03
-1.582311987876892090e-01
-4.690936952829360962e-02
-3.948777168989181519e-02
5.965464282780885696e-03
-2.470205072313547134e-03
-3.821509331464767456e-02
2.172759175300598145e-02
-1.962204277515411377e-02
5.679825320839881897e-02
-3.621052578091621399e-02
4.585927724838256836e-02
-6.358265876770019531e-02
6.462631281465291977e-03
7.239528745412826538e-02
4.353307187557220459e-02
4.593023657798767090e-02
-1.592262089252471924e-02
-5.176141113042831421e-02
7.603041082620620728e-02
-4.886651411652565002e-02
