-5.594160780310630798e-02
-5.639982596039772034e-02
-2.717140316963195801e-02
3.956778673455119133e-04
3.396613150835037231e-02
2.907841280102729797e-02
3.312269598245620728e-02
-3.708836063742637634e-02
-1.913161948323249817e-02
1.111199557781219482e-01
1.414530873298645020e-01
-9.071402996778488159e-02
-1.044070199131965637e-01
-2.914784476161003113e-02
5.993726477026939392e-02
1.385335903614759445e-02
5.524693056941032410e-02
3.019900992512702942e-02
-1.037715654820203781e-02
2.416853047907352448e-02
-9.238122403621673584e-02
-6.080406252294778824e-03
5.454614758491516113e-02
-1.365269571542739868e-01
-1.209389492869377136e-01
-1.083718836307525635e-01
-7.527724653482437134e-02
3.955893218517303467e-02
6.008587405085563660e-02
-6.725139170885086060e-02
-1.234615407884120941e-02
-9.602165222167968750e-02
1.037908270955085754e-01
6.652909517288208008e-02
4.250497370958328247e-02
-6.401159614324569702e-02
6.356779020279645920e-03
-2.440656907856464386e-02
1.058060973882675171e-01
2.631753496825695038e-02
-1.118192300200462341e-01
8.673817664384841919e-02
1.052983179688453674e-01
8.906127884984016418e-03
6.711616367101669312e-02
5.207723937928676605e-03
-8.583491295576095581e-02
3.103084489703178406e-02
-8.944702893495559692e-02
-2.871932834386825562e-02
2.175822481513023376e-02
1.838265731930732727e-02
1.461102515459060669e-01
-2.833073213696479797e-02
2.444586157798767090e-02
6.874211877584457397e-02
-9.989814460277557373e-02
3.059066645801067352e-02
1.978891529142856598e-02
5.991096049547195435e-02
-8.805902302265167236e-02
-5.445609986782073975e-02
-1.794692575931549072e-01
4.610522836446762085e-02
-2.993393503129482269e-02
-1.125845592468976974e-03
-4.850921779870986938e-02
1.115889251232147217e-01
-2.500172518193721771e-02
2.442193776369094849e-02
-1.195769980549812317e-01
-6.807828787714242935e-03
-1.083436533808708191e-01
-7.934445887804031372e-02
-1.141046956181526184e-01
-1.029864400625228882e-01
8.667717128992080688e-02
1.276978552341461182e-01
5.555438622832298279e-02
-8.732867985963821411e-02
-8.413475751876831055e-02
-3.695166483521461487e-02
1.157808452844619751e-01
-7.589668780565261841e-02
-4.967002198100090027e-02
1.617752909660339355e-01
-8.413339406251907349e-02
-3.079555183649063110e-02
6.595410406589508057e-02
-9.182002395391464233e-03
-1.053491234779357910e-02
-3.207921609282493591e-02
-4.964452236890792847e-02
1.413933783769607544e-01
1.450862176716327667e-02
-3.403970599174499512e-02
-6.788565218448638916e-02
-1.368014980107545853e-02
2.240516431629657745e-02
-8.090737462043762207e-02
2.080419100821018219e-03
1.140026450157165527e-01
-1.186815183609724045e-02
8.092069625854492188e-02
3.762956243008375168e-03
3.042636811733245850e-02
-5.718713253736495972e-02
4.715154320001602173e-02
1.448780111968517303e-02
4.020651429891586304e-02
-7.827458530664443970e-02
-8.782944083213806152e-02
-1.327148824930191040e-01
1.535785105079412460e-02
9.495775401592254639e-02
5.390691384673118591e-02
-3.421264514327049255e-02
1.286095827817916870e-01
7.197545468807220459e-02
-4.134822636842727661e-02
-8.829881250858306885e-02
1.378852501511573792e-02
-9.092664718627929688e-02
2.007948048412799835e-02
-4.480537772178649902e-02
-1.342230737209320068e-01
9.618273377418518066e-02
1.072943508625030518e-01
5.742269754409790039e-02
1.355491857975721359e-02
-6.692975014448165894e-02
1.265504769980907440e-02
-7.347124069929122925e-02
-7.274482399225234985e-02
1.070372909307479858e-01
2.393267117440700531e-02
-3.892442211508750916e-02
-4.326694458723068237e-02
1.275541186332702637e-01
-8.015032112598419189e-02
-6.382581591606140137e-02
1.402062475681304932e-01
9.346250444650650024e-03
-2.849792502820491791e-02
6.934490520507097244e-03
-9.317869693040847778e-02
-8.670218288898468018e-02
-1.310946941375732422e-01
-8.293960988521575928e-02
5.530426278710365295e-03
-7.207861542701721191e-02
-1.044601872563362122e-01
1.772044412791728973e-02
-9.938614815473556519e-02
-4.054700583219528198e-02
6.754323840141296387e-02
5.995013192296028137e-02
3.310234844684600830e-02
6.467496603727340698e-02
1.466358751058578491e-01
5.855209007859230042e-02
-1.754479706287384033e-01
9.800440631806850433e-03
-2.497487887740135193e-02
8.562994003295898438e-02
1.900567300617694855e-02
-3.858531638979911804e-02
1.022731140255928040e-01
1.220945864915847778e-01
1.079154312610626221e-01
-1.444150656461715698e-01
1.200482398271560669e-01
-7.880471646785736084e-03
-7.966192788444459438e-04
-2.386507093906402588e-01
-7.207170873880386353e-02
-4.006727412343025208e-02
-6.973159313201904297e-02
-2.419451810419559479e-02
-3.335913270711898804e-02
-9.811890777200460434e-04
-1.732463762164115906e-02
-8.531256020069122314e-02
2.849110402166843414e-02
5.772059783339500427e-02
1.327202022075653076e-01
-1.253510564565658569e-01
-3.798778355121612549e-02
-4.726194962859153748e-02
-5.763975530862808228e-02
1.075321435928344727e-02
9.793005883693695068e-02
8.538501709699630737e-02
5.105948448181152344e-02
1.202038973569869995e-01
-5.797069519758224487e-02
9.657613188028335571e-02
-5.773623008280992508e-03
-1.011740118265151978e-01
-2.031958252191543579e-01
-4.197940230369567871e-02
-6.307041645050048828e-02
7.242506742477416992e-02
-7.707300782203674316e-02
5.592080298811197281e-03
6.454379111528396606e-02
7.095057517290115356e-02
1.201794967055320740e-01
-4.438219219446182251e-02
6.570358574390411377e-02
4.096875898540019989e-03
-1.890755146741867065e-01
2.874441212043166161e-03
7.884116470813751221e-02
-7.898587733507156372e-02
-4.419716447591781616e-02
8.351419121026992798e-03
1.441033836454153061e-02
7.835962623357772827e-02
1.574183404445648193e-01
-7.287270575761795044e-02
-6.686857901513576508e-03
-3.495047241449356079e-02
-9.442870318889617920e-02
-1.304611116647720337e-01
-1.160582751035690308e-01
8.847701549530029297e-02
9.864933043718338013e-02
5.898386240005493164e-02
-1.044248975813388824e-02
-5.847076326608657837e-02
2.387361228466033936e-02
-1.762583997333422303e-04
1.857909001410007477e-02
1.046913340687751770e-01
6.400105357170104980e-02
3.121190518140792847e-02
-1.244022604078054428e-02
-2.552655152976512909e-02
-1.225141156464815140e-02
-2.043022774159908295e-03
7.237242907285690308e-02
-3.464226052165031433e-02
-2.032938599586486816e-02
1.051445864140987396e-02
-4.720710217952728271e-02
-3.509225323796272278e-02
-5.923752486705780029e-02
6.415390223264694214e-02
-4.553036391735076904e-02
-1.244079843163490295e-01
8.566384017467498779e-02
-3.069430356845259666e-03
7.591082900762557983e-02
-8.456414192914962769e-02
1.773971877992153168e-02
-5.483730882406234741e-02
4.907581955194473267e-02
8.630541712045669556e-02
-2.418346330523490906e-02
2.006787434220314026e-02
-1.402452867478132248e-02
-6.768626160919666290e-03
4.199760779738426208e-02
-4.581171087920665741e-03
7.440967112779617310e-02
1.144736483693122864e-01
7.325585186481475830e-02
5.399610847234725952e-02
-3.715283423662185669e-02
-8.256879448890686035e-02
1.322591453790664673e-01
-6.209225207567214966e-02
-4.446862637996673584e-02
1.090440200641751289e-03
-2.376299537718296051e-02
6.609113514423370361e-02
7.873354107141494751e-02
-8.122572302818298340e-02
-6.643229722976684570e-02
1.116000935435295105e-01
9.426806867122650146e-02
7.874407805502414703e-03
1.110286563634872437e-01
1.009057834744453430e-01
-6.431376561522483826e-03
5.107778310775756836e-02
-1.596408081240952015e-03
1.589712128043174744e-02
-3.575439378619194031e-02
2.639907412230968475e-02
5.169575288891792297e-02
1.933808438479900360e-02
1.047146320343017578e-01
5.160161480307579041e-02
-1.154533028602600098e-01
3.187812399119138718e-03
-3.482719510793685913e-02
-9.810791909694671631e-02
-1.659492217004299164e-02
-8.953141048550605774e-03
8.650641888380050659e-03
1.300216764211654663e-01
-2.659351332113146782e-03
-1.149525791406631470e-01
2.615168923512101173e-03
-1.524553168565034866e-02
-2.091302722692489624e-02
1.305715888738632202e-01
6.249620392918586731e-02
2.500279061496257782e-02
-2.120451815426349640e-02
-1.683953404426574707e-02
-2.058033645153045654e-02
-1.798932440578937531e-02
5.257274582982063293e-02
8.833922445774078369e-02
3.409908711910247803e-02
2.537797670811414719e-03
-4.613746330142021179e-02
-6.477058678865432739e-02
4.214039817452430725e-02
-3.263324499130249023e-02
-9.456262737512588501e-02
2.398006804287433624e-02
-1.251746807247400284e-02
2.982752211391925812e-02
-3.051327727735042572e-02
-8.494112640619277954e-02
-1.038386076688766479e-01
5.609889701008796692e-02
-2.447503991425037384e-02
5.677246302366256714e-02
1.355045288801193237e-01
-5.145759787410497665e-03
-1.018647253513336182e-01
-4.146291315555572510e-02
1.684852875769138336e-02
-3.867515176534652710e-02
-5.273602902889251709e-02
9.301190823316574097e-02
-8.908177725970745087e-03
1.114804670214653015e-02
1.141826994717121124e-02
-1.505395863205194473e-02
5.982081405818462372e-03
-2.406767383217811584e-02
-1.002150923013687134e-01
1.321195065975189209e-02
-1.631804392673075199e-03
-1.933016069233417511e-02
3.908615559339523315e-02
-3.560733050107955933e-03
-8.860873430967330933e-02
3.296993090771138668e-04
5.982711166143417358e-02
-6.268691737204790115e-03
6.891372799873352051e-02
6.692563742399215698e-02
2.300487458705902100e-02
8.229309320449829102e-02
-9.076751768589019775e-02
-4.192019253969192505e-02
5.007527768611907959e-02
-3.975673019886016846e-02
-1.569670508615672588e-03
-2.195765264332294464e-03
2.214841172099113464e-02
2.531516924500465393e-02
4.106279462575912476e-02
-1.654034107923507690e-01
1.148985847830772400e-01
-7.327913492918014526e-02
-7.425667345523834229e-02
-8.095126599073410034e-02
-6.960593909025192261e-02
-6.603145599365234375e-02
6.397894024848937988e-02
5.153796519152820110e-04
-1.082019042223691940e-02
6.824275478720664978e-03
2.692292677238583565e-03
8.711138367652893066e-02
-3.508205339312553406e-02
4.033004119992256165e-02
-1.452435273677110672e-02
-3.541346639394760132e-02
-8.051171153783798218e-02
-1.288494968321174383e-05
-2.112041972577571869e-02
-2.792846353258937597e-04
1.029646843671798706e-01
3.940926492214202881e-02
1.207144111394882202e-01
-4.101891443133354187e-02
-1.090707182884216309e-01
6.981696188449859619e-02
-3.421823494136333466e-03
-1.181740909814834595e-01
-1.007259115576744080e-01
-1.397866308689117432e-01
-5.783297121524810791e-02
8.990673720836639404e-02
-3.406774019822478294e-03
5.476417019963264465e-02
2.158791199326515198e-02
4.301366582512855530e-02
1.609821245074272156e-02
5.105445161461830139e-02
1.267909854650497437e-01
-2.590559981763362885e-02
-3.395417332649230957e-02
-8.371976017951965332e-02
-6.112315878272056580e-02
2.334720268845558167e-02
1.891199150122702122e-03
1.175707504153251648e-01
-6.631605327129364014e-02
3.121866472065448761e-02
-1.274450309574604034e-02
-1.280163973569869995e-01
1.243662834167480469e-01
-8.464198559522628784e-02
-3.912791982293128967e-02
-9.729416668415069580e-02
-5.032296851277351379e-02
-8.694479614496231079e-02
1.105478778481483459e-01
-5.627265200018882751e-02
1.640354990959167480e-01
-2.660963311791419983e-02
-1.367275416851043701e-01
1.082890182733535767e-01
9.098830074071884155e-02
-6.922334432601928711e-02
3.606105968356132507e-02
-8.325613290071487427e-02
-9.438941627740859985e-02
3.683372586965560913e-02
-1.774819344282150269e-01
-3.641283884644508362e-02
-1.733084768056869507e-02
-3.673471510410308838e-02
1.009213700890541077e-01
8.540954440832138062e-03
-4.241831973195075989e-02
6.377001106739044189e-02
-5.196700617671012878e-02
-1.578262746334075928e-01
-9.169836342334747314e-02
7.581320125609636307e-03
-4.942100495100021362e-02
-9.576028212904930115e-03
-6.838860572315752506e-04
-1.038350630551576614e-02
-2.876362949609756470e-02
1.105719879269599915e-01
4.918428882956504822e-02
-3.234148398041725159e-02
1.612310484051704407e-02
7.041206955909729004e-02
1.831424189731478691e-03
3.329052031040191650e-02
9.951091557741165161e-02
8.538070134818553925e-03
-5.580215249210596085e-03
9.272101521492004395e-02
7.228676974773406982e-02
-6.645116955041885376e-02
4.330442473292350769e-02
-8.728978037834167480e-02
1.012415662407875061e-01
-1.161487773060798645e-02
6.132035702466964722e-02
-8.430612832307815552e-02
-3.727370873093605042e-03
9.885559231042861938e-02
9.100013971328735352e-02
7.267596665769815445e-03
1.245034579187631607e-02
-4.442157596349716187e-02
6.726861000061035156e-02
-5.882347002625465393e-03
7.298098504543304443e-02
-3.309097141027450562e-02
-2.121212705969810486e-02
6.163651123642921448e-02
-1.111962050199508667e-01
1.190415844321250916e-01
-1.908695884048938751e-02
-2.946176100522279739e-03
8.768288046121597290e-02
-3.418207168579101562e-02
-3.929759375751018524e-03
-1.617650501430034637e-02
-8.684062957763671875e-02
1.401716619729995728e-01
5.611518025398254395e-02
-3.829253464937210083e-02
2.347921580076217651e-02
-2.909221127629280090e-02
9.432256966829299927e-02
-3.554362431168556213e-02
5.653144791722297668e-02
-6.208628416061401367e-02
-8.225844800472259521e-02
1.288700401782989502e-01
4.759383201599121094e-02
-2.091624774038791656e-02
3.318018466234207153e-02
5.182107165455818176e-02
5.442355573177337646e-02
7.452742429450154305e-04
8.179003745317459106e-02
5.344279482960700989e-02
-5.117750912904739380e-02
-2.125059440732002258e-02
-6.530560553073883057e-02
-8.767451345920562744e-02
-1.162334438413381577e-02
1.272527594119310379e-02
8.551927655935287476e-02
1.135924234986305237e-01
-2.240731567144393921e-02
3.193606063723564148e-02
7.908461242914199829e-02
1.047117728739976883e-02
3.674596175551414490e-02
-3.864474594593048096e-03
-3.445123136043548584e-02
-1.646274700760841370e-02
8.945874869823455811e-02
3.142555709928274155e-03
-3.174979239702224731e-02
3.104844316840171814e-02
-9.579956531524658203e-02
-1.316585019230842590e-02
-2.784020453691482544e-02
-8.098766207695007324e-02
1.273347996175289154e-02
2.994990907609462738e-02
-3.718072921037673950e-02
-1.500297803431749344e-02
7.799270004034042358e-02
-6.397108733654022217e-02
5.297344177961349487e-03
-5.677742883563041687e-03
5.242315679788589478e-02
5.796762928366661072e-02
-8.848778903484344482e-03
-6.153348088264465332e-02
6.524798274040222168e-02
1.353052910417318344e-02
6.168977124616503716e-04
6.346541643142700195e-02
1.275093294680118561e-03
-6.169395148754119873e-02
2.294566668570041656e-02
4.520354792475700378e-02
-4.212126508355140686e-02
-5.566637217998504639e-02
-5.657913535833358765e-02
-2.267739921808242798e-02
-5.273815989494323730e-02
2.406392805278301239e-02
-3.798151016235351562e-02
-5.962414667010307312e-02
-3.115793503820896149e-02
-3.562645241618156433e-02
-7.908665388822555542e-02
-6.538614630699157715e-02
1.803725841455161572e-03
-2.746913209557533264e-02
1.839372329413890839e-02
8.949724957346916199e-03
-2.042656019330024719e-02
1.110878493636846542e-02
-1.559140160679817200e-02
-2.478612586855888367e-02
-4.330291412770748138e-03
2.569833584129810333e-02
2.828444167971611023e-02
-6.772649288177490234e-02
-2.452227845788002014e-02
4.321454837918281555e-02
7.183914631605148315e-02
2.660645358264446259e-02
-7.698362227529287338e-03
-2.728672698140144348e-02
4.911175742745399475e-02
8.206367492675781250e-02
5.583284795284271240e-02
-1.646494306623935699e-02
-2.563315629959106445e-02
3.211368992924690247e-02
-1.563627645373344421e-02
9.367974847555160522e-02
3.903008252382278442e-02
-4.765779897570610046e-02
-1.312671974301338196e-02
-4.599885269999504089e-02
6.868173927068710327e-02
4.374388605356216431e-02
2.591461129486560822e-02
-3.182511031627655029e-02
4.861648380756378174e-02
-1.693078689277172089e-02
-8.780525997281074524e-03
-2.803274802863597870e-02
-3.137330710887908936e-02
-4.719942063093185425e-02
2.119505405426025391e-02
8.001767098903656006e-02
1.367890182882547379e-02
2.127855829894542694e-02
-2.651432156562805176e-02
-6.574654579162597656e-02
-2.398378029465675354e-02
2.777985483407974243e-02
7.824500650167465210e-02
1.213004463352262974e-03
1.838779076933860779e-02
-8.519960939884185791e-02
-2.086268924176692963e-02
5.994538310915231705e-03
-4.370266199111938477e-02
4.106107354164123535e-02
5.970554798841476440e-02
-5.427711829543113708e-02
-6.150281056761741638e-03
-3.759175911545753479e-02
3.059387207031250000e-02
-6.626181304454803467e-02
1.037227082997560501e-02
1.038043498992919922e-01
5.718344077467918396e-02
-3.653025720268487930e-03
-2.062083035707473755e-02
6.264995038509368896e-02
7.003476470708847046e-02
-4.605779796838760376e-02
4.775925353169441223e-02
3.337604925036430359e-02
9.265754371881484985e-02
-8.190654963254928589e-02
-6.695223599672317505e-02
4.196270927786827087e-02
-6.169748306274414062e-02
5.508644133806228638e-02
1.224019099026918411e-02
2.782428450882434845e-02
-4.449803382158279419e-02
1.047810819000005722e-02
4.167052730917930603e-02
-2.351775020360946655e-02
-1.152576506137847900e-02
-3.734114021062850952e-02
2.549245394766330719e-02
8.538992702960968018e-02
2.320672012865543365e-02
-4.250609502196311951e-02
-3.432830050587654114e-02
-2.539653703570365906e-02
-8.729514479637145996e-02
4.815205559134483337e-02
-1.211974322795867920e-01
-3.926116600632667542e-02
-3.594578057527542114e-02
7.334074378013610840e-02
-1.267973799258470535e-02
-3.303170576691627502e-02
-1.068512722849845886e-01
-8.962205797433853149e-02
-6.391611881554126740e-03
2.841562964022159576e-02
-9.046655148267745972e-02
-2.815757319331169128e-02
-3.507533669471740723e-02
-1.555376648902893066e-01
-6.148308143019676208e-02
3.100663982331752777e-02
1.488838437944650650e-02
2.871360443532466888e-02
-8.247632533311843872e-02
-5.564220994710922241e-02
1.219651103019714355e-01
-9.533801674842834473e-02
-9.516684710979461670e-02
1.012314185500144958e-01
4.655305019696243107e-05
-7.301720976829528809e-02
6.605443358421325684e-02
-2.405082061886787415e-02
-3.714988753199577332e-02
3.026848100125789642e-02
-1.294275373220443726e-01
8.269538171589374542e-03
-8.897773176431655884e-02
-2.278406359255313873e-02
-1.264232397079467773e-01
1.088523212820291519e-02
3.284778818488121033e-02
5.088078975677490234e-02
-7.019869238138198853e-02
8.632678538560867310e-02
-8.242276310920715332e-02
1.169453039765357971e-01
6.989121437072753906e-02
7.266721874475479126e-02
3.412864357233047485e-02
8.583531528711318970e-02
-1.032586488872766495e-02
-5.975417792797088623e-02
-4.290029034018516541e-02
-1.296489089727401733e-01
3.814734518527984619e-02
-5.358394980430603027e-02
5.723986402153968811e-02
5.933439359068870544e-02
1.181700527667999268e-01
-1.452295929193496704e-01
3.851956874132156372e-02
6.300760060548782349e-02
-4.094680771231651306e-02
2.703402005136013031e-02
-5.671251192688941956e-02
2.703796373680233955e-03
3.946125879883766174e-02
-3.682138398289680481e-02
1.437611319124698639e-02
-1.568527147173881531e-02
1.299544125795364380e-01
-4.440548270940780640e-02
-3.385286033153533936e-02
1.524569243192672729e-01
-4.224498569965362549e-02
-6.642097234725952148e-02
-1.409553587436676025e-01
1.599490046501159668e-01
-9.212050586938858032e-02
4.870728123933076859e-03
1.354922056198120117e-01
6.966841965913772583e-02
4.030050337314605713e-02
1.603884249925613403e-01
-8.367063850164413452e-02
9.948363900184631348e-02
5.859759077429771423e-02
2.186982333660125732e-02
-7.842659205198287964e-02
-7.999819517135620117e-02
2.714399434626102448e-02
-4.320052266120910645e-02
5.385778471827507019e-02
1.064512580633163452e-01
-1.385940015316009521e-01
9.219300746917724609e-02
-2.139434963464736938e-02
-7.903837412595748901e-02
1.473046541213989258e-01
1.896538014989346266e-04
-1.109658181667327881e-01
-1.317868083715438843e-01
1.255876868963241577e-01
8.536588400602340698e-02
-5.774002894759178162e-02
-1.678353361785411835e-02
9.859736263751983643e-02
6.552534177899360657e-03
7.013706117868423462e-02
-2.529366686940193176e-02
1.952192001044750214e-02
-6.057663634419441223e-02
-1.209855899214744568e-01
-1.003751605749130249e-01
-1.355560719966888428e-01
-2.601565048098564148e-02
1.903823018074035645e-02
2.067898213863372803e-02
-8.438527584075927734e-02
-1.136848144233226776e-02
1.574859470129013062e-01
-5.813788995146751404e-02
9.622496366500854492e-02
-1.090760249644517899e-02
1.693069338798522949e-01
1.610238850116729736e-02
-3.513761982321739197e-02
-5.101792514324188232e-02
1.946133933961391449e-02
-6.087915599346160889e-02
-2.300412207841873169e-02
9.123575873672962189e-03
-6.486326456069946289e-02
4.677293449640274048e-02
-9.178704023361206055e-02
3.800810873508453369e-02
4.213715344667434692e-02
-1.171305328607559204e-01
-6.429777294397354126e-02
-1.210409477353096008e-01
-4.353017732501029968e-02
8.691646903753280640e-02
-1.975330896675586700e-02
-3.688038513064384460e-02
3.258386254310607910e-02
3.291261941194534302e-02
-6.585479527711868286e-02
7.187202572822570801e-02
1.069779023528099060e-01
1.444753557443618774e-01
-5.368488654494285583e-02
-1.511582881212234497e-01
5.034292489290237427e-02
-5.443655326962471008e-02
1.549609284847974777e-02
7.398407161235809326e-02
7.170668989419937134e-02
5.683631449937820435e-02
-4.348248243331909180e-02
-2.022823505103588104e-02
8.108034729957580566e-02
2.184030413627624512e-02
-6.865879893302917480e-02
4.121300578117370605e-02
-3.286709263920783997e-02
1.053540259599685669e-01
8.002668619155883789e-02
-5.265217646956443787e-02
1.287781354039907455e-02
8.665030822157859802e-03
-3.882997483015060425e-02
4.862230643630027771e-02
-7.475414127111434937e-02
-7.877748459577560425e-02
1.975091993808746338e-01
-9.965337067842483521e-02
-7.366065680980682373e-02
1.460580378770828247e-01
-9.771521389484405518e-02
-4.043169785290956497e-03
1.230888292193412781e-01
-6.219188496470451355e-02
6.511077517643570900e-04
-6.556385755538940430e-02
-4.590244218707084656e-02
1.158608049154281616e-01
4.949105903506278992e-02
-1.659056693315505981e-01
-1.819477975368499756e-01
-1.130956634879112244e-01
-3.422433137893676758e-02
-1.916608400642871857e-02
-2.815456362441182137e-03
6.270654499530792236e-02
-7.061492651700973511e-02
-2.932995557785034180e-02
1.214721873402595520e-01
1.179782077670097351e-01
7.873246073722839355e-02
8.683435618877410889e-02
1.323762070387601852e-02
-9.696491807699203491e-02
9.325726330280303955e-02
5.262850597500801086e-02
8.731006085872650146e-02
2.950995229184627533e-02
3.291632607579231262e-02
4.349556937813758850e-02
1.775504276156425476e-02
-6.230188906192779541e-02
-3.584600985050201416e-02
-1.049214154481887817e-01
-1.030218154191970825e-01
-8.301977813243865967e-02
2.335609681904315948e-02
1.058348491787910461e-01
-1.394083257764577866e-02
-1.394621878862380981e-01
-8.740623295307159424e-02
3.981169685721397400e-02
1.355911940336227417e-01
-3.891256824135780334e-02
1.213483065366744995e-01
1.276325434446334839e-01
1.949962526559829712e-01
-1.656547933816909790e-01
-9.120570868253707886e-02
6.241303682327270508e-02
-6.845457106828689575e-02
8.524105697870254517e-02
-5.710151791572570801e-02
9.439394623041152954e-02
-5.370632931590080261e-02
-5.499912798404693604e-02
3.201864287257194519e-02
1.506689786911010742e-01
-1.027384251356124878e-01
-7.248412817716598511e-02
-1.973731070756912231e-01
-1.892441697418689728e-02
-4.250001162290573120e-02
-3.127950802445411682e-02
-7.129592355340719223e-03
9.376748651266098022e-02
1.549389865249395370e-02
7.041233777999877930e-02
8.407691121101379395e-02
9.472107142210006714e-02
-1.027756780385971069e-01
-3.679056838154792786e-02
3.876861929893493652e-02
1.096993777900934219e-02
1.864944249391555786e-01
4.029642418026924133e-02
2.611569594591856003e-03
1.114197727292776108e-02
8.934200555086135864e-02
1.377264559268951416e-01
1.734836213290691376e-02
-1.650029420852661133e-01
1.214174777269363403e-01
-9.000705182552337646e-02
-3.829143196344375610e-02
-6.001913547515869141e-02
1.572153181768953800e-03
1.041726320981979370e-01
3.691954165697097778e-02
-1.016600281000137329e-01
1.176827922463417053e-01
1.087414845824241638e-01
-3.971061855554580688e-02
-2.018863102421164513e-03
-3.039282746613025665e-02
-8.611658960580825806e-02
4.360942542552947998e-02
3.830536454916000366e-02
4.174254462122917175e-02
7.527512311935424805e-02
-1.108226925134658813e-01
-4.700461030006408691e-02
6.651455909013748169e-02
8.436573296785354614e-02
-5.925200879573822021e-02
-5.466007627546787262e-03
-1.138110160827636719e-01
4.827918112277984619e-02
-2.237738110125064850e-02
3.086882457137107849e-02
1.033327281475067139e-01
5.942938849329948425e-02
-4.609992727637290955e-02
-9.207113645970821381e-03
-1.208035498857498169e-01
-4.815704654902219772e-03
5.821404978632926941e-02
2.776974812150001526e-02
1.707991808652877808e-01
-2.130469121038913727e-02
2.461555041372776031e-02
9.786980599164962769e-02
-1.024215146899223328e-01
-1.376822441816329956e-01
8.952689170837402344e-02
-4.865073785185813904e-02
1.170076150447130203e-02
-3.084581717848777771e-02
3.913125395774841309e-02
1.624874025583267212e-01
1.051586642861366272e-01
-1.081981658935546875e-01
5.093275383114814758e-02
-5.331171303987503052e-02
-2.484156191349029541e-02
-5.935303494334220886e-02
-4.519886150956153870e-02
-5.077790468931198120e-02
2.365500666201114655e-02
-4.413154721260070801e-02
-1.394916232675313950e-02
8.530831895768642426e-03
7.591289281845092773e-02
1.828633621335029602e-02
8.200637251138687134e-02
-7.032598555088043213e-02
3.499583154916763306e-02
-9.505040943622589111e-02
5.184541642665863037e-02
5.750401318073272705e-02
8.435157686471939087e-02
-3.654280304908752441e-02
1.398815363645553589e-01
-8.145464211702346802e-02
9.609093517065048218e-02
2.271148003637790680e-02
1.661440730094909668e-02
7.910875976085662842e-02
9.390844404697418213e-02
-1.039201486855745316e-02
-3.305867314338684082e-02
-4.354747384786605835e-02
-4.164314642548561096e-02
1.348531991243362427e-01
9.686652570962905884e-02
-2.555468305945396423e-02
-1.063252836465835571e-01
-9.814061969518661499e-02
1.019212529063224792e-01
-4.760443046689033508e-02
-2.873891498893499374e-03
9.925914555788040161e-02
-3.120614029467105865e-02
-5.139516724739223719e-05
-5.242425203323364258e-02
-5.097851529717445374e-02
4.901349544525146484e-02
-4.060251265764236450e-02
3.704657033085823059e-02
-4.554427415132522583e-02
1.139252409338951111e-01
-2.588345110416412354e-02
5.434663221240043640e-02
-1.128694191575050354e-01
7.317117601633071899e-02
3.332685679197311401e-02
-5.529551580548286438e-02
7.613106071949005127e-02
1.128843724727630615e-01
4.517035558819770813e-02
-3.309941664338111877e-02
1.082900259643793106e-02
7.613481581211090088e-02
-4.701020941138267517e-02
5.962416902184486389e-02
-4.591740295290946960e-02
-4.082800820469856262e-02
2.211119420826435089e-02
-9.455789625644683838e-02
2.702643163502216339e-02
-3.110921382904052734e-02
-6.136417388916015625e-02
-2.993340790271759033e-02
-8.624268323183059692e-02
-5.485823005437850952e-02
1.391580849885940552e-01
4.910851642489433289e-02
-2.391802333295345306e-02
-5.085046216845512390e-02
2.102943509817123413e-02
-4.601879790425300598e-02
-6.013933196663856506e-02
3.260063752532005310e-02
1.139131560921669006e-01
-7.115559279918670654e-02
8.761964738368988037e-02
-1.188887879252433777e-01
2.401405200362205505e-02
6.066570058465003967e-02
9.429066628217697144e-02
-3.591762483119964600e-02
7.463358342647552490e-02
-1.226280033588409424e-01
4.747373983263969421e-02
1.315957903861999512e-01
-4.868582263588905334e-02
6.947657465934753418e-02
7.805689424276351929e-02
-3.175913169980049133e-02
-2.427140716463327408e-03
1.347910314798355103e-01
2.804737538099288940e-03
4.303393512964248657e-02
1.638879417441785336e-03
-7.793685048818588257e-02
-8.705556392669677734e-02
2.903542481362819672e-02
-5.453351885080337524e-02
3.568579256534576416e-02
-8.278556913137435913e-02
4.914075508713722229e-02
-3.676088294014334679e-03
-4.283643141388893127e-02
9.563896805047988892e-02
3.036656789481639862e-02
8.328776061534881592e-02
9.568370878696441650e-02
-3.113323636353015900e-02
-2.777485363185405731e-02
1.284269988536834717e-01
2.794035151600837708e-02
5.405833944678306580e-02
-5.041530728340148926e-02
6.796296685934066772e-02
3.071362897753715515e-02
-8.394820615649223328e-03
1.583474129438400269e-02
-1.829140260815620422e-02
-8.336416631937026978e-02
-9.315684437751770020e-02
-9.920611046254634857e-03
-9.793575108051300049e-02
-1.734543405473232269e-02
1.124630197882652283e-01
-1.373705863952636719e-01
-4.235339909791946411e-02
-7.372798863798379898e-03
-1.029966622591018677e-01
1.330332607030868530e-01
1.021926254034042358e-01
-2.254232950508594513e-02
1.250985413789749146e-01
-1.380741745233535767e-01
-1.227300837635993958e-01
4.906715452671051025e-02
-6.866264343261718750e-02
2.001171931624412537e-02
-4.394783079624176025e-02
-7.337079197168350220e-02
-2.782981097698211670e-02
1.005317568778991699e-01
4.332383349537849426e-02
9.849782288074493408e-02
3.361393138766288757e-02
-9.025691449642181396e-02
-1.422528326511383057e-01
-1.324959844350814819e-01
-6.807065755128860474e-02
1.144077330827713013e-01
-9.600792825222015381e-02
6.238831579685211182e-02
-7.045981287956237793e-02
4.038222506642341614e-02
1.188664510846138000e-01
8.910901844501495361e-02
5.812764167785644531e-02
-2.759965509176254272e-02
-5.352383852005004883e-02
-8.798333583399653435e-04
-7.484905421733856201e-02
-3.190439939498901367e-02
-6.507000327110290527e-02
5.694782361388206482e-02
2.402339316904544830e-02
-7.663410156965255737e-03
7.225200533866882324e-02
-1.725701615214347839e-02
2.390912920236587524e-02
3.066517412662506104e-02
-7.324691861867904663e-02
-8.107519149780273438e-02
-9.993200004100799561e-02
8.547259122133255005e-02
-4.401487112045288086e-02
4.635815508663654327e-03
2.075296640396118164e-02
-7.022526580840349197e-03
-5.154175683856010437e-02
5.275674629956483841e-03
-6.046877242624759674e-03
-6.980737298727035522e-02
-1.101228892803192139e-01
-8.028744161128997803e-02
7.452071458101272583e-02
-7.383175939321517944e-02
-2.714347839355468750e-02
-1.039317920804023743e-01
-6.130008026957511902e-02
1.004235744476318359e-01
9.799794852733612061e-02
9.701644070446491241e-03
-8.794154226779937744e-02
5.086962506175041199e-02
-9.212148934602737427e-02
-8.567905426025390625e-02
-6.993392109870910645e-02
5.264725163578987122e-02
5.677054449915885925e-02
-5.922348797321319580e-02
6.666206568479537964e-02
-4.039870947599411011e-02
-6.083412840962409973e-02
-5.941018927842378616e-03
4.910982400178909302e-02
-7.868126034736633301e-02
-8.829328417778015137e-02
-3.461895138025283813e-02
6.847814074717462063e-04
1.117883995175361633e-01
1.589211076498031616e-02
4.216778278350830078e-02
3.585477359592914581e-03
1.894577592611312866e-02
-1.070453077554702759e-01
2.762746065855026245e-02
-1.630262285470962524e-02
1.689565367996692657e-02
1.883282698690891266e-02
-9.116081893444061279e-02
1.277708262205123901e-02
-1.936142449267208576e-03
2.515259012579917908e-02
4.075119271874427795e-02
-2.994232065975666046e-02
7.952531799674034119e-03
-5.828506872057914734e-02
-5.362921208143234253e-02
1.160098388791084290e-01
7.806823402643203735e-02
4.650823306292295456e-03
-6.773184984922409058e-03
1.955904811620712280e-02
-1.002040728926658630e-01
-8.203977718949317932e-03
-2.651113085448741913e-02
-5.043483898043632507e-02
-4.858160857111215591e-03
4.140560328960418701e-02
2.793224342167377472e-02
3.396755829453468323e-02
7.983625680208206177e-02
8.983492851257324219e-03
-2.497313171625137329e-02
1.178543269634246826e-01
-5.286152660846710205e-02
4.791223630309104919e-02
-5.834616348147392273e-02
3.876376152038574219e-02
5.017320439219474792e-02
-1.523753814399242401e-02
-2.467059902846813202e-02
3.160572797060012817e-02
1.310788094997406006e-01
7.674276083707809448e-02
3.598789125680923462e-02
1.224368810653686523e-01
6.817714869976043701e-02
5.063698627054691315e-03
5.078398808836936951e-02
8.618404716253280640e-02
1.982028409838676453e-02
2.345797605812549591e-02
-7.760149240493774414e-02
5.808073654770851135e-02
9.379507973790168762e-03
-6.337888538837432861e-02
-9.268373250961303711e-02
6.625734269618988037e-02
-6.374001502990722656e-02
-5.622332543134689331e-02
-2.112154662609100342e-02
8.727180957794189453e-02
5.969949811697006226e-02
-2.521991729736328125e-02
3.537311032414436340e-02
-4.026966914534568787e-02
-7.396320998668670654e-02
-9.894388727843761444e-03
-9.196123480796813965e-02
-1.121913194656372070e-01
2.977244369685649872e-02
4.552276805043220520e-02
5.263641849160194397e-02
5.491372197866439819e-02
2.959776483476161957e-02
4.524648189544677734e-02
-2.422663755714893341e-02
-7.455059140920639038e-02
2.032666839659214020e-02
7.976797409355640411e-03
6.185265257954597473e-02
-9.763761423528194427e-03
-4.356578364968299866e-02
-3.988712653517723083e-02
7.484965771436691284e-02
-2.904720976948738098e-02
-1.322396378964185715e-02
-9.156391024589538574e-03
4.614316672086715698e-02
3.025034628808498383e-02
-3.505182266235351562e-02
7.917957380414009094e-03
1.398403346538543701e-01
1.237718835473060608e-01
9.944801032543182373e-02
2.725110761821269989e-02
-2.538068965077400208e-02
-5.481060221791267395e-02
-5.081299692392349243e-02
5.527720972895622253e-02
1.097021042369306087e-03
-3.880418092012405396e-02
4.655612632632255554e-02
-6.150337681174278259e-02
5.890629813075065613e-02
-5.202832072973251343e-02
1.896426826715469360e-02
7.368907332420349121e-02
4.292412474751472473e-02
-1.212677080184221268e-02
-8.846733719110488892e-02
-1.002330034971237183e-01
-8.889387547969818115e-02
-2.411085367202758789e-02
-2.525182627141475677e-02
-1.629639416933059692e-02
2.765262871980667114e-02
1.202408894896507263e-01
2.957095764577388763e-02
-4.396568611264228821e-02
-1.053445041179656982e-02
-8.462376892566680908e-02
2.502047084271907806e-02
6.829892098903656006e-02
1.037991791963577271e-01
-8.092278987169265747e-02
-8.571802079677581787e-02
-7.730627059936523438e-02
-5.873633082956075668e-03
-8.998648077249526978e-02
1.463285880163311958e-03
-8.494208753108978271e-02
-4.073122888803482056e-02
1.050592586398124695e-01
1.643476448953151703e-02
-7.273135334253311157e-02
6.851554661989212036e-02
9.873256087303161621e-02
1.052946299314498901e-01
1.091896183788776398e-02
-3.377634659409523010e-02
-9.052535891532897949e-02
3.089099936187267303e-02
-5.692489072680473328e-02
6.199248507618904114e-02
-4.830961581319570541e-03
-1.080024689435958862e-01
9.088607132434844971e-02
1.145399585366249084e-01
3.331082686781883240e-02
2.807189337909221649e-02
1.594361267052590847e-03
-5.233976989984512329e-02
-6.476156995631754398e-04
2.786310575902462006e-02
1.486964710056781769e-02
2.962552942335605621e-02
-1.029547452926635742e-01
4.664839059114456177e-02
1.081687882542610168e-01
5.048498511314392090e-02
5.709743127226829529e-02
3.374985605478286743e-02
1.739777624607086182e-02
-1.277669668197631836e-01
1.288049221038818359e-01
2.597550861537456512e-03
-4.864686727523803711e-02
-3.382555395364761353e-02
1.151328682899475098e-01
5.078639462590217590e-02
-1.324570272117853165e-02
-6.020963937044143677e-02
-1.328888535499572754e-01
7.768958061933517456e-02
-1.024145185947418213e-01
-3.624745085835456848e-02
6.064418703317642212e-02
1.198084466159343719e-02
1.265970915555953979e-01
1.205206662416458130e-01
-7.538453489542007446e-02
-7.402447517961263657e-03
-1.389414072036743164e-02
-9.817678481340408325e-03
-1.040333509445190430e-01
6.043000519275665283e-02
9.459791332483291626e-02
6.719214469194412231e-02
1.450519543141126633e-02
1.498967856168746948e-01
6.956478208303451538e-02
7.168396562337875366e-02
7.939500361680984497e-02
7.464675605297088623e-02
2.546581998467445374e-02
5.400015041232109070e-02
-1.436697132885456085e-02
1.464207563549280167e-02
9.095195680856704712e-02
-2.856590971350669861e-02
-2.635873481631278992e-02
6.468519568443298340e-02
-2.392431721091270447e-02
1.435751467943191528e-01
1.891531646251678467e-01
-9.337835945188999176e-03
4.666044935584068298e-02
-5.686460435390472412e-02
-6.155451014637947083e-02
-7.020988315343856812e-02
6.048499792814254761e-02
-9.948024898767471313e-02
6.823355797678232193e-03
-1.296576559543609619e-01
1.386046111583709717e-01
5.617396160960197449e-02
6.486998870968818665e-03
1.080395281314849854e-01
1.429914683103561401e-02
1.805472560226917267e-02
-3.898603096604347229e-02
-1.076645329594612122e-01
-1.126939877867698669e-01
-1.249536988325417042e-03
-1.157163009047508240e-01
-2.407266758382320404e-02
1.021433621644973755e-01
-4.004806652665138245e-02
1.633472740650177002e-01
2.842506021261215210e-02
2.297919243574142456e-02
3.419258445501327515e-02
-6.296694278717041016e-02
-2.176989428699016571e-02
3.996483236551284790e-02
4.821209236979484558e-02
1.030776649713516235e-02
-1.456463360227644444e-03
-8.783330768346786499e-02
1.051129251718521118e-01
-8.392435312271118164e-02
1.161010712385177612e-01
7.516072690486907959e-02
1.385089010000228882e-01
4.716693609952926636e-02
-5.107108503580093384e-03
-1.059321090579032898e-01
1.821388117969036102e-02
-5.375834554433822632e-02
7.670498453080654144e-03
5.317009519785642624e-03
1.328200846910476685e-01
2.449568547308444977e-02
7.420960068702697754e-02
1.462857574224472046e-01
-1.849641994340345263e-04
-4.020261391997337341e-02
3.088916465640068054e-02
-9.601835161447525024e-02
1.865085214376449585e-02
-7.520568557083606720e-03
-5.588708072900772095e-02
1.048875004053115845e-01
4.604002460837364197e-04
1.712078228592872620e-02
-6.494624912738800049e-02
2.605731040239334106e-02
-8.635800331830978394e-02
9.447040036320686340e-03
5.795960128307342529e-02
1.097768545150756836e-01
-6.710068788379430771e-03
5.251600965857505798e-02
9.737294912338256836e-02
-7.579810917377471924e-02
5.357535555958747864e-02
9.454026818275451660e-02
3.841463848948478699e-02
1.299263685941696167e-01
2.005600333213806152e-01
3.204372187610715628e-04
-7.664928585290908813e-02
-1.625475101172924042e-02
-1.192173454910516739e-02
3.062167949974536896e-02
4.860802739858627319e-02
9.729149192571640015e-02
-2.762606739997863770e-02
-9.348070621490478516e-02
-7.099234312772750854e-02
1.072385609149932861e-01
8.597519248723983765e-02
5.603218823671340942e-02
2.892471104860305786e-02
-3.703731670975685120e-02
-3.007989563047885895e-02
-4.721087589859962463e-02
-6.913963705301284790e-03
-4.213152918964624405e-03
-9.642942249774932861e-02
-2.820688858628273010e-02
-2.242225781083106995e-02
-4.728278890252113342e-02
1.491711735725402832e-01
1.291385591030120850e-01
-7.422355562448501587e-02
-2.751441858708858490e-02
4.267589002847671509e-02
-5.539228394627571106e-02
3.448809310793876648e-02
1.780132576823234558e-02
4.926714673638343811e-02
7.096589356660842896e-02
-9.318912029266357422e-02
2.212157240137457848e-03
-6.022182479500770569e-02
-1.924110925756394863e-03
6.142367050051689148e-02
-4.540841560810804367e-03
6.666215602308511734e-03
1.507747173309326172e-01
3.108423016965389252e-02
-5.417210981249809265e-02
-8.172051049768924713e-03
-9.222918003797531128e-02
3.735802695155143738e-02
1.051991898566484451e-02
-1.532627828419208527e-02
5.979302898049354553e-02
1.586238890886306763e-01
3.525733202695846558e-02
-5.381570011377334595e-02
1.518844217061996460e-01
-7.447998225688934326e-02
-4.625118151307106018e-02
-7.076047360897064209e-02
2.898766845464706421e-02
6.842946261167526245e-02
-8.628845959901809692e-02
-1.482455711811780930e-02
4.363594949245452881e-02
6.556144356727600098e-02
-1.098539307713508606e-01
1.422705948352813721e-01
2.553185075521469116e-02
-2.889415808022022247e-02
-5.601289868354797363e-02
7.495509926229715347e-03
-1.283043809235095978e-02
4.692837968468666077e-02
1.939197443425655365e-02
-4.252117872238159180e-02
-1.092664338648319244e-02
-9.448015131056308746e-03
1.555554419755935669e-01
-7.096767425537109375e-02
-4.786890372633934021e-02
6.567103415727615356e-02
2.191902138292789459e-02
3.581093624234199524e-02
-1.283274032175540924e-02
1.076264753937721252e-01
-5.653797183185815811e-03
-3.797379881143569946e-02
-1.150213927030563354e-01
1.207074373960494995e-01
1.399202644824981689e-01
-5.048523098230361938e-02
1.238491293042898178e-02
5.782630667090415955e-02
-4.637008160352706909e-02
-9.262061864137649536e-02
-2.206152677536010742e-02
-3.846959210932254791e-03
-3.750697523355484009e-02
-2.571497298777103424e-02
2.515723370015621185e-02
-3.173733502626419067e-02
-3.971918672323226929e-02
1.016068384051322937e-01
-5.506370216608047485e-03
1.817270182073116302e-02
1.169444993138313293e-01
3.616970032453536987e-02
-9.073702991008758545e-02
-4.261591657996177673e-02
-9.745225310325622559e-03
3.905927995219826698e-03
-7.242777943611145020e-02
1.119051221758127213e-02
-1.085697337985038757e-01
9.068778902292251587e-02
6.708799302577972412e-02
-7.417210726998746395e-04
1.067780256271362305e-01
1.183127313852310181e-01
2.720433473587036133e-02
6.091297417879104614e-02
-3.373736515641212463e-02
-7.854066044092178345e-02
4.766288620885461569e-04
1.221860572695732117e-01
7.310271263122558594e-02
1.213019862771034241e-01
8.464917540550231934e-02
-2.119477652013301849e-02
5.598990991711616516e-02
1.120748743414878845e-02
-9.998195618391036987e-02
-8.085860311985015869e-02
-8.183288574218750000e-02
-6.035269424319267273e-02
9.973353892564773560e-02
-9.344889968633651733e-02
-3.128067776560783386e-02
-2.109568752348423004e-02
2.823034115135669708e-02
-1.852951198816299438e-02
1.209660544991493225e-01
-1.684689708054065704e-02
1.463180631399154663e-01
-3.938721492886543274e-03
3.318910673260688782e-02
2.702194452285766602e-02
-8.076778799295425415e-02
-6.048486381769180298e-02
-1.753651164472103119e-02
1.862448640167713165e-02
8.746682852506637573e-02
1.117458790540695190e-01
-1.083394661545753479e-01
-4.473409149795770645e-03
-6.964313983917236328e-02
-1.287806034088134766e-01
-1.051392685621976852e-02
-1.939797587692737579e-02
5.464199185371398926e-02
-5.959445610642433167e-02
-1.465105265378952026e-01
-9.536984562873840332e-02
8.439654111862182617e-02
-5.060274153947830200e-02
9.492562711238861084e-02
6.106403842568397522e-02
-5.527465417981147766e-02
4.157535731792449951e-02
-1.291552092880010605e-02
-1.009461432695388794e-01
-6.168151646852493286e-02
-8.644835650920867920e-02
5.063452199101448059e-02
3.642001003026962280e-02
4.290958866477012634e-02
7.728728652000427246e-02
1.122751832008361816e-01
-1.369661241769790649e-01
-8.616515994071960449e-02
-5.782335624098777771e-02
3.421153873205184937e-02
3.320236573927104473e-04
-7.869706302881240845e-02
-6.635002791881561279e-02
6.886260211467742920e-02
3.413214161992073059e-02
4.067574068903923035e-02
-6.117115914821624756e-02
8.915222436189651489e-02
1.017781272530555725e-01
-5.394407361745834351e-02
-2.143060788512229919e-02
5.042791832238435745e-03
2.923584543168544769e-02
-2.319444902241230011e-02
8.015032857656478882e-02
-1.191499084234237671e-01
-8.237542957067489624e-02
2.418232336640357971e-02
1.058126688003540039e-01
2.926960214972496033e-02
4.066001996397972107e-02
-4.869725927710533142e-02
4.026766866445541382e-03
1.118058487772941589e-01
3.633392602205276489e-02
-8.666463196277618408e-02
-4.654502123594284058e-02
-4.353523626923561096e-02
-4.591811448335647583e-02
-2.482610289007425308e-03
-9.289573878049850464e-02
-2.593734674155712128e-02
-4.129776265472173691e-03
3.292074054479598999e-02
-1.663949899375438690e-02
1.319523304700851440e-01
-2.689114399254322052e-02
-1.001290678977966309e-01
-1.196508295834064484e-02
-4.073954746127128601e-02
-2.854144386947154999e-02
-6.618984043598175049e-02
3.016036935150623322e-02
8.538163453340530396e-02
-7.915765978395938873e-03
9.026522189378738403e-02
-4.038629680871963501e-02
5.845834501087665558e-03
7.494700700044631958e-02
-5.051832646131515503e-02
2.181913144886493683e-02
-8.580059558153152466e-02
1.109387874603271484e-01
7.379740476608276367e-02
-1.615365222096443176e-02
-9.344046004116535187e-03
1.009006276726722717e-01
7.261490076780319214e-02
-1.811063732020556927e-03
1.060142368078231812e-01
1.230806633830070496e-01
7.629242725670337677e-03
-9.456814825534820557e-02
-1.124659478664398193e-01
1.142174452543258667e-01
-3.305339813232421875e-02
-7.023303955793380737e-02
-4.561826959252357483e-02
-3.568175062537193298e-02
4.370236396789550781e-02
1.013520509004592896e-01
-1.045901402831077576e-01
7.735574990510940552e-02
-6.121889874339103699e-02
-1.561082452535629272e-01
-2.778365463018417358e-02
-2.697448991239070892e-02
1.256472766399383545e-01
-3.940801322460174561e-02
-9.708072245121002197e-02
-6.211756542325019836e-02
-9.890181571245193481e-02
4.244393482804298401e-02
-5.124837532639503479e-02
1.036832407116889954e-01
8.897177129983901978e-02
1.160551011562347412e-01
-8.684898167848587036e-02
6.642953306436538696e-02
1.756348088383674622e-02
-7.851954549551010132e-02
4.443083889782428741e-03
6.677157431840896606e-02
-2.124756341800093651e-03
6.233249232172966003e-02
1.185666695237159729e-01
-1.442901492118835449e-01
2.518586628139019012e-02
-1.075880881398916245e-02
-1.896548569202423096e-01
-2.346619814634323120e-01
-8.220697194337844849e-02
4.302625358104705811e-02
-1.685535162687301636e-02
3.557498753070831299e-02
-9.882467985153198242e-02
1.150513160973787308e-02
2.976571954786777496e-02
7.383157312870025635e-02
1.144614443182945251e-01
1.361453682184219360e-01
1.603988371789455414e-02
-4.487050697207450867e-02
-8.632694184780120850e-02
-4.839215893298387527e-03
4.677727818489074707e-02
2.307067252695560455e-02
4.365152493119239807e-02
4.313461855053901672e-02
-2.499157795682549477e-03
4.846381396055221558e-02
-1.238038614392280579e-01
-4.055051505565643311e-02
-9.659539908170700073e-02
-5.502831190824508667e-02
-1.479998379945755005e-01
-5.137135460972785950e-02
-5.017644539475440979e-02
6.981356441974639893e-02
-1.014648657292127609e-02
-8.821341395378112793e-02
-2.508643083274364471e-02
5.544823035597801208e-02
9.000133723020553589e-02
-3.565149009227752686e-02
7.132556289434432983e-02
7.133892923593521118e-02
-5.948359891772270203e-02
-8.666781336069107056e-02
-6.751980632543563843e-02
-2.379817888140678406e-02
3.539158776402473450e-02
1.444915235042572021e-01
-6.682490929961204529e-03
-3.609329462051391602e-02
5.004586651921272278e-02
4.593513906002044678e-02
5.349620059132575989e-02
-1.045705005526542664e-01
-7.812623865902423859e-03
-1.125019937753677368e-01
-2.200732706114649773e-03
1.553632616996765137e-01
-1.340025812387466431e-01
-2.776847407221794128e-02
2.932904846966266632e-02
-5.404822528362274170e-02
5.601367354393005371e-02
-3.935485705733299255e-02
8.934097737073898315e-02
3.081687539815902710e-02
7.779533416032791138e-02
-6.745821330696344376e-03
-5.040092393755912781e-02
-7.037000358104705811e-02
9.955550730228424072e-02
-2.202841825783252716e-02
5.935531109571456909e-02
-4.960710555315017700e-02
5.277515947818756104e-02
-6.639658659696578979e-02
1.408606767654418945e-01
-6.937829405069351196e-02
-7.017268240451812744e-02
9.937710314989089966e-02
1.037861257791519165e-01
7.176333665847778320e-02
1.912709703901782632e-04
-2.387804165482521057e-02
-8.767118304967880249e-02
5.064177885651588440e-02
-1.574678346514701843e-02
6.172243878245353699e-02
-2.778196707367897034e-02
1.195084676146507263e-02
2.584134228527545929e-03
1.395308375358581543e-01
-5.159650743007659912e-02
-6.124744191765785217e-02
1.393818017095327377e-02
5.236724391579627991e-02
2.530725672841072083e-02
9.208121150732040405e-02
6.658174842596054077e-02
-1.313008219003677368e-01
-4.816130176186561584e-02
-1.183033827692270279e-02
-6.350221484899520874e-02
1.247083768248558044e-02
-6.568318931385874748e-04
9.349898993968963623e-02
-6.899810582399368286e-02
-6.190387532114982605e-02
1.112337484955787659e-01
-2.507315203547477722e-02
-7.240908592939376831e-02
9.285364300012588501e-02
1.365611553192138672e-01
1.145319119095802307e-01
1.784861460328102112e-02
-2.103953808546066284e-02
1.023425310850143433e-01
6.090334430336952209e-02
-9.997792541980743408e-02
-9.506782889366149902e-02
-6.520769745111465454e-02
4.468876495957374573e-02
6.678684055805206299e-02
1.003390699625015259e-01
-7.431582361459732056e-02
1.509059686213731766e-02
4.210446029901504517e-02
-1.438238192349672318e-02
-9.162898175418376923e-03
-6.080738455057144165e-02
9.322284907102584839e-02
1.106930673122406006e-01
8.069867640733718872e-02
-8.994141221046447754e-02
2.558104880154132843e-02
-7.087764889001846313e-02
2.451368980109691620e-02
-1.713669160380959511e-03
4.531376436352729797e-02
-9.998515248298645020e-02
-1.181638166308403015e-01
-1.209438312798738480e-02
6.668075174093246460e-02
-9.634828194975852966e-03
-1.223610863089561462e-01
-6.760567426681518555e-03
5.849557928740978241e-03
-1.706884056329727173e-02
-5.540340393781661987e-02
-5.568502470850944519e-02
9.677178226411342621e-03
9.119211882352828979e-02
6.109827756881713867e-02
-7.221920788288116455e-02
-1.671264879405498505e-02
1.139792799949645996e-01
-5.565161257982254028e-02
3.351400082465261221e-04
7.092902809381484985e-02
-1.367914956063032150e-02
-8.640085160732269287e-02
-3.678581118583679199e-02
1.283520609140396118e-01
-1.780983619391918182e-02
3.922660276293754578e-02
7.125997543334960938e-02
-7.989567704498767853e-03
1.950065046548843384e-02
-1.141839697957038879e-01
7.744142413139343262e-02
1.128421444445848465e-02
4.051171615719795227e-02
4.026515409350395203e-02
-7.663091644644737244e-03
-3.976547345519065857e-02
9.737626463174819946e-02
5.581267178058624268e-02
-4.736110195517539978e-02
9.458119422197341919e-02
7.695080339908599854e-02
8.587041497230529785e-02
-1.029880940914154053e-01
1.197476033121347427e-02
5.409894511103630066e-02
2.350236102938652039e-02
-7.780316472053527832e-02
5.391354486346244812e-02
7.196974009275436401e-02
1.047522947192192078e-01
1.690005138516426086e-02
2.286846190690994263e-02
7.347979396581649780e-02
-9.361655265092849731e-02
-1.720036496408283710e-03
1.435119379311800003e-02
1.897089928388595581e-02
5.807892978191375732e-02
1.036177501082420349e-01
8.451540023088455200e-02
-3.658422455191612244e-02
9.485720098018646240e-02
7.321552839130163193e-03
-8.206311613321304321e-02
5.278430879116058350e-03
-1.030519083142280579e-01
-2.556650899350643158e-02
1.527063846588134766e-01
1.218394190073013306e-01
-8.809043467044830322e-02
-7.761195302009582520e-03
-9.256804361939430237e-03
-2.681447006762027740e-02
-1.839611865580081940e-02
-3.043033182621002197e-02
4.243734478950500488e-02
-8.147615194320678711e-02
-7.422353327274322510e-02
1.259586513042449951e-01
-6.682150065898895264e-02
-6.939197890460491180e-03
9.184584766626358032e-02
-5.443486943840980530e-02
8.496966958045959473e-02
-1.101452931761741638e-01
4.659352824091911316e-03
-2.194194868206977844e-02
9.010582417249679565e-02
-1.393126249313354492e-01
1.021195128560066223e-01
8.475948125123977661e-02
1.427699029445648193e-01
3.106423281133174896e-02
1.021730154752731323e-01
-7.193811237812042236e-02
-9.530548751354217529e-02
-6.921549141407012939e-02
-3.687491267919540405e-02
6.235415488481521606e-02
1.115039587020874023e-01
4.142164811491966248e-02
-4.517845064401626587e-02
-2.476530149579048157e-02
-5.578810349106788635e-02
-7.482118904590606689e-02
7.316955178976058960e-02
-9.870501607656478882e-02
1.007015258073806763e-02
2.721818163990974426e-02
-5.358640104532241821e-02
-1.390633881092071533e-01
-2.061310596764087677e-02
1.623032800853252411e-02
-3.166735917329788208e-02
5.545095540583133698e-03
3.905520075932145119e-03
9.010769426822662354e-02
-7.514724507927894592e-03
-5.875566974282264709e-02
-7.534928619861602783e-03
2.959667518734931946e-02
-3.432999923825263977e-02
9.468726813793182373e-02
6.821725517511367798e-02
-3.491342440247535706e-02
2.508046850562095642e-02
8.741178549826145172e-03
1.486484706401824951e-02
-7.104895263910293579e-02
-6.660532951354980469e-02
-3.393740206956863403e-02
-9.553521871566772461e-02
-4.128558188676834106e-02
-2.593533135950565338e-02
1.509190723299980164e-02
-1.509468406438827515e-01
-2.825608244165778160e-03
-4.357421025633811951e-02
6.242837011814117432e-02
1.266385614871978760e-01
2.478032559156417847e-02
5.385665595531463623e-02
1.226559206843376160e-01
-2.086992375552654266e-02
-8.409842848777770996e-02
7.136069238185882568e-02
-1.008988618850708008e-01
-5.788466334342956543e-02
1.814574934542179108e-02
-6.024226546287536621e-02
4.528956487774848938e-02
-2.620369195938110352e-02
-4.353022947907447815e-02
-2.782481163740158081e-02
1.210495308041572571e-01
-9.171494841575622559e-02
7.658821344375610352e-02
-1.796712726354598999e-01
-9.271209686994552612e-02
-5.607777833938598633e-02
-1.252442896366119385e-01
7.362290471792221069e-02
8.046913146972656250e-02
-4.030329175293445587e-03
5.452386289834976196e-02
-3.265109658241271973e-02
-3.713312745094299316e-02
5.506328493356704712e-02
1.533298939466476440e-02
1.136571094393730164e-01
4.526166711002588272e-03
-5.573474615812301636e-02
-1.013199761509895325e-01
1.369263231754302979e-02
-1.087391674518585205e-01
1.099685803055763245e-01
-9.147541970014572144e-02
-8.316735178232192993e-02
2.255934849381446838e-02
1.286623775959014893e-01
-6.208831444382667542e-02
-5.647860467433929443e-02
-2.410307526588439941e-02
-1.065265834331512451e-01
-8.662831038236618042e-02
5.598804727196693420e-02
7.134995609521865845e-02
1.275889482349157333e-02
2.786688879132270813e-02
7.915547117590904236e-03
-2.331662550568580627e-02
-5.456427112221717834e-02
-3.858017548918724060e-02
-2.693333104252815247e-02
-1.045253351330757141e-01
1.253823786973953247e-01
-9.357365220785140991e-02
-4.942198470234870911e-02
-1.375924330204725266e-02
-5.735789984464645386e-02
2.348885405808687210e-03
-5.445088073611259460e-02
2.052242122590541840e-02
-6.862451881170272827e-02
9.367154911160469055e-03
3.266679123044013977e-03
3.442398086190223694e-02
-7.401333749294281006e-02
6.446948647499084473e-02
-5.827459692955017090e-02
2.846991876140236855e-03
4.928085952997207642e-03
3.691989183425903320e-02
-5.151527002453804016e-02
-5.460236221551895142e-02
1.074595451354980469e-01
1.836222968995571136e-02
7.433403283357620239e-02
1.114570796489715576e-01
1.124909296631813049e-01
7.018636912107467651e-02
-1.331465784460306168e-02
1.244457215070724487e-01
1.103400141000747681e-01
1.033945232629776001e-01
-9.518297761678695679e-02
9.531267732381820679e-02
8.490830659866333008e-02
-5.057835951447486877e-02
-1.613350905245169997e-04
-5.597975477576255798e-02
3.303565829992294312e-02
-7.918578386306762695e-02
9.268796443939208984e-02
1.285532265901565552e-01
3.970621898770332336e-02
-6.919824331998825073e-02
7.500866055488586426e-02
9.337744116783142090e-02
4.767816886305809021e-02
1.379914488643407822e-02
-6.639345735311508179e-02
-5.070696771144866943e-02
9.799985587596893311e-02
8.365510404109954834e-02
1.587693206965923309e-02
8.288302272558212280e-02
7.261402159929275513e-02
1.352248638868331909e-01
8.355350047349929810e-02
-2.000209875404834747e-03
5.270361527800559998e-02
1.158371660858392715e-02
4.362849146127700806e-02
2.119213715195655823e-02
-4.271600395441055298e-02
-5.737122148275375366e-02
-7.406508922576904297e-02
3.681565076112747192e-02
1.408038884401321411e-01
-4.036524891853332520e-02
6.081634759902954102e-02
-2.459680289030075073e-02
1.726411655545234680e-02
1.284856498241424561e-01
-8.500768244266510010e-02
2.078271843492984772e-02
6.374736875295639038e-02
5.879953503608703613e-02
-1.161964610219001770e-02
-9.316222369670867920e-02
-9.988725930452346802e-02
6.326749175786972046e-02
1.261015236377716064e-01
-3.961594402790069580e-02
5.932551249861717224e-02
-7.512307912111282349e-02
-6.472416222095489502e-02
-4.027708619832992554e-02
1.961965300142765045e-02
5.676973983645439148e-02
-6.240750104188919067e-02
-5.773718282580375671e-02
-4.967944696545600891e-02
1.262289434671401978e-01
4.166387394070625305e-02
-1.651489548385143280e-02
1.159692332148551941e-01
1.905176043510437012e-02
-6.748497486114501953e-02
-1.009128689765930176e-01
6.723675876855850220e-02
1.122340112924575806e-01
7.301837205886840820e-02
2.533360943198204041e-02
1.519231032580137253e-02
4.892564378678798676e-03
1.015170142054557800e-01
7.424898445606231689e-02
-5.524256825447082520e-02
4.821257200092077255e-03
-9.771072072908282280e-04
8.256615698337554932e-02
4.108825698494911194e-02
-4.029469192028045654e-02
7.227372378110885620e-02
-6.787890195846557617e-02
-1.081645563244819641e-01
-7.320201396942138672e-02
7.123185321688652039e-03
-7.795701920986175537e-02
9.740933030843734741e-02
1.130929216742515564e-01
5.961854010820388794e-02
2.935978397727012634e-02
8.144183456897735596e-02
-7.779565174132585526e-03
9.575568884611129761e-02
-5.573188886046409607e-02
3.643633052706718445e-02
-6.889412552118301392e-02
-1.238176152110099792e-01
7.660109549760818481e-02
-2.043717540800571442e-02
7.191869616508483887e-02
-6.107463501393795013e-03
6.724505871534347534e-02
1.629947684705257416e-02
6.355655193328857422e-02
-2.915320917963981628e-02
4.461706429719924927e-02
2.746727503836154938e-02
-9.762850403785705566e-02
-2.221513539552688599e-02
1.051783561706542969e-01
-2.117591537535190582e-02
7.861836999654769897e-02
-1.181713584810495377e-02
3.912074863910675049e-02
7.047186046838760376e-02
-9.834089130163192749e-02
-2.917653881013393402e-02
7.452574372291564941e-02
1.088436469435691833e-01
5.062305554747581482e-02
-9.510459750890731812e-02
-6.519274320453405380e-03
-5.433523654937744141e-02
7.452253252267837524e-02
-9.064541757106781006e-02
-5.868339166045188904e-02
4.666223376989364624e-02
5.010451376438140869e-02
-9.217876940965652466e-02
2.776208706200122833e-02
-5.337648838758468628e-02
-5.047446489334106445e-02
-5.521501228213310242e-02
-1.537409983575344086e-02
1.882387325167655945e-02
-6.809573620557785034e-02
2.876738319173455238e-03
7.509122043848037720e-02
-6.858242303133010864e-02
3.701151162385940552e-02
3.671933338046073914e-02
3.691693767905235291e-03
