8.794485591351985931e-03
1.090951170772314072e-02
-6.846997886896133423e-02
1.206199056468904018e-03
4.867398738861083984e-02
1.396223343908786774e-02
8.273085579276084900e-03
1.590221375226974487e-02
-3.193851932883262634e-02
-1.605391129851341248e-02
-2.943423762917518616e-02
5.328832566738128662e-02
-1.216143369674682617e-02
-9.362683049403131008e-04
-2.128097787499427795e-02
-2.146273665130138397e-02
-4.685245826840400696e-02
-6.208817288279533386e-02
-4.365641996264457703e-02
-1.529906410723924637e-02
2.573867700994014740e-02
-1.148111000657081604e-02
1.027667224407196045e-01
-1.182250492274761200e-02
2.408055355772376060e-03
4.325844720005989075e-02
-3.531280905008316040e-02
4.568898305296897888e-02
8.494671434164047241e-03
-4.002599790692329407e-02
-5.090241134166717529e-02
5.392109975218772888e-03
-2.208617981523275375e-03
-1.878090016543865204e-02
1.907464303076267242e-02
-6.640987703576683998e-04
5.133409053087234497e-02
-1.068479120731353760e-01
-1.757054328918457031e-01
7.111553102731704712e-03
-1.676271669566631317e-02
2.630037255585193634e-02
-4.388235881924629211e-02
-2.832283033058047295e-03
2.975407801568508148e-02
7.197982817888259888e-02
9.669019281864166260e-02
-3.670188784599304199e-02
2.151393517851829529e-02
1.919782720506191254e-02
-4.011775366961956024e-03
2.513762190937995911e-02
3.994234651327133179e-02
-3.032227233052253723e-02
-3.481623157858848572e-02
1.316581666469573975e-02
3.911570087075233459e-02
-1.678068563342094421e-02
8.292015641927719116e-03
-3.326278179883956909e-02
-3.526072204113006592e-02
3.175456821918487549e-02
8.532878942787647247e-03
-8.437126874923706055e-03
9.276396594941616058e-03
6.515254825353622437e-02
-1.664918288588523865e-02
-1.490850932896137238e-02
-1.215286739170551300e-02
2.216379530727863312e-02
4.561227187514305115e-02
-2.152456715703010559e-02
1.045247316360473633e-01
4.189844429492950439e-02
1.018456369638442993e-01
-8.328144252300262451e-02
2.319734916090965271e-02
-5.243049561977386475e-02
-5.844912305474281311e-02
-7.859489880502223969e-03
-3.525874391198158264e-02
-3.575301729142665863e-03
-4.349759966135025024e-02
-5.380104854702949524e-02
-1.245892569422721863e-01
-4.667983390390872955e-03
-8.910169708542525768e-04
4.588720388710498810e-03
-5.738192796707153320e-02
2.316241618245840073e-03
9.344086050987243652e-03
4.202554002404212952e-02
4.389467835426330566e-02
-4.832109063863754272e-02
-4.796753823757171631e-02
-3.450954705476760864e-02
-2.752037905156612396e-02
3.126082196831703186e-02
-3.532936424016952515e-02
5.065749958157539368e-02
-5.413019284605979919e-02
1.607030071318149567e-02
-3.844812512397766113e-03
-3.801590204238891602e-02
5.480912514030933380e-04
1.419084984809160233e-02
3.951923549175262451e-02
-2.529875375330448151e-02
-1.262942049652338028e-02
5.462999641895294189e-02
1.604515127837657928e-02
5.254748091101646423e-02
1.530657242983579636e-02
-3.717598319053649902e-02
-4.867019876837730408e-02
-1.705256989225745201e-03
-3.473347797989845276e-02
-5.216629058122634888e-02
-4.803336784243583679e-02
2.455143071711063385e-02
-2.204379253089427948e-02
4.230387136340141296e-02
5.110827088356018066e-02
-4.985847324132919312e-02
-3.964304458349943161e-03
5.491377320140600204e-03
1.581303030252456665e-02
-3.774653188884258270e-03
-1.252769492566585541e-02
-3.279789909720420837e-02
1.234492752701044083e-02
4.652373865246772766e-02
9.857861325144767761e-03
1.364967040717601776e-02
-1.749601028859615326e-02
-4.579362273216247559e-02
1.006755325943231583e-02
-6.950914114713668823e-02
-1.950091570615768433e-01
-1.287608128041028976e-02
3.704390954226255417e-03
-2.785473316907882690e-02
-9.410397149622440338e-03
-4.445549473166465759e-02
2.920330874621868134e-02
3.427350148558616638e-02
7.162044197320938110e-02
-2.568343840539455414e-02
4.754490777850151062e-02
1.890267618000507355e-02
-7.719511166214942932e-03
1.784393936395645142e-02
1.649424433708190918e-03
5.867209751158952713e-03
-2.225200459361076355e-02
-3.704846836626529694e-03
-1.866792701184749603e-02
2.383399521932005882e-03
8.783588185906410217e-03
3.820506855845451355e-02
5.762243177741765976e-03
-2.851856499910354614e-02
2.092572301626205444e-02
-5.003644898533821106e-02
3.851451445370912552e-03
5.463641136884689331e-02
1.055205054581165314e-02
-4.135392978787422180e-02
1.180309988558292389e-02
1.179834920912981033e-02
7.561093661934137344e-03
-2.538361400365829468e-02
3.476499766111373901e-02
1.610260084271430969e-02
1.424480229616165161e-01
1.119263842701911926e-01
-1.532346475869417191e-02
-2.036000601947307587e-02
3.681949153542518616e-02
1.975189521908760071e-02
-3.613903420045971870e-03
-3.328976407647132874e-02
-1.228751987218856812e-02
-1.299636811017990112e-02
-9.779556840658187866e-02
-8.161856676451861858e-04
-9.490516968071460724e-03
2.960588410496711731e-02
-2.942525222897529602e-02
-6.779190152883529663e-03
4.174625501036643982e-02
3.568994998931884766e-02
3.507602959871292114e-02
-5.006756633520126343e-02
-8.398806303739547729e-02
-5.485942214727401733e-02
-1.111466996371746063e-02
-2.913772873580455780e-02
-9.113018400967121124e-03
1.729419641196727753e-02
-2.938730455935001373e-02
1.856551505625247955e-02
1.967131858691573143e-03
-2.113626897335052490e-02
4.030048474669456482e-02
1.847529225051403046e-02
-3.430932760238647461e-02
-3.064640332013368607e-03
-2.012487873435020447e-02
8.248297497630119324e-03
5.548650398850440979e-02
1.886465586721897125e-02
-1.858593523502349854e-02
-3.080922178924083710e-02
-3.298575803637504578e-02
-4.759956523776054382e-02
-4.415526986122131348e-02
-6.676401197910308838e-02
1.024682354182004929e-02
-4.980664327740669250e-02
-1.532887108623981476e-02
2.707826206460595131e-03
4.810221865773200989e-02
-3.465884551405906677e-02
-3.885246813297271729e-02
1.706307195127010345e-02
1.165693067014217377e-02
-5.856266245245933533e-03
1.134175248444080353e-02
-1.883286796510219574e-02
-5.737433582544326782e-02
2.526351995766162872e-02
1.789167895913124084e-02
3.457982838153839111e-02
1.407525315880775452e-02
2.138531021773815155e-02
4.034587182104587555e-03
-1.730364002287387848e-02
-2.250181324779987335e-02
-8.736910531297326088e-04
-1.644754596054553986e-02
2.803921699523925781e-02
-2.258728630840778351e-02
-1.455591060221195221e-02
-6.255013286136090755e-04
-1.408092211931943893e-03
5.308443307876586914e-02
1.970364712178707123e-02
4.905297607183456421e-02
3.901727497577667236e-02
8.559838170185685158e-04
-6.932122632861137390e-03
-2.106530033051967621e-02
-4.427403956651687622e-02
-1.794298365712165833e-02
-5.720834713429212570e-03
2.660362049937248230e-03
-1.746162772178649902e-02
-1.019943691790103912e-02
3.958147019147872925e-02
-9.280297905206680298e-03
-1.322267111390829086e-02
3.207888081669807434e-02
-9.779242426156997681e-02
4.223064333200454712e-02
4.848290607333183289e-02
1.916910056024789810e-03
-1.405238173902034760e-03
-1.886465772986412048e-02
-3.889211220666766167e-03
1.682861335575580597e-02
-5.727400630712509155e-02
3.885592892765998840e-02
-3.937464579939842224e-02
6.402336061000823975e-02
1.186466813087463379e-01
-5.979674402624368668e-03
1.502502057701349258e-02
-8.990977890789508820e-03
7.656617090106010437e-03
3.183298511430621147e-03
-8.046477101743221283e-03
-8.381224237382411957e-03
-1.410342752933502197e-03
-7.687151432037353516e-02
-1.653174869716167450e-02
-1.086730323731899261e-02
-6.094964221119880676e-03
2.865582471713423729e-03
3.947364911437034607e-02
2.122428640723228455e-02
3.594765812158584595e-02
2.030076645314693451e-02
-5.093258619308471680e-02
-8.132233470678329468e-02
-2.418509684503078461e-03
1.706980401650071144e-03
-2.083233185112476349e-02
5.916731897741556168e-04
2.624855190515518188e-02
1.512973848730325699e-02
1.074220798909664154e-02
-2.802651608362793922e-03
5.389539524912834167e-02
4.777859523892402649e-02
-5.495289340615272522e-03
-1.216837763786315918e-02
1.733081974089145660e-02
-1.490451674908399582e-02
4.561231285333633423e-02
3.270608559250831604e-02
-2.560584805905818939e-02
-1.209070067852735519e-02
1.481134817004203796e-02
-2.825619652867317200e-02
-4.948727786540985107e-02
-3.705930337309837341e-02
-1.365963928401470184e-02
3.613488003611564636e-02
-1.876089721918106079e-02
3.357994183897972107e-02
-6.823660433292388916e-02
3.310121595859527588e-02
-2.351432852447032928e-02
-2.727653272449970245e-02
2.740698121488094330e-02
-2.341050095856189728e-02
1.578535698354244232e-02
1.020176894962787628e-02
1.276433467864990234e-03
-3.661052137613296509e-02
2.518498338758945465e-02
-1.780064404010772705e-02
1.436336524784564972e-02
1.682607829570770264e-02
-2.920912019908428192e-02
3.595121949911117554e-02
-7.475962396711111069e-03
3.841676563024520874e-02
-1.350932102650403976e-02
7.496114820241928101e-03
4.232529923319816589e-02
1.428001187741756439e-02
1.945206709206104279e-02
-1.627405057661235332e-03
-9.254979342222213745e-02
-1.555790565907955170e-02
-6.847958080470561981e-03
3.253101184964179993e-02
-1.036744192242622375e-02
3.617515042424201965e-02
-1.350544299930334091e-02
-4.353379458189010620e-02
-2.891657315194606781e-02
1.732357405126094818e-02
-2.817324735224246979e-02
4.865033924579620361e-02
1.542911957949399948e-02
-6.270093843340873718e-03
3.860746696591377258e-02
-2.164874691516160965e-03
2.939095534384250641e-02
1.668813079595565796e-02
-7.706677913665771484e-02
3.756416589021682739e-02
-4.049159958958625793e-02
1.093300804495811462e-02
-3.471955889835953712e-03
-3.638798743486404419e-02
-1.164430193603038788e-02
3.493881598114967346e-02
-4.963950812816619873e-02
1.983392518013715744e-03
1.863001286983489990e-02
4.536986351013183594e-02
2.838537842035293579e-02
-2.036507055163383484e-02
-2.990607731044292450e-02
-3.357940167188644409e-02
1.167813036590814590e-02
1.185585651546716690e-02
-8.419544249773025513e-02
-5.618866067379713058e-03
6.075582932680845261e-04
-1.623218879103660583e-02
-2.189867384731769562e-02
-2.617603540420532227e-02
-4.031676054000854492e-02
-3.397649526596069336e-02
3.665733337402343750e-02
6.716962438076734543e-03
1.084012258797883987e-02
3.601924329996109009e-02
-4.273757711052894592e-02
-6.034464016556739807e-02
4.922163207083940506e-03
-4.924379661679267883e-02
-2.225032541900873184e-03
4.067891091108322144e-02
-2.623291127383708954e-02
-1.363672502338886261e-02
1.284172199666500092e-02
3.257545828819274902e-02
9.119350463151931763e-02
-1.638549496419727802e-03
-1.002198271453380585e-02
2.545283921062946320e-02
3.249923884868621826e-02
2.678135409951210022e-03
3.838101029396057129e-02
4.250116646289825439e-02
-4.055076092481613159e-02
3.032603999599814415e-03
-1.588264713063836098e-03
-3.876921907067298889e-02
-4.400964081287384033e-02
-1.129814889281988144e-02
-5.413636565208435059e-02
-2.704771235585212708e-02
2.155161648988723755e-02
7.141496986150741577e-02
-3.417117521166801453e-02
-1.772919856011867523e-02
4.101922735571861267e-02
1.378012914210557938e-02
1.888058893382549286e-02
-9.169474244117736816e-03
2.140692993998527527e-02
8.084963075816631317e-03
1.419990696012973785e-02
-3.466494381427764893e-02
1.567056030035018921e-02
-2.824911149218678474e-03
-1.396767795085906982e-03
3.033565916121006012e-02
-9.130111895501613617e-03
-1.241383608430624008e-02
2.519274421501904726e-04
9.124879725277423859e-03
1.737965643405914307e-02
-6.493652239441871643e-03
7.697566598653793335e-02
-3.588348627090454102e-02
2.661069296300411224e-02
4.128295928239822388e-02
-1.070188730955123901e-01
5.796562135219573975e-02
-1.213458273559808731e-02
7.819946855306625366e-02
-3.882135078310966492e-02
-1.367034856230020523e-02
-6.453985814005136490e-03
-3.999311104416847229e-02
-8.105407468974590302e-03
1.559428591281175613e-02
-1.548124197870492935e-02
-1.189911272376775742e-02
3.661966696381568909e-02
1.113361329771578312e-03
3.064507385715842247e-03
-5.511789023876190186e-02
-4.646535962820053101e-02
-5.558020249009132385e-02
-1.475519090890884399e-01
3.310629352927207947e-02
-4.839893803000450134e-02
-1.808495819568634033e-02
-1.358490623533725739e-02
8.531067520380020142e-03
1.996532082557678223e-03
4.170484899077564478e-04
-1.118706818670034409e-02
-1.892437599599361420e-02
6.758719217032194138e-03
5.139694735407829285e-02
-4.577643703669309616e-03
-1.259981095790863037e-02
-2.320848219096660614e-02
1.197891496121883392e-02
1.141356490552425385e-02
7.666101446375250816e-04
-5.144131928682327271e-02
1.120671862736344337e-03
1.329114660620689392e-02
1.010978408157825470e-02
-2.553220652043819427e-02
3.772704303264617920e-02
1.134123653173446655e-02
-1.705468818545341492e-02
6.745491176843643188e-03
-1.774130575358867645e-02
3.709005564451217651e-02
3.822401911020278931e-02
-8.063750714063644409e-02
-8.015462756156921387e-02
8.484782651066780090e-03
-7.207906991243362427e-02
-6.791567895561456680e-03
1.864668913185596466e-02
3.606673330068588257e-02
-3.312492743134498596e-02
2.832417003810405731e-02
-2.061424590647220612e-02
-6.166837736964225769e-02
-1.826120354235172272e-02
6.000302731990814209e-02
1.553095132112503052e-02
3.768649185076355934e-03
-5.720238760113716125e-02
4.936569556593894958e-02
-7.107050158083438873e-03
4.452110081911087036e-02
-1.975573040544986725e-02
-3.839058056473731995e-02
-3.165275976061820984e-02
-2.621273882687091827e-02
-9.249391965568065643e-03
-3.254171088337898254e-02
-6.757646799087524414e-02
-4.390912875533103943e-02
-7.614690065383911133e-02
8.163455873727798462e-02
3.506700322031974792e-02
-3.233527764678001404e-02
-1.724468544125556946e-02
3.898849710822105408e-02
-2.561698853969573975e-02
1.662589609622955322e-02
1.706947386264801025e-02
-3.045501373708248138e-02
8.227980136871337891e-02
-1.036573594319634140e-04
3.411261364817619324e-02
-4.875853657722473145e-03
-1.735245250165462494e-02
8.086645044386386871e-03
-1.415470056235790253e-02
-5.726479366421699524e-02
-2.424530088901519775e-01
-5.776421166956424713e-03
-3.576418012380599976e-02
-8.210150524973869324e-03
-9.206241928040981293e-03
-3.472764417529106140e-02
2.554913423955440521e-02
4.725025594234466553e-02
3.218637034296989441e-02
-4.358873516321182251e-02
1.215831097215414047e-02
2.366506494581699371e-02
1.648908294737339020e-02
9.039611369371414185e-02
1.463742461055517197e-02
-1.472140662372112274e-02
-4.783319681882858276e-02
7.235087687149643898e-04
2.059477381408214569e-02
3.537800535559654236e-02
-3.159737214446067810e-02
1.723099127411842346e-02
-9.168984368443489075e-03
2.883403329178690910e-03
1.660131663084030151e-02
3.232881426811218262e-02
-1.655963808298110962e-02
7.499680668115615845e-02
-1.116322074085474014e-02
-6.865332368761301041e-03
3.098705038428306580e-02
1.389397215098142624e-02
-1.149671338498592377e-02
-6.908130645751953125e-02
9.234198182821273804e-02
-1.124767400324344635e-02
2.534531243145465851e-02
-4.415597021579742432e-02
8.931647054851055145e-03
-1.710779406130313873e-02
3.000893164426088333e-03
-2.848285436630249023e-02
1.562339998781681061e-02
9.886988438665866852e-03
-2.142111072316765785e-03
-4.182467982172966003e-02
-7.965763658285140991e-02
-2.112719975411891937e-02
-4.230882972478866577e-02
2.592047490179538727e-02
-5.579951778054237366e-02
-9.814465418457984924e-03
1.984021440148353577e-02
-1.878689602017402649e-02
1.954506151378154755e-02
-3.244537394493818283e-03
-2.045358158648014069e-02
5.674058571457862854e-03
8.675570599734783173e-03
4.371682927012443542e-02
-2.825556695461273193e-02
1.156145893037319183e-02
-7.272280007600784302e-02
2.751764468848705292e-02
-1.922252215445041656e-02
-1.086514890193939209e-01
1.963852159678936005e-02
5.058661475777626038e-02
-9.651404805481433868e-03
-7.329212967306375504e-03
-3.456100821495056152e-02
-6.165415979921817780e-03
1.660272479057312012e-02
-1.115795131772756577e-02
2.013687789440155029e-02
-6.361886858940124512e-02
-1.914100907742977142e-02
-3.554428741335868835e-02
-1.625740528106689453e-02
-5.688562244176864624e-02
2.173553779721260071e-02
2.082655020058155060e-02
-5.125201120972633362e-02
2.949706278741359711e-02
1.755858585238456726e-02
-3.281618654727935791e-02
1.704758219420909882e-02
-1.027529314160346985e-02
9.193129837512969971e-03
4.298700764775276184e-02
2.165957912802696228e-02
-3.722561150789260864e-02
4.774118587374687195e-02
-3.182176128029823303e-02
2.099061012268066406e-02
-9.191894903779029846e-03
-5.220713093876838684e-03
-3.882693499326705933e-02
1.613958925008773804e-02
-2.657713554799556732e-02
-1.344510763883590698e-01
-2.708331495523452759e-02
-7.983297109603881836e-03
-6.722262594848871231e-03
-4.361532256007194519e-02
-1.271309982985258102e-02
-9.946952341124415398e-04
6.130905449390411377e-02
5.532579030841588974e-03
1.834768243134021759e-02
8.143334090709686279e-02
-9.858309291303157806e-03
-8.243027143180370331e-03
8.911474794149398804e-02
5.410142708569765091e-03
-3.878348739817738533e-03
-1.335007511079311371e-02
1.821617968380451202e-02
-4.223132133483886719e-02
9.312212467193603516e-03
1.048112567514181137e-02
-1.920879073441028595e-02
-4.682282730937004089e-02
-1.413630507886409760e-02
3.872673586010932922e-02
-8.649283088743686676e-03
4.028535634279251099e-02
8.864402770996093750e-02
9.525096043944358826e-03
1.178905926644802094e-02
-1.012153085321187973e-02
-6.558385677635669708e-03
-1.225835829973220825e-02
-4.480462148785591125e-02
4.421311616897583008e-02
2.136573009192943573e-02
8.017078787088394165e-02
4.686561226844787598e-02
2.983928471803665161e-02
-2.800361998379230499e-02
3.962130099534988403e-02
3.139068372547626495e-03
-2.171474695205688477e-02
1.097780093550682068e-02
-2.682064287364482880e-02
2.390699228271842003e-03
-7.536996155977249146e-02
1.996578834950923920e-02
3.070635907351970673e-02
1.680029556155204773e-02
2.827271446585655212e-02
7.213727105408906937e-03
-4.184207879006862640e-03
2.930057607591152191e-02
5.692956969141960144e-02
-1.312046870589256287e-02
-5.028587952256202698e-02
-4.324974119663238525e-02
3.625354170799255371e-02
-1.603079587221145630e-02
-6.131925806403160095e-02
-1.957436092197895050e-02
-7.388062775135040283e-02
-2.752927318215370178e-02
-1.555365417152643204e-02
-2.515118755400180817e-02
-2.004456892609596252e-02
-1.372355222702026367e-02
3.170618414878845215e-02
9.586742147803306580e-03
1.554920454509556293e-03
1.233969116583466530e-03
1.018602680414915085e-02
-1.926637813448905945e-02
-7.799160666763782501e-03
-4.003908857703208923e-02
-4.754652082920074463e-02
-1.911510527133941650e-02
4.622459039092063904e-02
-6.737299263477325439e-02
2.947104163467884064e-02
7.116688415408134460e-03
-1.254121074452996254e-03
6.037292256951332092e-02
3.208405524492263794e-02
-1.958567090332508087e-02
-1.271143439225852489e-03
3.535387571901082993e-03
2.362720109522342682e-02
-3.282507508993148804e-02
3.231421113014221191e-02
-1.018807478249073029e-02
1.514663919806480408e-02
6.822817027568817139e-03
1.531535014510154724e-02
-3.521351516246795654e-02
3.710638731718063354e-02
-2.069930359721183777e-02
6.604935508221387863e-03
-2.333225309848785400e-02
2.163930609822273254e-02
1.097904797643423080e-02
-4.423494264483451843e-02
1.900845579802989960e-02
1.687690615653991699e-02
-1.873953640460968018e-02
5.059700459241867065e-02
3.014066442847251892e-02
2.645821310579776764e-02
1.522704586386680603e-02
1.189405322074890137e-01
-1.676302589476108551e-02
3.569576889276504517e-03
3.979172557592391968e-02
1.884994842112064362e-02
-3.171312808990478516e-02
3.391053061932325363e-03
6.679124664515256882e-03
-4.441638290882110596e-02
3.504881635308265686e-02
1.641523092985153198e-02
3.853613045066595078e-03
-2.234158292412757874e-02
-1.933557353913784027e-02
-4.242398426868021488e-04
1.245461590588092804e-02
2.140543796122074127e-02
5.706844851374626160e-02
-1.384313963353633881e-02
2.569603733718395233e-02
-2.803166955709457397e-02
-1.330433227121829987e-02
2.642502635717391968e-02
-2.405207976698875427e-02
4.033457860350608826e-02
1.799954660236835480e-02
6.170615181326866150e-02
3.945310413837432861e-02
3.773423610255122185e-03
3.141507878899574280e-02
3.360128030180931091e-02
-2.017076313495635986e-02
-4.748466983437538147e-02
-4.092027246952056885e-02
2.246863022446632385e-02
4.359729960560798645e-02
-3.975624963641166687e-02
-9.462082758545875549e-03
-2.518814615905284882e-02
1.828157529234886169e-02
-2.760915830731391907e-02
1.824993453919887543e-02
2.047252096235752106e-02
-7.908299565315246582e-03
2.958822995424270630e-02
2.179146744310855865e-02
-8.177442103624343872e-02
-4.444126039743423462e-02
2.605866640806198120e-02
-2.413512207567691803e-02
1.332597248256206512e-02
-1.683125831186771393e-02
-5.268221348524093628e-02
1.954548805952072144e-02
4.443617165088653564e-02
7.259013131260871887e-03
-1.811580546200275421e-02
-1.203474402427673340e-02
-9.001660160720348358e-03
3.488282114267349243e-02
-3.680872544646263123e-02
-9.651554748415946960e-03
2.410468412563204765e-03
-4.206104949116706848e-02
1.633946597576141357e-02
-2.123264037072658539e-02
-1.872355118393898010e-02
-2.615137584507465363e-02
-7.196443155407905579e-03
1.562935183756053448e-03
-8.795297704637050629e-03
1.369761861860752106e-02
-2.751706726849079132e-02
-1.697151921689510345e-02
-2.903836779296398163e-02
2.005772432312369347e-03
-6.050692405551671982e-03
-3.504090756177902222e-02
-8.280609734356403351e-03
8.854117244482040405e-03
3.211395442485809326e-02
-2.728178724646568298e-02
2.512738667428493500e-02
3.816341236233711243e-02
1.680425927042961121e-02
2.943586930632591248e-02
1.935180462896823883e-02
-1.174654345959424973e-02
-1.510895509272813797e-02
3.626467287540435791e-02
-4.715029150247573853e-03
2.126025781035423279e-02
-3.760402649641036987e-02
1.308019272983074188e-02
-2.798271737992763519e-02
3.266993165016174316e-02
3.795563057065010071e-02
-3.845997527241706848e-02
2.204491174779832363e-04
2.385650202631950378e-02
6.520217657089233398e-02
1.430639065802097321e-02
3.804849833250045776e-02
6.916743516921997070e-02
-2.076090872287750244e-02
-3.458778187632560730e-02
4.996511619538068771e-03
1.600819826126098633e-02
-2.988643944263458252e-02
3.888244554400444031e-02
3.018554486334323883e-02
7.502734661102294922e-03
-1.399080175906419754e-02
-2.317096292972564697e-02
-2.657766686752438545e-03
-6.982588022947311401e-02
1.965845189988613129e-02
-1.921926997601985931e-02
3.324118256568908691e-02
-3.970199078321456909e-02
-6.406791973859071732e-03
3.679315745830535889e-02
4.781516641378402710e-02
-1.048399507999420166e-02
-2.369516994804143906e-03
-1.021987292915582657e-02
7.817791774868965149e-03
-2.234660647809505463e-02
-6.753609981387853622e-03
2.859049104154109955e-02
2.416397619526833296e-04
-2.935484284535050392e-03
-6.514908373355865479e-02
-8.513805270195007324e-02
2.345887571573257446e-02
2.094353362917900085e-02
1.884340867400169373e-02
-2.913784235715866089e-02
6.414250470697879791e-03
-6.357362028211355209e-03
-4.883157461881637573e-02
2.681532315909862518e-02
1.545275840908288956e-02
-4.163070395588874817e-02
4.734358191490173340e-02
7.871790789067745209e-03
-1.002098098397254944e-01
-7.267647236585617065e-02
-3.413604199886322021e-02
3.111414611339569092e-02
3.230506926774978638e-02
6.539579480886459351e-03
-4.736809432506561279e-02
1.323101203888654709e-02
-2.899866178631782532e-02
3.489424288272857666e-02
1.981438137590885162e-02
1.727891154587268829e-02
7.231816183775663376e-03
1.878260285593569279e-03
-3.443874791264533997e-02
3.192123398184776306e-02
-3.596037160605192184e-03
-2.056507766246795654e-02
8.650223026052117348e-04
-4.362270608544349670e-02
-6.513004750013351440e-02
-1.582149416208267212e-02
3.134073317050933838e-02
-6.661269068717956543e-02
2.673750743269920349e-02
1.541996467858552933e-02
7.318549603223800659e-02
-4.665061831474304199e-02
-1.611305284313857555e-03
-1.887409575283527374e-02
1.036180090159177780e-02
1.628423109650611877e-02
-2.106445655226707458e-02
-2.581194415688514709e-02
-4.024782404303550720e-02
-4.851027857512235641e-03
-1.867379527539014816e-03
-1.445228792726993561e-02
-1.628973148763179779e-02
-3.162550553679466248e-02
-2.116273157298564911e-02
-2.023160643875598907e-02
1.720987446606159210e-02
-1.839273236691951752e-02
-7.394606713205575943e-03
-5.197159480303525925e-03
-5.591212771832942963e-03
5.179269704967737198e-03
3.176663815975189209e-02
1.023543905466794968e-02
1.701666601002216339e-02
-7.439476251602172852e-02
4.270959272980690002e-02
2.838353812694549561e-02
5.137187242507934570e-02
-2.702962979674339294e-02
4.675586521625518799e-02
-7.627130486071109772e-03
8.306671865284442902e-03
-2.502344548702239990e-03
1.272832509130239487e-02
1.287838071584701538e-02
2.550394833087921143e-02
3.054670523852109909e-03
4.768642783164978027e-02
2.972987666726112366e-02
-2.015929296612739563e-02
-1.707102917134761810e-02
-6.799260526895523071e-02
-4.954937472939491272e-02
4.232084751129150391e-02
-4.283463954925537109e-02
1.974440738558769226e-02
1.943965815007686615e-02
-1.143783796578645706e-02
-2.227802015841007233e-02
2.582270093262195587e-02
-2.842199616134166718e-02
-7.813586853444576263e-03
-5.155722424387931824e-02
2.643034234642982483e-02
-2.171002142131328583e-02
1.138955168426036835e-02
-1.457332447171211243e-02
7.249150890856981277e-03
2.236500382423400879e-02
1.094338577240705490e-02
-7.509662210941314697e-02
5.764955189079046249e-03
1.025463454425334930e-02
1.124608609825372696e-02
1.411636173725128174e-02
6.436091847717761993e-03
-4.130323976278305054e-02
-6.048635020852088928e-02
-1.103744283318519592e-02
-1.699222624301910400e-02
3.679428622126579285e-02
8.011410012841224670e-03
-5.117222666740417480e-02
-5.866283550858497620e-02
-3.107253462076187134e-02
-2.077917195856571198e-02
4.402948915958404541e-02
6.415674090385437012e-02
-4.400315508246421814e-02
-4.424710199236869812e-02
-3.026160597801208496e-02
8.733276277780532837e-03
-1.110464558005332947e-01
-5.404724506661295891e-04
3.762081637978553772e-02
5.925981327891349792e-03
1.293035224080085754e-03
1.549394102767109871e-03
2.240116521716117859e-02
-1.288144290447235107e-02
1.053994614630937576e-02
-1.620792411267757416e-02
-3.208095580339431763e-02
-2.925242483615875244e-02
-2.377877384424209595e-02
-4.180087707936763763e-03
-6.023003160953521729e-02
-6.364572048187255859e-02
-6.522948853671550751e-03
-1.463051438331604004e-01
1.337537318468093872e-01
2.516495250165462494e-02
-1.736408658325672150e-02
-3.354258835315704346e-02
-5.879501346498727798e-03
-7.059325464069843292e-03
-1.472606230527162552e-02
1.353971310891211033e-03
-4.298805817961692810e-02
6.728718429803848267e-02
7.787410169839859009e-03
-3.434743359684944153e-02
1.966235041618347168e-02
-2.642950974404811859e-02
-4.748540744185447693e-02
-2.958831377327442169e-02
-3.211877867579460144e-02
-2.058299332857131958e-01
5.808987654745578766e-03
8.226749487221240997e-03
7.477069273591041565e-03
2.066907659173011780e-02
-1.411663461476564407e-02
5.599321424961090088e-02
3.827747702598571777e-02
5.640156939625740051e-02
-4.623202979564666748e-02
8.480655960738658905e-03
3.925776109099388123e-02
9.823325090110301971e-03
5.064912140369415283e-02
7.260722666978836060e-02
-3.843095153570175171e-02
1.724730804562568665e-02
-3.221204876899719238e-02
-3.580369427800178528e-02
5.459059029817581177e-02
7.568632252514362335e-03
3.988301753997802734e-02
2.214910648763179779e-02
-4.131073073949664831e-04
2.801387570798397064e-02
2.982576005160808563e-02
-3.430670127272605896e-02
5.552129819989204407e-02
-2.780147828161716461e-02
-3.600753378123044968e-03
3.004606440663337708e-02
-5.769331008195877075e-03
-3.713071346282958984e-03
-4.552442207932472229e-02
1.919788308441638947e-02
-2.315192483365535736e-02
-7.456450257450342178e-03
-1.031866446137428284e-01
1.659968169406056404e-03
-4.628700017929077148e-02
-1.598894037306308746e-02
-2.654047682881355286e-02
-3.491335362195968628e-02
4.789331927895545959e-02
-7.469033822417259216e-03
-3.490878641605377197e-02
-9.166214615106582642e-02
1.010371139273047447e-03
-7.466226816177368164e-03
1.282525528222322464e-02
-3.160047158598899841e-02
2.406229637563228607e-02
9.621907025575637817e-03
-4.949653521180152893e-03
5.879124999046325684e-02
8.801781572401523590e-03
1.680476218461990356e-02
-2.547019533812999725e-02
-1.273741479963064194e-02
2.742153126746416092e-03
-5.866581574082374573e-02
-2.481552213430404663e-02
-3.706874325871467590e-02
-3.074784763157367706e-02
-3.836778923869132996e-02
-8.830346167087554932e-02
1.517649646848440170e-02
3.260410204529762268e-02
4.229684174060821533e-02
-7.636480499058961868e-03
-9.983156807720661163e-03
-1.013572514057159424e-02
-1.037328504025936127e-02
-2.769879996776580811e-02
1.332337781786918640e-02
-4.738256707787513733e-02
-5.769819766283035278e-02
-1.253985334187746048e-02
1.692483946681022644e-02
-1.129290461540222168e-02
2.399120107293128967e-02
-1.972405007109045982e-03
-7.277757674455642700e-02
1.191902458667755127e-01
5.803419649600982666e-02
1.475911214947700500e-02
-4.592039808630943298e-02
3.426007553935050964e-02
2.552711963653564453e-02
3.330557048320770264e-02
-1.884898915886878967e-02
1.736193336546421051e-02
1.142732426524162292e-01
-2.837871015071868896e-02
-6.568618118762969971e-02
1.599247939884662628e-02
2.021965943276882172e-02
-2.755262330174446106e-02
-3.383780270814895630e-02
-1.486183609813451767e-02
-1.016750559210777283e-01
1.283674873411655426e-02
-6.692036241292953491e-02
-3.266030550003051758e-02
-9.939776733517646790e-03
6.026622373610734940e-03
3.390460088849067688e-02
8.607400953769683838e-02
2.620053663849830627e-02
4.848482459783554077e-02
8.218030631542205811e-02
2.502298681065440178e-03
-2.544690854847431183e-02
1.097391098737716675e-01
3.019363060593605042e-02
-1.882333867251873016e-02
2.213487029075622559e-02
-4.161098971962928772e-02
-9.617339819669723511e-03
4.270135238766670227e-02
-2.883970178663730621e-02
5.232108756899833679e-02
-1.198415644466876984e-02
-2.903957851231098175e-02
-1.442556176334619522e-02
-2.297233790159225464e-02
-3.131343424320220947e-02
6.672344356775283813e-02
-1.231071446090936661e-02
-2.343460544943809509e-02
-2.325755357742309570e-02
4.701520130038261414e-02
1.092546526342630386e-02
-4.844786599278450012e-02
4.977423697710037231e-02
-4.487754777073860168e-02
3.532884269952774048e-02
3.290746361017227173e-02
-1.199152041226625443e-02
-1.251557096838951111e-02
-2.931077033281326294e-02
-6.130840163677930832e-03
-5.867855623364448547e-02
3.101786039769649506e-02
-6.969794165343046188e-03
3.532857075333595276e-02
-5.623230710625648499e-02
-1.541408244520425797e-02
3.896155580878257751e-02
3.692234167829155922e-03
2.524751983582973480e-02
1.456709019839763641e-02
2.267629280686378479e-02
2.510589174926280975e-02
-2.686988329514861107e-03
8.013837784528732300e-02
-7.655096054077148438e-02
-1.751496270298957825e-02
-2.218092419207096100e-02
2.062127739191055298e-02
-4.162795841693878174e-02
-8.282781392335891724e-02
-2.110638283193111420e-02
-3.656837344169616699e-02
-1.705751381814479828e-02
-7.749406248331069946e-02
1.597822830080986023e-02
-2.861715853214263916e-02
2.118724770843982697e-02
-1.429944671690464020e-02
-9.257585741579532623e-03
6.581250112503767014e-03
-3.291324526071548462e-02
-1.825771480798721313e-02
-2.255500759929418564e-03
1.439473684877157211e-02
-6.962638348340988159e-02
2.232865616679191589e-02
6.223918870091438293e-02
-1.623741909861564636e-02
3.315701335668563843e-02
-4.910380020737648010e-02
-7.149244844913482666e-02
5.712690204381942749e-02
2.765364013612270355e-02
2.248356118798255920e-03
1.535591320134699345e-03
1.651091314852237701e-02
2.485260739922523499e-02
1.546660531312227249e-02
-1.782845705747604370e-02
-4.400778189301490784e-02
3.310044854879379272e-02
-1.138569880276918411e-02
3.975399304181337357e-03
1.000962127000093460e-02
-1.929468847811222076e-02
-2.809892036020755768e-02
-2.453594096004962921e-02
4.939585179090499878e-02
3.956650197505950928e-02
1.341198291629552841e-02
-8.888475596904754639e-03
1.121218688786029816e-02
3.593276441097259521e-02
1.325628347694873810e-02
2.678176201879978180e-02
1.503747049719095230e-02
-3.454026579856872559e-02
-1.965573430061340332e-02
1.081231459975242615e-01
-2.822789549827575684e-02
1.577412942424416542e-03
1.100429985672235489e-02
3.458919376134872437e-02
-3.984799981117248535e-02
-1.430296804755926132e-02
-3.845801576972007751e-02
-3.250144422054290771e-02
6.823321455158293247e-04
1.267694216221570969e-02
2.422527596354484558e-02
1.320730615407228470e-02
-4.884403198957443237e-02
2.245007082819938660e-02
1.423391979187726974e-02
1.110350422095507383e-04
5.944328382611274719e-02
7.919237948954105377e-03
1.741808955557644367e-03
-6.414595991373062134e-03
8.768512867391109467e-03
2.914153970777988434e-02
2.005661278963088989e-02
-1.723608002066612244e-04
-5.979909747838973999e-02
-2.925089746713638306e-02
1.053865700960159302e-01
1.266382914036512375e-02
-2.314168214797973633e-02
1.478924416005611420e-02
-2.401755936443805695e-02
-6.948224455118179321e-02
-4.128687083721160889e-02
1.946548931300640106e-02
-4.265473224222660065e-03
-8.446806110441684723e-03
-1.244336180388927460e-02
3.324433416128158569e-02
-2.374992147088050842e-02
1.560570579022169113e-02
3.307916596531867981e-02
6.248387973755598068e-03
-1.417392631992697716e-03
3.752784430980682373e-02
-5.991609301418066025e-03
-6.218732520937919617e-02
-5.494349077343940735e-02
-1.580267678946256638e-03
-1.452925149351358414e-02
2.741574309766292572e-02
-4.201901704072952271e-02
-3.609639778733253479e-02
2.604985609650611877e-02
1.470648776739835739e-02
-5.935434717684984207e-03
-1.286417152732610703e-02
2.139913477003574371e-02
1.965104416012763977e-02
-1.313816476613283157e-02
-4.010599106550216675e-02
4.024569690227508545e-02
3.711629658937454224e-03
-6.622133404016494751e-02
-2.667735703289508820e-02
-7.394332904368638992e-03
-3.596664592623710632e-02
-1.048046909272670746e-02
6.503970175981521606e-02
-1.123708486557006836e-02
1.673300564289093018e-02
-4.131130874156951904e-02
-2.150019071996212006e-02
-3.951723873615264893e-02
-2.253055339679121971e-03
3.478401526808738708e-02
-3.866917639970779419e-02
1.028678845614194870e-02
-2.207553759217262268e-02
9.190557524561882019e-03
3.329986333847045898e-02
-4.736305028200149536e-02
5.525591969490051270e-02
3.271819278597831726e-02
-6.680578459054231644e-03
-8.688572794198989868e-03
-2.635069657117128372e-03
1.404048409312963486e-03
-1.413195510394871235e-03
5.889720469713211060e-02
2.936248667538166046e-02
-3.098887391388416290e-02
-5.005967244505882263e-02
-9.229627437889575958e-03
2.348452433943748474e-02
1.748494990170001984e-02
-7.077865302562713623e-03
-5.305172875523567200e-02
-3.477367386221885681e-02
-2.941644936800003052e-02
9.679861366748809814e-02
-4.418087750673294067e-02
-4.946881905198097229e-03
-1.860219612717628479e-02
5.374805256724357605e-02
-1.897725462913513184e-02
4.030354321002960205e-02
2.998557873070240021e-03
-3.841602057218551636e-02
2.496685460209846497e-02
8.184011094272136688e-03
6.828889716416597366e-03
-2.829684875905513763e-03
-1.768272742629051208e-02
3.397329151630401611e-02
-2.817669883370399475e-02
8.702679537236690521e-03
7.157839369028806686e-03
-3.407773748040199280e-02
4.859653767198324203e-03
2.170700021088123322e-02
3.584369085729122162e-03
4.296912252902984619e-02
-4.841996356844902039e-03
2.386873820796608925e-03
-7.913747802376747131e-03
-1.772722788155078888e-02
-2.438912866637110710e-03
2.562757208943367004e-02
4.098801873624324799e-03
-4.457982257008552551e-02
-3.502926230430603027e-02
-7.394535839557647705e-02
-8.251348882913589478e-02
-3.764312341809272766e-02
3.358083590865135193e-02
-4.296307638287544250e-02
-1.450125128030776978e-02
3.511095419526100159e-02
-2.104494906961917877e-02
-4.017672687768936157e-02
-2.302823401987552643e-02
4.329987987875938416e-02
2.485658973455429077e-02
1.746910810470581055e-02
1.940801553428173065e-02
-8.310860395431518555e-02
-1.810482703149318695e-02
-7.309471722692251205e-03
7.792038959451019764e-04
7.840458303689956665e-03
-3.649054095149040222e-02
-1.912054605782032013e-02
3.554427623748779297e-02
-1.960149221122264862e-02
4.526422172784805298e-02
3.955400362610816956e-02
2.268002554774284363e-02
-4.794923216104507446e-02
-1.798277907073497772e-02
-3.582291305065155029e-02
-1.600919477641582489e-02
1.321603357791900635e-02
-2.778547257184982300e-02
4.426573403179645538e-03
-4.663694649934768677e-03
-8.202834427356719971e-02
1.593054458498954773e-02
2.356927283108234406e-02
-9.187786839902400970e-03
3.198689967393875122e-02
-3.616635128855705261e-02
-1.074100192636251450e-02
-2.924114093184471130e-02
1.536734122782945633e-02
-2.787051536142826080e-02
1.914364099502563477e-02
3.553101047873497009e-02
1.945368386805057526e-02
-2.205340750515460968e-02
-4.021476209163665771e-02
-4.955061525106430054e-02
-2.671536244451999664e-02
3.976643458008766174e-02
-1.210700487717986107e-03
-2.871939912438392639e-02
-2.805038588121533394e-03
-4.929817467927932739e-02
1.933421753346920013e-02
3.137848898768424988e-02
8.916229940950870514e-03
2.122332900762557983e-02
-2.136357501149177551e-02
3.465981781482696533e-02
4.450761899352073669e-02
-1.344235707074403763e-02
1.396880671381950378e-02
-7.501336932182312012e-02
4.277300462126731873e-02
1.393281761556863785e-02
3.942158073186874390e-02
7.041170727461576462e-03
4.647131077945232391e-03
1.922521181404590607e-02
-2.057738974690437317e-02
-1.076146122068166733e-02
2.146928012371063232e-02
1.760039292275905609e-02
2.569423802196979523e-02
1.374310115352272987e-03
6.260430673137307167e-04
1.531531475484371185e-02
-3.548709210008382797e-04
-6.198377814143896103e-03
-7.070910930633544922e-02
-2.043033391237258911e-02
3.838444501161575317e-02
-7.096474617719650269e-02
2.768125198781490326e-02
3.165207803249359131e-03
-1.272971648722887039e-02
-4.009437561035156250e-02
4.934370145201683044e-02
-6.924878834979608655e-05
1.574636623263359070e-02
-4.466561973094940186e-02
2.953875623643398285e-02
-1.764441840350627899e-02
-1.131884474307298660e-02
2.339391037821769714e-02
-2.420736104249954224e-02
2.896565943956375122e-02
-1.844612695276737213e-02
-5.828784033656120300e-02
3.455639118328690529e-03
5.144581198692321777e-02
3.773654997348785400e-02
1.270398590713739395e-02
4.763314500451087952e-02
2.207222022116184235e-02
-9.800753556191921234e-03
2.212492004036903381e-02
2.904058992862701416e-02
-1.826315559446811676e-02
3.354746475815773010e-02
1.496652793139219284e-02
-1.838308386504650116e-02
-4.733739420771598816e-02
-4.198071360588073730e-02
1.666776835918426514e-03
5.974903330206871033e-02
6.860523018985986710e-03
-1.279902458190917969e-02
-7.132472097873687744e-02
-5.416818708181381226e-02
-4.997538775205612183e-02
-2.030558697879314423e-02
1.139731518924236298e-02
-4.261117428541183472e-03
-1.289692241698503494e-03
-9.491475299000740051e-03
5.265387520194053650e-02
-1.232035178691148758e-02
6.931903306394815445e-03
-3.769147768616676331e-02
-1.545826904475688934e-03
6.457085255533456802e-03
-4.963492602109909058e-02
-3.899957239627838135e-02
-2.379641868174076080e-02
-1.545893494039773941e-02
6.755962967872619629e-03
-1.622170060873031616e-01
7.758679240942001343e-02
7.869674824178218842e-03
2.243788540363311768e-02
-3.923605382442474365e-02
2.321446128189563751e-02
-1.858848379924893379e-03
5.881104990839958191e-02
5.817096680402755737e-03
1.338749565184116364e-02
6.453096121549606323e-02
-2.595007605850696564e-02
-4.860433936119079590e-02
-3.879818692803382874e-02
2.350546792149543762e-02
-6.210816279053688049e-02
-3.917891159653663635e-02
-4.071501269936561584e-02
-6.560484319925308228e-02
-4.427791759371757507e-02
-4.992815107107162476e-02
4.475553520023822784e-03
-1.609823480248451233e-02
-2.726786956191062927e-02
3.307296708226203918e-02
1.638249494135379791e-02
4.670416191220283508e-02
-3.807907551527023315e-02
3.546795994043350220e-02
3.409940749406814575e-02
1.239436119794845581e-02
4.240672290325164795e-02
4.308781027793884277e-02
1.884060911834239960e-02
-1.424614526331424713e-02
2.502496540546417236e-02
3.432343713939189911e-03
1.654471643269062042e-02
8.708246983587741852e-03
1.870166137814521790e-02
2.747174724936485291e-02
5.153639940544962883e-04
-5.298193427734076977e-04
-8.746598847210407257e-03
-4.686291515827178955e-02
3.797073289752006531e-02
-2.598605304956436157e-02
-2.021005377173423767e-02
-2.213597111403942108e-02
1.871403865516185760e-02
2.379547990858554840e-02
-1.699612103402614594e-02
-2.549196034669876099e-02
-1.131118368357419968e-02
-3.652187297120690346e-03
-1.312206685543060303e-01
-2.436553593724966049e-03
-4.656670987606048584e-02
5.711365491151809692e-03
-4.433044698089361191e-03
-4.250398650765419006e-02
2.764222212135791779e-02
1.604189351201057434e-02
1.487252861261367798e-02
-1.160518079996109009e-01
-1.855519600212574005e-02
-2.226584590971469879e-02
2.852979674935340881e-02
-1.675824262201786041e-02
-1.104825362563133240e-02
1.204184070229530334e-02
4.544142284430563450e-04
1.995128579437732697e-02
3.215986862778663635e-02
-1.522229146212339401e-02
-3.460727259516716003e-02
-8.120007812976837158e-03
1.484201196581125259e-02
-3.251326456665992737e-02
-2.393324673175811768e-02
-5.344972386956214905e-02
-6.103981286287307739e-02
2.252265810966491699e-02
-1.009444966912269592e-01
2.404810860753059387e-02
3.074986115097999573e-02
2.622198313474655151e-02
-5.834990367293357849e-02
-2.862486429512500763e-02
-1.464861258864402771e-02
-2.372525632381439209e-03
1.391994114965200424e-02
-1.882365718483924866e-02
9.619914926588535309e-03
-2.838342078030109406e-02
-4.461281746625900269e-02
-5.114208906888961792e-03
-3.216654434800148010e-02
3.157997503876686096e-03
-1.210956741124391556e-02
-1.007892191410064697e-01
8.616129308938980103e-02
-3.335018409416079521e-03
1.245118957012891769e-02
5.107644945383071899e-03
2.864748612046241760e-02
-2.686695940792560577e-02
-1.468964153900742531e-03
-2.659553289413452148e-02
-2.962669357657432556e-02
8.733453601598739624e-02
1.228534057736396790e-02
-8.467706292867660522e-02
3.140009939670562744e-02
4.363567754626274109e-02
-3.727524541318416595e-03
-2.364260703325271606e-02
5.215480923652648926e-02
-4.481557011604309082e-02
-2.961796149611473083e-02
-1.644648145884275436e-03
-7.531011942774057388e-03
2.820795215666294098e-02
-3.994920756667852402e-03
6.173236668109893799e-02
2.164364978671073914e-02
2.614093758165836334e-02
4.319111758377403021e-04
8.619293570518493652e-02
6.786907557398080826e-03
1.828078966354951262e-04
2.389951609075069427e-02
5.369976907968521118e-02
-1.597836147993803024e-03
1.434599980711936951e-02
-4.624012485146522522e-02
-2.566712349653244019e-02
3.703624010086059570e-02
-1.724793203175067902e-02
4.059834033250808716e-02
-2.849600836634635925e-02
1.939227245748043060e-02
-7.041234988719224930e-03
4.047498572617769241e-03
1.541916001588106155e-02
7.760837674140930176e-02
-6.814945954829454422e-04
-3.874019160866737366e-02
-2.387038804590702057e-02
-3.346387669444084167e-02
1.308908220380544662e-02
-1.322247181087732315e-02
-3.196220099925994873e-02
-6.048861891031265259e-02
2.617507800459861755e-02
3.145405277609825134e-02
-9.504360146820545197e-03
-4.645572602748870850e-02
6.311678327620029449e-03
-2.787313051521778107e-02
-3.682936728000640869e-02
-1.633831858634948730e-02
-2.998542040586471558e-02
-2.243734523653984070e-02
-8.844470232725143433e-02
1.941660419106483459e-02
2.943917177617549896e-02
2.006193250417709351e-02
-2.565493574365973473e-03
-6.614910438656806946e-03
2.452391572296619415e-02
-1.136477943509817123e-02
6.058375164866447449e-02
2.152602002024650574e-02
-5.159994959831237793e-02
-6.852389127016067505e-02
2.322725951671600342e-03
3.580984473228454590e-02
-9.413766674697399139e-03
-2.329551428556442261e-02
-8.715013973414897919e-03
-6.371610611677169800e-02
2.682634815573692322e-02
-7.988227903842926025e-02
2.504257299005985260e-02
2.004424855113029480e-02
1.983918435871601105e-02
2.838034881278872490e-03
-5.041903257369995117e-02
2.406954951584339142e-02
-2.110723638907074928e-03
-2.544314786791801453e-02
9.561768732964992523e-03
-5.288134794682264328e-03
-6.973873078823089600e-02
3.016267204657196999e-03
6.002430990338325500e-02
-3.343097493052482605e-02
-2.396354079246520996e-02
-5.237149074673652649e-02
-9.085159748792648315e-02
4.348493739962577820e-02
-1.266015507280826569e-02
-2.620139624923467636e-03
2.053614519536495209e-02
-1.410525292158126831e-02
-5.734293255954980850e-03
-1.488933432847261429e-02
3.673420101404190063e-02
-3.542241454124450684e-02
1.778586953878402710e-02
-3.209850564599037170e-02
-8.874810487031936646e-02
-5.411274731159210205e-03
2.306019514799118042e-02
-1.172274351119995117e-02
-1.247963309288024902e-02
2.445299364626407623e-02
7.942882925271987915e-02
3.604132914915680885e-03
-4.007093235850334167e-02
-1.006504171527922153e-03
-3.900534706190228462e-03
2.583781443536281586e-02
4.239535704255104065e-02
-3.799360245466232300e-02
6.061772350221872330e-03
2.779925800859928131e-02
8.180241286754608154e-02
-6.348477303981781006e-02
-4.102438315749168396e-02
-2.378832176327705383e-02
1.613542251288890839e-02
7.299699354916810989e-03
2.564902417361736298e-02
-2.101479470729827881e-02
5.037613213062286377e-03
4.223189502954483032e-02
-2.014800719916820526e-02
5.788255855441093445e-02
2.593599446117877960e-02
-4.638730734586715698e-02
2.429930306971073151e-02
-6.354171782732009888e-02
-3.095243498682975769e-02
7.543289661407470703e-02
-6.856639869511127472e-03
-2.216119505465030670e-02
-5.774896591901779175e-03
7.887187413871288300e-03
5.060901120305061340e-02
1.884545944631099701e-02
-2.354564331471920013e-02
-2.152494527399539948e-02
1.428644359111785889e-02
2.827140502631664276e-02
2.678535133600234985e-02
1.685773767530918121e-02
4.468591418117284775e-03
1.530252676457166672e-02
-7.895673066377639771e-02
-1.146160159260034561e-02
-2.405688352882862091e-02
1.923826523125171661e-02
-6.984423846006393433e-02
1.357492059469223022e-02
-2.304064296185970306e-02
-3.998355194926261902e-02
2.993244118988513947e-02
-3.326686099171638489e-03
3.875797614455223083e-02
1.557436306029558182e-02
5.623316019773483276e-02
4.061733838170766830e-03
-1.378406770527362823e-02
-5.790883302688598633e-02
-7.153975311666727066e-03
1.586742512881755829e-02
2.802715823054313660e-02
-4.048734530806541443e-02
-5.022712051868438721e-02
1.748517970554530621e-03
-1.355445384979248047e-02
8.165172301232814789e-03
-2.593382447957992554e-02
-1.034292299300432205e-02
-4.279384016990661621e-02
4.698641132563352585e-03
-4.918432980775833130e-02
2.268057502806186676e-02
2.034281939268112183e-02
-4.805897176265716553e-02
-5.460637435317039490e-02
2.017473569139838219e-03
-4.803382977843284607e-02
-2.550452388823032379e-02
8.726336807012557983e-02
-5.632660910487174988e-02
5.733796581625938416e-02
-2.045098133385181427e-02
-5.300335586071014404e-02
-4.095590114593505859e-02
-4.447153210639953613e-02
-1.896345242857933044e-02
8.685944601893424988e-03
-8.814281783998012543e-03
2.665595151484012604e-02
3.926648758351802826e-03
-1.593510434031486511e-02
3.323840210214257240e-03
-2.756305038928985596e-02
2.597269602119922638e-02
2.831123024225234985e-02
3.967539872974157333e-03
5.739422631449997425e-04
-5.601541325449943542e-02
-3.753101825714111328e-02
2.633879333734512329e-02
4.718813300132751465e-02
-2.512032724916934967e-02
-5.498018860816955566e-02
3.770889341831207275e-02
-1.676319912075996399e-02
1.198710594326257706e-02
2.257516793906688690e-02
-7.541067153215408325e-02
-6.137191783636808395e-03
-4.366912879049777985e-03
4.988531768321990967e-02
-6.929270457476377487e-03
-8.303640410304069519e-03
-1.783294044435024261e-02
1.714798435568809509e-02
-2.186735905706882477e-02
3.508728370070457458e-02
1.579087600111961365e-02
-2.932873321697115898e-03
5.422758683562278748e-02
3.737218677997589111e-02
-1.651463331654667854e-03
-1.844985596835613251e-02
-3.431490063667297363e-02
5.019366741180419922e-03
1.523979753255844116e-02
2.821624092757701874e-02
2.167147211730480194e-02
1.043638214468955994e-02
9.635301306843757629e-03
1.244767941534519196e-02
1.186229754239320755e-02
5.468398332595825195e-02
2.179820649325847626e-02
-5.146596580743789673e-02
-4.781614616513252258e-02
1.863063685595989227e-02
-1.145358104258775711e-02
-4.572753235697746277e-02
1.850551553070545197e-02
-4.336603358387947083e-02
2.041477337479591370e-02
-5.658493936061859131e-02
-6.365646421909332275e-02
1.797256059944629669e-02
4.531979560852050781e-02
-5.424415320158004761e-02
5.187414586544036865e-03
3.516890108585357666e-02
-3.322602808475494385e-02
3.334229346364736557e-03
4.932216554880142212e-02
-1.305512432008981705e-02
-1.503102481365203857e-02
-5.324263125658035278e-03
-5.374033935368061066e-03
-6.442818045616149902e-02
-3.281866014003753662e-02
1.334300544112920761e-02
-8.091184310615062714e-03
3.306379169225692749e-02
-1.335248630493879318e-02
2.447057701647281647e-02
1.156759168952703476e-02
4.041260853409767151e-02
5.167749896645545959e-02
-2.332596853375434875e-02
2.962721139192581177e-02
-5.217400565743446350e-02
1.131757069379091263e-02
4.762577824294567108e-03
-1.016765739768743515e-02
-3.288435563445091248e-02
-4.418434575200080872e-02
-9.559742175042629242e-03
6.402883678674697876e-03
-3.477092459797859192e-02
-1.285622175782918930e-02
3.515183180570602417e-02
-2.657042257487773895e-02
-7.929254323244094849e-03
2.741902135312557220e-02
2.954044193029403687e-02
-3.240454941987991333e-02
1.170647703111171722e-02
2.161069959402084351e-02
3.223990276455879211e-02
6.876705214381217957e-03
-6.723317201249301434e-04
-1.946637220680713654e-02
-3.040565364062786102e-02
9.742128662765026093e-03
-2.626743167638778687e-02
-2.530590817332267761e-02
6.644821912050247192e-02
1.314745098352432251e-02
4.045419767498970032e-02
-3.892810270190238953e-02
-4.115209355950355530e-02
-8.071613498032093048e-03
-5.359268561005592346e-02
2.799825184047222137e-02
-1.001058146357536316e-03
4.249476268887519836e-02
3.093830309808254242e-02
1.404433511197566986e-02
3.698154166340827942e-02
-3.510791435837745667e-02
-1.752440258860588074e-02
2.169551141560077667e-02
3.779266402125358582e-02
1.770414039492607117e-02
3.490180522203445435e-02
1.833811216056346893e-02
1.853471249341964722e-02
2.290116157382726669e-03
-6.760628893971443176e-03
2.612811326980590820e-02
-1.958595216274261475e-02
1.041007414460182190e-02
1.029184320941567421e-03
1.665232889354228973e-02
-9.143053553998470306e-03
-5.414403229951858521e-02
-5.093017593026161194e-02
-1.422666199505329132e-02
2.047029510140419006e-02
-3.356969356536865234e-02
-2.763165719807147980e-02
2.921168878674507141e-02
2.177768200635910034e-02
7.133847102522850037e-03
1.508631743490695953e-02
9.009399451315402985e-03
-5.039937328547239304e-03
1.807264611124992371e-02
1.516736391931772232e-02
-3.186075761914253235e-02
1.171876024454832077e-02
1.518579479306936264e-02
-1.137316972017288208e-02
-5.580566823482513428e-03
-1.231614127755165100e-02
-4.395400732755661011e-02
-4.485362023115158081e-02
5.343044921755790710e-02
-5.492516793310642242e-03
-2.701767720282077789e-02
-2.821575105190277100e-02
-2.737324312329292297e-02
-2.267643995583057404e-02
5.682990420609712601e-03
1.344075240194797516e-02
4.570071399211883545e-02
1.442864350974559784e-02
-2.304894477128982544e-02
-1.648643985390663147e-02
-1.109599322080612183e-02
-2.495495229959487915e-02
-1.409371383488178253e-03
5.215470865368843079e-02
-3.205531276762485504e-03
-5.326979234814643860e-02
-1.165409758687019348e-01
-3.051672503352165222e-02
-5.350158363580703735e-02
2.415513060986995697e-02
2.177671156823635101e-02
2.207775413990020752e-02
1.708051003515720367e-02
8.084377273917198181e-03
-1.525739673525094986e-02
-8.237622678279876709e-03
-3.157206624746322632e-02
2.917797863483428955e-02
4.937994759529829025e-03
-8.414907380938529968e-03
-1.839274656958878040e-03
-8.891765028238296509e-03
-2.529785968363285065e-02
-2.521630935370922089e-02
-3.219661861658096313e-02
-1.077585294842720032e-01
8.882851898670196533e-02
4.810996353626251221e-02
1.296849921345710754e-02
9.424955584108829498e-03
1.805508881807327271e-02
-2.967550186440348625e-03
3.131032735109329224e-02
-5.159178376197814941e-02
1.719298586249351501e-02
-9.748459793627262115e-03
4.764764383435249329e-02
4.506234079599380493e-03
-4.191544651985168457e-02
2.915209345519542694e-02
5.878907162696123123e-03
-3.287582471966743469e-02
-3.473656997084617615e-02
-6.479654461145401001e-02
-3.836458176374435425e-02
-2.296083234250545502e-02
-3.391409991309046745e-04
1.253423863090574741e-03
-3.652234375476837158e-02
4.923385009169578552e-02
3.909590467810630798e-02
1.399280037730932236e-02
-7.365149259567260742e-02
-4.994255304336547852e-02
4.878389835357666016e-02
-4.172086343169212341e-02
5.979448929429054260e-02
6.440247595310211182e-02
-5.730529665015637875e-04
-3.493209555745124817e-02
-1.946097798645496368e-02
1.094579696655273438e-02
-5.556629039347171783e-03
4.172099009156227112e-02
-3.079270385205745697e-02
2.144938893616199493e-02
-4.910990595817565918e-02
8.523324504494667053e-03
-3.908776119351387024e-02
-2.843205118551850319e-03
4.509731009602546692e-02
2.032691799104213715e-02
1.255341712385416031e-02
9.155516745522618294e-04
-1.536670420318841934e-02
2.239310741424560547e-02
-3.632128238677978516e-02
4.022367298603057861e-02
-1.255807187408208847e-02
1.925880275666713715e-02
-1.377221941947937012e-01
1.506590843200683594e-02
-6.153694167733192444e-02
-5.888833478093147278e-02
-7.184904068708419800e-03
-2.536140754818916321e-02
-4.161002859473228455e-02
-2.066526561975479126e-02
-3.708824515342712402e-02
-7.929506152868270874e-02
3.314098343253135681e-02
-3.861736878752708435e-02
-2.567354589700698853e-02
-6.740483641624450684e-02
5.053792148828506470e-02
3.195668011903762817e-02
-3.269342996645718813e-04
4.944640398025512695e-02
-4.134259652346372604e-03
5.841698125004768372e-02
-4.122955352067947388e-02
-1.231620553880929947e-02
2.187004685401916504e-02
1.356115844100713730e-02
3.558887168765068054e-02
-3.330038487911224365e-02
-1.296664625406265259e-01
-3.482828661799430847e-02
-9.059699624776840210e-02
2.397003211081027985e-02
7.920873351395130157e-03
2.264781668782234192e-02
-3.966322168707847595e-02
-2.052086591720581055e-02
3.511707112193107605e-02
2.171557210385799408e-02
-2.125054411590099335e-02
-4.603386670351028442e-02
-5.447169020771980286e-02
-2.063198201358318329e-02
1.459670159965753555e-02
4.376145545393228531e-03
-2.287621051073074341e-02
-2.069544512778520584e-03
-4.574672877788543701e-02
-1.048875227570533752e-01
2.814638987183570862e-02
2.093882113695144653e-02
6.555205211043357849e-03
1.829527877271175385e-02
5.213678255677223206e-02
-1.474287267774343491e-02
1.634649187326431274e-02
-4.572752490639686584e-02
-1.473545841872692108e-02
6.360584497451782227e-02
-2.533418126404285431e-02
-1.957298442721366882e-02
1.542436983436346054e-02
-1.932924147695302963e-03
-3.920220211148262024e-02
-1.067574694752693176e-02
-7.309047970920801163e-03
-1.190938404761254787e-03
-2.274084463715553284e-02
-3.897438198328018188e-02
1.527150720357894897e-02
-4.447640851140022278e-02
1.499407272785902023e-02
7.508617825806140900e-03
-1.258634775876998901e-02
-1.132746785879135132e-02
-3.442517668008804321e-02
-7.289719302207231522e-03
-1.981856673955917358e-02
2.050115913152694702e-02
2.435373701155185699e-02
2.571319602429866791e-02
-4.673336073756217957e-02
-3.701867163181304932e-02
-2.127074822783470154e-02
1.624580658972263336e-02
-8.506303653120994568e-03
1.638522371649742126e-02
1.258503994904458523e-03
2.474332228302955627e-02
-2.930993586778640747e-02
-2.684455737471580505e-02
-4.577952623367309570e-02
-4.030352830886840820e-02
5.116585642099380493e-03
-7.037163712084293365e-03
-2.634607627987861633e-02
-3.136139363050460815e-02
-1.521809957921504974e-02
1.480596791952848434e-02
-3.951460123062133789e-02
1.006854511797428131e-02
-1.291485130786895752e-02
4.706117510795593262e-02
-1.863140799105167389e-02
-3.463516011834144592e-02
-1.986634684726595879e-03
-5.163783673197031021e-03
-1.084487326443195343e-02
1.010124804452061653e-03
-5.105162039399147034e-03
-2.698154561221599579e-02
4.044814035296440125e-02
-2.174581587314605713e-02
1.555143296718597412e-02
1.283425651490688324e-02
-2.075016312301158905e-02
3.043276071548461914e-02
2.702443860471248627e-03
3.683631494641304016e-02
1.168240793049335480e-02
4.957166034728288651e-03
3.501772880554199219e-02
-3.454825375229120255e-03
-4.535124078392982483e-02
-3.843097388744354248e-02
1.284559536725282669e-02
-1.388354040682315826e-02
-4.560077190399169922e-02
-6.549496948719024658e-02
-1.103301867842674255e-01
-2.389079891145229340e-02
-2.497701160609722137e-02
3.145157173275947571e-02
-2.029697224497795105e-02
-4.419816285371780396e-02
4.860077518969774246e-03
-1.387940999120473862e-02
-2.213351428508758545e-02
3.099607117474079132e-02
-1.573049835860729218e-02
-2.327601239085197449e-02
-4.921620711684226990e-02
-5.750697851181030273e-02
2.377696102485060692e-03
-5.811548908241093159e-04
-1.567241619341075420e-03
1.217862125486135483e-02
-2.633084915578365326e-02
-7.331188768148422241e-02
3.391345217823982239e-02
-1.434376649558544159e-02
-1.792337931692600250e-02
-1.398166269063949585e-02
5.241767689585685730e-02
4.718634113669395447e-02
1.686420477926731110e-02
-2.110588736832141876e-02
-3.673255443572998047e-02
3.258344903588294983e-02
-6.352975033223628998e-03
2.477990463376045227e-03
2.162567898631095886e-02
3.609509766101837158e-02
-2.934056706726551056e-02
-2.774295397102832794e-02
2.391675487160682678e-02
4.614114388823509216e-02
-9.342044591903686523e-03
-6.245220452547073364e-02
-6.496066227555274963e-03
-4.095995426177978516e-02
2.518734335899353027e-02
4.495197534561157227e-02
-5.556876305490732193e-03
-3.981061652302742004e-02
-1.199653930962085724e-02
4.847025126218795776e-02
-2.219186909496784210e-02
-2.696063183248043060e-02
4.430200159549713135e-02
1.456791441887617111e-02
-2.747412025928497314e-02
1.696174405515193939e-02
-1.252567116171121597e-02
-4.862511157989501953e-02
7.030156254768371582e-02
4.312746226787567139e-02
-1.921732537448406219e-02
7.118480280041694641e-04
3.311138134449720383e-03
4.187547136098146439e-03
-4.698411002755165100e-02
-8.793830871582031250e-03
3.707881644368171692e-02
-3.363201394677162170e-02
-5.132989585399627686e-02
-1.082445494830608368e-02
-2.386385947465896606e-02
3.642322123050689697e-02
-5.191320925951004028e-02
2.180062234401702881e-02
-3.171107918024063110e-02
-2.273428067564964294e-02
1.538545824587345123e-02
1.639053691178560257e-03
2.422223612666130066e-02
1.189628243446350098e-02
-3.302037250250577927e-03
-4.228369332849979401e-03
-4.664260428398847580e-03
-1.273256726562976837e-02
2.803687565028667450e-02
-1.377612445503473282e-02
4.108318686485290527e-02
5.650964565575122833e-03
-1.727517694234848022e-02
1.930492371320724487e-02
-1.912340405397117138e-03
-1.596371084451675415e-02
3.704016283154487610e-02
7.997477427124977112e-03
-1.847144030034542084e-02
1.251013576984405518e-02
-1.927796937525272369e-02
-3.870059177279472351e-02
1.498301606625318527e-02
4.108355566859245300e-02
-5.115174502134323120e-02
-4.524013027548789978e-02
-5.373983085155487061e-02
-1.255300175398588181e-02
2.198462933301925659e-02
-2.090952731668949127e-02
-7.648857776075601578e-03
-9.289558976888656616e-03
-2.549362182617187500e-02
6.372037343680858612e-03
3.653490217402577400e-03
3.016368485987186432e-02
1.532649248838424683e-02
3.420876571908593178e-03
-3.725201264023780823e-02
-3.925387281924486160e-03
3.925336524844169617e-03
3.333132341504096985e-02
-4.366074874997138977e-02
1.444754377007484436e-02
-1.192709151655435562e-02
-4.255908727645874023e-02
-4.536797059699892998e-04
2.029645256698131561e-02
-1.755212992429733276e-02
-1.363890990614891052e-02
4.544788599014282227e-02
-1.458305865526199341e-02
-2.401549741625785828e-02
-1.086906064301729202e-02
-2.317020297050476074e-02
4.394873511046171188e-03
-1.451170071959495544e-02
1.073476579040288925e-02
-1.506586093455553055e-02
4.132345318794250488e-02
-4.665680974721908569e-02
-2.038369700312614441e-02
3.523215651512145996e-02
-1.586079597473144531e-02
3.974402323365211487e-02
-4.438886884599924088e-03
-8.339626714587211609e-03
-2.488720975816249847e-02
-2.483265241608023643e-03
4.379102215170860291e-02
-3.532768785953521729e-02
-1.729912124574184418e-02
4.532887600362300873e-03
5.112752690911293030e-02
8.843854069709777832e-03
3.604892268776893616e-02
1.266339793801307678e-02
2.669706754386425018e-02
4.100749734789133072e-03
-1.069007208570837975e-03
1.949984952807426453e-02
7.804445340298116207e-04
2.152783796191215515e-02
3.781547769904136658e-02
2.827155403792858124e-02
-2.121361903846263885e-02
-3.207942470908164978e-02
1.505551952868700027e-02
-1.865982264280319214e-02
4.638076759874820709e-03
4.099126160144805908e-02
-1.343895681202411652e-02
-5.632178112864494324e-02
1.930182799696922302e-02
-3.808526694774627686e-02
8.764418773353099823e-03
-4.157003760337829590e-02
9.730202727951109409e-04
-5.836480855941772461e-02
3.192173689603805542e-02
-3.437943011522293091e-02
-2.660205587744712830e-02
2.422233344987034798e-03
-4.241529107093811035e-02
3.122009895741939545e-02
-6.950157135725021362e-02
3.804942825809121132e-04
-3.235836746171116829e-03
3.970838338136672974e-02
-2.136972360312938690e-02
-3.583970293402671814e-02
-2.185244672000408173e-02
-1.376974396407604218e-02
3.034848347306251526e-02
6.058685481548309326e-02
-1.701067318208515644e-03
3.732755547389388084e-03
3.813089430332183838e-02
-4.778547212481498718e-02
-2.020204626023769379e-02
-3.823411464691162109e-02
-2.644452638924121857e-02
4.971703886985778809e-02
7.419946789741516113e-02
-1.207993924617767334e-02
3.016832098364830017e-02
-2.192939631640911102e-03
1.057492382824420929e-02
5.548587441444396973e-02
-3.628720762208104134e-03
2.313801832497119904e-02
1.251897122710943222e-02
3.639950603246688843e-02
2.573888003826141357e-02
2.130138315260410309e-02
-1.640981994569301605e-02
2.336341701447963715e-02
4.397465847432613373e-03
-1.752687734551727772e-03
-1.005019713193178177e-02
1.812290214002132416e-02
-1.452528312802314758e-02
-2.379898913204669952e-02
5.417678877711296082e-02
8.994834497570991516e-03
-4.038238525390625000e-02
-6.508643925189971924e-02
-2.049446478486061096e-02
-4.496811330318450928e-02
-2.816268429160118103e-02
2.319191582500934601e-02
4.987823311239480972e-03
4.459264222532510757e-03
1.223766524344682693e-02
-3.512842208147048950e-02
-2.158397063612937927e-02
-7.942440919578075409e-03
8.243553340435028076e-02
-8.126319386065006256e-03
4.915467649698257446e-02
-7.302077859640121460e-02
6.459920667111873627e-03
4.214267805218696594e-02
5.420531961135566235e-04
-1.594369113445281982e-02
-2.291936799883842468e-02
5.551985651254653931e-02
1.488444674760103226e-02
-6.151243578642606735e-03
2.133182808756828308e-02
-4.797692596912384033e-02
2.876945538446307182e-03
1.307309605181217194e-02
2.581643871963024139e-02
-4.396897926926612854e-02
-1.745817810297012329e-02
2.077898383140563965e-02
1.774218492209911346e-02
1.090240012854337692e-02
8.930774405598640442e-03
-4.081611055880784988e-03
6.601390894502401352e-03
4.747616127133369446e-02
1.765522919595241547e-02
3.445263206958770752e-02
2.818895503878593445e-02
-5.890265479683876038e-02
-2.308644540607929230e-02
1.005640532821416855e-02
3.179241716861724854e-02
2.497859857976436615e-02
3.288580477237701416e-02
-4.668584465980529785e-02
3.822243958711624146e-02
-5.820265039801597595e-03
1.423226296901702881e-02
2.219387143850326538e-02
-6.069741677492856979e-03
-5.131351295858621597e-03
4.632579535245895386e-02
-1.830180734395980835e-02
-7.717124186456203461e-03
2.606065571308135986e-02
-2.855625702068209648e-03
1.915651373565196991e-02
-2.012518420815467834e-02
-2.393573336303234100e-02
-3.171980753540992737e-02
1.004868000745773315e-02
-3.867825493216514587e-02
4.827983211725950241e-03
3.379525989294052124e-02
-2.727985568344593048e-02
-2.868070080876350403e-02
3.923333063721656799e-02
-1.707230508327484131e-02
5.322487279772758484e-02
-1.173512917011976242e-02
4.174190573394298553e-03
1.631509396247565746e-03
-4.808143153786659241e-02
-4.256408661603927612e-02
4.612098634243011475e-02
8.461430668830871582e-02
2.175330743193626404e-02
1.934206229634582996e-04
2.147332532331347466e-03
-6.364454515278339386e-03
3.606406971812248230e-02
2.420005621388554573e-03
-7.064943015575408936e-02
5.529003683477640152e-03
-1.338189654052257538e-02
-4.346584901213645935e-02
-3.492849692702293396e-02
-3.710947185754776001e-02
2.985578216612339020e-02
-3.790964605286717415e-03
2.311076782643795013e-02
1.988546736538410187e-02
4.523788765072822571e-02
-2.755819633603096008e-02
1.585223525762557983e-02
4.446336627006530762e-02
4.439089447259902954e-02
-2.850432135164737701e-02
-2.932820282876491547e-02
-1.291465852409601212e-02
-3.636001795530319214e-02
-3.135187085717916489e-03
-1.736989617347717285e-02
-2.629795670509338379e-02
9.596996940672397614e-03
8.619979955255985260e-03
-2.226857095956802368e-02
1.251458376646041870e-02
-6.941644009202718735e-03
-3.416430950164794922e-02
-1.327497698366641998e-02
-1.841331459581851959e-02
5.567978322505950928e-02
-2.800153940916061401e-02
5.579257011413574219e-02
-4.538787901401519775e-02
-1.857267506420612335e-02
2.158561721444129944e-02
3.722500056028366089e-02
6.447441130876541138e-02
6.357908714562654495e-03
-3.772136941552162170e-02
-2.516685985028743744e-02
2.643400058150291443e-02
-1.680791610851883888e-03
-7.150363177061080933e-02
-6.446143612265586853e-03
-9.224739670753479004e-02
-7.392535917460918427e-03
-4.801099747419357300e-02
1.235346123576164246e-02
-2.175343967974185944e-02
1.909434795379638672e-02
-7.040872424840927124e-02
-4.640093445777893066e-02
-2.816886641085147858e-02
1.582672819495201111e-02
9.611323475837707520e-03
-1.206634659320116043e-02
3.850889625027775764e-03
5.091502144932746887e-02
5.077619105577468872e-03
7.060904055833816528e-02
-2.692335983738303185e-03
-1.229639444500207901e-02
-4.345618933439254761e-02
-4.267431795597076416e-02
1.822999864816665649e-02
6.709528155624866486e-03
5.332543328404426575e-02
-3.213077038526535034e-02
1.807188615202903748e-02
-5.185983702540397644e-02
-7.935332506895065308e-02
4.272524639964103699e-02
5.327397584915161133e-02
-1.528247538954019547e-02
2.005552314221858978e-02
2.959949523210525513e-02
-2.252811193466186523e-02
8.311905898153781891e-03
4.147322848439216614e-02
-4.063260927796363831e-02
-1.256010122597217560e-02
1.134018134325742722e-02
4.041666630655527115e-03
-5.865799635648727417e-02
4.775698110461235046e-02
3.007240407168865204e-02
-1.022711768746376038e-02
-1.098567098379135132e-01
1.308516878634691238e-02
2.284947782754898071e-02
-6.403297930955886841e-02
-4.975378396920859814e-04
2.577174268662929535e-02
-3.478709608316421509e-02
-1.465397700667381287e-02
-3.698736429214477539e-02
1.306668855249881744e-02
-3.347847843542695045e-03
4.328620061278343201e-02
-8.076985180377960205e-02
1.440796069800853729e-02
1.021913019940257072e-03
-4.482217133045196533e-02
-1.044493354856967926e-02
-3.252106159925460815e-02
3.973091393709182739e-02
-8.290900848805904388e-03
-1.302800979465246201e-02
-7.049769163131713867e-02
6.364171206951141357e-02
1.705780252814292908e-02
4.809401184320449829e-02
2.942932955920696259e-02
6.236692517995834351e-02
-6.398604810237884521e-02
-4.961621388792991638e-02
1.843390055000782013e-02
-3.111467882990837097e-02
-5.670234560966491699e-02
-1.329137105494737625e-02
-3.839436173439025879e-02
1.537603791803121567e-02
1.990905217826366425e-02
-4.323135688900947571e-02
3.358786925673484802e-03
-3.716523200273513794e-02
-6.884504691697657108e-04
-2.222072333097457886e-02
-1.287003327161073685e-02
2.363530918955802917e-02
-2.297848463058471680e-02
-2.415114082396030426e-02
-7.366479933261871338e-02
-3.538926318287849426e-02
1.454625371843576431e-02
-2.786097349599003792e-03
-3.045554505661129951e-03
-6.616875529289245605e-02
-2.725895121693611145e-02
-1.567097567021846771e-02
-7.795304991304874420e-03
1.404388342052698135e-02
-5.410811677575111389e-02
4.380368441343307495e-02
-7.757125049829483032e-02
-3.027512505650520325e-02
-5.380868539214134216e-02
3.485654015094041824e-04
1.663240045309066772e-02
3.252265229821205139e-02
-7.199878990650177002e-02
6.514370907098054886e-03
-8.819578215479850769e-03
-7.072250358760356903e-03
-2.682734280824661255e-02
1.904094778001308441e-02
4.048607125878334045e-02
6.176915764808654785e-02
1.763333380222320557e-02
7.893381267786026001e-02
6.814031861722469330e-03
7.539439015090465546e-03
-4.998134449124336243e-02
-6.764097511768341064e-02
1.004928443580865860e-02
-2.969885244965553284e-02
6.877956539392471313e-02
-4.807021468877792358e-02
9.631299227476119995e-02
4.886876791715621948e-02
-2.961321920156478882e-02
-2.143523888662457466e-03
5.321527644991874695e-02
-1.442828308790922165e-02
2.606709860265254974e-02
-1.055662892758846283e-02
1.448272820562124252e-02
-1.649394258856773376e-02
4.546212032437324524e-02
-1.887254603207111359e-02
-1.014354638755321503e-03
-3.336345404386520386e-02
4.868708178400993347e-02
-7.003374397754669189e-02
1.298529468476772308e-02
1.383556425571441650e-02
-3.007579222321510315e-02
-1.082404702901840210e-01
7.991501130163669586e-03
-3.579646721482276917e-02
-6.170405074954032898e-02
-2.515657246112823486e-02
7.502904534339904785e-02
1.454293448477983475e-02
1.597677916288375854e-02
-1.301878876984119415e-02
6.009303499013185501e-03
-1.307903230190277100e-02
-1.862533390522003174e-02
-7.642742246389389038e-02
7.668379694223403931e-03
-7.432090584188699722e-03
5.304108373820781708e-03
-4.454023670405149460e-03
-3.494350612163543701e-02
-3.583922982215881348e-02
-3.381222486495971680e-02
-4.975946992635726929e-02
-8.045473136007785797e-03
4.398673772811889648e-02
2.302670851349830627e-03
1.071885693818330765e-02
-2.286840043962001801e-02
1.171985268592834473e-02
-3.225912153720855713e-02
-6.600789725780487061e-02
-1.567191444337368011e-02
-5.716368183493614197e-02
-3.217744082212448120e-02
3.407422825694084167e-02
-7.233973592519760132e-02
-6.305361539125442505e-02
-4.712206125259399414e-02
1.833785441704094410e-03
-5.442426353693008423e-02
1.694953814148902893e-02
-1.558549515902996063e-02
5.209995899349451065e-03
2.269101887941360474e-02
3.484780341386795044e-02
-5.541389435529708862e-02
-2.663990482687950134e-02
3.729698946699500084e-03
-1.009096298366785049e-02
8.573499508202075958e-04
2.039594762027263641e-02
3.345174714922904968e-02
-5.139654502272605896e-02
-2.264375984668731689e-02
4.880093783140182495e-02
2.645237743854522705e-02
-4.020764678716659546e-02
-1.318844314664602280e-02
-6.247331388294696808e-03
-6.267507374286651611e-02
-4.251303907949477434e-04
-3.886579349637031555e-02
4.649671539664268494e-02
-3.999608755111694336e-02
-2.670154906809329987e-02
-3.842004388570785522e-02
1.038509327918291092e-02
-8.472748100757598877e-03
4.446378350257873535e-02
-9.629565291106700897e-03
-4.372818768024444580e-02
2.955475077033042908e-02
1.147160306572914124e-03
2.742512337863445282e-02
6.252450495958328247e-02
-2.662711590528488159e-02
-1.468701660633087158e-02
1.206098124384880066e-02
-3.865829855203628540e-02
1.343704108148813248e-02
-2.329417131841182709e-02
3.758575022220611572e-02
-3.932936862111091614e-02
5.433942005038261414e-02
3.136171400547027588e-02
-3.077545762062072754e-02
-2.267714217305183411e-02
-2.623150125145912170e-02
-3.405339643359184265e-02
-2.518779225647449493e-02
8.117141202092170715e-03
-1.356043387204408646e-02
-1.835502684116363525e-02
2.191584929823875427e-02
-6.467152852565050125e-03
-2.286143228411674500e-02
2.402656897902488708e-02
4.473781585693359375e-02
-1.612917147576808929e-02
4.731419682502746582e-02
1.562772504985332489e-02
-3.288877010345458984e-02
-1.360213756561279297e-01
-3.753978013992309570e-02
-4.892270080745220184e-03
-2.478969469666481018e-02
1.212128531187772751e-02
5.001987889409065247e-02
-1.808718219399452209e-02
4.406092688441276550e-02
1.329806819558143616e-02
4.691843688488006592e-02
-9.321568533778190613e-03
4.932250082492828369e-02
-2.890393882989883423e-02
4.055765271186828613e-02
7.652339991182088852e-03
-2.446742914617061615e-02
1.066109538078308105e-02
3.413728997111320496e-02
3.266490623354911804e-02
-3.191107138991355896e-02
-1.776024512946605682e-02
-3.562565147876739502e-02
-9.411117993295192719e-03
-3.904649289324879646e-03
4.653423279523849487e-02
2.965880557894706726e-04
5.795601755380630493e-02
-1.152299810200929642e-02
5.715092993341386318e-04
3.769122436642646790e-02
-4.053514450788497925e-02
-5.986042320728302002e-02
-1.410472765564918518e-02
-2.165666036307811737e-02
-2.071764320135116577e-02
1.847866177558898926e-02
-6.405551731586456299e-02
-1.543853711336851120e-02
-4.303270578384399414e-02
-4.381230100989341736e-02
-2.171549201011657715e-02
-6.746965926140546799e-03
5.778606235980987549e-02
-2.790907584130764008e-02
7.296579889953136444e-03
-9.353756904602050781e-03
-1.210236456245183945e-02
-1.226545218378305435e-02
5.122411530464887619e-03
-1.522413687780499458e-03
2.316778525710105896e-03
1.591393537819385529e-02
-1.637729257345199585e-02
-2.051652967929840088e-02
-1.760883256793022156e-02
-1.534667517989873886e-02
-1.228416571393609047e-03
-2.944240532815456390e-02
1.826946064829826355e-02
-3.557886928319931030e-02
-1.718647964298725128e-02
-3.784324601292610168e-02
-8.948577567934989929e-03
-5.620069801807403564e-02
4.080545622855424881e-03
8.840110152959823608e-03
2.891272865235805511e-02
-1.844007894396781921e-02
1.433058734983205795e-02
6.485464423894882202e-02
3.556355461478233337e-02
2.747352980077266693e-02
3.068278729915618896e-02
-3.329455107450485229e-02
-6.133839488029479980e-02
-3.879303857684135437e-02
-5.730478465557098389e-02
9.994683787226676941e-03
-2.175679989159107208e-02
6.588383018970489502e-02
-2.780251577496528625e-02
3.735477477312088013e-02
-6.546324584633111954e-03
-2.569929324090480804e-02
2.832599729299545288e-02
-8.191189914941787720e-02
-4.154306370764970779e-03
4.739052057266235352e-02
3.438706696033477783e-02
2.015889808535575867e-02
-7.466095965355634689e-03
-3.737180680036544800e-02
-2.783581614494323730e-02
-3.087634593248367310e-02
1.817234605550765991e-02
-2.294218167662620544e-02
-6.670603901147842407e-02
6.426775362342596054e-03
3.266266733407974243e-02
-2.780552953481674194e-02
-1.199185922741889954e-01
-8.114162832498550415e-02
2.462995611131191254e-02
-3.182404488325119019e-02
3.077984787523746490e-02
2.751936949789524078e-02
-2.806209959089756012e-02
2.312177559360861778e-03
-8.159860968589782715e-03
1.354265492409467697e-03
-3.683182969689369202e-02
1.402842905372381210e-02
-3.415340930223464966e-02
2.268914878368377686e-02
3.015491180121898651e-02
-4.334560409188270569e-02
-1.589045859873294830e-03
-4.127002786844968796e-03
2.555409446358680725e-02
6.419034674763679504e-03
2.252216264605522156e-02
1.663355529308319092e-02
-2.111605741083621979e-02
-9.826669469475746155e-03
3.452851623296737671e-02
4.604146257042884827e-02
2.153773233294487000e-02
-1.032323669642210007e-02
-8.339252322912216187e-02
5.710230022668838501e-02
-5.025075376033782959e-02
-2.025579288601875305e-02
-1.330783590674400330e-02
-1.023902557790279388e-02
-4.045787826180458069e-02
-5.252653732895851135e-02
-3.667606040835380554e-02
-4.011750221252441406e-03
6.949502974748611450e-03
-4.000314697623252869e-02
1.833236217498779297e-02
-1.756610162556171417e-02
4.610922932624816895e-02
-7.147660478949546814e-03
1.362873148173093796e-02
2.312306687235832214e-02
3.320319950580596924e-02
1.446105726063251495e-02
3.624138236045837402e-02
5.473539978265762329e-02
-7.125455141067504883e-02
9.739998728036880493e-03
-1.737916842103004456e-02
1.124157942831516266e-02
-3.545562177896499634e-02
-2.053045853972434998e-02
-2.924366295337677002e-02
-9.182077646255493164e-02
-1.319924835115671158e-02
-2.787496708333492279e-02
2.480747934896498919e-04
1.798258908092975616e-02
-6.366070825606584549e-03
-2.389950118958950043e-02
-1.282707322388887405e-02
-1.877995964605361223e-04
1.827424019575119019e-02
3.754171775653958321e-03
-3.719910234212875366e-02
3.633161261677742004e-02
2.500847540795803070e-02
1.572240516543388367e-02
2.968089468777179718e-02
-2.462066337466239929e-02
-9.398205205798149109e-03
1.978706009685993195e-02
-3.830090910196304321e-02
3.023501485586166382e-02
-3.035405417904257774e-03
5.970780178904533386e-02
-4.188050329685211182e-02
2.610010281205177307e-02
2.650827169418334961e-03
-3.721685335040092468e-02
9.577496908605098724e-03
-5.294034630060195923e-02
-2.245979011058807373e-02
6.362874805927276611e-02
6.998296827077865601e-02
1.771610789000988007e-02
-2.760279178619384766e-02
-4.725829884409904480e-02
-7.162005454301834106e-02
-4.218871891498565674e-02
-6.233116146177053452e-03
2.191573567688465118e-02
-1.254369853995740414e-03
2.692057378590106964e-02
-5.087772384285926819e-03
1.615246199071407318e-02
-1.112608388066291809e-01
-9.191171079874038696e-02
5.753699690103530884e-03
-4.019242897629737854e-02
2.961564809083938599e-02
-2.686572493985295296e-03
-1.345717255026102066e-02
-1.680407114326953888e-02
-3.617110196501016617e-03
-4.694870673120021820e-03
6.227147579193115234e-02
5.080932751297950745e-03
-5.408590286970138550e-02
2.532656304538249969e-02
-1.417812518775463104e-02
8.655562065541744232e-03
-1.350218988955020905e-02
-5.727214366197586060e-02
-5.391030386090278625e-02
-2.444288134574890137e-02
-4.129295051097869873e-02
-1.693004928529262543e-02
6.525072455406188965e-02
8.609097450971603394e-03
8.025465160608291626e-02
5.555355921387672424e-02
2.345069311559200287e-02
-2.080729790031909943e-02
-5.534059181809425354e-02
3.412784263491630554e-02
1.188700785860419273e-03
3.352893749251961708e-03
3.001529164612293243e-02
-2.303431741893291473e-02
-4.157402366399765015e-02
6.959598511457443237e-03
1.644727960228919983e-02
-3.085154341533780098e-03
-6.791857536882162094e-03
-2.332143671810626984e-02
3.953666985034942627e-02
-7.132371887564659119e-03
4.145422205328941345e-02
1.185100339353084564e-02
5.331168323755264282e-02
-4.773574322462081909e-02
1.806064695119857788e-02
-1.843126676976680756e-02
4.854033887386322021e-02
2.752189710736274719e-02
-4.814140126109123230e-02
-3.558961674571037292e-02
-1.758153177797794342e-02
2.122534625232219696e-02
-4.815673828125000000e-02
-2.979398006573319435e-03
-1.055088173598051071e-02
-2.898913063108921051e-02
9.373545646667480469e-03
-6.595721840858459473e-02
4.569181799888610840e-02
-7.382493349723517895e-04
4.189563170075416565e-02
-2.775646373629570007e-02
-8.840246126055717468e-03
1.772982999682426453e-02
-1.627192832529544830e-02
1.617989130318164825e-02
-1.049738656729459763e-02
1.717221550643444061e-02
5.840253084897994995e-02
-3.292118757963180542e-02
2.030540071427822113e-02
-2.836975082755088806e-02
-1.888726465404033661e-02
-4.248909652233123779e-02
-4.381129518151283264e-02
4.727327823638916016e-02
-1.726944558322429657e-02
4.396512359380722046e-02
-3.508995473384857178e-02
1.979674771428108215e-02
-5.655366927385330200e-03
-7.683369517326354980e-02
-6.621971260756254196e-03
2.754685655236244202e-02
-3.371483460068702698e-02
1.365513540804386139e-02
2.262660861015319824e-02
2.794019319117069244e-02
-2.979773096740245819e-02
-4.970069974660873413e-03
-5.375202745199203491e-03
-3.328594565391540527e-02
9.996674954891204834e-03
5.504838749766349792e-02
-4.071298986673355103e-02
3.043067641556262970e-02
4.133247211575508118e-02
2.476603724062442780e-02
-1.092386990785598755e-01
1.081155799329280853e-02
-4.022771865129470825e-02
-4.926666617393493652e-02
-1.530688535422086716e-02
7.774200290441513062e-02
-2.109826914966106415e-02
-1.242479868233203888e-02
-4.493299499154090881e-02
3.320695832371711731e-02
3.951436653733253479e-02
3.439938649535179138e-02
-8.436681330204010010e-02
-1.254983898252248764e-02
2.660933881998062134e-02
-1.030519045889377594e-02
-3.871305659413337708e-02
-2.033845335245132446e-02
-4.814663156867027283e-02
-3.650557249784469604e-02
-2.570721879601478577e-02
-6.842356175184249878e-02
3.085521981120109558e-02
2.453358843922615051e-02
6.921785324811935425e-02
-2.047613821923732758e-02
-6.078132893890142441e-03
-2.138381451368331909e-02
-4.458683729171752930e-02
-1.458666753023862839e-02
-3.663012012839317322e-02
-3.515093401074409485e-02
3.129195421934127808e-02
-8.256957679986953735e-02
-2.106684260070323944e-02
-3.090398758649826050e-02
-5.067604035139083862e-02
7.368155289441347122e-03
9.112062864005565643e-03
-2.637322247028350830e-02
2.279815822839736938e-02
1.715338975191116333e-02
6.605920940637588501e-02
-3.724490851163864136e-02
-3.283047815784811974e-03
-6.922366470098495483e-02
6.683515384793281555e-03
-5.411220714449882507e-02
-9.254069067537784576e-03
5.488364398479461670e-02
-1.939558051526546478e-02
-2.937442064285278320e-02
1.419690437614917755e-02
3.852384397760033607e-03
-6.634373217821121216e-03
-3.457680717110633850e-02
3.461362794041633606e-02
-4.333455115556716919e-02
-4.773193970322608948e-03
-3.206383064389228821e-02
3.924364969134330750e-02
-3.826237097382545471e-02
8.215865120291709900e-03
-7.254290580749511719e-02
1.828011125326156616e-02
-4.086024686694145203e-02
3.320303047075867653e-03
-7.014365983195602894e-04
1.923469826579093933e-02
4.930297657847404480e-02
7.054311037063598633e-02
-3.132028505206108093e-02
-2.740996191278100014e-03
-3.471886366605758667e-02
2.256850479170680046e-03
4.149688757024705410e-04
7.481777574867010117e-04
7.802702486515045166e-02
1.149646379053592682e-02
1.937883906066417694e-02
-7.772152870893478394e-02
4.622740298509597778e-02
9.627669351175427437e-04
-3.139111027121543884e-02
-9.018438868224620819e-03
-1.032979227602481842e-02
-6.277089565992355347e-02
1.182111538946628571e-02
4.370731487870216370e-02
-3.766968846321105957e-02
-2.937231212854385376e-02
5.370301380753517151e-02
-3.393964841961860657e-02
3.929321188479661942e-03
3.201026469469070435e-02
8.353239856660366058e-03
-6.671030074357986450e-02
-4.340831190347671509e-03
-1.945154182612895966e-02
3.585495799779891968e-02
-8.535713702440261841e-02
2.049911022186279297e-02
-3.490168228745460510e-02
-5.180362984538078308e-02
2.651065774261951447e-02
7.019927352666854858e-02
-1.067243237048387527e-02
3.406811878085136414e-02
7.495149038732051849e-03
1.438812538981437683e-02
1.687477342784404755e-02
-5.054185632616281509e-03
-6.588725000619888306e-02
1.239492557942867279e-02
-3.176549077033996582e-02
3.343532234430313110e-02
-2.770635671913623810e-02
-2.764346450567245483e-02
-4.620768129825592041e-02
-4.590054228901863098e-02
-2.129347808659076691e-02
-4.237063229084014893e-02
4.300338402390480042e-02
3.690883517265319824e-02
5.200333893299102783e-02
4.320902004837989807e-02
2.052757656201720238e-03
-2.839131280779838562e-02
-3.837950155138969421e-02
3.398385643959045410e-02
-6.201021838933229446e-03
1.622428745031356812e-02
-2.497352659702301025e-02
-3.062480315566062927e-02
-2.571986429393291473e-02
-5.294276401400566101e-02
-5.046472698450088501e-02
-1.548026874661445618e-02
-2.522507309913635254e-02
1.554815284907817841e-02
4.008428659290075302e-04
4.792029038071632385e-02
3.383225062862038612e-03
-5.892479047179222107e-02
9.328820742666721344e-04
-7.177846133708953857e-02
3.464115317910909653e-03
-2.034415304660797119e-02
7.399548776447772980e-03
2.237699925899505615e-02
-3.065451234579086304e-02
-3.579661622643470764e-02
-6.765252910554409027e-03
1.158330496400594711e-02
-5.556425079703330994e-03
-6.586585193872451782e-02
-4.076686687767505646e-03
-3.759106248617172241e-02
-1.030820328742265701e-02
-5.687531083822250366e-03
-2.269780635833740234e-02
1.884069480001926422e-02
3.181128576397895813e-02
-7.631246000528335571e-02
-4.334653541445732117e-02
-4.918834194540977478e-03
1.815198175609111786e-02
-2.136549446731805801e-03
4.973698873072862625e-03
-5.546897649765014648e-03
4.393973201513290405e-02
-3.366741584613919258e-03
-3.591552842408418655e-03
-5.273865908384323120e-02
6.011070683598518372e-03
-5.708666145801544189e-02
-3.112125955522060394e-02
6.729307025671005249e-02
-4.977820813655853271e-02
2.334873564541339874e-02
-3.862515464425086975e-02
5.950197204947471619e-02
7.795359194278717041e-02
-4.294154047966003418e-02
9.506027214229106903e-03
-2.744640223681926727e-02
-1.863927766680717468e-02
-1.140260137617588043e-02
2.240341901779174805e-02
2.819184586405754089e-02
2.967828139662742615e-02
2.193515188992023468e-02
9.920949116349220276e-03
2.022979408502578735e-02
-3.440386056900024414e-02
1.563200540840625763e-02
-6.823834497481584549e-03
3.604570403695106506e-02
3.543040156364440918e-02
2.953795483335852623e-03
-9.858080744743347168e-02
-2.857218869030475616e-02
2.934931218624114990e-02
8.930196985602378845e-03
4.914306104183197021e-03
4.151798039674758911e-02
-1.378350518643856049e-02
3.062188997864723206e-02
-2.313241362571716309e-02
2.824417129158973694e-02
2.633582614362239838e-02
3.542977944016456604e-02
-5.256734043359756470e-02
7.331430446356534958e-03
-4.801335558295249939e-02
3.230870887637138367e-02
-3.608706966042518616e-02
-3.421188518404960632e-02
-4.199260729365050793e-04
-5.126227810978889465e-02
9.076577611267566681e-03
-6.535146385431289673e-02
9.595313109457492828e-03
1.386182475835084915e-02
2.121033519506454468e-02
3.839776292443275452e-02
5.067386850714683533e-02
-4.972172528505325317e-02
-3.039835393428802490e-02
3.069299506023526192e-03
-4.196221381425857544e-02
-2.701474539935588837e-02
-1.459751557558774948e-02
-6.913354992866516113e-02
-5.004500970244407654e-02
-1.258286461234092712e-02
-1.279530581086874008e-02
1.309642195701599121e-02
2.917058393359184265e-02
1.385893090628087521e-03
2.409273758530616760e-02
-3.409648546949028969e-03
3.657633066177368164e-02
-5.818617343902587891e-02
-1.729325740598142147e-03
-1.659474708139896393e-02
4.319529514759778976e-03
-6.184452399611473083e-02
1.577756367623806000e-02
2.406575717031955719e-02
-6.985099753364920616e-04
-3.730376064777374268e-02
4.204311966896057129e-02
4.281283169984817505e-02
-3.297147527337074280e-02
-4.960949532687664032e-03
1.209292467683553696e-02
-5.793210119009017944e-02
-1.226477697491645813e-02
-7.246991246938705444e-02
4.185204580426216125e-02
-3.373487666249275208e-02
1.652865856885910034e-02
-1.047433614730834961e-01
1.784090138971805573e-02
-1.251096837222576141e-02
4.297266528010368347e-02
9.409744292497634888e-03
1.943348720669746399e-02
2.641600929200649261e-02
5.568197369575500488e-02
2.063242252916097641e-03
3.176001831889152527e-02
-5.423927679657936096e-02
2.019961550831794739e-02
-5.879413709044456482e-02
-4.228400066494941711e-02
4.386215656995773315e-02
-3.417158965021371841e-03
7.960234582424163818e-02
-2.190719172358512878e-02
4.677606746554374695e-02
8.404067717492580414e-03
-1.266282610595226288e-02
-2.866983227431774139e-02
-3.766627609729766846e-02
-1.870320178568363190e-02
-3.230213746428489685e-02
4.781888425350189209e-02
3.345194831490516663e-02
-6.240895017981529236e-03
-2.749419957399368286e-02
-6.207632645964622498e-02
-2.047623135149478912e-02
4.283417947590351105e-03
1.629487797617912292e-02
-2.706432156264781952e-02
1.352630741894245148e-02
1.515367417596280575e-03
3.592328727245330811e-02
-8.125816285610198975e-02
-6.131592392921447754e-02
-2.895007096230983734e-02
-2.504683565348386765e-03
1.868914999067783356e-02
5.490320920944213867e-02
3.617674484848976135e-02
-3.019575960934162140e-02
2.358500659465789795e-02
3.699649590998888016e-03
4.350667353719472885e-03
4.742516204714775085e-02
-8.947815001010894775e-02
2.502717263996601105e-02
-2.672294899821281433e-02
9.646933525800704956e-03
-5.874922499060630798e-02
-5.655847955495119095e-03
1.756430976092815399e-02
-4.782289639115333557e-02
-2.675428520888090134e-03
-5.784514918923377991e-02
2.943896688520908356e-02
1.969711855053901672e-03
7.710877805948257446e-02
2.141468413174152374e-02
9.791627526283264160e-03
-4.225319623947143555e-02
-6.928078085184097290e-02
3.059724904596805573e-02
-3.264304250478744507e-02
-4.694233939517289400e-04
2.616404742002487183e-02
-2.786532044410705566e-02
1.185042411088943481e-02
-5.678817257285118103e-02
-4.408207535743713379e-02
3.453653305768966675e-02
-2.928048744797706604e-02
-2.009195089340209961e-02
2.678305841982364655e-02
3.020377270877361298e-02
3.192232921719551086e-02
4.002236295491456985e-03
1.009953860193490982e-02
-3.582507744431495667e-02
3.236823529005050659e-02
-2.006398513913154602e-02
-8.867702446877956390e-03
-8.211692795157432556e-03
-1.195376832038164139e-02
-3.474873676896095276e-02
-3.436871245503425598e-02
2.665006928145885468e-02
-1.499897800385951996e-02
-5.958976224064826965e-02
2.871865639463067055e-03
-7.656168192625045776e-02
3.498046845197677612e-02
-2.174796164035797119e-02
3.894450142979621887e-02
2.249840274453163147e-02
-1.385231222957372665e-02
-1.062431633472442627e-01
-5.659335106611251831e-02
-2.578400075435638428e-02
2.520697936415672302e-02
-3.281458094716072083e-02
-9.295380674302577972e-03
5.656839534640312195e-02
1.674376055598258972e-02
-4.562633484601974487e-02
-7.911687716841697693e-04
-2.254249341785907745e-02
1.282983273267745972e-02
-5.189084261655807495e-02
-5.820111185312271118e-02
3.887929394841194153e-02
-2.458351198583841324e-03
7.494669407606124878e-02
-6.029766425490379333e-02
9.103614091873168945e-02
1.567446254193782806e-02
-3.009194508194923401e-02
2.783563919365406036e-02
-5.730916559696197510e-02
-6.863528862595558167e-03
-4.887911491096019745e-03
4.337602108716964722e-02
-2.719576843082904816e-02
-3.191722184419631958e-02
-2.520051971077919006e-02
-4.177867993712425232e-02
-4.327257722616195679e-02
-2.562278881669044495e-02
1.887264661490917206e-02
-6.508263945579528809e-02
-2.997525408864021301e-02
-2.005830965936183929e-02
1.827914081513881683e-02
-7.899813354015350342e-02
-4.135352000594139099e-02
2.593134157359600067e-02
-6.576304137706756592e-02
-8.741059340536594391e-03
-3.415748651605099440e-04
3.372983261942863464e-02
1.088709849864244461e-02
-1.868160814046859741e-02
5.714878812432289124e-02
5.187272652983665466e-02
-8.622645400464534760e-03
-5.606509372591972351e-02
-1.923986151814460754e-02
3.204097971320152283e-02
5.914745852351188660e-03
-2.167590707540512085e-02
-6.468930840492248535e-02
-2.702811732888221741e-02
-1.903048902750015259e-02
-5.801911465823650360e-03
-6.564999464899301529e-03
7.423980627208948135e-03
-7.567188702523708344e-03
8.206591941416263580e-03
3.570167720317840576e-02
5.496000126004219055e-02
-4.997292533516883850e-02
-1.229444704949855804e-02
3.896205686032772064e-03
-4.008251801133155823e-02
-4.088931530714035034e-02
-5.991974379867315292e-03
-6.313765048980712891e-02
5.322501529008150101e-03
-6.304982304573059082e-02
-3.613303974270820618e-02
1.633708365261554718e-02
1.076140161603689194e-02
3.414484439417719841e-03
-1.816776581108570099e-02
3.732302412390708923e-02
1.297741662710905075e-02
-1.110632158815860748e-02
4.466386511921882629e-02
-7.986556738615036011e-02
-1.878716051578521729e-02
-5.935610737651586533e-03
1.060109771788120270e-02
3.610076010227203369e-02
-5.132032930850982666e-02
-3.906321525573730469e-02
6.076380982995033264e-02
4.021645337343215942e-02
-1.187509298324584961e-02
-7.727098185569047928e-03
2.459833398461341858e-02
-6.183945387601852417e-02
1.887195557355880737e-02
-4.995918273925781250e-02
-2.080799080431461334e-03
-5.748429149389266968e-02
-4.209571052342653275e-03
-3.367006406188011169e-02
-4.382835701107978821e-02
-2.847047150135040283e-02
1.164266932755708694e-02
-2.053783647716045380e-02
1.901116408407688141e-02
4.068433493375778198e-02
7.040677219629287720e-02
-2.230944857001304626e-02
-2.507826127111911774e-02
-3.647959977388381958e-02
3.993872925639152527e-02
-1.456949859857559204e-02
-5.419673770666122437e-02
3.060786239802837372e-02
-4.457947239279747009e-02
8.672459423542022705e-02
-5.344707891345024109e-02
5.256712436676025391e-02
1.584459329023957253e-03
-6.349948793649673462e-02
3.662571683526039124e-02
-6.161111872643232346e-03
-3.075921721756458282e-02
-2.451673382893204689e-03
4.110092669725418091e-02
-1.117255259305238724e-02
-1.495799398981034756e-03
1.227471884340047836e-02
-1.169609185308218002e-02
-2.850740589201450348e-02
6.791570689529180527e-03
4.880495369434356689e-02
-7.897953689098358154e-02
-2.680940926074981689e-02
-8.375430479645729065e-03
-6.057023536413908005e-03
-4.830052703619003296e-02
-1.724699139595031738e-02
-4.072975367307662964e-03
-1.931315474212169647e-02
-1.215790305286645889e-02
3.668924421072006226e-02
-2.362391352653503418e-02
6.136044859886169434e-03
-3.186203539371490479e-02
2.970518358051776886e-02
1.212911494076251984e-02
6.844311486929655075e-03
-4.307871684432029724e-02
1.289274543523788452e-02
-2.815300785005092621e-02
9.381921961903572083e-03
-2.259394619613885880e-03
1.734261214733123779e-02
-8.599647320806980133e-03
-5.572394654154777527e-02
-2.877734415233135223e-02
-4.943374171853065491e-02
3.001260198652744293e-02
6.032024323940277100e-02
2.436295524239540100e-02
2.025254815816879272e-02
9.234799072146415710e-03
-4.880498349666595459e-02
-8.943194150924682617e-02
-7.152271457016468048e-03
-7.702783681452274323e-03
4.532819613814353943e-03
4.910426679998636246e-03
-7.910726964473724365e-02
2.117129601538181305e-02
-4.547303542494773865e-02
1.686540804803371429e-02
2.976456843316555023e-02
-1.933960244059562683e-02
-2.976987976580858231e-03
1.694574207067489624e-02
3.025382757186889648e-02
4.065511375665664673e-02
-3.991403430700302124e-02
6.411958485841751099e-03
-4.314644262194633484e-02
2.805735915899276733e-02
7.182456552982330322e-03
3.088562749326229095e-03
-7.639193441718816757e-03
-2.481853403151035309e-02
-3.161982458550482988e-04
-5.680809263139963150e-03
3.929747641086578369e-02
1.419964618980884552e-02
-2.185221062973141670e-03
-1.182263065129518509e-02
-7.850435376167297363e-02
5.794520676136016846e-02
3.388745244592428207e-03
-1.374330837279558182e-02
-9.404119919054210186e-05
4.717779532074928284e-02
-6.600242853164672852e-02
-3.069734387099742889e-02
-6.730237044394016266e-03
3.552068397402763367e-02
-3.412873411434702575e-05
-8.580406196415424347e-03
4.296645149588584900e-02
6.481628865003585815e-02
-5.634060129523277283e-03
-1.100475061684846878e-02
-6.070835143327713013e-02
2.387780323624610901e-02
-6.639814004302024841e-03
-4.927856102585792542e-02
7.420720905065536499e-02
9.659299626946449280e-03
1.610537990927696228e-02
-4.212730750441551208e-02
2.167236059904098511e-02
4.991160333156585693e-02
-2.411150187253952026e-02
-1.968692988157272339e-02
2.241080440580844879e-02
6.582317873835563660e-03
1.173863094300031662e-02
4.766570345964282751e-04
7.922844961285591125e-03
-4.633408039808273315e-02
-1.062632165849208832e-02
2.639606036245822906e-02
1.979495026171207428e-02
-9.125692769885063171e-03
3.516180440783500671e-02
-4.626725614070892334e-02
3.859484568238258362e-02
3.416824340820312500e-02
5.061922222375869751e-02
-8.311732858419418335e-02
-2.335217036306858063e-02
-2.617359161376953125e-03
-3.067288920283317566e-02
1.807498931884765625e-02
9.009560942649841309e-02
-2.209188602864742279e-02
4.859015753027051687e-04
-4.594694077968597412e-02
6.074727326631546021e-02
4.526341799646615982e-03
3.395716892555356026e-03
-8.427660912275314331e-02
4.375033080577850342e-02
1.030305493623018265e-02
7.807706482708454132e-03
1.687448844313621521e-02
-3.953528031706809998e-02
-7.373379170894622803e-02
-2.854305319488048553e-02
-3.391861543059349060e-02
-8.207939565181732178e-02
8.225854486227035522e-02
4.206878133118152618e-03
7.490345742553472519e-03
-1.533147646114230156e-03
4.932858794927597046e-02
-2.020431123673915863e-02
-7.550286501646041870e-02
5.593595653772354126e-02
-5.511078238487243652e-02
-1.343441079370677471e-03
3.652954706922173500e-03
-3.002138249576091766e-02
-2.536391466856002808e-02
-3.336169943213462830e-02
-4.938903823494911194e-02
5.849424004554748535e-02
-8.152334485203027725e-04
-1.530401222407817841e-02
2.537882700562477112e-02
2.017205394804477692e-02
-2.996182010974735022e-04
1.667172648012638092e-02
-2.965472266077995300e-02
-1.153551507741212845e-02
1.874940097332000732e-02
1.860255026258528233e-03
-8.413212373852729797e-03
6.148770917207002640e-03
-4.376025497913360596e-02
-2.660379931330680847e-02
4.053838923573493958e-02
1.435745693743228912e-02
9.940838441252708435e-03
-5.657923966646194458e-02
-2.082577347755432129e-02
-4.811978712677955627e-02
1.725047081708908081e-02
-2.046654373407363892e-02
4.275166988372802734e-02
-4.365289583802223206e-02
3.003244847059249878e-02
-9.277930110692977905e-02
1.669452711939811707e-02
4.180886317044496536e-03
3.979310765862464905e-02
-2.530933171510696411e-02
1.975804381072521210e-02
4.303295910358428955e-02
1.036268938332796097e-02
-2.863991633057594299e-02
1.332475221715867519e-03
-5.297062173485755920e-02
2.451983839273452759e-02
-4.188540391623973846e-03
-2.008453942835330963e-02
5.647251382470130920e-03
-2.323740534484386444e-02
7.449856400489807129e-02
-1.792545057833194733e-02
9.327466040849685669e-02
6.189991533756256104e-02
-4.221517592668533325e-02
-3.352344781160354614e-02
5.250860471278429031e-03
-4.657911881804466248e-02
-1.937872916460037231e-02
-1.589394733309745789e-02
4.432001151144504547e-03
-9.865254163742065430e-03
4.735490307211875916e-02
-4.401477426290512085e-02
-3.733667358756065369e-02
-3.695851191878318787e-02
-2.046681754291057587e-02
-3.937267139554023743e-02
3.474419191479682922e-02
-4.342752508819103241e-03
4.607014358043670654e-03
-6.255415827035903931e-02
-5.112427752465009689e-03
-1.865286752581596375e-02
2.588639734312891960e-03
1.892823539674282074e-02
8.001418411731719971e-02
1.638535223901271820e-02
-3.144064173102378845e-02
2.563475817441940308e-02
4.070867970585823059e-02
1.826432719826698303e-02
2.517161518335342407e-02
-1.473590731620788574e-02
3.406963497400283813e-02
4.292648751288652420e-03
4.633227735757827759e-02
-3.243726491928100586e-02
-3.713642060756683350e-02
-2.554495446383953094e-02
-1.666881516575813293e-02
-3.067210316658020020e-02
-8.213697373867034912e-02
3.645655885338783264e-02
4.505209997296333313e-02
-4.529991419985890388e-04
3.229681774973869324e-02
-1.710536162136122584e-04
-2.345321886241436005e-02
-7.070526946336030960e-03
-5.881139077246189117e-03
-2.766988612711429596e-02
-5.270339548587799072e-02
3.952759131789207458e-02
-8.716057986021041870e-02
-1.951536163687705994e-02
-1.192000787705183029e-02
3.240586374886333942e-04
1.219888101331889629e-03
-2.261056192219257355e-02
-1.998766884207725525e-02
1.199520309455692768e-03
-1.105076633393764496e-02
4.361861944198608398e-02
-3.647064790129661560e-02
3.315782174468040466e-02
-1.933874213136732578e-03
-1.651209406554698944e-02
-6.648509949445724487e-02
3.991609066724777222e-02
1.088545378297567368e-02
-4.293583333492279053e-02
6.780698429793119431e-03
1.292850263416767120e-02
2.528121694922447205e-02
-1.544517744332551956e-02
-4.995271936058998108e-02
1.264327578246593475e-02
-1.013058517128229141e-02
3.532546106725931168e-03
-8.757458999752998352e-03
2.890020841732621193e-03
-2.380663901567459106e-02
2.629373781383037567e-02
-7.234505563974380493e-02
-4.728249460458755493e-02
2.435012720525264740e-03
2.384696342051029205e-02
-2.937956713140010834e-02
1.526983454823493958e-02
-9.124873322434723377e-04
6.804715842008590698e-02
-1.775675686076283455e-03
-3.183953836560249329e-02
-9.724201634526252747e-03
-1.917057670652866364e-02
-6.730775535106658936e-02
-4.471252113580703735e-02
3.862935677170753479e-02
-4.053274914622306824e-02
3.379135206341743469e-02
-8.108957856893539429e-02
2.247427590191364288e-02
7.260846346616744995e-02
-6.424982845783233643e-02
1.660519652068614960e-02
-4.500816762447357178e-02
1.397593412548303604e-02
1.940126903355121613e-02
2.236283384263515472e-02
8.239730261266231537e-03
-1.839541085064411163e-02
3.706411272287368774e-02
-3.154739364981651306e-02
-3.296589106321334839e-02
-3.134215995669364929e-02
4.298224113881587982e-03
-3.465134277939796448e-02
1.320470403879880905e-02
1.504203677177429199e-02
1.487231533974409103e-02
-8.062313497066497803e-02
-6.037401407957077026e-02
-4.210455715656280518e-02
1.018302887678146362e-02
9.604319347999989986e-04
6.905443221330642700e-02
-4.491648636758327484e-03
-7.068755570799112320e-03
-2.522831223905086517e-02
5.299181491136550903e-02
1.768326014280319214e-02
3.571586310863494873e-02
-1.943204738199710846e-02
1.863344572484493256e-02
-1.008729916065931320e-03
2.270776033401489258e-02
-3.040177933871746063e-02
-1.353934593498706818e-02
-3.699320182204246521e-02
-1.528708171099424362e-02
-6.499565672129392624e-03
-5.053064227104187012e-02
3.865165263414382935e-02
