-1.898493319749832153e-01
6.600932031869888306e-02
-2.986933849751949310e-02
6.631296128034591675e-02
3.532298654317855835e-02
-1.307865828275680542e-01
-5.149739235639572144e-02
-2.218492515385150909e-02
8.916842192411422729e-02
-5.475199222564697266e-02
1.506304927170276642e-02
3.321239352226257324e-02
3.533779829740524292e-02
2.492749504745006561e-02
-5.864709615707397461e-02
-5.476215109229087830e-02
5.671366304159164429e-02
6.487721204757690430e-02
1.884009391069412231e-01
2.830019220709800720e-03
3.413663059473037720e-02
1.391901983879506588e-03
-1.612378284335136414e-03
-8.529905974864959717e-02
4.190597310662269592e-02
1.150275915861129761e-01
1.825868338346481323e-02
-9.348937124013900757e-02
6.604322046041488647e-02
-9.430720470845699310e-03
-1.147340014576911926e-01
-7.414241880178451538e-02
4.337425529956817627e-02
2.608941122889518738e-02
-8.220547437667846680e-02
-5.822297558188438416e-02
3.949351608753204346e-02
-1.050303950905799866e-01
5.473696067929267883e-02
3.906024619936943054e-02
-4.754614457488059998e-02
-8.824174851179122925e-02
-6.279154866933822632e-02
-3.692146018147468567e-02
-1.385663002729415894e-01
-1.573828011751174927e-01
-9.187957644462585449e-02
2.769688516855239868e-02
8.753802627325057983e-02
1.089155115187168121e-02
