4.070758819580078125e-02
-1.403900142759084702e-02
-4.814108088612556458e-02
4.379934445023536682e-02
4.152224585413932800e-02
3.298526396974921227e-03
7.468229625374078751e-03
3.008578531444072723e-02
-2.298462018370628357e-02
-1.591753773391246796e-02
-1.977981813251972198e-02
3.177789598703384399e-02
-1.800667308270931244e-02
4.069411754608154297e-02
6.298718042671680450e-03
-2.298167673870921135e-03
-3.687609359622001648e-02
-1.199677400290966034e-02
-1.577214896678924561e-02
-6.598164327442646027e-03
3.613912314176559448e-02
-1.052298024296760559e-02
6.711764633655548096e-02
1.770742051303386688e-02
1.804808154702186584e-02
3.274602070450782776e-02
-3.296444937586784363e-02
3.042633458971977234e-02
7.569055072963237762e-03
-3.043564781546592712e-02
-6.392438896000385284e-03
-1.578786759637296200e-04
5.999965593218803406e-03
-1.871984265744686127e-02
2.320770919322967529e-02
3.029004484415054321e-02
4.419219121336936951e-02
-5.435931310057640076e-02
-1.377875059843063354e-01
2.914290688931941986e-02
1.223761774599552155e-02
3.282968327403068542e-02
-3.561223158612847328e-03
2.712637186050415039e-02
3.137126937508583069e-02
3.191998973488807678e-02
7.245100289583206177e-02
-2.585113979876041412e-03
-3.090802952647209167e-02
1.141151878982782364e-02
-1.499353442341089249e-02
6.365034263581037521e-03
4.005203396081924438e-02
-2.427460812032222748e-02
-3.979530557990074158e-02
1.547912415117025375e-02
3.883399814367294312e-02
-1.894071884453296661e-02
4.281047731637954712e-03
-3.957867994904518127e-02
-2.733604051172733307e-02
3.406072780489921570e-02
-1.032760133966803551e-03
5.299378186464309692e-03
3.372598439455032349e-03
2.930673211812973022e-02
-9.816987439990043640e-04
-2.703946782276034355e-03
-1.650046929717063904e-02
1.864297688007354736e-02
3.129680827260017395e-02
2.144498378038406372e-02
6.768475472927093506e-02
6.137638539075851440e-02
4.984844848513603210e-02
-3.057773225009441376e-02
1.907509565353393555e-02
-5.206913873553276062e-02
-4.036540910601615906e-02
-1.070633414201438427e-03
-7.478973828256130219e-03
3.617750480771064758e-02
-3.008784539997577667e-02
-5.625532567501068115e-02
-3.673413768410682678e-02
-1.535240281373262405e-02
2.028377354145050049e-02
1.174043677747249603e-02
-7.435875385999679565e-02
3.651457140222191811e-03
-5.678481888025999069e-03
5.321207642555236816e-02
1.036682631820440292e-02
-4.929673392325639725e-03
-2.177809737622737885e-02
-1.093870960175991058e-02
-3.152714297175407410e-02
2.444631047546863556e-02
-5.541540682315826416e-03
5.889450386166572571e-02
-1.363606937229633331e-02
-6.491104606539011002e-03
2.601129002869129181e-03
6.671367678791284561e-03
-5.376404616981744766e-03
7.834590971469879150e-03
4.601980745792388916e-02
-1.618712209165096283e-02
-5.034265574067831039e-03
5.212197452783584595e-02
-1.578757539391517639e-02
3.587232157588005066e-02
1.356157194823026657e-02
-7.654833607375621796e-03
-1.225986145436763763e-02
1.548294257372617722e-02
-2.633297070860862732e-02
-4.948183894157409668e-03
-3.333919495344161987e-02
3.750622645020484924e-02
-1.226633787155151367e-02
3.988217562437057495e-02
1.867093518376350403e-02
-2.352754771709442139e-02
4.036311991512775421e-03
7.168158423155546188e-03
2.109854668378829956e-02
-1.536769326776266098e-02
-2.268699742853641510e-02
-1.625838689506053925e-02
4.294167831540107727e-02
4.456212371587753296e-02
2.253375947475433350e-02
1.275736652314662933e-02
-1.527613215148448944e-02
-1.908125355839729309e-02
9.824243374168872833e-03
-4.145663604140281677e-02
-1.753282546997070312e-01
4.293071106076240540e-03
3.672330826520919800e-02
-2.487963996827602386e-02
1.783301681280136108e-02
-1.911111176013946533e-02
2.138068526983261108e-02
2.164499089121818542e-02
5.597134679555892944e-02
-1.814617961645126343e-02
-2.023958601057529449e-02
3.651333390735089779e-04
-2.252877503633499146e-02
-2.449742518365383148e-02
8.746077306568622589e-03
1.999009586870670319e-02
-4.039540141820907593e-02
9.807549649849534035e-04
-1.977228373289108276e-02
-1.763807842507958412e-03
1.209312700666487217e-03
2.332797646522521973e-02
9.272632189095020294e-03
-4.077975451946258545e-02
1.172434259206056595e-02
-5.856848787516355515e-03
4.696619231253862381e-03
2.652204781770706177e-02
1.426476333290338516e-02
-2.949820645153522491e-02
8.231665939092636108e-03
7.230879273265600204e-03
-1.314177364110946655e-02
2.615494094789028168e-02
6.683493033051490784e-03
3.886469081044197083e-02
3.758009523153305054e-02
6.023017689585685730e-02
-2.035262435674667358e-02
-2.464134991168975830e-02
3.592111915349960327e-02
3.363322094082832336e-02
2.750677056610584259e-02
1.411265414208173752e-02
4.482241347432136536e-03
-2.277524955570697784e-02
-2.952549979090690613e-02
-4.987072665244340897e-03
-1.642859727144241333e-02
4.045244678854942322e-02
-5.592603981494903564e-02
-3.895783796906471252e-03
3.382270410656929016e-02
4.785385727882385254e-02
4.242585040628910065e-03
-2.553057111799716949e-02
-3.773101046681404114e-02
-2.803122065961360931e-02
-3.782355692237615585e-03
-3.705228492617607117e-02
5.933377426117658615e-03
3.603308647871017456e-02
1.228806283324956894e-02
3.642345080152153969e-03
-1.575701870024204254e-03
6.331939366646111012e-04
3.879787400364875793e-02
1.202054973691701889e-02
-2.184922993183135986e-02
2.056264085695147514e-03
-7.797528989613056183e-03
1.128340591094456613e-04
1.755177229642868042e-02
9.742096997797489166e-03
-2.365324087440967560e-02
-2.287123166024684906e-02
-2.305600064573809505e-04
-4.164856672286987305e-02
-3.073051944375038147e-02
-2.672261558473110199e-02
2.303916215896606445e-02
-3.742376342415809631e-02
-6.540783215314149857e-03
6.591977551579475403e-03
2.867192216217517853e-02
-1.717888750135898590e-02
-3.466659039258956909e-02
1.862849667668342590e-02
2.115550823509693146e-02
-9.714684449136257172e-03
7.089274586178362370e-04
4.129970446228981018e-03
-3.320265188813209534e-02
1.641052402555942535e-02
3.396027535200119019e-02
3.597670793533325195e-02
1.445439085364341736e-02
4.259678348898887634e-02
5.559119395911693573e-03
2.921960316598415375e-03
-4.470053315162658691e-02
1.401138398796319962e-02
1.225365046411752701e-02
2.403452061116695404e-02
-7.856052368879318237e-03
3.464288543909788132e-03
-2.232132665812969208e-02
2.425129339098930359e-02
4.287615418434143066e-02
2.176061458885669708e-02
-1.530880481004714966e-02
1.554235722869634628e-02
-1.657495088875293732e-02
-4.226440936326980591e-02
-4.103049635887145996e-03
-2.851502224802970886e-02
-3.972274065017700195e-02
1.300818519666790962e-03
-4.107241111341863871e-04
-2.452605217695236206e-02
-3.200095519423484802e-02
2.366371639072895050e-02
-8.422108367085456848e-03
-2.243499457836151123e-02
2.153882198035717010e-02
-5.783423781394958496e-02
4.401351511478424072e-02
3.986341506242752075e-02
-3.112572943791747093e-03
5.273619666695594788e-03
-2.403596788644790649e-02
-1.329049264313653111e-04
-5.276494193822145462e-03
-2.208045683801174164e-02
2.836228348314762115e-02
-1.732271723449230194e-02
-2.088581211864948273e-02
5.748262256383895874e-02
-9.213733486831188202e-03
9.304797276854515076e-03
-4.646100103855133057e-03
1.774561405181884766e-02
3.137104958295822144e-02
4.282001033425331116e-02
4.828684031963348389e-03
-1.610527001321315765e-02
-3.512603789567947388e-02
-5.551531445235013962e-03
-1.798105798661708832e-02
4.672501236200332642e-03
-9.010865353047847748e-03
4.330739378929138184e-02
1.088161487132310867e-02
3.954669460654258728e-02
-4.951615817844867706e-03
-2.843607030808925629e-02
-2.825906500220298767e-02
2.934692054986953735e-02
1.712178625166416168e-02
-3.140522539615631104e-02
-5.295748705975711346e-04
5.250463262200355530e-02
4.117736965417861938e-02
4.684851039201021194e-03
-1.466559898108243942e-02
2.289075218141078949e-02
4.403517767786979675e-02
-1.689313165843486786e-02
1.071713957935571671e-02
2.177361771464347839e-02
-2.827377174980938435e-04
3.429313749074935913e-02
-3.792796051129698753e-03
-1.213258784264326096e-02
-1.721572130918502808e-02
1.411880180239677429e-02
-1.287547871470451355e-03
-4.355772957205772400e-02
-2.347114495933055878e-02
2.232080139219760895e-02
4.067349061369895935e-02
-7.871218025684356689e-03
3.024197928607463837e-02
-4.274309799075126648e-02
1.896465010941028595e-02
-1.711794920265674591e-02
-2.059398032724857330e-02
1.212516333907842636e-02
-7.919569499790668488e-03
1.674625650048255920e-02
9.490405791439116001e-04
2.799751237034797668e-02
-1.488747913390398026e-02
1.001209858804941177e-02
-4.575135186314582825e-03
1.541688852012157440e-02
1.757832057774066925e-02
-1.225566212087869644e-02
3.657861426472663879e-02
5.905208643525838852e-03
1.921461895108222961e-02
-4.342237487435340881e-03
3.192253410816192627e-02
1.589903421700000763e-02
1.716760173439979553e-02
2.826959826052188873e-02
-2.639169059693813324e-02
-4.690130054950714111e-02
-3.324597328901290894e-02
-1.551427878439426422e-03
-2.071513608098030090e-02
-3.903507441282272339e-02
1.952279545366764069e-02
-4.895346239209175110e-02
-1.178163569420576096e-02
-1.481306646019220352e-02
-8.493343368172645569e-03
-3.149800002574920654e-02
5.051106959581375122e-02
6.423135288059711456e-03
-2.982285805046558380e-02
2.484753541648387909e-02
2.444752492010593414e-03
2.939479425549507141e-02
9.047073312103748322e-03
-2.335795015096664429e-02
4.013067483901977539e-02
-1.805628091096878052e-02
5.194025114178657532e-03
-3.283389960415661335e-04
-3.811345621943473816e-02
4.956407472491264343e-03
1.376061234623193741e-02
-1.895638741552829742e-02
1.148432958871126175e-03
4.589157924056053162e-02
-3.224754706025123596e-02
1.825453341007232666e-02
-1.982064731419086456e-02
-3.231575340032577515e-02
-2.548758313059806824e-02
1.086021959781646729e-02
3.451136499643325806e-02
-1.854914613068103790e-02
3.343001240864396095e-03
-1.500069070607423782e-02
3.036263933609006926e-06
-4.387235268950462341e-03
-3.699418157339096069e-02
-3.234821185469627380e-02
-2.920363098382949829e-02
3.452386334538459778e-02
-8.371234871447086334e-03
6.588987074792385101e-03
1.273719780147075653e-02
-3.778834827244281769e-03
-1.156552229076623917e-02
3.669730573892593384e-02
-2.355644851922988892e-02
-1.967256888747215271e-02
2.665604092180728912e-02
-6.637554615736007690e-03
2.597127422632183880e-05
1.414515636861324310e-02
2.570292353630065918e-02
3.426317870616912842e-02
-1.298713497817516327e-02
-2.303181961178779602e-02
4.852189123630523682e-02
3.611108660697937012e-02
1.424250379204750061e-02
2.429481782019138336e-02
4.680008161813020706e-03
-1.695931889116764069e-02
-8.362951339222490788e-04
7.938042283058166504e-03
-1.604994200170040131e-02
-3.844780102372169495e-02
-5.176655831746757030e-04
-1.443348731845617294e-02
-2.996013499796390533e-02
2.759546972811222076e-02
5.042687803506851196e-02
2.132954541593790054e-04
-3.313008695840835571e-02
4.600184038281440735e-02
2.851567789912223816e-02
-1.182447560131549835e-02
1.973501220345497131e-02
1.726775243878364563e-02
4.617477301508188248e-03
4.090123996138572693e-02
-1.491930335760116577e-02
-2.933160169050097466e-03
2.030673436820507050e-02
-2.587490249425172806e-03
3.380319103598594666e-02
1.434338558465242386e-02
-1.839973591268062592e-02
6.553613580763339996e-03
1.592329330742359161e-02
2.746398188173770905e-02
1.017278525978326797e-02
3.638315200805664062e-02
-4.996722936630249023e-02
3.138181567192077637e-02
3.618004545569419861e-02
-5.987742915749549866e-02
3.555068373680114746e-02
-1.933628879487514496e-02
1.850146614015102386e-02
-6.260111927986145020e-02
-3.399237617850303650e-02
-4.123238474130630493e-02
1.107581146061420441e-02
4.641031380742788315e-03
-5.357366520911455154e-03
-3.247556090354919434e-02
-1.742857694625854492e-02
2.691131830215454102e-02
-7.178220432251691818e-03
-1.025049388408660889e-02
-4.650598764419555664e-02
-4.051243141293525696e-02
-4.730648547410964966e-02
-7.205854356288909912e-02
3.424247354269027710e-02
-9.037750773131847382e-03
-2.752082794904708862e-02
-3.110706806182861328e-03
1.214772649109363556e-02
3.497472777962684631e-02
-1.933556981384754181e-02
9.358154609799385071e-03
-1.538886036723852158e-02
3.707439079880714417e-02
-2.453043498098850250e-02
-1.194472331553697586e-02
-9.855404496192932129e-03
-7.534500211477279663e-03
1.555114798247814178e-02
-1.198130659759044647e-03
1.884307153522968292e-02
2.912664413452148438e-02
1.047190651297569275e-02
-3.147550392895936966e-03
2.983322367072105408e-03
-7.000363897532224655e-03
2.505666390061378479e-02
2.218972891569137573e-02
-8.567330427467823029e-03
-1.635734457522630692e-03
-3.516032174229621887e-02
3.127169236540794373e-02
1.807138882577419281e-02
-3.552449122071266174e-02
-3.165050223469734192e-02
3.554268181324005127e-02
-3.035065531730651855e-02
-2.815644629299640656e-02
-6.588287185877561569e-03
4.489972442388534546e-02
1.138131134212017059e-02
2.750889956951141357e-02
-1.686575473286211491e-03
7.092990446835756302e-03
-2.303273789584636688e-02
5.055455863475799561e-02
1.707796938717365265e-02
2.061123214662075043e-02
-4.853181913495063782e-02
5.119924992322921753e-02
1.409062743186950684e-02
2.870678529143333435e-02
-1.761895231902599335e-02
4.687205888330936432e-03
1.265861745923757553e-02
-7.146164309233427048e-03
-1.188205461949110031e-02
1.324461493641138077e-02
-5.135598778724670410e-02
-3.058520890772342682e-02
-3.126827999949455261e-02
5.335470288991928101e-02
9.978938847780227661e-03
-1.980282686417922378e-04
-1.196113973855972290e-02
3.800673410296440125e-02
-2.999096177518367767e-02
6.360902916640043259e-03
1.421114243566989899e-02
-1.391754020005464554e-02
8.390011638402938843e-02
1.142948493361473083e-02
4.920329898595809937e-02
-4.293465055525302887e-03
-1.871066167950630188e-02
3.541845455765724182e-02
-1.122387684881687164e-02
-2.487350068986415863e-02
-1.898554712533950806e-01
1.235846802592277527e-02
6.608908297494053841e-04
-1.894633314805105329e-04
1.146192848682403564e-02
-8.719912730157375336e-03
1.573546230792999268e-02
-3.164096921682357788e-02
2.265537157654762268e-02
-2.274562790989875793e-02
-3.122879005968570709e-02
2.330256998538970947e-02
1.874380744993686676e-02
3.784231841564178467e-02
-1.190745737403631210e-02
-4.711130168288946152e-03
-5.977441743016242981e-02
4.917494021356105804e-03
3.630849719047546387e-02
2.705745026469230652e-02
-2.328510582447052002e-02
1.579227275215089321e-03
-9.310979396104812622e-03
9.334467351436614990e-03
1.112660113722085953e-02
9.597544558346271515e-03
-9.328625164926052094e-03
4.168550670146942139e-02
4.644989501684904099e-03
2.176770707592368126e-03
2.802919596433639526e-02
-6.841995753347873688e-03
-3.588385879993438721e-02
-3.859785199165344238e-02
7.205138355493545532e-02
1.499053929001092911e-02
8.286975324153900146e-03
1.669672876596450806e-02
1.469627860933542252e-02
-1.222400739789009094e-02
1.562025491148233414e-02
-2.020536921918392181e-02
5.141926929354667664e-02
3.064457327127456665e-02
2.001653425395488739e-02
-5.605891346931457520e-02
2.072633011266589165e-03
-3.493924811482429504e-02
-2.870677784085273743e-02
3.653721138834953308e-02
-6.738908588886260986e-02
-1.333502586930990219e-02
5.471161101013422012e-03
-6.136605981737375259e-03
-1.325443387031555176e-02
-7.024872116744518280e-03
1.644350821152329445e-03
2.915640175342559814e-02
-1.297203823924064636e-02
3.892325982451438904e-02
1.443884684704244137e-04
3.807343170046806335e-02
-2.876684255897998810e-02
2.327740937471389771e-02
-1.636754162609577179e-02
-3.850410878658294678e-02
2.057009190320968628e-02
4.643153399229049683e-02
-7.555155898444354534e-04
9.259250946342945099e-03
-2.357018738985061646e-02
-7.284525781869888306e-03
2.129830978810787201e-02
-9.096106514334678650e-03
3.932413086295127869e-02
-3.072237409651279449e-02
3.151236101984977722e-02
-2.343891747295856476e-02
-2.123778872191905975e-02
-1.660324074327945709e-02
2.350300550460815430e-02
3.828977048397064209e-02
-9.829668328166007996e-03
8.964890614151954651e-03
7.086013909429311752e-03
-4.715938121080398560e-03
1.677742041647434235e-02
8.041553199291229248e-03
1.428608782589435577e-02
4.087368398904800415e-02
9.985934942960739136e-03
-1.633305661380290985e-02
3.279303014278411865e-02
-1.628247275948524475e-02
3.592011332511901855e-02
-9.323793463408946991e-03
-8.069238625466823578e-03
-1.835988461971282959e-02
2.931233122944831848e-02
-2.549789845943450928e-02
-9.371841698884963989e-02
-1.202073041349649429e-02
2.829577215015888214e-02
-4.875119484495371580e-04
-3.789115697145462036e-02
8.973522111773490906e-03
-1.807380653917789459e-02
4.468414932489395142e-03
8.527268655598163605e-03
1.766073331236839294e-02
1.998054422438144684e-02
-6.724319886416196823e-03
-9.197308681905269623e-03
2.630028128623962402e-02
-1.628574915230274200e-02
1.363757066428661346e-02
-3.538321703672409058e-02
2.874720655381679535e-02
-2.204849943518638611e-02
-1.746999798342585564e-03
2.683531865477561951e-02
-4.458928108215332031e-02
-5.418689548969268799e-02
-1.697403751313686371e-02
2.835276909172534943e-02
-5.695439875125885010e-03
5.317844077944755554e-02
6.179276853799819946e-02
1.417815685272216797e-02
1.972786337137222290e-02
-1.431723684072494507e-02
-2.953534014523029327e-02
-4.122249037027359009e-02
-1.414354052394628525e-02
3.465975075960159302e-02
5.484843626618385315e-02
3.121817484498023987e-02
9.737162617966532707e-04
3.772675618529319763e-02
-3.356931731104850769e-02
3.504449501633644104e-02
2.192931994795799255e-02
1.845475472509860992e-02
4.785939306020736694e-02
-2.748539205640554428e-03
-1.747008226811885834e-02
-1.733958348631858826e-02
1.508903782814741135e-02
2.609313651919364929e-02
3.126533329486846924e-02
1.070547010749578476e-02
6.697271950542926788e-03
-1.495165284723043442e-02
4.944378882646560669e-02
2.846364118158817291e-02
-2.377823181450366974e-02
-7.808974012732505798e-03
-1.222700159996747971e-02
3.125045821070671082e-02
-2.612180076539516449e-02
-5.072996765375137329e-02
2.371584810316562653e-02
-3.267386928200721741e-02
-4.047999531030654907e-02
-2.239971794188022614e-02
1.587762683629989624e-02
-1.917657442390918732e-02
-1.837545819580554962e-02
5.022128671407699585e-02
1.762331463396549225e-02
2.068501524627208710e-02
-1.184257096610963345e-03
1.616881042718887329e-02
-8.072311058640480042e-03
1.570657640695571899e-02
-2.674901857972145081e-02
-3.971381578594446182e-03
-1.444419380277395248e-02
4.679809510707855225e-02
-3.358341753482818604e-02
2.963834814727306366e-02
2.345694415271282196e-02
2.792306616902351379e-02
6.434345245361328125e-02
3.836794570088386536e-02
-1.942041912116110325e-03
-1.659640111029148102e-03
2.807345800101757050e-02
3.705839812755584717e-02
-2.878766506910324097e-02
1.957795210182666779e-02
2.002754807472229004e-02
-1.527511049062013626e-03
1.492207590490579605e-02
3.098620474338531494e-02
-3.013247437775135040e-02
3.350620344281196594e-02
-8.315743878483772278e-03
2.309144474565982819e-02
-3.123125992715358734e-02
8.711975999176502228e-03
2.193312533199787140e-02
-1.224864833056926727e-02
1.580785214900970459e-02
1.549050305038690567e-02
-4.468768369406461716e-03
2.738636173307895660e-02
1.633138395845890045e-02
3.505650535225868225e-02
1.650089584290981293e-02
5.877806991338729858e-02
-1.729799807071685791e-02
-4.493639338761568069e-03
-5.427750293165445328e-03
6.767349317669868469e-03
-1.442990358918905258e-02
-2.117563597857952118e-02
2.158039808273315430e-02
-2.526606619358062744e-02
2.302629873156547546e-02
6.143939215689897537e-03
-2.275470085442066193e-02
-2.807064913213253021e-02
-2.055807039141654968e-02
-2.007958851754665375e-02
1.816322281956672668e-02
2.744773030281066895e-02
4.730676859617233276e-02
-1.704099401831626892e-02
2.828980237245559692e-02
-3.474319353699684143e-02
-3.066091239452362061e-02
-3.629226470366120338e-03
-9.923323057591915131e-03
4.467413946986198425e-02
5.344001203775405884e-02
3.387287259101867676e-02
-1.452358439564704895e-02
9.774863719940185547e-03
2.153625153005123138e-02
3.519770875573158264e-02
-2.914236159995198250e-03
-1.032174099236726761e-02
-9.656714973971247673e-04
4.191560298204421997e-02
2.153954468667507172e-02
-8.657515980303287506e-03
2.662132494151592255e-03
-3.448892757296562195e-02
3.284031897783279419e-02
-3.522670641541481018e-02
1.726279966533184052e-02
9.983360767364501953e-03
5.118669010698795319e-03
2.041974803432822227e-03
2.700226195156574249e-02
-3.458415344357490540e-02
-7.403190713375806808e-03
2.787689678370952606e-02
-4.003112018108367920e-02
8.756587281823158264e-03
3.551895916461944580e-02
-1.978490874171257019e-02
1.062026526778936386e-02
3.158746659755706787e-02
-1.985739357769489288e-02
-2.137657254934310913e-02
-2.105149067938327789e-02
1.568885333836078644e-02
3.806900605559349060e-02
-1.893469505012035370e-02
-1.851823367178440094e-02
8.630332304164767265e-04
-1.899979822337627411e-02
4.100967943668365479e-02
-1.485689170658588409e-02
2.153030224144458771e-02
-2.109008654952049255e-02
-8.284080773591995239e-03
3.153969347476959229e-02
-1.234236545860767365e-02
2.653799392282962799e-02
-2.620260231196880341e-02
1.607131958007812500e-02
-2.436683699488639832e-02
7.227489259093999863e-03
-2.800122834742069244e-03
-2.811804972589015961e-02
1.062763668596744537e-02
1.891685836017131805e-02
2.034665457904338837e-02
1.926662516780197620e-03
1.341446954756975174e-02
3.464652970433235168e-02
3.143975138664245605e-02
3.762014955282211304e-02
1.446723472326993942e-02
-1.376304193399846554e-03
-2.829781966283917427e-03
2.857561595737934113e-02
-1.722622290253639221e-02
2.255764603614807129e-02
-7.825777865946292877e-03
-1.090321503579616547e-02
-3.930680826306343079e-02
3.833397477865219116e-02
9.129312820732593536e-03
-1.275768689811229706e-02
-1.571718370541930199e-03
2.959170378744602203e-02
1.502978801727294922e-02
6.043323781341314316e-03
2.779647894203662872e-02
2.512658573687076569e-02
-1.923264004290103912e-02
-2.136521041393280029e-02
-2.177507430315017700e-02
2.043082565069198608e-02
-1.126727648079395294e-02
2.236267179250717163e-02
1.006853114813566208e-02
-1.663039438426494598e-02
-1.402625255286693573e-02
-1.621647737920284271e-02
-1.729326695203781128e-02
-5.192686617374420166e-02
2.297666482627391815e-02
8.929792791604995728e-03
3.111249580979347229e-02
-4.173010215163230896e-02
-1.336923707276582718e-02
3.062476217746734619e-02
1.955080218613147736e-02
-2.901506843045353889e-03
8.028446696698665619e-03
2.373517863452434540e-02
-2.968293242156505585e-02
-2.573674730956554413e-02
-5.330765852704644203e-04
2.186577580869197845e-02
3.559665754437446594e-03
2.941925544291734695e-03
-3.328960388898849487e-02
-3.217017650604248047e-02
3.860938549041748047e-02
-3.096810774877667427e-03
2.518107742071151733e-02
-1.067883241921663284e-02
-4.009574651718139648e-03
5.197335965931415558e-03
-4.019345715641975403e-02
2.294106408953666687e-02
-2.272664278279989958e-04
-4.112802818417549133e-02
2.161797881126403809e-02
2.893465757369995117e-02
-5.950199812650680542e-02
-3.489271178841590881e-02
-2.328684367239475250e-02
9.286662563681602478e-03
1.432788185775279999e-02
4.928422346711158752e-02
-2.165271341800689697e-02
1.206928398460149765e-02
-3.917848691344261169e-02
-3.293064236640930176e-02
7.817193865776062012e-03
7.222703192383050919e-03
3.255272656679153442e-02
1.413358375430107117e-03
-2.218367345631122589e-02
1.803630217909812927e-02
-1.795476488769054413e-02
1.255316194146871567e-02
2.092347294092178345e-02
-2.658884972333908081e-02
-2.634663879871368408e-02
-1.097574643790721893e-02
3.195124864578247070e-02
-3.394183143973350525e-02
2.282978035509586334e-02
1.886417157948017120e-02
4.367401823401451111e-02
-8.008236996829509735e-03
-6.836121901869773865e-03
-2.173428796231746674e-02
2.254990302026271820e-02
3.888037055730819702e-03
6.872304715216159821e-03
-1.957714185118675232e-02
-4.846034198999404907e-02
2.752329409122467041e-02
-5.639587994664907455e-03
-2.947117574512958527e-02
4.368456080555915833e-03
-3.218291327357292175e-02
-2.896532230079174042e-02
-3.862198442220687866e-03
2.142767980694770813e-02
-2.907625772058963776e-02
7.576105650514364243e-03
-9.512147866189479828e-03
2.043358236551284790e-02
-3.227628394961357117e-02
1.199806667864322662e-02
1.549787260591983795e-02
1.749056624248623848e-03
-3.938023373484611511e-02
2.947137877345085144e-02
2.321389503777027130e-02
-3.553047310560941696e-03
-4.015388339757919312e-02
3.711638599634170532e-02
-5.671896412968635559e-02
3.245747461915016174e-02
9.003872983157634735e-03
-1.169678289443254471e-02
-2.849128504749387503e-04
4.058951884508132935e-02
-1.953703537583351135e-02
4.197885096073150635e-02
9.922046214342117310e-03
-1.613047160208225250e-02
4.338650905992835760e-04
-5.927532538771629333e-02
-1.185152563266456127e-03
4.398746415972709656e-02
1.676205731928348541e-02
1.275037880986928940e-02
2.793022431433200836e-02
-1.567907072603702545e-02
-1.205673720687627792e-02
1.057144254446029663e-03
-3.569747880101203918e-02
1.093317288905382156e-03
-1.602569036185741425e-02
-2.994470670819282532e-02
-2.294189296662807465e-02
2.146040275692939758e-02
-3.311765380203723907e-03
3.760908264666795731e-03
1.436736341565847397e-02
4.021212458610534668e-02
-5.060948897153139114e-03
1.799899898469448090e-02
-1.501020323485136032e-02
-3.735881764441728592e-03
3.093411959707736969e-02
-6.776741705834865570e-03
-2.928800135850906372e-02
-4.781695455312728882e-02
-2.482659369707107544e-02
-3.687091171741485596e-02
3.358177840709686279e-02
-1.558403577655553818e-02
-2.969396114349365234e-02
-1.194928865879774094e-02
2.900389954447746277e-03
6.890393327921628952e-03
1.793607883155345917e-02
3.689722344279289246e-02
-1.873417757451534271e-02
5.975128151476383209e-04
1.556710712611675262e-02
2.816914953291416168e-02
-2.051625959575176239e-02
-1.408817945048213005e-03
3.316418454051017761e-02
6.023661233484745026e-03
2.372860535979270935e-02
9.076392278075218201e-03
2.219679579138755798e-02
1.328376401215791702e-02
-6.374147254973649979e-03
-3.577033290639519691e-03
4.444138612598180771e-03
1.628534495830535889e-02
-1.124904677271842957e-02
-2.176239155232906342e-02
-1.885569281876087189e-02
-5.030262470245361328e-02
9.427113458514213562e-03
-7.865456491708755493e-02
9.078601002693176270e-02
1.443207263946533203e-02
1.532157696783542633e-02
-3.562993556261062622e-02
-1.810110919177532196e-02
-1.179601158946752548e-02
-2.775626070797443390e-02
-2.145513426512479782e-03
-2.548112720251083374e-02
5.585877969861030579e-02
2.721607685089111328e-02
-1.052423962391912937e-03
1.932799443602561951e-02
-2.973131090402603149e-02
-1.689997874200344086e-02
-1.671254448592662811e-02
-1.854826882481575012e-02
-1.527750045061111450e-01
2.320821210741996765e-02
4.898108541965484619e-02
1.713016070425510406e-02
2.883111499249935150e-02
1.089283544570207596e-02
4.029041901230812073e-02
-1.862223446369171143e-02
6.096652895212173462e-02
-3.413029015064239502e-02
-2.360233478248119354e-02
4.729103669524192810e-02
2.908309735357761383e-02
6.094928365200757980e-03
3.684570640325546265e-02
-3.251259028911590576e-02
1.031496655195951462e-02
-3.062375634908676147e-02
-1.347804628312587738e-02
4.497295245528221130e-02
3.151636943221092224e-02
2.320178784430027008e-02
1.784842088818550110e-02
1.160131301730871201e-02
2.782300673425197601e-02
-1.503501180559396744e-02
-1.214914582669734955e-02
2.632832154631614685e-02
-1.779273524880409241e-02
-9.458308340981602669e-04
2.872222289443016052e-02
-3.085813112556934357e-02
-3.389981389045715332e-02
-1.517498306930065155e-02
2.622333355247974396e-02
1.436870731413364410e-02
9.568871464580297470e-04
-3.285521268844604492e-02
1.040727645158767700e-02
-2.955845557153224945e-02
-1.023441785946488380e-03
-2.012681588530540466e-02
3.210164373740553856e-03
3.359311074018478394e-02
1.834563538432121277e-02
-5.285883694887161255e-02
-2.405190840363502502e-02
-4.517096560448408127e-03
8.039990440011024475e-03
1.896027848124504089e-02
-4.370344057679176331e-02
2.394281141459941864e-02
-7.639491464942693710e-03
4.661646205931901932e-03
2.986364625394344330e-02
-2.523848786950111389e-02
2.391679398715496063e-02
-4.328260198235511780e-03
-2.590280398726463318e-02
2.063026913674548268e-04
-4.269632697105407715e-02
1.379844546318054199e-02
4.365706816315650940e-03
9.179896675050258636e-03
-3.636511787772178650e-02
7.188773714005947113e-03
1.977122388780117035e-02
3.419896215200424194e-02
5.598445236682891846e-02
1.881267130374908447e-02
-1.165017485618591309e-03
-6.275445688515901566e-03
6.587823852896690369e-03
-8.880673907697200775e-03
3.930193558335304260e-02
-1.550111547112464905e-02
2.649975009262561798e-03
-5.606873426586389542e-03
-5.409723147749900818e-03
2.595235779881477356e-02
2.314900420606136322e-02
1.288148760795593262e-02
-8.730452507734298706e-03
1.001814901828765869e-01
6.832052767276763916e-02
4.313576966524124146e-02
-5.921983346343040466e-02
4.596912860870361328e-02
3.219323605298995972e-02
3.114004246890544891e-02
-3.395636379718780518e-02
4.404651746153831482e-02
9.563256055116653442e-02
-4.176515620201826096e-03
-2.513276971876621246e-02
1.561451796442270279e-02
1.721093617379665375e-02
-2.176010049879550934e-03
-1.085226517170667648e-02
-3.564874082803726196e-02
-7.159675657749176025e-02
2.719591557979583740e-02
-2.791284024715423584e-02
-3.009034320712089539e-02
-1.259188726544380188e-02
2.718605659902095795e-02
1.369422953575849533e-02
4.691360890865325928e-02
4.145242273807525635e-02
4.238408803939819336e-02
2.622469887137413025e-02
2.218431606888771057e-02
-1.008229423314332962e-02
6.947489082813262939e-02
-6.279268418438732624e-04
-7.246051914989948273e-03
5.885186139494180679e-03
-3.421149030327796936e-02
2.571446821093559265e-02
3.007310442626476288e-02
1.709629967808723450e-02
2.545433491468429565e-02
-2.467630244791507721e-02
-2.154626697301864624e-02
-2.322332374751567841e-02
-4.319968819618225098e-02
-5.595877300947904587e-03
3.823170810937881470e-02
-7.379087619483470917e-03
-2.124748751521110535e-02
-2.486161887645721436e-02
1.840639114379882812e-02
-2.393090724945068359e-02
-3.065083175897598267e-02
6.802698224782943726e-02
-4.368692170828580856e-03
1.855724863708019257e-02
-4.642605781555175781e-03
-2.379760378971695900e-03
-4.352903924882411957e-03
-2.668064646422863007e-02
1.363573409616947174e-02
-1.269992534071207047e-02
3.838665783405303955e-02
2.127233147621154785e-02
1.100996136665344238e-02
-7.273529656231403351e-03
-1.557402964681386948e-02
3.533489629626274109e-02
1.309599541127681732e-02
4.967742133885622025e-04
1.357278693467378616e-02
1.066101249307394028e-02
4.318105801939964294e-02
-3.143547102808952332e-02
5.961484089493751526e-02
-5.084527656435966492e-02
1.490034721791744232e-02
-2.744403854012489319e-02
1.479200925678014755e-02
-4.027413949370384216e-02
-2.294716611504554749e-02
1.539313513785600662e-02
-2.421864680945873260e-02
-2.424883283674716949e-02
-1.653032191097736359e-02
2.221894823014736176e-02
-2.735614962875843048e-02
4.334244877099990845e-02
4.767439793795347214e-03
4.138202406466007233e-03
1.108423154801130295e-02
-1.651095598936080933e-02
1.079996861517429352e-02
3.020312264561653137e-02
3.300013020634651184e-02
-1.041077822446823120e-02
2.217085473239421844e-02
4.134583845734596252e-02
1.427255198359489441e-02
3.084155172109603882e-02
-3.754388540983200073e-02
-2.207537367939949036e-02
6.895734369754791260e-02
5.248957127332687378e-02
2.304275147616863251e-02
-8.850417099893093109e-03
3.447015583515167236e-02
3.603411465883255005e-02
2.043273299932479858e-02
-3.398515284061431885e-02
-1.864416338503360748e-02
1.898327842354774475e-02
5.234804470092058182e-03
3.955317661166191101e-02
1.619348488748073578e-02
-2.998104505240917206e-02
-1.047327555716037750e-02
2.203811192885041237e-03
2.180573157966136932e-02
2.678180672228336334e-02
2.314507402479648590e-02
2.963867783546447754e-02
5.482333246618509293e-03
2.947093173861503601e-02
2.678199112415313721e-02
1.950604608282446861e-03
4.151277244091033936e-03
-1.556008402258157730e-02
-2.145454287528991699e-02
4.923793300986289978e-02
-8.206362836062908173e-03
8.604180067777633667e-03
-2.742808777838945389e-03
1.224643271416425705e-02
-3.056816570460796356e-02
-3.401237353682518005e-02
-2.784091606736183167e-02
3.219166770577430725e-03
-1.822532899677753448e-02
2.305410243570804596e-02
-5.420119501650333405e-03
1.576874754391610622e-03
-3.971187770366668701e-02
5.941578187048435211e-03
-6.095796125009655952e-04
1.965258084237575531e-02
3.996303305029869080e-02
8.114772848784923553e-03
-1.096939085982739925e-03
-1.104929205030202866e-02
-1.543517876416444778e-02
-5.145992152392864227e-03
2.426969818770885468e-02
2.809246815741062164e-02
-2.279639802873134613e-02
-2.710673399269580841e-02
5.406938493251800537e-02
2.315014041960239410e-02
-2.679709903895854950e-02
2.548166178166866302e-02
-1.744806766510009766e-03
-2.414167858660221100e-02
-1.941043697297573090e-02
4.511597380042076111e-02
-3.373667970299720764e-02
1.476678997278213501e-02
2.857930725440382957e-03
3.059554658830165863e-02
-1.520291902124881744e-02
4.565797280520200729e-03
3.406194970011711121e-02
-7.199057377874851227e-03
1.027771551162004471e-02
1.288878452032804489e-02
-3.198898630216717720e-03
-2.779432386159896851e-02
-1.446060836315155029e-02
-9.425464668311178684e-04
-2.792176790535449982e-02
1.410852000117301941e-02
2.904952131211757660e-02
-6.118435878306627274e-03
1.942960172891616821e-02
4.167422594036906958e-04
-1.827339828014373779e-02
-1.492974907159805298e-02
1.831186562776565552e-02
4.636997357010841370e-02
-2.406969666481018066e-03
-2.736379019916057587e-02
3.772857040166854858e-02
1.413284521549940109e-02
-3.767641261219978333e-02
1.819493481889367104e-03
2.854054037015885115e-04
1.986163482069969177e-02
-1.004142966121435165e-02
4.332296177744865417e-02
1.669844053685665131e-02
1.142240874469280243e-02
-3.349767997860908508e-02
-2.679880708456039429e-03
5.065292119979858398e-03
1.937836408615112305e-02
4.708733782172203064e-02
-4.582294821739196777e-02
2.136014588177204132e-02
-8.143792860209941864e-03
1.830533891916275024e-02
2.109860628843307495e-02
-2.412965707480907440e-02
5.050022155046463013e-02
3.621266037225723267e-02
5.370087455958127975e-03
-3.061895491555333138e-03
-1.492353994399309158e-02
1.604305393993854523e-02
1.985481567680835724e-02
3.346551954746246338e-02
3.357753157615661621e-02
-3.783506527543067932e-02
-1.517033576965332031e-02
-3.612940385937690735e-02
1.024397742003202438e-02
2.098711207509040833e-02
-3.571604192256927490e-02
-3.096962533891201019e-02
-2.570836246013641357e-02
-2.475794963538646698e-02
4.777546972036361694e-02
-3.714782372117042542e-02
-8.784186094999313354e-03
-3.586963936686515808e-02
4.384611174464225769e-02
-1.229806989431381226e-02
1.497914548963308334e-02
6.216343492269515991e-03
-9.019958786666393280e-03
-2.657488803379237652e-04
-5.632228683680295944e-03
-2.024165354669094086e-02
-1.033604331314563751e-02
-1.571064465679228306e-03
2.015456371009349823e-02
-4.085899144411087036e-02
2.105716057121753693e-02
2.039387263357639313e-02
-3.658609837293624878e-02
-2.547508804127573967e-03
1.435470860451459885e-02
-1.449435018002986908e-02
1.122397650033235550e-02
-6.723205093294382095e-03
3.275802731513977051e-02
2.864005416631698608e-02
-3.160952031612396240e-02
-5.957294255495071411e-03
3.473965823650360107e-02
1.246855012141168118e-03
-4.110369086265563965e-02
-2.325061708688735962e-02
-3.215125575661659241e-02
-4.601172730326652527e-02
-2.008128911256790161e-02
5.505562759935855865e-03
-4.288295656442642212e-02
6.302616558969020844e-03
2.891778014600276947e-02
-1.545194908976554871e-02
-3.366489708423614502e-02
-2.701305784285068512e-02
2.734837494790554047e-02
2.394071966409683228e-02
-9.046918712556362152e-03
4.081453755497932434e-02
-5.309912562370300293e-02
2.485360950231552124e-02
-1.423433859599754214e-04
-2.146779187023639679e-02
-1.982179470360279083e-02
2.298280969262123108e-02
1.038344204425811768e-02
3.126455843448638916e-02
-3.087056055665016174e-02
-1.400352921336889267e-02
2.758496440947055817e-02
1.941787637770175934e-02
-2.374612726271152496e-02
-1.305813621729612350e-02
-2.706405334174633026e-02
-2.888704836368560791e-02
1.244781259447336197e-02
2.153428271412849426e-03
3.763093054294586182e-02
1.058402750641107559e-02
-3.236057236790657043e-02
1.639224588871002197e-02
1.887767110019922256e-03
2.252538874745368958e-02
2.623132988810539246e-02
-3.836187347769737244e-02
-3.622574359178543091e-02
2.036865055561065674e-02
2.409754693508148193e-02
-2.323297224938869476e-02
2.666016481816768646e-02
2.706592902541160583e-02
4.471820592880249023e-02
-1.252106390893459320e-02
-4.863904044032096863e-02
-2.620982378721237183e-02
-2.458303980529308319e-02
3.296636417508125305e-02
5.367794074118137360e-03
-3.155518695712089539e-02
-1.462740357965230942e-02
-2.515297010540962219e-02
3.438415750861167908e-02
6.622296292334794998e-03
4.095134884119033813e-02
8.114059455692768097e-03
1.132984180003404617e-02
-2.135926391929388046e-03
2.552347071468830109e-02
-1.192285865545272827e-02
-3.100180299952626228e-03
-4.275681078433990479e-02
4.068295285105705261e-02
9.186952374875545502e-03
-1.691424660384654999e-02
5.866655148565769196e-03
4.787153011420741677e-05
-9.875930845737457275e-03
-1.582513935863971710e-02
-5.026992410421371460e-03
-4.191700369119644165e-03
6.372070871293544769e-03
4.725658148527145386e-02
-3.052404895424842834e-02
-1.092207338660955429e-02
-7.504993118345737457e-03
-3.346030134707689285e-03
1.836653985083103180e-02
-5.892510712146759033e-02
-1.425659004598855972e-02
4.707332327961921692e-02
-2.089869230985641479e-02
2.060033194720745087e-02
-3.479004604741930962e-03
-2.070102468132972717e-02
-4.171647131443023682e-02
2.169593051075935364e-02
-1.686781086027622223e-02
4.067602753639221191e-02
-7.559822872281074524e-03
-8.069746196269989014e-03
-1.484290231019258499e-02
-6.113146664574742317e-04
3.567926585674285889e-02
-2.506009489297866821e-02
3.001552261412143707e-02
1.814518310129642487e-02
-4.378349054604768753e-03
1.784622669219970703e-02
2.078804373741149902e-02
2.025610022246837616e-02
3.142669051885604858e-02
3.995534777641296387e-02
3.441329672932624817e-02
1.317753572948276997e-03
1.320190075784921646e-02
1.165483612567186356e-02
-2.836193889379501343e-02
1.098616048693656921e-02
3.404165431857109070e-02
1.841970719397068024e-02
-9.352524764835834503e-03
-1.799283549189567566e-02
-2.422167174518108368e-02
2.449128217995166779e-02
5.134264379739761353e-02
3.310908004641532898e-02
1.487040985375642776e-02
-3.937076404690742493e-02
4.013074561953544617e-02
-2.174337953329086304e-02
1.276560127735137939e-02
1.393381156958639622e-03
1.648434437811374664e-02
-9.913877584040164948e-03
5.125712975859642029e-02
-7.800278253853321075e-03
-2.852794528007507324e-02
-3.043429367244243622e-02
2.551600895822048187e-02
3.622838109731674194e-02
-4.223508015275001526e-02
-6.355882436037063599e-02
1.546753849834203720e-02
3.899205243214964867e-03
2.039765566587448120e-02
-9.669347852468490601e-02
4.016574472188949585e-02
3.483781823888421059e-03
5.709306895732879639e-02
-4.705129191279411316e-02
-4.708904307335615158e-03
-7.441899273544549942e-03
3.598543629050254822e-02
5.833368282765150070e-03
3.456676006317138672e-02
7.086688280105590820e-02
-1.570828072726726532e-02
1.323003880679607391e-02
-3.954850882291793823e-02
1.936611719429492950e-02
-3.767620772123336792e-02
-2.767271362245082855e-02
-2.416999265551567078e-02
-4.582025483250617981e-02
-3.532633557915687561e-02
-7.786494214087724686e-03
1.113050896674394608e-02
-8.452693000435829163e-03
-5.460184998810291290e-03
5.550116766244173050e-03
-4.144374281167984009e-03
4.755609855055809021e-02
-1.995309814810752869e-02
2.017251774668693542e-02
4.261558502912521362e-02
3.364601731300354004e-02
1.797841116786003113e-02
5.356915760785341263e-03
2.774824574589729309e-02
-9.845709428191184998e-03
2.264942228794097900e-02
2.571727149188518524e-02
4.314012359827756882e-03
1.091833692044019699e-02
1.287588849663734436e-02
1.722618937492370605e-02
1.590954139828681946e-02
1.010293513536453247e-02
-2.490422688424587250e-02
-2.395165897905826569e-02
1.542316656559705734e-02
-2.232808060944080353e-02
-2.232589758932590485e-02
-2.604079432785511017e-02
-2.081892918795347214e-03
-5.729444324970245361e-03
2.466937154531478882e-02
-5.980387330055236816e-03
2.480672486126422882e-02
1.245741359889507294e-02
-3.666966781020164490e-02
9.215443395078182220e-03
-3.100012987852096558e-02
2.997015789151191711e-02
-5.041904747486114502e-03
-9.817624464631080627e-03
1.224441360682249069e-02
4.415457695722579956e-02
-4.413597926031798124e-04
-5.449997633695602417e-02
-2.816785685718059540e-02
-9.290387853980064392e-03
2.725600451231002808e-02
-3.222442790865898132e-02
-1.593966037034988403e-02
-7.292450405657291412e-03
4.599880427122116089e-03
-8.590674027800559998e-03
2.072040736675262451e-02
-3.063165396451950073e-02
-1.505936030298471451e-02
-1.811855100095272064e-02
1.218832377344369888e-02
-3.168745338916778564e-02
1.083697564899921417e-02
-1.665310934185981750e-02
3.206044062972068787e-02
2.579970285296440125e-02
-8.579503744840621948e-03
2.828663960099220276e-02
4.041224718093872070e-02
4.434617608785629272e-02
-3.543328493833541870e-02
-3.027453273534774780e-02
-1.102604996412992477e-02
-1.299120765179395676e-02
1.443929877132177353e-02
1.889213453978300095e-03
3.632563352584838867e-02
2.093474939465522766e-02
-4.466048255562782288e-02
-4.142972826957702637e-02
1.447852235287427902e-03
2.006754279136657715e-03
-9.772655321285128593e-04
-3.686746582388877869e-02
7.726899534463882446e-02
8.487137034535408020e-03
3.952519223093986511e-02
-1.273273490369319916e-02
1.624775491654872894e-02
-2.728505618870258331e-02
-1.298689935356378555e-02
-3.965234756469726562e-02
-5.307022947818040848e-03
8.891864120960235596e-02
2.997289225459098816e-02
2.467600163072347641e-03
3.110012412071228027e-02
3.691432625055313110e-02
2.057874947786331177e-02
-3.367456607520580292e-03
3.516114503145217896e-02
-4.972036182880401611e-02
-2.349616214632987976e-02
4.396879300475120544e-02
-7.545579224824905396e-03
3.205484896898269653e-02
1.361662056297063828e-02
3.510792180895805359e-02
1.652115210890769958e-02
4.004623740911483765e-02
-7.905408740043640137e-03
4.254117980599403381e-02
2.739225327968597412e-02
2.133157663047313690e-02
7.021031808108091354e-03
2.478500455617904663e-02
9.918408468365669250e-03
1.159902568906545639e-02
-4.459866508841514587e-02
1.058871112763881683e-02
1.954752393066883087e-02
4.971563350409269333e-03
2.240039594471454620e-02
-4.580358043313026428e-02
3.065125271677970886e-02
-6.682292558252811432e-03
1.819565892219543457e-02
4.651798680424690247e-02
5.290259793400764465e-02
1.419952139258384705e-03
-3.726733848452568054e-02
-2.779807709157466888e-02
-6.055588275194168091e-02
-2.262653782963752747e-02
1.041431911289691925e-02
-4.344578832387924194e-03
-2.522996626794338226e-02
1.770101301372051239e-02
1.500810123980045319e-02
4.069285932928323746e-03
-4.291259497404098511e-02
2.455226331949234009e-02
-1.855740323662757874e-02
8.367438800632953644e-03
-2.159287966787815094e-02
-1.780998660251498222e-03
-4.715696722269058228e-02
-4.311840981245040894e-02
1.276629883795976639e-02
2.569645643234252930e-02
2.405939437448978424e-02
-3.637628629803657532e-02
-1.417975872755050659e-02
1.123353373259305954e-02
-2.007847186177968979e-03
3.493597358465194702e-02
-5.509275011718273163e-03
-5.116231366991996765e-02
-3.723876923322677612e-02
-2.791801933199167252e-03
3.588908538222312927e-02
-2.145308628678321838e-02
3.367950022220611572e-02
1.599523611366748810e-02
1.734453951939940453e-03
2.178509160876274109e-02
-1.805265806615352631e-02
3.263278305530548096e-02
3.217453137040138245e-02
4.574688524007797241e-02
2.708588540554046631e-02
-5.052435025572776794e-02
2.745095640420913696e-02
-1.227766461670398712e-02
-3.613562555983662605e-03
4.443200305104255676e-02
9.858719073235988617e-03
-1.850060187280178070e-02
-3.466582857072353363e-03
2.513549849390983582e-02
-4.832425620406866074e-03
-3.191102668642997742e-02
-4.437146335840225220e-02
-3.584856167435646057e-02
7.005932927131652832e-02
1.338181085884571075e-02
1.792354695498943329e-02
7.912202272564172745e-04
-1.850854232907295227e-02
7.114291656762361526e-04
-1.809518225491046906e-02
2.330960147082805634e-02
-1.096855197101831436e-02
2.393824979662895203e-02
-2.214351668953895569e-02
-2.851826325058937073e-02
-5.768291652202606201e-03
1.114128623157739639e-02
1.015512738376855850e-02
1.197754219174385071e-02
-2.691509434953331947e-03
6.143540889024734497e-02
5.793784745037555695e-03
2.818497829139232635e-03
-9.031956084072589874e-03
-5.807747133076190948e-03
3.515588864684104919e-02
1.688706874847412109e-02
-2.120454795658588409e-02
2.502413280308246613e-02
2.027658931910991669e-02
2.749236673116683960e-02
-4.462037980556488037e-02
-3.445188701152801514e-02
-1.530528534203767776e-02
-5.587078630924224854e-03
1.743276789784431458e-02
1.789082959294319153e-02
-1.606651023030281067e-02
4.324098676443099976e-02
2.079206518828868866e-02
-2.590021118521690369e-02
3.417357057332992554e-02
1.132664550095796585e-02
-3.261420875787734985e-02
1.635754667222499847e-02
-4.614520817995071411e-02
-8.233935572206974030e-03
5.131152272224426270e-02
-4.316989798098802567e-03
-2.324293181300163269e-02
-1.274635363370180130e-02
-1.600233279168605804e-02
1.704742386937141418e-02
3.048030473291873932e-02
1.251772232353687286e-02
9.829555638134479523e-03
1.483282446861267090e-02
-4.464589059352874756e-03
4.027458652853965759e-02
1.290412992238998413e-02
2.313636802136898041e-02
2.882423996925354004e-02
-3.213843330740928650e-02
1.868972904048860073e-03
1.826504827477037907e-03
-7.712451275438070297e-03
-4.343483224511146545e-02
1.838743686676025391e-02
-2.805682457983493805e-02
-4.231151565909385681e-02
3.900081850588321686e-03
-1.124432310461997986e-02
2.513660304248332977e-02
2.016324363648891449e-02
3.373296186327934265e-02
-1.076313666999340057e-03
-3.175741949235089123e-05
-1.960709132254123688e-02
-7.665127981454133987e-03
7.939753122627735138e-03
3.691964317113161087e-03
2.850438281893730164e-02
-3.436629846692085266e-02
2.691476047039031982e-02
-2.819306217133998871e-02
3.282108576968312263e-03
-2.567650191485881805e-02
-4.362556152045726776e-03
-1.392066013067960739e-02
2.217028848826885223e-02
-4.953843727707862854e-02
1.795564405620098114e-02
1.693465560674667358e-02
-2.211537770926952362e-02
-2.547411434352397919e-02
8.566732518374919891e-03
-4.022966604679822922e-03
-3.379335999488830566e-02
5.302168056368827820e-02
-3.027023933827877045e-02
4.498951882123947144e-02
-1.706765964627265930e-02
-2.340120449662208557e-02
1.455597300082445145e-02
-2.078862488269805908e-02
-4.573273006826639175e-03
-8.322130888700485229e-03
-1.651699095964431763e-02
3.960796445608139038e-02
6.713133770972490311e-03
-2.772282809019088745e-02
3.246066719293594360e-02
-1.287323515862226486e-02
2.866273187100887299e-02
4.419612884521484375e-02
3.380297217518091202e-03
-1.533371396362781525e-02
-3.297307714819908142e-02
-1.869267039000988007e-02
-2.633997006341814995e-03
6.635711342096328735e-02
-3.853084892034530640e-02
-1.390854734927415848e-02
1.249216031283140182e-02
-2.534464374184608459e-02
1.284480746835470200e-02
-3.780289320275187492e-03
-3.495854139328002930e-02
4.807200748473405838e-03
-6.419845391064882278e-03
1.761816674843430519e-03
1.383683644235134125e-03
-1.263241562992334366e-02
-2.217102982103824615e-02
6.970338523387908936e-03
-1.694254390895366669e-02
1.875425316393375397e-02
1.631378568708896637e-02
2.911357395350933075e-02
2.327499538660049438e-02
1.755585148930549622e-02
-2.651174739003181458e-02
-3.134892508387565613e-02
-1.442516874521970749e-02
5.494678407558239996e-05
2.727510966360569000e-02
4.387997463345527649e-02
1.717281155288219452e-02
1.024137623608112335e-02
8.601179346442222595e-03
4.090291447937488556e-03
-4.476192407310009003e-03
2.202443219721317291e-02
2.962608449161052704e-02
-1.418865006417036057e-02
-1.893290132284164429e-02
7.405445910990238190e-03
4.033952020108699799e-03
-3.468724340200424194e-02
1.288291718810796738e-02
-4.239615425467491150e-02
3.028743900358676910e-02
-1.070080790668725967e-02
-4.216226190328598022e-02
4.066289588809013367e-02
1.670088432729244232e-02
-4.775491729378700256e-02
1.434731669723987579e-02
2.845181897282600403e-02
-3.688714653253555298e-02
-3.649951890110969543e-03
4.260232299566268921e-02
-3.151160478591918945e-02
-2.197432145476341248e-02
-3.143352270126342773e-02
1.381624117493629456e-02
-5.096101015806198120e-02
9.870449081063270569e-03
2.344936504960060120e-02
-2.597096189856529236e-02
-1.195467659272253513e-03
4.731483384966850281e-02
4.158185049891471863e-02
2.167760953307151794e-02
3.084577061235904694e-02
4.249548539519309998e-03
-3.469328582286834717e-02
3.557986393570899963e-02
-2.410277910530567169e-02
1.894236914813518524e-02
4.915343597531318665e-03
-2.468281798064708710e-02
-3.592219576239585876e-02
-2.407068945467472076e-02
2.753299288451671600e-02
1.905087940394878387e-02
1.037518959492444992e-03
-2.393374219536781311e-02
2.345938701182603836e-03
5.850208923220634460e-03
-2.603164128959178925e-02
1.973681338131427765e-02
1.831859908998012543e-02
2.027152292430400848e-02
2.696227468550205231e-02
3.563187271356582642e-02
2.858745679259300232e-02
-9.503307752311229706e-03
1.686707511544227600e-02
-1.557864993810653687e-02
-3.529537096619606018e-02
3.805997967720031738e-02
-7.198725361377000809e-03
-3.142124041914939880e-02
6.845844537019729614e-02
5.130494479089975357e-03
2.662106230854988098e-02
-5.957981571555137634e-03
-2.907897345721721649e-02
-3.686518594622612000e-02
-6.652279291301965714e-03
6.381505634635686874e-03
3.785118460655212402e-02
9.029031731188297272e-03
1.810405962169170380e-02
1.403200719505548477e-02
2.117702364921569824e-02
1.245358865708112717e-02
-1.651812158524990082e-02
7.827243767678737640e-03
-1.497877389192581177e-02
1.737623661756515503e-02
3.010770119726657867e-02
-1.583533245138823986e-03
2.415122836828231812e-02
6.333017721772193909e-03
-2.650050818920135498e-02
1.490013580769300461e-02
3.901135351043194532e-04
-2.824984677135944366e-02
-2.144417911767959595e-02
-5.168015137314796448e-03
-1.824553124606609344e-02
-2.931204065680503845e-02
-3.118444234132766724e-02
-5.319409538060426712e-03
3.081414848566055298e-02
-8.121966384351253510e-03
-3.463201597332954407e-02
2.557294070720672607e-02
1.242237538099288940e-02
9.092331863939762115e-03
-1.422010175883769989e-02
-5.992139922454953194e-04
2.875590696930885315e-02
4.934574663639068604e-02
-9.082782082259654999e-03
-9.281609207391738892e-03
2.713620476424694061e-02
1.997094228863716125e-02
-1.678145118057727814e-02
-2.219191053882241249e-03
3.210353851318359375e-02
-1.311247237026691437e-02
-2.821777015924453735e-02
2.151377312839031219e-02
-1.724094152450561523e-02
-2.073561213910579681e-02
-3.578277677297592163e-02
-2.136041410267353058e-02
-2.760294079780578613e-02
-5.947641562670469284e-03
-2.438288182020187378e-03
3.448938205838203430e-02
-8.921659551560878754e-03
-1.577839371748268604e-03
5.189390853047370911e-03
2.767894230782985687e-02
1.398814260028302670e-03
-2.536612376570701599e-02
1.083313301205635071e-02
3.938469290733337402e-02
-6.116726901382207870e-03
-1.805732585489749908e-02
-1.115611009299755096e-02
2.223419025540351868e-02
2.284992858767509460e-02
2.690833993256092072e-02
3.722209483385086060e-02
2.825442142784595490e-02
2.526792231947183609e-03
-2.319555170834064484e-02
-1.210404466837644577e-02
-6.342086195945739746e-02
4.351606592535972595e-02
2.750199288129806519e-02
1.035440713167190552e-03
9.191922843456268311e-03
-1.011028885841369629e-02
1.358689181506633759e-02
-1.854573027230799198e-03
-2.425056509673595428e-02
-5.970112979412078857e-02
6.925582885742187500e-02
4.166144505143165588e-02
4.281383752822875977e-02
-4.791072569787502289e-03
-2.010148391127586365e-02
-1.056893542408943176e-02
-2.661959268152713776e-03
-5.002751201391220093e-02
3.577366471290588379e-02
7.614891044795513153e-03
4.419462755322456360e-02
2.904928475618362427e-02
-4.446288943290710449e-02
2.183681912720203400e-02
2.160570956766605377e-02
-2.740835584700107574e-02
-8.894051425158977509e-03
-4.300168901681900024e-02
-3.002499602735042572e-02
1.892809942364692688e-02
8.553473278880119324e-03
1.250092685222625732e-02
-1.771597936749458313e-02
2.221511863172054291e-02
1.179244369268417358e-02
1.464368659071624279e-03
-4.018389061093330383e-02
-5.335982516407966614e-02
5.051124468445777893e-02
-3.730782866477966309e-02
3.866657987236976624e-02
1.661799475550651550e-02
9.849423542618751526e-03
-1.705816760659217834e-02
-3.296079486608505249e-02
2.468719147145748138e-02
-1.795116066932678223e-02
8.525971323251724243e-03
-9.510503150522708893e-03
9.396270848810672760e-03
-3.051670640707015991e-02
2.656789682805538177e-02
-3.562365472316741943e-02
1.333366334438323975e-02
3.415369987487792969e-02
2.566155977547168732e-02
3.578144684433937073e-02
-3.019709605723619461e-03
-3.058218397200107574e-02
-3.376276697963476181e-03
-1.449223491363227367e-03
5.187486857175827026e-02
3.408373147249221802e-02
3.684234991669654846e-02
-1.278554182499647141e-02
3.165362402796745300e-02
-4.788985848426818848e-02
-2.551839128136634827e-02
-9.087057784199714661e-03
7.457476574927568436e-03
-3.949690610170364380e-02
5.315729416906833649e-03
-4.756148532032966614e-02
-2.639429830014705658e-02
2.049048058688640594e-02
-2.478240802884101868e-02
-3.285687416791915894e-02
-7.331133633852005005e-02
4.607844352722167969e-02
9.914418682456016541e-03
-4.371656570583581924e-03
2.397324331104755402e-02
1.925562508404254913e-02
2.774597890675067902e-02
-2.790417894721031189e-02
-1.998284459114074707e-02
2.098520472645759583e-02
4.024814348667860031e-03
5.639914795756340027e-02
9.592117741703987122e-03
-2.167606540024280548e-02
-2.996093779802322388e-02
-1.581090874969959259e-02
2.792481333017349243e-02
1.979410275816917419e-02
4.625011608004570007e-02
-2.440381608903408051e-02
-3.020348958671092987e-02
3.416381776332855225e-02
3.041229210793972015e-03
-3.974365815520286560e-02
-2.895886637270450592e-02
-3.347713500261306763e-02
9.078282862901687622e-03
1.497246697545051575e-02
-1.288402080535888672e-02
1.466867141425609589e-02
-2.001447835937142372e-03
-4.008663445711135864e-02
-5.539847537875175476e-02
2.626429684460163116e-02
2.416469901800155640e-02
3.214781358838081360e-02
-4.255463369190692902e-03
2.641565725207328796e-02
-2.201370522379875183e-02
-7.323549129068851471e-03
-5.356984212994575500e-02
7.485114969313144684e-03
7.354763895273208618e-02
-2.525429055094718933e-02
1.220373157411813736e-02
8.593907579779624939e-03
-1.418239716440439224e-02
-1.896604150533676147e-02
2.241337904706597328e-03
-1.255069393664598465e-02
3.677399945445358753e-04
-1.714818552136421204e-02
9.906241670250892639e-03
2.025882340967655182e-02
-3.755503892898559570e-02
3.069202043116092682e-02
-2.344561368227005005e-02
-2.302645705640316010e-02
-1.016606111079454422e-02
-3.156463429331779480e-02
-3.620645403861999512e-02
-1.674542203545570374e-02
3.274659439921379089e-02
4.389503970742225647e-03
-1.794212125241756439e-02
-3.681690990924835205e-02
-2.866902016103267670e-02
-2.962533012032508850e-02
4.230048507452011108e-02
-2.973273582756519318e-02
-1.554526295512914658e-02
1.632732455618679523e-03
7.131390273571014404e-03
-1.471931952983140945e-02
-1.831238344311714172e-02
-1.846096105873584747e-02
-1.856410875916481018e-02
-1.497483346611261368e-02
-1.063980627804994583e-03
-1.339578186161816120e-03
-3.393235430121421814e-02
-3.438486531376838684e-02
-1.548916473984718323e-02
-2.310027927160263062e-02
2.878312021493911743e-02
3.234253823757171631e-02
4.010810330510139465e-02
3.676197724416851997e-03
-1.741020008921623230e-02
1.195295713841915131e-03
2.423825301229953766e-02
-9.183311834931373596e-03
4.751356318593025208e-02
-5.684035364538431168e-03
3.289123764261603355e-03
2.392366901040077209e-02
2.597198821604251862e-02
1.310699037276208401e-03
7.277803495526313782e-03
-2.438591420650482178e-02
5.866594146937131882e-03
-1.136476546525955200e-02
2.347944118082523346e-02
1.236883923411369324e-02
-2.139378339052200317e-02
1.608921214938163757e-02
-2.379980310797691345e-02
-2.155045233666896820e-02
-4.438393935561180115e-02
1.133784465491771698e-02
-3.467040881514549255e-02
-7.770418655127286911e-03
-4.064486175775527954e-02
-1.814561150968074799e-02
-2.834677137434482574e-02
2.431715466082096100e-02
3.793347254395484924e-02
-3.650562372058629990e-03
-1.394828781485557556e-02
2.294124849140644073e-02
-2.374757640063762665e-02
-2.641025930643081665e-02
1.018068939447402954e-02
-1.380763761699199677e-02
5.770918913185596466e-03
-3.922019153833389282e-02
-2.151259593665599823e-02
-6.811209954321384430e-03
-2.059251815080642700e-02
3.363484144210815430e-02
4.452264402061700821e-03
-2.205598726868629456e-02
-2.663542144000530243e-02
6.201351061463356018e-02
-3.402701113373041153e-04
1.467078109271824360e-03
-4.151889309287071228e-02
3.445628285408020020e-02
4.785989969968795776e-02
3.172999247908592224e-03
-2.900090627372264862e-02
-1.602639444172382355e-02
4.925896599888801575e-02
-7.553653325885534286e-03
6.330601871013641357e-03
1.141271740198135376e-02
2.330621890723705292e-02
-5.675983615219593048e-03
-1.270964927971363068e-02
5.924309603869915009e-03
4.486482217907905579e-02
-7.000857964158058167e-03
-1.285245548933744431e-02
-1.140877231955528259e-02
-3.801710531115531921e-02
3.221582248806953430e-02
1.546124741435050964e-02
9.024281054735183716e-03
-3.321771323680877686e-02
-1.445048768073320389e-02
5.713181104511022568e-03
-2.213915064930915833e-02
-2.677560783922672272e-02
4.297632351517677307e-02
-2.241825126111507416e-02
-1.576091721653938293e-02
1.885883137583732605e-02
-1.500984653830528259e-02
-2.436508610844612122e-02
4.291221871972084045e-02
1.019287016242742538e-02
-2.979161590337753296e-02
-1.683668233454227448e-02
2.354945614933967590e-02
7.663850672543048859e-03
-1.126511488109827042e-02
1.156360842287540436e-02
1.069103833287954330e-02
-2.840192057192325592e-02
-3.177823498845100403e-02
-1.806531660258769989e-02
-3.965808078646659851e-02
7.172803860157728195e-03
-4.968744888901710510e-02
5.019203573465347290e-02
7.949004881083965302e-03
-2.767175994813442230e-02
2.154947072267532349e-02
1.860768161714076996e-02
1.810937374830245972e-02
3.602984547615051270e-02
-1.709443400613963604e-03
4.480082541704177856e-02
2.413582522422075272e-03
1.704460754990577698e-02
5.194422788918018341e-03
1.837320253252983093e-02
4.131638631224632263e-02
-1.041052979417145252e-03
-2.268942072987556458e-02
-8.427504450082778931e-03
-1.936694607138633728e-02
-3.073770739138126373e-02
3.386736288666725159e-02
-1.548231299966573715e-02
-3.604370728135108948e-02
6.314279977232217789e-03
1.396746654063463211e-02
-3.860274329781532288e-02
6.995525676757097244e-03
1.185747329145669937e-02
-9.035440161824226379e-04
-3.709576278924942017e-02
-1.539124292321503162e-03
-2.445966377854347229e-02
1.574858278036117554e-02
-1.979446038603782654e-02
6.416721269488334656e-03
2.789464965462684631e-02
-1.367429364472627640e-02
4.180526302661746740e-04
-4.966439679265022278e-03
1.946575194597244263e-02
2.224446833133697510e-02
4.060045257210731506e-02
-3.260367363691329956e-02
2.391440607607364655e-02
-6.989344023168087006e-03
1.455157622694969177e-02
-1.145217847079038620e-02
-4.553614649921655655e-03
-1.450154371559619904e-02
-1.632532477378845215e-02
5.033738166093826294e-02
3.921555727720260620e-02
-3.198895603418350220e-03
-3.767444938421249390e-02
2.909521572291851044e-02
-1.251329574733972549e-02
-3.205992653965950012e-02
-1.541586872190237045e-02
-3.818148688878864050e-04
2.648098953068256378e-02
-1.824924163520336151e-02
-1.142807956784963608e-02
-3.000639006495475769e-02
2.789350785315036774e-02
-1.663195528090000153e-02
-1.060616597533226013e-02
1.394394226372241974e-02
1.912743784487247467e-02
3.068549558520317078e-02
4.574509710073471069e-02
-2.934304624795913696e-02
-2.819536067545413971e-02
-3.675462212413549423e-03
1.835939101874828339e-02
-3.448650822974741459e-04
-1.364313717931509018e-02
1.045229472219944000e-02
1.312220655381679535e-02
3.139442298561334610e-03
2.741823531687259674e-02
-4.464218858629465103e-03
-3.262163954786956310e-04
1.832230202853679657e-02
-5.919274874031543732e-03
1.528363022953271866e-02
2.517777867615222931e-02
-1.623165421187877655e-02
1.369016524404287338e-02
1.614595577120780945e-02
-3.734179213643074036e-02
-6.074656732380390167e-03
2.428744733333587646e-02
8.884762413799762726e-03
1.822315342724323273e-02
2.029158547520637512e-02
-8.639535866677761078e-03
-3.673262521624565125e-02
1.085042767226696014e-02
-4.441820457577705383e-02
-2.040025405585765839e-02
-4.532156139612197876e-02
3.178090229630470276e-02
-2.520844899117946625e-02
1.960030756890773773e-02
1.413861569017171860e-02
-9.858334437012672424e-03
-4.519358277320861816e-03
-4.726861044764518738e-02
3.463254868984222412e-02
-2.144946716725826263e-02
9.858413599431514740e-03
2.245703898370265961e-02
1.457097101956605911e-02
-8.278252556920051575e-03
-2.784053795039653778e-02
-3.239180520176887512e-02
-1.794331148266792297e-02
1.415669266134500504e-02
4.481733962893486023e-02
-1.534756086766719818e-02
-5.313594825565814972e-03
1.552037801593542099e-02
-4.390118271112442017e-02
-2.220742590725421906e-02
-2.765802666544914246e-03
-1.233607903122901917e-02
3.397134691476821899e-02
4.021716862916946411e-02
3.524516895413398743e-02
3.257833793759346008e-02
2.835603617131710052e-02
9.585454245097935200e-04
1.661011390388011932e-02
-1.115963142365217209e-02
3.745726123452186584e-02
5.002912133932113647e-02
3.957543522119522095e-02
1.804679259657859802e-02
5.461431574076414108e-03
-2.048380114138126373e-02
2.522930130362510681e-02
3.891738876700401306e-02
9.981030598282814026e-03
6.429220084100961685e-03
1.951805432327091694e-03
-3.278586640954017639e-02
1.365049835294485092e-02
2.443776838481426239e-02
-5.257974844425916672e-03
-5.297260358929634094e-02
-2.124270610511302948e-02
-3.596579423174262047e-03
-2.796346507966518402e-02
-3.999944031238555908e-02
2.027872717007994652e-03
1.279735099524259567e-02
8.652038377476856112e-05
1.536220870912075043e-02
-1.195615623146295547e-02
1.300999283557757735e-04
-1.362207531929016113e-02
6.673412770032882690e-02
-2.820274792611598969e-02
3.772962093353271484e-02
-3.305725753307342529e-02
1.223552692681550980e-02
1.698013581335544586e-02
6.114140525460243225e-02
-3.511699661612510681e-02
2.254455350339412689e-02
2.779161185026168823e-02
5.260208155959844589e-03
-7.435363717377185822e-03
9.867611341178417206e-03
-8.865594863891601562e-03
2.386430976912379265e-03
6.678488105535507202e-03
-2.070909179747104645e-02
-5.192734301090240479e-02
-2.835496328771114349e-02
-1.685242168605327606e-03
6.411235313862562180e-03
2.655488997697830200e-02
1.011509448289871216e-03
-1.807375624775886536e-02
2.254045009613037109e-02
7.939458824694156647e-03
3.198222257196903229e-03
2.388554811477661133e-02
1.497705653309822083e-02
-2.694052457809448242e-02
5.933771841228008270e-03
2.116535417735576630e-02
4.055642336606979370e-02
2.220661751925945282e-02
3.421979397535324097e-02
-2.911543287336826324e-02
2.785064838826656342e-02
6.033854559063911438e-03
-1.071664318442344666e-02
7.312410045415163040e-03
2.482882142066955566e-02
2.859642356634140015e-02
3.090173192322254181e-02
3.265111148357391357e-02
1.250134222209453583e-02
2.578585594892501831e-02
-1.452707033604383469e-02
2.126209996640682220e-02
2.864075265824794769e-02
-1.585384830832481384e-02
-1.048784423619508743e-02
-2.112711593508720398e-02
-4.684603214263916016e-02
1.301532331854104996e-02
2.609583549201488495e-02
-2.401113137602806091e-02
-4.485848173499107361e-02
2.102481015026569366e-02
-3.059106506407260895e-02
4.518874362111091614e-02
-3.505706042051315308e-02
1.427214685827493668e-02
8.138722740113735199e-03
-1.670092903077602386e-02
-1.218812167644500732e-02
2.771181240677833557e-02
4.713904485106468201e-02
5.500243976712226868e-02
-3.122125566005706787e-02
8.503083139657974243e-03
-2.467551641166210175e-02
2.131221443414688110e-02
-1.179977320134639740e-02
-1.126600988209247589e-02
3.168639959767460823e-03
-3.492318838834762573e-02
-1.161705143749713898e-02
-1.537578087300062180e-02
-1.182622928172349930e-02
-6.482963915914297104e-03
-3.279285039752721786e-03
3.153106570243835449e-02
4.951738286763429642e-03
3.177469223737716675e-02
-2.486866153776645660e-02
-2.981432713568210602e-02
3.186598047614097595e-02
2.669297531247138977e-02
-4.871695861220359802e-02
1.920449361205101013e-02
-1.544520538300275803e-02
-2.218232490122318268e-02
-3.858436364680528641e-03
-2.150992862880229950e-02
2.380803413689136505e-02
3.146358579397201538e-02
2.483647875487804413e-02
-8.227569982409477234e-03
-4.647907800972461700e-03
2.672258764505386353e-02
-4.764006659388542175e-02
-2.105143107473850250e-02
-3.229567036032676697e-02
5.853713676333427429e-02
-2.750798873603343964e-02
3.381720557808876038e-02
-6.429900974035263062e-02
5.015992093831300735e-03
7.002193015068769455e-03
3.265130147337913513e-02
3.763218224048614502e-02
3.290339931845664978e-02
-1.945133507251739502e-02
-2.794136479496955872e-02
3.567762207239866257e-03
3.623570548370480537e-03
-6.192607432603836060e-02
-5.073861218988895416e-03
-2.629586681723594666e-02
-1.987854763865470886e-02
-8.396808058023452759e-03
4.610465839505195618e-03
-1.396320573985576630e-02
1.135264057666063309e-02
-4.012259840965270996e-02
-5.517642572522163391e-02
-3.183797746896743774e-02
3.225187957286834717e-02
2.125412039458751678e-02
-2.541304193437099457e-02
9.643011726438999176e-03
4.159184917807579041e-02
2.078929170966148376e-02
5.260443314909934998e-02
2.562613226473331451e-03
-2.375242859125137329e-02
-5.712049826979637146e-02
-2.203167416155338287e-02
3.715118020772933960e-02
2.878859080374240875e-02
5.528832320123910904e-03
9.001409634947776794e-03
-8.441187441349029541e-03
-5.142390727996826172e-02
-5.193055421113967896e-02
3.429520875215530396e-02
4.053405672311782837e-02
4.004770517349243164e-02
1.842954941093921661e-02
-6.556422449648380280e-03
-1.148019800893962383e-03
1.955562643706798553e-02
1.156873628497123718e-02
-1.673489063978195190e-02
-1.032003085128962994e-03
1.929338648915290833e-02
-1.858752779662609100e-02
-3.460788726806640625e-02
1.819727383553981781e-02
1.652084849774837494e-02
-3.368657082319259644e-02
-7.106919586658477783e-02
1.720218360424041748e-02
2.109300345182418823e-02
-3.622353076934814453e-02
-1.183301582932472229e-02
-7.602565921843051910e-03
-2.587227523326873779e-02
-3.951112926006317139e-02
-2.789822220802307129e-02
-6.397817283868789673e-03
-1.182980276644229889e-02
2.295267023146152496e-02
-1.728197745978832245e-02
6.826439406722784042e-03
-1.667297072708606720e-02
-1.352664548903703690e-02
6.684062071144580841e-03
-3.016748093068599701e-02
2.312834560871124268e-02
8.742966456338763237e-04
-3.191845025867223740e-03
-6.927730143070220947e-02
4.880118370056152344e-02
2.517120167613029480e-02
1.159824803471565247e-02
2.454876899719238281e-02
4.974984377622604370e-02
-8.812183141708374023e-02
-6.005983334034681320e-03
4.176978953182697296e-03
-1.693335548043251038e-02
-6.737848371267318726e-02
-2.125729992985725403e-02
7.131170481443405151e-03
3.711509332060813904e-02
3.809719905257225037e-02
-2.327466569840908051e-02
-1.664339192211627960e-02
-8.108909241855144501e-03
-6.458581890910863876e-03
-3.603330254554748535e-02
-2.819336205720901489e-02
2.544361539185047150e-02
-1.904981397092342377e-02
-3.786177933216094971e-02
-9.183413535356521606e-02
-2.266771718859672546e-02
7.821619510650634766e-03
-1.212238799780607224e-02
-2.416918613016605377e-02
-4.018906503915786743e-02
-4.305427893996238708e-03
-2.921745553612709045e-02
-3.394919633865356445e-02
1.772879622876644135e-02
-4.670522361993789673e-02
3.747933357954025269e-02
-2.410944364964962006e-02
-6.190172955393791199e-02
-1.056374143809080124e-02
-1.026394311338663101e-03
2.367221936583518982e-02
3.056703321635723114e-02
-3.416549414396286011e-02
-2.187772653996944427e-03
-5.678620655089616776e-03
5.226606968790292740e-03
-1.506589539349079132e-02
4.677498247474431992e-03
4.827697575092315674e-02
6.050584092736244202e-02
2.634710818529129028e-02
5.948524177074432373e-02
1.183603890240192413e-02
6.489166058599948883e-03
-5.752914026379585266e-02
-4.541517794132232666e-02
2.498917840421199799e-02
-1.330897910520434380e-03
2.367079444229602814e-02
-7.838042452931404114e-03
5.412580072879791260e-02
1.525093987584114075e-02
-6.178122013807296753e-03
-7.869461551308631897e-03
4.822161421179771423e-02
3.952823206782341003e-02
2.389081940054893494e-02
-3.052010387182235718e-02
3.326162695884704590e-02
-4.436537157744169235e-03
1.599943824112415314e-02
4.603665787726640701e-03
6.769997999072074890e-03
-2.325555868446826935e-02
4.027769342064857483e-02
-4.609870538115501404e-02
-1.791552454233169556e-02
-3.721258370205760002e-03
-5.015382915735244751e-02
-5.916458368301391602e-02
1.364093273878097534e-02
-3.690794482827186584e-02
-3.169107809662818909e-02
-2.942976355552673340e-02
3.831698372960090637e-02
1.811258867383003235e-02
-2.855230150089482777e-06
-2.815819811075925827e-03
-5.987507756799459457e-03
-1.924193650484085083e-02
-4.366119578480720520e-02
-8.487639948725700378e-03
-4.383240360766649246e-03
-1.818762719631195068e-02
3.858453407883644104e-02
1.623602770268917084e-02
-4.139460623264312744e-02
-4.938141256570816040e-02
-1.848413608968257904e-02
-4.008552804589271545e-02
-4.160209093242883682e-03
3.317704424262046814e-02
9.886986576020717621e-03
-2.409562841057777405e-02
-2.558437362313270569e-02
3.731493372470140457e-03
-5.368604511022567749e-02
-2.916368842124938965e-02
-3.157522529363632202e-02
-3.894329443573951721e-02
-4.611822962760925293e-02
2.861753478646278381e-02
-3.327983617782592773e-02
-3.893523290753364563e-02
-3.100566007196903229e-02
2.820270322263240814e-02
-7.314756512641906738e-02
3.979701176285743713e-02
-2.210524864494800568e-02
-1.179938204586505890e-02
7.727317512035369873e-03
3.540837019681930542e-02
-5.043312907218933105e-02
-3.094149939715862274e-02
-2.264248207211494446e-02
-1.714549376629292965e-03
-3.110449295490980148e-03
1.271459367126226425e-02
2.232556417584419250e-02
-2.475006133317947388e-02
6.277791224420070648e-03
2.334951795637607574e-02
1.012478023767471313e-02
-3.295927122235298157e-02
-2.335813594982028008e-03
-1.313894707709550858e-02
-1.733437553048133850e-02
-2.829060703516006470e-02
8.468618616461753845e-03
4.991874843835830688e-02
-3.818093612790107727e-02
-2.410747669637203217e-02
6.510458420962095261e-03
4.557112988550215960e-04
-1.968819415196776390e-03
5.170335620641708374e-02
1.950751640833914280e-03
-5.331801623106002808e-02
4.048385098576545715e-02
7.821883191354572773e-04
2.817577123641967773e-02
4.746486619114875793e-02
-2.402101084589958191e-02
-1.050491631031036377e-02
6.221956107765436172e-03
-1.577339135110378265e-02
2.699846960604190826e-02
8.349997922778129578e-03
-2.024943009018898010e-03
3.664610208943486214e-03
1.756109856069087982e-02
-5.956658162176609039e-03
-6.668552756309509277e-03
-2.143106237053871155e-02
-1.790942437946796417e-02
1.807582750916481018e-02
-3.071353398263454437e-02
-5.176550708711147308e-03
8.847664576023817062e-04
-5.991430021822452545e-03
-3.386005526408553123e-03
2.859834209084510803e-02
-1.194679457694292068e-02
3.531925752758979797e-02
4.975992441177368164e-02
9.710269048810005188e-03
1.872903108596801758e-02
-5.284528713673353195e-03
-4.748044908046722412e-02
-7.745729386806488037e-02
-2.394136041402816772e-02
-5.684332456439733505e-03
4.187733400613069534e-03
1.548085827380418777e-02
1.519554760307073593e-02
-1.691141538321971893e-02
3.035998530685901642e-02
2.117561921477317810e-02
3.864465281367301941e-02
-1.822018250823020935e-02
2.006761357188224792e-02
4.107341542840003967e-02
2.549904212355613708e-02
-4.956141579896211624e-03
5.727327428758144379e-03
3.630596771836280823e-02
3.043255209922790527e-02
7.905678823590278625e-03
-1.756955869495868683e-02
-1.457764115184545517e-02
-4.131922125816345215e-02
-1.809541881084442139e-02
1.324617624050006270e-04
8.909533731639385223e-03
-8.518254384398460388e-03
5.374247580766677856e-02
-2.859561517834663391e-02
3.887322917580604553e-02
2.787161804735660553e-02
-1.901580952107906342e-02
-7.181074470281600952e-02
-1.871913485229015350e-02
1.232802588492631912e-02
7.784972898662090302e-03
3.850494697690010071e-02
-3.453446924686431885e-02
-2.923629619181156158e-02
-2.683435939252376556e-02
-6.120425462722778320e-02
-4.213918745517730713e-02
-2.025525644421577454e-02
5.804283916950225830e-02
-2.339024469256401062e-02
8.576665073633193970e-03
-3.773553296923637390e-02
-7.398797664791345596e-03
-1.873982325196266174e-02
-2.385774627327919006e-03
-9.415909647941589355e-03
3.091862425208091736e-02
4.529990255832672119e-02
-2.822461910545825958e-02
-3.059968538582324982e-02
-7.323004771023988724e-03
-1.842612517066299915e-03
-2.402683952823281288e-03
2.150217816233634949e-02
-3.914168570190668106e-03
1.207468193024396896e-02
-1.743416115641593933e-02
-3.704231977462768555e-02
-3.865905106067657471e-03
-7.707469630986452103e-03
-4.497330170124769211e-03
1.394919026643037796e-02
3.375092893838882446e-02
-8.193073794245719910e-03
8.093146607279777527e-03
7.086836546659469604e-02
3.162942081689834595e-02
3.009215556085109711e-02
2.319503948092460632e-02
-3.415761888027191162e-02
-5.586851760745048523e-02
-4.742348566651344299e-02
-3.937730938196182251e-02
2.787598408758640289e-02
1.539019122719764709e-02
3.311290964484214783e-02
1.677548885345458984e-02
5.462089087814092636e-03
-3.172778338193893433e-02
1.258311560377478600e-03
3.503148257732391357e-02
-3.979476913809776306e-02
4.474708810448646545e-02
3.497366607189178467e-02
1.170511636883020401e-02
3.579262644052505493e-02
5.395466927438974380e-03
-5.567189306020736694e-02
1.982549391686916351e-02
-1.998170837759971619e-02
3.265335038304328918e-02
-1.017503626644611359e-02
-3.840196132659912109e-02
-2.090379409492015839e-02
1.473484281450510025e-02
-3.780827671289443970e-02
-5.810170620679855347e-02
-5.432146787643432617e-02
2.729858830571174622e-02
-5.500521976500749588e-03
3.878159448504447937e-02
-1.770996372215449810e-03
-2.278089150786399841e-02
-1.460209395736455917e-02
-8.060739375650882721e-03
-4.001107998192310333e-03
-5.069924518465995789e-02
-1.233170647174119949e-02
2.605786547064781189e-02
1.114851329475641251e-03
9.926590137183666229e-03
-1.578950136899948120e-02
3.321424499154090881e-02
-7.619310170412063599e-03
-1.126938592642545700e-02
1.646833866834640503e-02
2.057670801877975464e-02
-6.251852493733167648e-03
-2.999953553080558777e-02
-4.434084054082632065e-03
-1.094105653464794159e-02
3.535103052854537964e-02
1.776543259620666504e-02
-2.066385559737682343e-02
-2.992443740367889404e-02
5.571231991052627563e-02
-2.422577887773513794e-02
-2.510716579854488373e-02
-2.394158206880092621e-02
2.115231938660144806e-02
-1.244016084820032120e-02
-3.142368048429489136e-02
-9.555090218782424927e-03
-6.314514670521020889e-03
2.965724095702171326e-02
-6.305539608001708984e-02
1.637863460928201675e-03
-2.814862877130508423e-02
4.480020701885223389e-02
-6.450949702411890030e-03
2.054107934236526489e-02
-3.304776037111878395e-03
3.553776815533638000e-02
1.490215538069605827e-03
3.751567378640174866e-02
5.379514768719673157e-02
-4.321519657969474792e-02
3.992216289043426514e-02
6.473153829574584961e-03
1.213945355266332626e-02
-2.762901782989501953e-02
-2.472809981554746628e-03
-2.336516417562961578e-02
-3.148360550403594971e-02
-3.378316015005111694e-02
1.811738684773445129e-02
-5.922377575188875198e-03
2.055727876722812653e-02
3.608443308621644974e-03
2.086936682462692261e-02
-1.837476342916488647e-02
-1.859652576968073845e-03
2.615535818040370941e-02
1.168902404606342316e-02
-4.997725784778594971e-02
3.136467933654785156e-02
2.149824611842632294e-02
2.535887993872165680e-02
3.281923010945320129e-02
-3.124582022428512573e-02
-8.451213128864765167e-03
4.417137708514928818e-03
-2.683174237608909607e-02
5.608488246798515320e-02
3.734650090336799622e-02
3.541159257292747498e-02
8.497744565829634666e-04
3.672340186312794685e-03
-6.693399976938962936e-03
-5.040499847382307053e-03
1.864624023437500000e-02
-2.720672637224197388e-02
1.403542980551719666e-02
3.975737839937210083e-02
4.212209582328796387e-02
3.591254726052284241e-02
-1.334829442203044891e-02
-5.462658032774925232e-02
-1.647649332880973816e-02
-3.435436636209487915e-02
4.131225403398275375e-03
3.881882503628730774e-02
3.051922656595706940e-02
2.870454685762524605e-03
-1.682422868907451630e-02
9.393376298248767853e-03
-5.929310619831085205e-02
-4.480419680476188660e-02
7.422368507832288742e-03
-1.083495188504457474e-02
3.570644930005073547e-02
-2.212104946374893188e-02
-5.769445560872554779e-03
-4.372018948197364807e-02
1.684854039922356606e-03
-3.297959640622138977e-02
5.211986601352691650e-02
-1.449009776115417480e-02
4.022979177534580231e-03
2.612763643264770508e-02
-3.579979017376899719e-02
2.793862856924533844e-02
-1.195471384562551975e-03
-4.181741923093795776e-02
-6.389247626066207886e-02
-1.584153994917869568e-02
-2.389660105109214783e-02
-1.745714806020259857e-02
4.780086874961853027e-02
5.476980935782194138e-03
3.861735016107559204e-02
3.488719090819358826e-02
9.639283642172813416e-03
-5.553145706653594971e-02
-1.298999134451150894e-02
2.951898612082004547e-02
1.177278719842433929e-02
5.665814969688653946e-04
2.362937293946743011e-02
1.770792528986930847e-02
-1.755271852016448975e-02
3.168295323848724365e-02
3.257458657026290894e-02
-3.266422078013420105e-02
2.433092519640922546e-02
-3.540359064936637878e-02
2.861409448087215424e-02
-2.296613715589046478e-02
3.603383153676986694e-02
1.180780772119760513e-02
3.088204935193061829e-02
-5.776305496692657471e-02
3.544512018561363220e-02
-2.857822366058826447e-02
3.970187529921531677e-02
-2.135731745511293411e-03
-2.435480058193206787e-02
-2.745232731103897095e-02
-2.456459589302539825e-02
-1.196994679048657417e-03
-3.831635043025016785e-02
3.298492403700947762e-03
-1.235352922230958939e-02
3.001898340880870819e-02
-3.185712918639183044e-02
-2.917837351560592651e-02
4.203075543045997620e-02
4.879293031990528107e-03
3.099808283150196075e-02
6.868259981274604797e-03
-2.006107009947299957e-02
2.547187544405460358e-02
-6.213703309185802937e-04
3.318294882774353027e-02
-2.350514940917491913e-02
2.447056397795677185e-02
4.550901800394058228e-02
-1.423835847526788712e-02
7.463540881872177124e-03
-2.425369806587696075e-02
-3.428521007299423218e-02
-5.001434311270713806e-02
-2.952459827065467834e-02
6.085772812366485596e-02
-5.759230349212884903e-03
-7.858560420572757721e-03
6.252272054553031921e-03
-5.853785201907157898e-03
-6.128351204097270966e-03
-5.068719387054443359e-02
-1.838526688516139984e-02
1.275154948234558105e-02
1.099347881972789764e-02
2.321725152432918549e-02
-8.632172830402851105e-03
4.495999962091445923e-02
-2.187643200159072876e-02
-4.275667294859886169e-02
1.529293972998857498e-02
-1.885898038744926453e-02
1.803162507712841034e-02
4.206146299839019775e-02
-1.488713920116424561e-02
5.381496623158454895e-03
2.483900263905525208e-02
3.470759838819503784e-03
-6.488560140132904053e-02
1.502124592661857605e-02
-4.395668208599090576e-02
-3.147919848561286926e-02
-2.513908967375755310e-02
3.854114934802055359e-02
-1.819915883243083954e-02
-2.957301959395408630e-02
-3.987149149179458618e-02
5.891259759664535522e-03
3.948336094617843628e-02
8.288130164146423340e-03
-2.036410756409168243e-02
-1.768638193607330322e-02
1.136488839983940125e-02
5.703197792172431946e-03
-2.715303190052509308e-02
-1.558810193091630936e-02
-3.230650350451469421e-02
-1.236990373581647873e-02
-5.146019160747528076e-03
-5.218655616044998169e-02
1.317759416997432709e-02
2.420564368367195129e-02
3.270508721470832825e-02
-3.575097024440765381e-02
-1.353634987026453018e-02
-5.898987501859664917e-02
-2.750144805759191513e-03
-3.022480197250843048e-02
-2.415757812559604645e-02
-5.099394172430038452e-02
2.133673802018165588e-02
-4.353503510355949402e-02
2.000910928472876549e-03
-4.057124257087707520e-03
-3.088312409818172455e-02
-2.441552467644214630e-02
3.528939560055732727e-02
-3.073336742818355560e-02
7.261269725859165192e-03
-7.344188052229583263e-04
6.111957132816314697e-02
-3.284062445163726807e-02
-1.644433289766311646e-02
-7.839216291904449463e-02
1.245843432843685150e-02
-5.441655591130256653e-02
-2.252693101763725281e-02
3.638403117656707764e-02
4.897416569292545319e-03
-1.365797687321901321e-02
1.187582500278949738e-03
-1.930987648665904999e-02
-2.375453244894742966e-03
-2.913693524897098541e-02
2.852865867316722870e-02
5.966866388916969299e-03
-5.922023579478263855e-02
6.071481853723526001e-03
3.965661674737930298e-02
-3.410342708230018616e-02
4.744349513202905655e-03
-3.008050657808780670e-02
6.021927576512098312e-03
-2.615832723677158356e-02
1.581099629402160645e-02
1.585443876683712006e-02
6.178445182740688324e-03
5.868097394704818726e-02
6.855215132236480713e-02
-2.289542742073535919e-02
-1.549795828759670258e-02
-2.984087169170379639e-02
-5.994685459882020950e-03
-3.490744857117533684e-04
1.767535321414470673e-02
8.678377419710159302e-02
3.078028745949268341e-02
-3.401757031679153442e-02
-3.840785846114158630e-02
1.079298555850982666e-02
-4.196243733167648315e-02
-1.090877875685691833e-02
-1.648633368313312531e-02
-8.260108530521392822e-03
-2.107737585902214050e-02
2.475532330572605133e-02
2.988599799573421478e-02
-2.482427097856998444e-02
-2.151637524366378784e-02
1.785993389785289764e-02
-1.401908695697784424e-02
1.343143079429864883e-02
4.528974369168281555e-02
8.159706369042396545e-03
-4.337764531373977661e-02
-2.956134080886840820e-02
-3.938093408942222595e-02
1.785644888877868652e-02
-3.112263604998588562e-02
2.699582651257514954e-02
-4.035354033112525940e-02
-3.392104431986808777e-02
2.506862767040729523e-02
2.910939045250415802e-02
-1.060865633189678192e-02
2.322004362940788269e-02
1.404366362839937210e-02
-9.042132645845413208e-03
1.814829744398593903e-02
-3.591420128941535950e-02
2.984826453030109406e-03
-3.107957309111952782e-03
-3.733265027403831482e-02
5.483816191554069519e-02
-1.401788648217916489e-02
-2.690288983285427094e-02
-2.703082002699375153e-02
-1.594864949584007263e-02
-9.782797424122691154e-04
-2.287256345152854919e-02
3.051738999783992767e-02
3.805824741721153259e-02
1.786451973021030426e-02
3.066552430391311646e-02
-7.938734052004292607e-05
-6.516237556934356689e-02
2.026107627898454666e-03
1.554234512150287628e-02
1.178326737135648727e-02
1.745399349601939321e-04
-3.432478755712509155e-02
7.069360464811325073e-03
-1.658803550526499748e-03
-2.636206150054931641e-02
-2.333155274391174316e-02
-4.314273968338966370e-02
-6.030656397342681885e-03
9.617641568183898926e-03
-1.944195479154586792e-02
3.094193711876869202e-02
-3.132387530058622360e-03
-5.364235490560531616e-02
-3.785363398492336273e-03
-8.341116458177566528e-02
2.393196802586317062e-03
-1.605821028351783752e-02
-4.631294403225183487e-03
1.158405095338821411e-02
-4.550541285425424576e-03
-6.937480997294187546e-03
-3.368309885263442993e-02
-2.945715095847845078e-03
2.428379608318209648e-03
-5.497161671519279480e-02
-9.531117975711822510e-03
3.834598464891314507e-03
-5.881636217236518860e-02
3.576757386326789856e-02
-2.026055380702018738e-02
2.210889384150505066e-02
3.234773129224777222e-02
-2.600389532744884491e-02
-5.749808251857757568e-02
1.188027765601873398e-02
2.545999921858310699e-02
1.366940513253211975e-02
-3.963533788919448853e-03
8.090258575975894928e-03
4.322915524244308472e-02
-3.339181654155254364e-03
-1.141504570841789246e-02
-4.788534715771675110e-02
-7.630417821928858757e-04
-5.592035874724388123e-02
-1.358757819980382919e-02
7.387656718492507935e-02
-2.936005033552646637e-02
-2.321791462600231171e-02
3.009201958775520325e-03
2.694714069366455078e-02
3.239507973194122314e-02
-2.104525454342365265e-02
1.082050614058971405e-02
-1.720435358583927155e-02
1.942922547459602356e-02
-1.649522455409169197e-03
1.328313164412975311e-02
3.920451924204826355e-02
4.248518124222755432e-02
-8.743618614971637726e-03
3.972574695944786072e-02
3.235701844096183777e-02
-2.111911959946155548e-02
2.799269929528236389e-02
1.938687451183795929e-02
1.150627527385950089e-02
1.458529848605394363e-02
-1.016617100685834885e-02
-3.354553505778312683e-02
-1.441614236682653427e-02
2.748514525592327118e-02
2.562935277819633484e-02
8.801384828984737396e-03
7.049915730021893978e-04
-1.155580952763557434e-02
2.242317982017993927e-02
-2.315214090049266815e-02
6.433658767491579056e-03
2.052884735167026520e-02
1.590795116499066353e-03
1.552480924874544144e-02
-1.185683254152536392e-02
-5.106100812554359436e-02
5.501170083880424500e-02
-1.605270244181156158e-02
-2.803442999720573425e-02
-3.023530123755335808e-03
-2.245105244219303131e-02
2.166438102722167969e-02
-5.597654730081558228e-02
-4.643648862838745117e-04
1.132128387689590454e-02
-1.482822187244892120e-02
2.031227201223373413e-02
5.018654093146324158e-02
-8.107190579175949097e-02
1.178183220326900482e-02
-1.084928587079048157e-02
-1.980698108673095703e-02
-3.960081189870834351e-02
-1.942046731710433960e-02
-3.545457124710083008e-02
-2.240421064198017120e-02
1.553965173661708832e-02
1.836300268769264221e-02
-8.037776686251163483e-03
4.385735094547271729e-02
-1.209835056215524673e-02
1.896047848276793957e-03
-1.905114762485027313e-02
3.220925480127334595e-02
-5.365124344825744629e-02
-2.462547039613127708e-03
-3.225692361593246460e-02
-1.449192292056977749e-03
-5.905432626605033875e-02
5.751352291554212570e-03
1.994135230779647827e-02
2.751950174570083618e-02
-3.167304908856749535e-03
2.476750873029232025e-02
3.448874130845069885e-02
-2.285997197031974792e-02
1.253554970026016235e-02
1.461180951446294785e-02
-1.645781472325325012e-02
-4.989529028534889221e-02
-3.261703252792358398e-02
4.442717880010604858e-02
-3.346452116966247559e-02
2.171213738620281219e-02
-4.879883676767349243e-02
6.356808356940746307e-03
-3.177080303430557251e-03
4.743134602904319763e-02
2.294132858514785767e-02
1.682204194366931915e-02
3.496449440717697144e-02
5.137945339083671570e-02
5.320772179402410984e-04
3.365004435181617737e-02
-5.281198769807815552e-02
1.372780371457338333e-02
-6.196660920977592468e-02
-2.627913281321525574e-02
5.171332880854606628e-02
2.635798975825309753e-02
3.882497549057006836e-02
2.036621794104576111e-02
1.773454062640666962e-02
-2.387395873665809631e-02
1.031039189547300339e-02
-2.195303700864315033e-02
5.304609658196568489e-04
1.940786838531494141e-02
-2.962833456695079803e-02
2.952599339187145233e-02
4.353143647313117981e-02
7.050611078739166260e-03
-5.002743005752563477e-02
-1.924550160765647888e-02
-9.246560744941234589e-03
1.862694136798381805e-02
3.554493561387062073e-02
4.920821520499885082e-04
-9.292046539485454559e-03
-1.818254590034484863e-02
2.661845460534095764e-02
-1.625617220997810364e-02
-3.357652202248573303e-02
-2.984216809272766113e-02
1.181039959192276001e-02
2.527116611599922180e-02
2.333291433751583099e-02
4.092324152588844299e-02
-3.967725485563278198e-02
2.030084282159805298e-02
-1.570727117359638214e-02
-8.105086162686347961e-03
1.646001450717449188e-02
-3.169602155685424805e-02
1.557210780447348952e-04
-3.751761093735694885e-02
3.015755303204059601e-02
-3.092433698475360870e-02
1.537932548671960831e-03
-6.293699145317077637e-03
-2.521414309740066528e-02
2.547124866396188736e-03
-6.618976593017578125e-02
1.922746188938617706e-02
2.375834388658404350e-03
3.214178234338760376e-02
2.056599827483296394e-03
9.173106402158737183e-03
-6.323355436325073242e-02
-1.523065380752086639e-02
2.265135385096073151e-02
-1.038789705489762127e-04
-6.464540492743253708e-03
1.815287210047245026e-02
1.978950807824730873e-03
4.115530848503112793e-02
-2.878309600055217743e-02
-1.354543399065732956e-02
2.548843249678611755e-02
-1.133243367075920105e-02
-4.432832449674606323e-02
6.027662660926580429e-03
1.938708685338497162e-02
2.644073776900768280e-02
7.728654425591230392e-03
1.275469921529293060e-02
-5.276634171605110168e-02
2.503206580877304077e-02
-2.323676832020282745e-02
-1.063319575041532516e-02
-7.446668110787868500e-03
1.631404459476470947e-02
3.987641073763370514e-03
-2.730853855609893799e-02
2.627207711338996887e-02
-7.706160657107830048e-03
-4.108349233865737915e-02
1.368818338960409164e-02
-2.579469978809356689e-02
4.085542634129524231e-03
1.368703320622444153e-02
3.524001687765121460e-02
2.370324358344078064e-02
-5.358051508665084839e-03
-5.257832258939743042e-02
-6.413786113262176514e-02
-2.526552043855190277e-02
3.097032755613327026e-02
-2.560083754360675812e-02
-1.435178145766258240e-02
5.303521454334259033e-02
3.808706765994429588e-03
-4.174454882740974426e-02
1.254546083509922028e-02
-2.566555142402648926e-02
1.060872687958180904e-03
-6.267699599266052246e-02
-4.612492769956588745e-02
5.478244274854660034e-02
3.067783266305923462e-02
4.260638356208801270e-02
-1.953008957207202911e-02
7.521689683198928833e-02
-4.474645480513572693e-03
-3.172215307131409645e-03
3.815767168998718262e-02
-3.814661130309104919e-02
2.477427199482917786e-02
-1.530928444117307663e-02
1.505444943904876709e-02
-1.229921262711286545e-02
-1.795919612050056458e-02
-3.592359274625778198e-02
7.719846908003091812e-03
-3.439852222800254822e-02
-1.418587565422058105e-02
3.685560077428817749e-02
-3.604872897267341614e-02
-4.874873533844947815e-02
-3.229943662881851196e-02
1.229115296155214310e-02
-2.532340399920940399e-02
4.457422532141208649e-03
2.659889496862888336e-02
-4.377588629722595215e-02
-9.772445773705840111e-04
-2.375253476202487946e-02
4.207529127597808838e-02
-1.653083413839340210e-02
-2.332542790099978447e-03
3.068027272820472717e-02
5.628756806254386902e-02
-2.899088896811008453e-02
-8.412167429924011230e-03
-1.868426054716110229e-02
1.069378852844238281e-02
1.446210499852895737e-02
-8.557915687561035156e-03
-4.412482678890228271e-02
-3.416112065315246582e-02
-9.366326034069061279e-03
1.452605146914720535e-02
-4.866560455411672592e-03
-1.520046405494213104e-02
-1.583617366850376129e-02
-3.155082091689109802e-02
4.367851186543703079e-03
4.419330507516860962e-02
-9.061615914106369019e-02
3.084660694003105164e-02
4.058809485286474228e-03
-3.145650401711463928e-02
-4.706159606575965881e-02
-1.793194748461246490e-02
-2.581621147692203522e-02
2.202332019805908203e-02
-3.179289773106575012e-02
-2.007324248552322388e-02
-1.432203222066164017e-02
4.633777961134910583e-02
-1.996592851355671883e-03
-3.037762828171253204e-02
1.926598325371742249e-02
3.688294673338532448e-03
-1.210757996886968613e-02
2.683145366609096527e-02
-8.826877921819686890e-02
-3.110255580395460129e-03
-1.168636605143547058e-02
2.621047664433717728e-03
7.239663042128086090e-03
-2.662290260195732117e-02
-3.430289402604103088e-02
4.919251799583435059e-02
2.815279364585876465e-02
-5.251497495919466019e-03
-3.597565228119492531e-03
2.285927906632423401e-02
-1.421045605093240738e-02
-3.597109019756317139e-02
-2.596738561987876892e-02
-3.627448575571179390e-03
-4.866013675928115845e-02
-1.616714708507061005e-02
4.304507747292518616e-03
-5.658976733684539795e-02
-1.627350971102714539e-02
2.826132066547870636e-02
-8.174980757758021355e-04
4.339518025517463684e-03
4.423793405294418335e-02
4.988857731223106384e-02
4.228280449751764536e-04
-3.233890980482101440e-02
-3.412846103310585022e-02
1.506661251187324524e-02
-2.083540521562099457e-02
-4.583651572465896606e-02
4.098354279994964600e-02
-3.305334970355033875e-02
3.817033395171165466e-02
-1.486670970916748047e-02
3.699009865522384644e-02
8.032901212573051453e-03
-3.713480755686759949e-02
2.516004070639610291e-02
-2.310018055140972137e-02
9.671344421803951263e-03
1.333733834326267242e-02
-4.924487788230180740e-03
2.374807372689247131e-03
7.426908239722251892e-03
-2.606743015348911285e-02
1.020230725407600403e-02
-1.742930710315704346e-02
1.438151858747005463e-02
3.754301369190216064e-02
-5.224796757102012634e-02
-5.128814652562141418e-02
-2.516371756792068481e-02
-3.095301240682601929e-02
-7.508318871259689331e-03
-1.142166554927825928e-02
-6.957809440791606903e-03
-5.985355470329523087e-03
-1.869269087910652161e-02
-6.565547082573175430e-03
-2.230072021484375000e-02
-1.474338211119174957e-02
-1.529929507523775101e-02
3.185859532095491886e-04
2.610723488032817841e-02
-2.098589763045310974e-02
1.217561494559049606e-02
4.165568388998508453e-03
-4.419425502419471741e-02
1.537493243813514709e-02
1.036314386874437332e-02
2.732866257429122925e-02
1.161770895123481750e-02
-3.441006690263748169e-02
-2.878277562558650970e-03
-3.309502825140953064e-02
1.084868796169757843e-02
5.394504591822624207e-02
-1.217011641710996628e-02
-8.061718195676803589e-03
4.744548816233873367e-03
-9.077970683574676514e-02
-4.311005771160125732e-02
-1.700406707823276520e-02
7.462031207978725433e-03
-7.903844118118286133e-03
-6.414587143808603287e-03
-3.930968046188354492e-02
3.483560681343078613e-02
-1.056334469467401505e-02
4.028884693980216980e-02
-1.267281710170209408e-03
9.167366661131381989e-03
3.363445401191711426e-03
-4.952861345373094082e-04
9.871298447251319885e-03
3.260486572980880737e-02
-3.784291446208953857e-02
-1.407766249030828476e-03
-4.692104831337928772e-02
3.297677263617515564e-02
1.017125416547060013e-02
-7.820555008947849274e-03
-2.440931648015975952e-02
5.588228232227265835e-04
2.000286243855953217e-02
-1.069577969610691071e-02
2.373082190752029419e-02
1.041549071669578552e-02
3.052870277315378189e-03
-1.705370843410491943e-02
-3.826957195997238159e-02
-8.779757656157016754e-03
3.095996938645839691e-02
-9.806627407670021057e-03
8.698711171746253967e-03
4.185153543949127197e-02
-1.988312229514122009e-02
-4.522899165749549866e-02
1.995425112545490265e-02
4.817941412329673767e-02
2.112083509564399719e-02
-2.491544559597969055e-02
4.828004539012908936e-02
5.539521947503089905e-02
8.365725167095661163e-03
-1.629762165248394012e-02
-5.788314342498779297e-02
-9.530930547043681145e-04
-6.255760323256254196e-03
-4.040687903761863708e-02
7.903727144002914429e-02
2.645995281636714935e-02
-3.514692187309265137e-02
-5.338564515113830566e-03
-7.752372883260250092e-03
8.787651546299457550e-03
-2.571797929704189301e-03
-2.923846244812011719e-02
2.117392793297767639e-02
4.168730974197387695e-02
3.140470758080482483e-02
-2.925530076026916504e-02
2.083983644843101501e-02
-3.509059175848960876e-02
-4.737677052617073059e-02
4.680664464831352234e-02
2.646414935588836670e-02
7.690148777328431606e-04
3.649958595633506775e-02
-2.106246165931224823e-02
1.577951572835445404e-02
1.531261950731277466e-02
3.164435550570487976e-02
-3.313104808330535889e-02
-1.412231288850307465e-02
-6.392831914126873016e-03
-1.878897845745086670e-02
1.781566627323627472e-02
4.599881172180175781e-02
-2.255386486649513245e-02
-1.347333472222089767e-02
-3.526135161519050598e-02
3.417432680726051331e-02
1.876956224441528320e-02
-2.975896373391151428e-02
-2.779721096158027649e-02
2.450720220804214478e-02
5.290865898132324219e-03
1.810691319406032562e-02
3.279171139001846313e-02
-2.637193724513053894e-02
-5.279807746410369873e-02
6.254523526877164841e-03
-6.322537083178758621e-03
-6.181162223219871521e-02
6.905189156532287598e-02
-5.779919447377324104e-04
-2.605294995009899139e-02
-2.632062323391437531e-02
5.273671820759773254e-02
-6.002354249358177185e-02
-2.795490808784961700e-02
4.433311149477958679e-02
-3.553643822669982910e-02
-1.698760688304901123e-02
-6.047793198376893997e-03
9.260274469852447510e-03
-1.003996189683675766e-02
2.683254890143871307e-03
-2.262392640113830566e-02
3.130413591861724854e-02
2.113921940326690674e-02
-8.700520731508731842e-03
6.096031051129102707e-03
-3.080212336499243975e-04
-9.024920873343944550e-03
2.092341706156730652e-02
-3.110349923372268677e-02
-1.458923611789941788e-02
1.449315808713436127e-02
1.171701960265636444e-02
-1.954582706093788147e-02
-1.491051865741610527e-03
-1.649901084601879120e-02
8.728716522455215454e-03
2.329805679619312286e-02
3.957050852477550507e-03
8.461592718958854675e-03
-4.538407176733016968e-02
-2.313748933374881744e-02
-1.443626638501882553e-02
-3.826627880334854126e-02
1.058303564786911011e-02
4.916024953126907349e-02
-3.612726181745529175e-02
2.942269109189510345e-02
-3.783582895994186401e-02
1.259605516679584980e-03
3.308845683932304382e-02
4.887363314628601074e-02
-6.373669952154159546e-03
1.016427110880613327e-02
5.253323540091514587e-02
1.143128052353858948e-02
-2.610548026859760284e-02
2.977187687065452337e-04
-5.252668261528015137e-02
-1.010400941595435143e-03
-2.266592578962445259e-03
-1.009035296738147736e-02
6.739264819771051407e-03
-3.562718629837036133e-03
2.982662804424762726e-02
2.201665565371513367e-02
6.576655805110931396e-02
7.075880188494920731e-03
-2.440244331955909729e-02
-3.494267538189888000e-02
1.377790048718452454e-02
-1.578422635793685913e-02
-1.186912195407785475e-04
-4.040650650858879089e-02
1.332518458366394043e-02
2.407309133559465408e-03
1.600437611341476440e-02
-1.566707156598567963e-02
-2.940217405557632446e-02
-2.896503917872905731e-02
-1.005681790411472321e-02
-1.360544376075267792e-02
1.281451247632503510e-02
-2.803109027445316315e-02
-1.043341960757970810e-02
-3.552336012944579124e-03
7.273984607309103012e-03
-2.129775099456310272e-02
1.235092803835868835e-02
2.331774495542049408e-02
3.756205365061759949e-02
1.777443103492259979e-02
-4.404855147004127502e-02
3.431390225887298584e-02
1.485181413590908051e-02
2.230973169207572937e-02
-9.553267620503902435e-03
4.130807146430015564e-02
1.284510828554630280e-02
2.382375299930572510e-03
6.023577973246574402e-02
-1.358685642480850220e-02
-1.576083712279796600e-02
-2.729411423206329346e-02
1.825612410902976990e-02
-1.223928108811378479e-02
-7.209739089012145996e-02
2.350942231714725494e-02
4.002309963107109070e-02
-3.803962841629981995e-02
4.914167337119579315e-03
3.384504001587629318e-03
-5.647629871964454651e-02
3.804070129990577698e-02
-1.810794509947299957e-02
-2.931653754785656929e-03
-6.534101068973541260e-02
3.174686804413795471e-02
-5.305439606308937073e-02
1.205188687890768051e-03
2.531997114419937134e-02
3.074852935969829559e-02
-1.881703361868858337e-02
-8.274466730654239655e-03
-2.100646123290061951e-02
-2.077430114150047302e-02
-2.836935594677925110e-02
3.695406764745712280e-02
-3.441701084375381470e-02
3.689590469002723694e-02
-7.694436237215995789e-03
-2.641503512859344482e-02
-5.975271761417388916e-02
3.389107063412666321e-02
9.710516780614852905e-03
-1.602275110781192780e-02
5.249918997287750244e-02
-5.138866254128515720e-04
1.880137622356414795e-02
-1.360021997243165970e-02
-3.221174702048301697e-02
2.071700617671012878e-02
3.064265474677085876e-02
-3.734040632843971252e-02
2.351793088018894196e-02
8.419807069003582001e-03
-1.822430454194545746e-02
3.106293641030788422e-02
-1.336826849728822708e-02
-6.050068140029907227e-02
1.738115027546882629e-02
2.881541475653648376e-02
-1.518144086003303528e-02
1.147431880235671997e-02
3.630065592005848885e-03
6.205415353178977966e-02
-7.647517486475408077e-05
-2.650838531553745270e-02
-7.918806746602058411e-03
-4.630221053957939148e-02
-6.898486614227294922e-02
-3.268785029649734497e-02
4.210084676742553711e-02
-1.373019907623529434e-02
-9.787586517632007599e-03
-4.226467385888099670e-02
-9.302037651650607586e-04
2.778181061148643494e-02
-4.545067623257637024e-02
2.530159801244735718e-02
-1.072600856423377991e-02
4.275856912136077881e-02
2.961632236838340759e-02
-1.014715526252985001e-02
1.565560512244701385e-02
-4.128325264900922775e-03
1.592869684100151062e-02
7.835909724235534668e-03
-2.470425888895988464e-02
-2.179381623864173889e-02
2.067710272967815399e-02
-6.574435159564018250e-03
-6.746097002178430557e-03
-4.673321265727281570e-03
5.052435211837291718e-03
-2.424238994717597961e-02
-3.994701057672500610e-02
-4.366775602102279663e-02
1.887521147727966309e-02
8.157206699252128601e-03
3.511039912700653076e-02
1.894184853881597519e-03
-1.898827776312828064e-02
-2.366108633577823639e-02
2.758700214326381683e-02
1.347666140645742416e-02
2.709647640585899353e-03
3.036105632781982422e-02
-6.257406435906887054e-03
-7.530257105827331543e-03
3.585762158036231995e-02
-5.060472525656223297e-03
9.500501677393913269e-03
-6.099221110343933105e-02
1.361172366887331009e-02
3.659543581306934357e-03
-5.580956488847732544e-02
2.804569713771343231e-02
3.473266959190368652e-02
6.799906026571989059e-03
-3.081069327890872955e-02
1.252709329128265381e-02
-7.103521376848220825e-02
