1.842289045453071594e-02
-2.447376959025859833e-02
4.668505117297172546e-02
-5.916705727577209473e-02
7.213244587182998657e-02
6.275267899036407471e-02
1.981844194233417511e-02
8.484970778226852417e-03
6.520750373601913452e-02
1.322004497051239014e-01
1.154652237892150879e-01
-5.341339111328125000e-02
-8.684676140546798706e-02
1.627216637134552002e-01
-1.776122488081455231e-02
1.962410844862461090e-02
8.255779743194580078e-02
1.219963431358337402e-01
3.990198671817779541e-02
5.180358141660690308e-02
-5.788743495941162109e-02
-4.651847109198570251e-02
2.170069515705108643e-02
-1.033995747566223145e-01
-1.026145890355110168e-01
-4.006934165954589844e-02
-4.502373933792114258e-02
8.213955163955688477e-02
-1.820364035665988922e-02
-3.527244925498962402e-02
7.897768914699554443e-02
-4.468761011958122253e-02
9.836649149656295776e-02
1.139939576387405396e-01
7.564181089401245117e-02
-1.548361126333475113e-02
-7.613611873239278793e-03
-6.777715682983398438e-02
1.775318533182144165e-01
-1.509076263755559921e-02
-4.674781858921051025e-02
9.257003664970397949e-02
1.418961435556411743e-01
4.611188173294067383e-02
7.376287877559661865e-02
-4.455221816897392273e-03
-8.949588984251022339e-02
-3.457165881991386414e-02
-5.677704885601997375e-02
-3.823121637105941772e-02
3.253341838717460632e-02
2.862493135035037994e-02
1.904242783784866333e-01
-8.097303658723831177e-02
5.222796648740768433e-02
2.013369351625442505e-01
-7.868508994579315186e-02
1.257366538047790527e-01
1.117424443364143372e-01
9.824167191982269287e-02
-4.686329141259193420e-02
-6.716867536306381226e-02
-1.740767210721969604e-01
1.527466922998428345e-01
-3.688572347164154053e-02
1.431354414671659470e-02
8.177469484508037567e-03
1.284484565258026123e-01
3.558542206883430481e-02
8.927126228809356689e-02
-7.346052676439285278e-02
-2.257749624550342560e-02
-1.346676796674728394e-01
-5.839593335986137390e-02
-7.715909183025360107e-02
-3.268807753920555115e-02
9.672851115465164185e-02
1.047387793660163879e-01
1.329369191080331802e-02
-5.762358009815216064e-02
-4.147874936461448669e-02
-2.197348978370428085e-03
7.734294980764389038e-02
1.695572026073932648e-02
1.088074687868356705e-02
1.431426107883453369e-01
-5.245012417435646057e-02
-3.374863043427467346e-02
1.231923773884773254e-01
-3.025939129292964935e-02
8.935088291764259338e-03
4.923399537801742554e-03
3.771239891648292542e-02
1.023384779691696167e-01
1.947729103267192841e-02
-1.802315353415906429e-03
-6.557454913854598999e-02
-4.766896367073059082e-03
6.799113005399703979e-03
-7.779214531183242798e-02
-2.367833862081170082e-03
1.047699600458145142e-01
1.200005225837230682e-02
4.680548235774040222e-02
-2.162103354930877686e-02
2.053674682974815369e-02
3.743853652849793434e-03
3.193940222263336182e-02
6.528326123952865601e-02
4.563358798623085022e-02
-3.023268654942512512e-02
-4.968754202127456665e-02
-8.936101943254470825e-02
5.301814898848533630e-02
3.514697030186653137e-02
3.546771034598350525e-02
5.501395207829773426e-04
1.254899203777313232e-01
5.248404294252395630e-02
-2.608554624021053314e-02
-4.998209886252880096e-03
-1.491900812834501266e-02
-8.719819784164428711e-02
2.466727234423160553e-02
-3.677229583263397217e-02
-7.143805176019668579e-02
8.465259522199630737e-02
1.280783414840698242e-01
6.482042372226715088e-03
9.499321691691875458e-03
6.901015527546405792e-03
1.424587517976760864e-02
1.978001557290554047e-02
4.229297861456871033e-02
1.061845421791076660e-01
4.081866145133972168e-02
-7.797143608331680298e-02
-9.668651223182678223e-02
1.351288110017776489e-01
-2.779555507004261017e-02
-4.032878205180168152e-03
1.170862168073654175e-01
5.948368087410926819e-02
8.382634259760379791e-03
4.363320767879486084e-02
-2.308628894388675690e-02
-6.134183704853057861e-02
-1.168330982327461243e-01
-4.094606637954711914e-02
-2.720023877918720245e-02
-4.977843537926673889e-02
-3.994051367044448853e-03
1.675868779420852661e-02
-5.704446509480476379e-02
-2.964213304221630096e-02
6.302705407142639160e-02
7.954899221658706665e-02
3.474106639623641968e-02
1.105523481965065002e-01
1.534377187490463257e-01
9.891194105148315430e-02
-1.496445685625076294e-01
-1.195963844656944275e-02
4.679594188928604126e-02
1.381543744355440140e-02
3.329996019601821899e-02
9.116338565945625305e-03
1.060957908630371094e-01
8.467942476272583008e-02
6.032534688711166382e-02
-6.731101870536804199e-02
7.939149439334869385e-02
2.970433980226516724e-02
-1.155835017561912537e-02
-1.709808707237243652e-01
-5.019346997141838074e-02
3.878947719931602478e-02
-2.852386422455310822e-02
1.333649922162294388e-02
-4.788124561309814453e-02
7.234786171466112137e-03
3.633994236588478088e-02
-4.687748104333877563e-02
6.660441309213638306e-02
6.138460710644721985e-02
1.123297885060310364e-01
-1.125553697347640991e-01
-4.170175269246101379e-02
6.104576401412487030e-03
-2.937524393200874329e-02
4.680691286921501160e-03
8.748245984315872192e-02
7.687199860811233521e-02
3.658794239163398743e-02
6.681275367736816406e-02
-2.428517676889896393e-03
6.742175668478012085e-02
-1.132990885525941849e-02
-5.502635613083839417e-02
-1.147380694746971130e-01
-5.950424820184707642e-02
1.189519558101892471e-02
1.010976582765579224e-01
-5.730196088552474976e-02
-3.387991338968276978e-03
7.649548351764678955e-02
5.971593782305717468e-02
1.607616245746612549e-01
6.094885244965553284e-02
9.215048700571060181e-02
2.928277105093002319e-02
-1.852252036333084106e-01
-7.175155729055404663e-02
1.049404367804527283e-01
-2.462640963494777679e-02
3.051836043596267700e-03
3.387274220585823059e-02
4.576346650719642639e-02
5.710157752037048340e-02
1.351649016141891479e-01
-3.420252725481987000e-02
3.006631322205066681e-02
-4.899631440639495850e-02
-5.501993373036384583e-02
-9.827548265457153320e-02
-7.656323164701461792e-02
5.701984837651252747e-02
8.588453382253646851e-02
-7.615723647177219391e-03
-1.639836281538009644e-02
-1.809323579072952271e-02
6.053083762526512146e-02
2.167752198874950409e-02
1.103233620524406433e-01
7.250018417835235596e-02
3.127049282193183899e-02
-1.836160197854042053e-03
-1.118260808289051056e-02
3.026369959115982056e-02
-1.366461347788572311e-02
3.985322546213865280e-03
6.922135502099990845e-02
3.721526637673377991e-02
1.948773302137851715e-02
4.600596427917480469e-02
-5.865757539868354797e-02
-4.760230705142021179e-02
-8.168206550180912018e-04
8.257475681602954865e-03
-2.719979360699653625e-02
-7.284680008888244629e-02
4.904235899448394775e-02
1.240529585629701614e-02
2.812659554183483124e-02
-6.947326660156250000e-02
4.002471640706062317e-02
1.609869860112667084e-02
4.154370725154876709e-02
1.128986105322837830e-01
-1.153966970741748810e-02
-9.081332013010978699e-03
-8.351825177669525146e-03
-3.081724047660827637e-02
3.447205200791358948e-02
4.382513929158449173e-03
3.384669125080108643e-02
6.985851377248764038e-02
7.980139553546905518e-02
5.388132482767105103e-02
5.099762231111526489e-03
-3.728437796235084534e-02
5.239340290427207947e-02
-2.075391076505184174e-02
-2.336796186864376068e-02
7.253751624375581741e-03
-2.584868669509887695e-02
3.778138384222984314e-02
1.063500791788101196e-01
-8.367910981178283691e-02
-1.384826656430959702e-02
1.560311615467071533e-01
7.030854374170303345e-02
6.927676498889923096e-02
1.678205728530883789e-01
6.978492438793182373e-02
-1.977277360856533051e-02
-6.360584869980812073e-03
-2.906515263020992279e-02
4.489973187446594238e-02
-1.646724715828895569e-02
5.059558898210525513e-03
4.538736864924430847e-02
3.707207366824150085e-02
8.390291780233383179e-02
7.700818032026290894e-02
-6.378639489412307739e-02
-7.663123775273561478e-03
-1.588373072445392609e-02
-6.139317154884338379e-02
-7.709102705121040344e-03
-3.374940901994705200e-02
1.431917957961559296e-02
9.399323910474777222e-02
-2.952959761023521423e-02
-6.217045336961746216e-02
1.438381243497133255e-02
3.696169331669807434e-02
-2.260508248582482338e-03
1.753109395503997803e-01
4.842685163021087646e-02
2.222155407071113586e-02
-2.773043699562549591e-02
5.578095559030771255e-03
3.449775278568267822e-02
-1.307166181504726410e-02
5.711954087018966675e-02
7.913777232170104980e-02
4.736020788550376892e-02
-5.287395790219306946e-03
8.460932411253452301e-03
-5.284838750958442688e-02
2.736313827335834503e-02
1.629476062953472137e-02
-6.835155934095382690e-02
-3.155547659844160080e-03
-8.749616332352161407e-03
2.404032275080680847e-02
-2.106522908434271812e-03
-3.818432986736297607e-02
-5.666570737957954407e-02
6.547433882951736450e-02
3.161902353167533875e-02
4.932989552617073059e-02
1.546832621097564697e-01
-1.077403035014867783e-02
-9.409542381763458252e-02
-2.043560147285461426e-02
2.645148488227277994e-04
4.619670100510120392e-03
-1.480128429830074310e-02
4.077735915780067444e-02
3.078725654631853104e-03
2.306279726326465607e-02
3.585768630728125572e-03
1.296784263104200363e-02
2.081566303968429565e-02
-2.142495941370725632e-03
-3.882049024105072021e-02
2.555572055280208588e-02
1.607907004654407501e-02
-2.467222139239311218e-02
1.176495756953954697e-02
5.555876344442367554e-02
-7.806316763162612915e-02
3.677235171198844910e-02
9.665805101394653320e-02
4.908557166345417500e-04
1.273754537105560303e-01
1.387362033128738403e-01
1.895561628043651581e-02
1.542941853404045105e-02
-5.992996692657470703e-02
-3.851782530546188354e-02
7.308407127857208252e-02
-1.260881777852773666e-02
9.537291713058948517e-03
9.710129350423812866e-03
3.067770041525363922e-02
-1.278015691787004471e-02
5.791519954800605774e-02
-7.718385756015777588e-02
1.103968024253845215e-01
-3.203441202640533447e-02
-3.028828091919422150e-02
-3.953083977103233337e-02
-5.545152351260185242e-02
-4.094812273979187012e-02
7.664196938276290894e-02
-3.952907398343086243e-02
4.656165093183517456e-02
-2.458874136209487915e-03
1.362341083586215973e-02
1.197658106684684753e-01
9.421161562204360962e-02
3.742254897952079773e-02
5.617436021566390991e-02
-6.781496573239564896e-03
-5.221801996231079102e-02
7.646070420742034912e-02
-1.679531857371330261e-02
4.863786324858665466e-02
1.105835661292076111e-01
2.647268399596214294e-02
3.753937780857086182e-02
2.573035657405853271e-02
-5.597446113824844360e-02
7.943788170814514160e-02
2.238005399703979492e-02
-1.113761663436889648e-01
-8.573520928621292114e-02
-6.082638353109359741e-02
-2.358601987361907959e-02
1.082849055528640747e-01
-2.332515828311443329e-02
6.161608174443244934e-02
3.970368206501007080e-02
3.602941334247589111e-02
7.404989749193191528e-02
1.325509548187255859e-01
8.781757950782775879e-02
1.204913016408681870e-03
-3.364184172824025154e-03
-5.566617473959922791e-02
1.366558112204074860e-02
6.972355302423238754e-03
7.074648514389991760e-03
1.005290299654006958e-01
-3.583891317248344421e-02
2.855090890079736710e-03
4.548589885234832764e-02
-4.316820576786994934e-02
1.438161134719848633e-01
-4.861016944050788879e-02
-3.914698958396911621e-02
-5.471827089786529541e-02
-5.280700698494911194e-02
-4.488947242498397827e-02
1.468033194541931152e-01
-9.543427079916000366e-02
1.609276086091995239e-01
5.412689223885536194e-02
-1.083838939666748047e-01
2.340576797723770142e-01
1.826730072498321533e-01
-3.450429067015647888e-02
1.654883474111557007e-02
-4.342340305447578430e-02
-8.674525469541549683e-02
8.314468711614608765e-02
-6.766948103904724121e-02
1.002540462650358677e-03
1.067732647061347961e-02
-4.490641877055168152e-02
1.878165407106280327e-03
4.887304455041885376e-02
-2.575768902897834778e-02
1.487100124359130859e-01
-6.540262699127197266e-02
-1.148871257901191711e-01
-6.426574289798736572e-02
-6.372422724962234497e-02
4.826372861862182617e-02
-3.805537940934300423e-03
-1.459698565304279327e-02
-4.355886951088905334e-02
3.401773795485496521e-02
9.516408294439315796e-02
8.350794017314910889e-02
-9.240387938916683197e-03
3.197822347283363342e-02
5.757057294249534607e-02
2.221912518143653870e-02
-4.698542878031730652e-02
9.674973785877227783e-03
-8.097657002508640289e-03
3.340588137507438660e-02
7.160188257694244385e-02
1.683361642062664032e-02
-1.112892478704452515e-02
3.266550227999687195e-02
-5.836896225810050964e-02
6.435166299343109131e-02
-3.653998300433158875e-02
2.264319732785224915e-02
-9.144821017980575562e-02
-6.297336518764495850e-02
9.082226455211639404e-02
5.483883619308471680e-02
-2.529592625796794891e-02
-4.743737634271383286e-03
-1.961962319910526276e-02
6.544043123722076416e-02
5.597616732120513916e-02
3.400971740484237671e-02
4.730574321001768112e-03
1.699742861092090607e-02
6.269290461204946041e-04
-9.684965759515762329e-02
7.393648475408554077e-02
-1.728100888431072235e-02
5.786180496215820312e-02
8.879396319389343262e-02
-1.986765675246715546e-02
2.733281068503856659e-02
2.029731124639511108e-02
-5.714055523276329041e-02
7.015457004308700562e-02
-2.864360436797142029e-02
-3.034645877778530121e-02
-4.468978568911552429e-02
-6.427890807390213013e-02
9.791359305381774902e-02
-1.067657954990863800e-02
7.484784000553190708e-04
-5.951336398720741272e-02
-1.108297258615493774e-01
1.122988238930702209e-01
3.729040920734405518e-02
-1.536028273403644562e-02
3.439535573124885559e-02
4.671843722462654114e-02
-2.253448031842708588e-02
-5.133052542805671692e-02
3.670423850417137146e-02
-6.415682844817638397e-03
3.104563988745212555e-02
3.779345378279685974e-02
-1.940034126164391637e-04
1.753479227772913873e-05
1.980299875140190125e-02
-1.931591145694255829e-02
4.097821563482284546e-02
1.728085987269878387e-02
-2.168893441557884216e-02
-2.367660589516162872e-02
-4.218890331685543060e-03
5.502577498555183411e-02
2.045233920216560364e-02
-2.841108664870262146e-02
-4.673613607883453369e-02
1.264728512614965439e-02
1.035519540309906006e-01
6.414817273616790771e-02
1.512490678578615189e-02
4.931823909282684326e-02
-2.286977134644985199e-02
-7.720863912254571915e-03
-5.791878700256347656e-02
-4.620593786239624023e-02
-1.495962403714656830e-02
2.669714950025081635e-02
3.022671118378639221e-02
-3.859068034216761589e-03
5.082049220800399780e-02
2.189371036365628242e-03
-1.977940090000629425e-02
2.307419292628765106e-02
-1.794848404824733734e-02
1.059748698025941849e-02
-6.181456148624420166e-02
-6.636805087327957153e-02
6.561039388179779053e-02
2.919684723019599915e-02
-3.416913375258445740e-02
3.191777318716049194e-02
-7.669705082662403584e-04
3.096626140177249908e-02
8.767245709896087646e-02
5.713300779461860657e-02
3.819577628746628761e-03
3.953548613935709000e-03
-5.508559569716453552e-02
-6.244964897632598877e-02
8.822946809232234955e-03
-1.589476875960826874e-02
2.892550267279148102e-02
3.969134762883186340e-02
-9.296835400164127350e-03
2.530120126903057098e-02
6.985157262533903122e-03
-4.691459611058235168e-02
2.728968672454357147e-02
-7.002608478069305420e-02
-2.451612241566181183e-02
-5.356422811746597290e-02
-3.170136362314224243e-02
6.307527422904968262e-02
-6.336011923849582672e-03
-2.911879122257232666e-02
-3.438941389322280884e-02
-3.263442590832710266e-02
9.017893671989440918e-02
-1.151723973453044891e-02
8.610012941062450409e-03
4.124342277646064758e-02
5.222425237298011780e-02
-3.920006006956100464e-02
-5.449292808771133423e-02
-3.428636584430932999e-03
-1.517081353813409805e-02
8.216313272714614868e-02
7.198683172464370728e-02
1.641970872879028320e-02
3.506104275584220886e-02
5.505874007940292358e-02
-2.396114170551300049e-02
5.350343883037567139e-02
-4.080158192664384842e-03
-3.204444423317909241e-02
-3.792522475123405457e-02
-1.358840707689523697e-02
9.404395520687103271e-02
1.829020120203495026e-02
-1.009568478912115097e-02
-8.112947642803192139e-02
2.942119725048542023e-02
9.060125052928924561e-02
3.147566691040992737e-02
6.861377507448196411e-03
1.666682213544845581e-02
-4.160019010305404663e-02
-6.225749105215072632e-02
-1.950977370142936707e-02
-3.590259701013565063e-02
-6.260770838707685471e-03
-4.874230921268463135e-02
1.812141505070030689e-03
8.091437630355358124e-03
2.333152852952480316e-02
4.470147937536239624e-02
-1.594238355755805969e-02
1.705719716846942902e-02
-8.673451095819473267e-02
-2.632408868521451950e-03
-3.220525756478309631e-02
-1.991807483136653900e-02
7.761052250862121582e-02
3.995849192142486572e-02
-4.042686149477958679e-02
-4.146078601479530334e-02
-3.547898679971694946e-02
9.613420814275741577e-02
1.719536259770393372e-03
3.197073563933372498e-02
7.125379145145416260e-02
2.259953133761882782e-02
-9.678813070058822632e-02
-5.670945346355438232e-02
2.379351109266281128e-02
5.001598037779331207e-03
-8.676739409565925598e-03
6.032054498791694641e-02
2.347369678318500519e-02
5.102860182523727417e-02
-9.999169968068599701e-03
-3.142381459474563599e-02
1.761854626238346100e-02
-7.192217558622360229e-02
-4.733787849545478821e-03
-4.590240493416786194e-02
1.585993915796279907e-02
5.354081094264984131e-02
-1.067173015326261520e-02
1.163259614259004593e-02
-6.728763878345489502e-02
-6.795074790716171265e-02
9.013839066028594971e-02
-1.916572824120521545e-02
3.693274408578872681e-02
2.988944016396999359e-02
-1.246515079401433468e-03
-9.077628701925277710e-02
-4.642751812934875488e-02
-5.962223932147026062e-02
-2.548178657889366150e-03
-2.429224550724029541e-02
2.279505133628845215e-02
1.865674741566181183e-02
5.407138168811798096e-02
2.774170972406864166e-02
-1.616331934928894043e-02
-7.938246428966522217e-02
-3.750578686594963074e-02
-5.812978837639093399e-03
-1.943227276206016541e-02
-4.288176447153091431e-02
-2.957406640052795410e-02
4.003418609499931335e-02
-1.121890619397163391e-01
3.148549422621726990e-02
-3.039828035980463028e-03
-2.014628797769546509e-02
6.321091204881668091e-02
5.007370561361312866e-02
-2.102876827120780945e-02
8.387228101491928101e-02
-6.244098022580146790e-02
-5.779574066400527954e-02
1.942013204097747803e-01
-1.724357530474662781e-02
-2.818327397108078003e-02
1.035381332039833069e-01
2.143238112330436707e-02
2.718451991677284241e-02
6.168077513575553894e-02
-7.689038664102554321e-02
-4.856248572468757629e-02
-5.636728554964065552e-02
-2.741262316703796387e-02
-5.831040441989898682e-02
1.771089062094688416e-02
7.662906311452388763e-03
9.475084394216537476e-02
-3.601937368512153625e-02
5.055590718984603882e-02
-1.576246134936809540e-02
7.603947073221206665e-02
5.236737057566642761e-02
1.109466999769210815e-01
5.168585479259490967e-02
6.777160614728927612e-02
1.019166689366102219e-02
-6.537896394729614258e-02
-2.233153767883777618e-02
-4.462340846657752991e-02
2.391978353261947632e-02
4.205446224659681320e-03
9.782309085130691528e-02
6.481026113033294678e-02
1.089238896965980530e-01
-6.072929501533508301e-02
-1.365547813475131989e-02
7.110304385423660278e-02
-8.279452100396156311e-03
2.562958281487226486e-03
-4.112078994512557983e-02
2.475525485351681709e-03
7.651960849761962891e-02
-2.663391828536987305e-02
1.167173846624791622e-03
6.707064062356948853e-02
7.331033051013946533e-02
-1.726904325187206268e-02
7.538132369518280029e-02
1.229479089379310608e-01
-1.668754592537879944e-02
-2.292644418776035309e-02
-1.054939776659011841e-01
1.091476455330848694e-01
-2.313699759542942047e-02
-9.622049517929553986e-03
1.215858235955238342e-01
9.299742430448532104e-02
4.576438292860984802e-02
1.423476189374923706e-01
-4.417874664068222046e-02
3.902742639183998108e-02
2.074426971375942230e-02
2.819850295782089233e-02
-4.252567887306213379e-02
-7.454165816307067871e-02
6.111948285251855850e-03
1.731315813958644867e-02
1.957608386874198914e-02
1.479339301586151123e-01
-1.096827387809753418e-01
3.100991807878017426e-02
9.350346401333808899e-03
4.826287180185317993e-02
1.087398901581764221e-01
7.356340065598487854e-03
-7.732273638248443604e-02
-6.641666591167449951e-02
1.848624795675277710e-01
2.649974077939987183e-02
1.191724184900522232e-02
3.798618167638778687e-02
4.193020612001419067e-02
3.715720726177096367e-03
6.319052726030349731e-02
-1.267695426940917969e-02
8.494683541357517242e-03
-1.501615718007087708e-02
-6.665337085723876953e-02
-4.645944014191627502e-02
-6.765974313020706177e-02
-2.086375281214714050e-02
6.272716075181961060e-02
4.105402901768684387e-02
-4.846336320042610168e-02
1.074896939098834991e-02
1.149186268448829651e-01
-4.428639262914657593e-02
1.109083667397499084e-01
-9.240346960723400116e-03
1.213931217789649963e-01
4.336838610470294952e-03
-3.314966335892677307e-02
-3.427190706133842468e-02
7.841819897294044495e-03
-2.884689718484878540e-02
2.376054599881172180e-02
1.676829904317855835e-02
-4.658529534935951233e-02
4.696181789040565491e-02
-2.917010150849819183e-02
1.536700781434774399e-02
8.271817117929458618e-02
-3.270478919148445129e-02
-2.414992637932300568e-02
-7.447215914726257324e-02
-3.595859184861183167e-02
1.073751077055931091e-01
3.877280279994010925e-03
-2.545682527124881744e-02
6.349612772464752197e-02
2.096148766577243805e-02
-2.503945678472518921e-02
1.135865151882171631e-01
7.766215503215789795e-02
8.295497298240661621e-02
-3.093116544187068939e-02
-9.985227137804031372e-02
1.824479550123214722e-02
-6.776109337806701660e-03
1.158731523901224136e-02
8.146621286869049072e-02
6.843748688697814941e-02
2.194927446544170380e-02
-8.554725907742977142e-03
2.841375302523374557e-03
6.832987070083618164e-02
1.187130156904459000e-02
-1.127871777862310410e-02
2.952365577220916748e-02
-7.089059054851531982e-02
5.068171769380569458e-02
1.078675016760826111e-01
-4.914489015936851501e-02
1.306774616241455078e-01
-7.114609330892562866e-02
-7.889717817306518555e-02
9.559909999370574951e-02
5.483747646212577820e-02
-5.278509482741355896e-02
1.942736655473709106e-01
-5.384825915098190308e-02
-6.697387248277664185e-02
2.080043405294418335e-01
-5.107848718762397766e-02
7.340271025896072388e-02
1.524308770895004272e-01
-6.819583475589752197e-02
-1.160955615341663361e-02
-1.825874857604503632e-02
-2.228499576449394226e-02
8.474805206060409546e-02
3.278002515435218811e-02
-1.229252740740776062e-01
-1.101009473204612732e-01
-6.222272664308547974e-02
-1.886720024049282074e-02
3.750859946012496948e-02
-2.034510485827922821e-03
8.381488174200057983e-02
-4.154633358120918274e-02
-3.944868966937065125e-02
1.253555417060852051e-01
1.458508819341659546e-01
6.694703549146652222e-02
1.095672771334648132e-01
1.174277160316705704e-02
-9.144052118062973022e-02
9.283047914505004883e-02
1.287876255810260773e-02
7.593446969985961914e-02
7.764535397291183472e-02
1.155990734696388245e-02
3.408372402191162109e-02
5.881546810269355774e-02
-2.682071551680564880e-02
8.580087684094905853e-03
-1.438603550195693970e-02
-4.448765888810157776e-02
-5.127924680709838867e-02
-1.648156903684139252e-02
6.745086610317230225e-02
3.886286169290542603e-02
-1.028467118740081787e-01
-3.130007907748222351e-02
6.807497888803482056e-02
5.730305239558219910e-02
3.987341001629829407e-02
1.717495024204254150e-01
1.071602106094360352e-01
1.495769023895263672e-01
-8.398611098527908325e-02
-8.649615198373794556e-02
7.112754136323928833e-02
-3.436953201889991760e-02
5.013361573219299316e-02
1.850409805774688721e-02
6.284248083829879761e-02
-3.342304378747940063e-02
1.304862368851900101e-02
-2.477118279784917831e-03
1.569780409336090088e-01
-7.430635392665863037e-02
-4.271950200200080872e-02
-9.871346503496170044e-02
-1.473731547594070435e-02
-4.965588450431823730e-02
2.664718776941299438e-02
-3.299893438816070557e-02
8.774533867835998535e-02
1.270233467221260071e-02
4.170897603034973145e-02
8.630588650703430176e-02
6.468079239130020142e-02
-3.839405626058578491e-02
-1.871612854301929474e-02
-1.760599948465824127e-02
-8.311924524605274200e-03
2.190227508544921875e-01
2.865273272618651390e-03
3.745529800653457642e-02
5.126708652824163437e-03
8.794143795967102051e-02
7.795750349760055542e-02
-1.203180663287639618e-02
-8.817300945520401001e-02
5.079548433423042297e-02
-3.107636794447898865e-02
-5.072149261832237244e-02
-4.465599358081817627e-02
2.868734067305922508e-03
3.941991552710533142e-02
7.472278922796249390e-02
-6.072073802351951599e-02
6.732233613729476929e-02
7.975007593631744385e-02
-1.232832577079534531e-02
1.308409590274095535e-02
-1.925561204552650452e-02
-2.601066417992115021e-02
1.423770468682050705e-02
5.315472837537527084e-03
-4.424217622727155685e-03
7.383584231138229370e-02
-3.357771784067153931e-02
-8.507047779858112335e-03
4.694437980651855469e-02
7.523670047521591187e-02
-5.116350203752517700e-02
-2.745766937732696533e-02
-3.789674863219261169e-02
2.601808309555053711e-02
1.360714202746748924e-03
1.328187994658946991e-02
3.822406381368637085e-02
2.667086943984031677e-02
-3.638252243399620056e-02
6.627272814512252808e-02
-6.861621141433715820e-02
1.545749977231025696e-02
1.354802846908569336e-01
1.036042626947164536e-02
1.801180541515350342e-01
2.097717486321926117e-03
5.726067349314689636e-02
4.860093444585800171e-02
-4.137140884995460510e-02
-9.291522949934005737e-02
9.732292592525482178e-02
-1.172338519245386124e-02
1.658881269395351410e-02
-6.860917899757623672e-03
4.428077861666679382e-02
9.001743793487548828e-02
5.988202616572380066e-02
-4.003610834479331970e-02
4.170534759759902954e-02
-1.722756959497928619e-02
-1.384485978633165359e-02
-3.737991675734519958e-02
-1.608770526945590973e-02
-4.606778547167778015e-02
4.628534987568855286e-02
-3.301392495632171631e-02
1.683189906179904938e-02
2.006120281293988228e-03
4.658227413892745972e-02
1.751812919974327087e-02
4.579371586441993713e-02
-2.307489700615406036e-02
3.968233615159988403e-02
-2.898042276501655579e-02
6.337939295917749405e-03
8.786692470312118530e-02
1.384306885302066803e-02
1.965614035725593567e-02
7.839038223028182983e-02
-2.521564811468124390e-02
3.789792954921722412e-02
-1.308260485529899597e-02
7.279641460627317429e-03
4.071406647562980652e-02
5.789172649383544922e-02
-2.320904284715652466e-02
-1.858322322368621826e-02
-1.495612878352403641e-02
-2.631322480738162994e-02
1.220472157001495361e-01
6.361833214759826660e-02
-1.783688738942146301e-02
-7.164964824914932251e-02
-3.983234614133834839e-02
7.156498730182647705e-02
-4.465501010417938232e-02
5.659006536006927490e-03
4.648130387067794800e-02
9.331578388810157776e-03
-1.376847829669713974e-02
-2.242959290742874146e-02
-1.995826698839664459e-02
3.004701621830463409e-02
-3.842055052518844604e-02
3.182597085833549500e-02
-4.558420553803443909e-02
4.036296531558036804e-02
7.602389901876449585e-03
3.295283019542694092e-02
-6.099053472280502319e-02
5.469888076186180115e-02
3.176063671708106995e-02
-1.634558476507663727e-02
2.205074951052665710e-02
1.228828206658363342e-01
2.045521140098571777e-02
1.528435532236471772e-04
5.081327259540557861e-02
3.566120192408561707e-02
2.819072827696800232e-02
3.928881883621215820e-02
-3.035403788089752197e-03
-3.470088541507720947e-02
2.179189026355743408e-02
-4.960353299975395203e-02
3.170989081263542175e-02
-1.477813115343451500e-03
-1.887209713459014893e-02
-1.812166720628738403e-02
-2.242517843842506409e-02
-4.523400217294692993e-02
7.313410192728042603e-02
2.685942500829696655e-02
5.690841469913721085e-03
-2.095541171729564667e-02
2.182877063751220703e-02
-1.801583357155323029e-02
-2.803609147667884827e-02
9.018639102578163147e-03
1.093190759420394897e-01
-5.835909396409988403e-02
1.219001933932304382e-01
-7.154861092567443848e-02
1.076797209680080414e-02
8.562234044075012207e-02
7.333628088235855103e-02
4.218936432152986526e-03
1.104033291339874268e-01
-5.663989856839179993e-02
-3.447978058829903603e-03
1.560656130313873291e-01
-2.256177738308906555e-02
1.154610663652420044e-01
6.005420163273811340e-02
-6.944188498891890049e-04
-9.556185454130172729e-03
6.020908430218696594e-02
-6.101065780967473984e-03
4.494047537446022034e-02
6.867748685181140900e-03
-6.968121975660324097e-02
-6.278175115585327148e-02
6.578924600034952164e-03
-1.145435497164726257e-02
6.545303016901016235e-02
-4.111124947667121887e-02
5.918613448739051819e-02
1.013781176880002022e-03
-9.802304208278656006e-03
1.076327711343765259e-01
2.624583058059215546e-02
7.574591040611267090e-02
8.505476266145706177e-02
-1.156952511519193649e-02
-3.353626281023025513e-02
1.068066433072090149e-01
3.736058482900261879e-03
5.518388375639915466e-02
-3.162116184830665588e-02
4.863336309790611267e-02
2.384417690336704254e-02
-8.985877037048339844e-03
6.927742157131433487e-03
2.327150106430053711e-02
-3.812286257743835449e-02
-4.651688411831855774e-02
1.179972104728221893e-02
-4.336451739072799683e-02
9.050922817550599575e-04
1.466909199953079224e-01
-9.040991961956024170e-02
1.574727706611156464e-02
6.329390406608581543e-02
-6.710725277662277222e-02
2.007445991039276123e-01
8.820825815200805664e-02
2.589320577681064606e-02
9.507582336664199829e-02
-6.638083606958389282e-02
-8.441356569528579712e-02
6.095510721206665039e-02
-1.490781828761100769e-02
4.149486497044563293e-02
-1.406625751405954361e-02
-2.658567950129508972e-02
-1.945703476667404175e-02
5.938386544585227966e-02
3.946737851947546005e-03
1.250760853290557861e-01
9.649668820202350616e-03
-5.749323964118957520e-02
-6.114487722516059875e-02
-1.147048696875572205e-01
2.884849347174167633e-02
1.109993755817413330e-01
-4.372564703226089478e-02
8.411427587270736694e-02
-1.670733466744422913e-02
4.293591901659965515e-02
1.561468988656997681e-01
7.259713113307952881e-02
9.362898021936416626e-02
4.090620204806327820e-02
-1.677107438445091248e-02
9.561167098581790924e-03
1.881633698940277100e-02
-1.516143674962222576e-03
7.211067713797092438e-03
5.284466966986656189e-02
4.261582344770431519e-02
3.013361990451812744e-02
9.465527534484863281e-02
-4.935977235436439514e-02
5.075581371784210205e-02
-1.181570906192064285e-02
-3.522413596510887146e-02
-8.928038924932479858e-02
-9.687966108322143555e-02
8.835043758153915405e-02
1.697209104895591736e-02
-1.801080442965030670e-02
4.548381268978118896e-02
2.773694135248661041e-02
-1.638344474486075342e-05
7.384036481380462646e-02
2.428773418068885803e-02
2.219873294234275818e-02
-4.374787956476211548e-02
-1.382236927747726440e-02
3.607297316193580627e-02
-3.269657259806990623e-03
-7.005804684013128281e-03
-4.099070653319358826e-02
-6.020825356245040894e-03
1.817538961768150330e-02
6.914962083101272583e-02
6.939262151718139648e-02
-6.901822239160537720e-02
6.421390920877456665e-02
-8.239889144897460938e-02
-4.721651598811149597e-02
-7.066534459590911865e-02
-1.520816888660192490e-02
8.569311350584030151e-02
-4.621194303035736084e-02
2.430246397852897644e-02
-3.160243481397628784e-02
-1.044138967990875244e-01
6.110871210694313049e-02
2.940122270956635475e-03
-3.262910991907119751e-02
-3.183655068278312683e-02
-3.659912198781967163e-02
3.347362205386161804e-02
9.566076844930648804e-02
-3.404186666011810303e-02
2.960327081382274628e-03
-4.987968876957893372e-02
7.615960668772459030e-03
-1.143077909946441650e-01
2.183302771300077438e-03
9.429349564015865326e-03
4.418380092829465866e-03
1.945704966783523560e-02
-5.392038822174072266e-02
-9.186329320073127747e-03
-2.486575208604335785e-02
-3.621669858694076538e-02
5.581882596015930176e-02
4.708050936460494995e-02
-2.727346308529376984e-02
2.391832135617733002e-02
-1.276389602571725845e-02
7.232718169689178467e-02
1.392070949077606201e-01
4.774051532149314880e-02
6.729441881179809570e-02
5.383395403623580933e-02
-4.713704809546470642e-02
-3.524070838466286659e-03
3.971494361758232117e-02
-1.085665542632341385e-02
2.781808562576770782e-02
5.585432052612304688e-02
4.169242084026336670e-02
4.024765267968177795e-02
8.386329561471939087e-02
-5.472681671380996704e-02
6.255875527858734131e-02
2.962977066636085510e-02
-4.306210577487945557e-02
-4.270304739475250244e-02
-6.367710977792739868e-02
5.744933336973190308e-02
7.854806631803512573e-02
-3.604760393500328064e-02
1.989185251295566559e-02
6.102741882205009460e-02
7.420153170824050903e-02
1.192836239933967590e-01
4.970790818333625793e-02
1.286114305257797241e-01
3.172564879059791565e-02
-2.223695628345012665e-03
1.100934296846389771e-02
7.668438553810119629e-02
-4.221112933009862900e-03
7.570024463348090649e-04
-5.340444855391979218e-03
9.854367235675454140e-04
2.427455596625804901e-02
2.672953903675079346e-02
-8.170584589242935181e-02
1.058479472994804382e-01
-8.792082220315933228e-02
-5.534616857767105103e-02
-5.567079782485961914e-02
2.714758366346359253e-02
7.386123389005661011e-02
-2.491444163024425507e-02
-1.341307885013520718e-03
-4.083805531263351440e-02
-6.626157462596893311e-02
5.642320215702056885e-02
-6.626828759908676147e-02
-5.419106408953666687e-02
4.167741537094116211e-02
-2.896537818014621735e-02
4.793384671211242676e-02
3.959273546934127808e-02
-2.342401631176471710e-02
-7.284586783498525620e-03
-7.439798116683959961e-02
-3.755282610654830933e-02
-6.270807981491088867e-02
3.075095359236001968e-03
3.951060026884078979e-02
-2.851331047713756561e-02
1.871673157438635826e-03
-4.623257741332054138e-02
-1.782629551598802209e-04
-2.341788634657859802e-02
-2.546770311892032623e-02
4.493044316768646240e-02
5.457764491438865662e-02
-1.410527620464563370e-02
1.820234465412795544e-03
2.137801842764019966e-03
9.583543986082077026e-02
1.354332715272903442e-01
6.163530796766281128e-02
7.135598361492156982e-02
-2.826192043721675873e-02
-4.431820288300514221e-02
2.386022591963410378e-03
4.539823904633522034e-02
-1.782750245183706284e-03
-3.199008479714393616e-02
3.200932592153549194e-02
3.806697204709053040e-03
3.224033489823341370e-02
1.415573898702859879e-02
-5.354291945695877075e-02
8.987260609865188599e-02
-6.997878197580575943e-03
-2.035243436694145203e-02
-6.468350440263748169e-02
-4.434183612465858459e-02
7.206445559859275818e-03
1.679331250488758087e-02
-3.296103700995445251e-02
-1.060248911380767822e-02
3.954778611660003662e-02
8.125530928373336792e-02
5.561482906341552734e-02
-2.145546488463878632e-02
3.959112986922264099e-02
-9.435155987739562988e-02
7.161949295550584793e-03
4.077573120594024658e-02
5.409429594874382019e-02
-1.753194257616996765e-02
-8.811014145612716675e-02
-2.955524250864982605e-02
-5.746622569859027863e-03
-3.246087208390235901e-02
3.206274658441543579e-02
-7.418513298034667969e-02
2.031074464321136475e-02
3.308685962110757828e-03
-2.646739594638347626e-02
-4.093497619032859802e-02
4.371114820241928101e-02
9.306355565786361694e-02
1.470833271741867065e-02
3.178074723109602928e-03
-4.855649545788764954e-02
-7.471971958875656128e-02
8.085460215806961060e-02
-9.952227771282196045e-02
-2.745518228039145470e-03
4.724154248833656311e-03
-1.511760950088500977e-01
7.171649485826492310e-02
8.451966196298599243e-02
-3.571211546659469604e-02
-2.502496121451258659e-03
-1.065478324890136719e-01
-4.075128585100173950e-02
-3.559817746281623840e-02
1.347252540290355682e-02
1.326393336057662964e-02
-2.151060104370117188e-02
-9.761255979537963867e-02
-2.833531470969319344e-03
2.076371014118194580e-02
4.276240244507789612e-02
1.247437447309494019e-01
-2.109491080045700073e-02
6.801511347293853760e-02
-1.012153327465057373e-01
1.825026124715805054e-01
-7.563884137198328972e-04
-7.891111820936203003e-02
4.171365499496459961e-02
1.003059223294258118e-01
8.083007298409938812e-03
-3.303773328661918640e-02
-2.826977148652076721e-02
-8.316980302333831787e-02
2.049604356288909912e-01
-3.817659243941307068e-02
5.396865773946046829e-03
4.277621582150459290e-02
4.138063639402389526e-02
9.316305816173553467e-02
6.859905272722244263e-02
-5.194078385829925537e-02
-8.010810613632202148e-02
-2.981722727417945862e-02
-3.953131660819053650e-02
-5.661840736865997314e-02
1.068746224045753479e-01
2.022857032716274261e-02
1.113773509860038757e-01
-1.448178850114345551e-02
1.410768777132034302e-01
8.982089161872863770e-02
-9.041608311235904694e-03
1.026661247014999390e-01
6.443372368812561035e-02
1.663663238286972046e-02
6.064140237867832184e-03
1.158210821449756622e-02
-2.361204847693443298e-02
1.330261826515197754e-01
5.297946278005838394e-03
6.406748201698064804e-03
2.640535868704319000e-02
2.466059289872646332e-02
9.776732325553894043e-02
1.286671161651611328e-01
-9.879038669168949127e-03
-1.357402745634317398e-02
-4.316744208335876465e-02
-3.242005780339241028e-02
-3.565688431262969971e-02
9.114001691341400146e-02
-7.651201635599136353e-02
9.217698127031326294e-02
-8.834134787321090698e-02
1.669894009828567505e-01
1.993115544319152832e-01
-5.375215783715248108e-02
1.802514791488647461e-01
5.164109170436859131e-02
6.337540689855813980e-03
-4.122768715023994446e-02
-3.505377098917961121e-02
-5.798977613449096680e-02
6.986463069915771484e-02
-3.312924876809120178e-02
-1.225480064749717712e-02
4.487033933401107788e-02
-7.816066034138202667e-03
1.026780605316162109e-01
3.515212237834930420e-02
-2.769415499642491341e-03
1.959003275260329247e-03
-5.885072425007820129e-02
-1.866580173373222351e-02
7.191781769506633282e-04
2.513904310762882233e-02
-3.432366764172911644e-03
2.643213979899883270e-02
-3.890204057097434998e-02
1.199546158313751221e-01
-5.278803780674934387e-02
3.977627307176589966e-02
7.803338766098022461e-02
1.125027909874916077e-01
5.227504763752222061e-03
-1.754596363753080368e-03
-3.863089904189109802e-02
8.885431103408336639e-03
2.359449863433837891e-02
1.286066696047782898e-02
3.620878234505653381e-02
8.140360563993453979e-02
5.284665524959564209e-02
7.442474365234375000e-02
8.379215002059936523e-02
-1.970799267292022705e-02
-5.905695259571075439e-02
8.081647567451000214e-03
-7.532393187284469604e-02
-2.230094559490680695e-02
1.241833553649485111e-03
-3.501489385962486267e-02
1.106783449649810791e-01
2.382913045585155487e-02
2.124660089612007141e-02
-4.313954710960388184e-02
-6.265240721404552460e-03
-3.106882050633430481e-02
8.985268883407115936e-03
1.739817857742309570e-02
6.446039676666259766e-02
3.107108362019062042e-02
1.028138119727373123e-02
5.751666799187660217e-02
-5.666955374181270599e-03
3.784150257706642151e-02
2.489998005330562592e-02
5.333002284169197083e-02
9.573817998170852661e-02
1.291408538818359375e-01
1.395961851812899113e-03
-6.289816647768020630e-02
-5.952199455350637436e-03
-6.269301287829875946e-03
3.287621308118104935e-03
1.938545145094394684e-02
4.172836244106292725e-02
3.883342072367668152e-02
-4.284978285431861877e-02
-1.153160003013908863e-03
1.107925921678543091e-01
9.106245823204517365e-03
1.209083348512649536e-01
4.496001079678535461e-02
-3.977520018815994263e-02
-1.538921520113945007e-02
-6.742243189364671707e-03
1.681255362927913666e-02
-7.728136552032083273e-05
-1.157435774803161621e-02
2.601006417535245419e-04
-3.316567093133926392e-02
-4.021814092993736267e-03
1.045564562082290649e-01
9.475703537464141846e-02
-3.391688317060470581e-02
-1.873481087386608124e-02
1.361611019819974899e-02
-4.161156713962554932e-02
-8.886770345270633698e-03
-4.117096774280071259e-03
2.875322289764881134e-02
6.007307395339012146e-02
-5.239090323448181152e-02
5.397334694862365723e-02
-2.473374828696250916e-02
-1.228353846818208694e-02
8.766566962003707886e-02
3.861297667026519775e-02
-2.009686082601547241e-02
1.147497221827507019e-01
-2.586594223976135254e-02
-2.106145396828651428e-02
2.861532755196094513e-02
-3.674328699707984924e-02
6.419293582439422607e-02
3.000016696751117706e-02
4.992438945919275284e-03
1.428393740206956863e-02
1.047699823975563049e-01
2.095946110785007477e-03
-3.973555937409400940e-02
1.208354160189628601e-01
-8.364117890596389771e-02
-6.448080390691757202e-02
-2.148954570293426514e-02
3.267420455813407898e-02
8.094757795333862305e-02
-2.929631806910037994e-02
1.387891639024019241e-02
2.767102606594562531e-02
3.872023895382881165e-02
-2.381547354161739349e-02
1.162055730819702148e-01
1.031423080712556839e-02
-2.491070702672004700e-02
-3.439455106854438782e-02
-6.207401165738701820e-04
-1.074258424341678619e-02
1.042271777987480164e-02
9.959438815712928772e-03
-3.646687045693397522e-02
8.289796300232410431e-03
-2.833394519984722137e-02
1.197126135230064392e-01
-1.768822968006134033e-02
-2.161173336207866669e-02
6.712945550680160522e-02
-4.474157001823186874e-03
1.097383815795183182e-02
-2.945590065792202950e-03
6.069668382406234741e-02
6.712083518505096436e-02
-2.997819148004055023e-02
-2.004845067858695984e-02
9.633306413888931274e-02
6.043279170989990234e-02
5.319186672568321228e-02
6.292466074228286743e-02
3.932720050215721130e-02
-2.956697158515453339e-02
-6.485793739557266235e-02
-1.591745531186461449e-03
7.976197637617588043e-03
-1.680930517613887787e-02
-1.065530907362699509e-02
1.643152348697185516e-02
-3.913194406777620316e-03
-4.906882718205451965e-02
9.400571882724761963e-02
-4.261223133653402328e-03
4.206502810120582581e-02
6.517934054136276245e-02
-1.852590963244438171e-02
-6.499961018562316895e-02
-2.536670863628387451e-02
1.737437769770622253e-02
6.391372531652450562e-02
-6.688139587640762329e-02
-9.975164430215954781e-04
-3.678748756647109985e-02
7.125595957040786743e-02
6.763068586587905884e-02
8.601004630327224731e-02
1.109741181135177612e-01
4.950474947690963745e-02
-7.138113491237163544e-03
5.060342606157064438e-03
2.844979241490364075e-02
-2.607442624866962433e-02
1.386462990194559097e-02
1.328136026859283447e-01
1.311902552843093872e-01
1.438662111759185791e-01
1.342262178659439087e-01
-3.241385146975517273e-02
-4.305435344576835632e-03
4.511888697743415833e-02
-7.970892637968063354e-02
-5.352034792304039001e-02
-5.527097359299659729e-02
-2.960768900811672211e-02
1.235076412558555603e-01
-7.158616185188293457e-02
-4.036314412951469421e-02
7.738831639289855957e-02
3.599662333726882935e-02
-1.286994479596614838e-02
1.533808857202529907e-01
1.976410485804080963e-02
6.750893592834472656e-02
-1.560791302472352982e-02
4.180705174803733826e-03
3.068556264042854309e-02
-2.244598604738712311e-02
-3.247862309217453003e-02
4.846674390137195587e-03
6.371518224477767944e-02
1.012349724769592285e-01
1.326511204242706299e-01
-7.406356185674667358e-02
-3.016040287911891937e-02
-5.306510627269744873e-02
-7.728195190429687500e-02
-1.632683351635932922e-02
-1.965368539094924927e-02
4.696463420987129211e-02
4.592366889119148254e-02
-1.372716575860977173e-01
-3.774425387382507324e-02
1.715020239353179932e-01
-3.891706466674804688e-02
1.452464461326599121e-01
1.538971513509750366e-01
-2.841629460453987122e-02
-2.610465697944164276e-02
-3.987685590982437134e-02
-4.519039019942283630e-02
-6.663337349891662598e-03
-4.475015401840209961e-02
1.668920181691646576e-02
4.281429201364517212e-02
3.458015248179435730e-02
9.700284898281097412e-02
1.502949148416519165e-01
-9.682960808277130127e-02
-8.350011706352233887e-02
-8.915581554174423218e-02
9.959681890904903412e-03
-3.141582757234573364e-02
-5.497258156538009644e-02
-3.549544839188456535e-03
8.309584110975265503e-02
2.129810303449630737e-02
1.133018359541893005e-02
-1.405796385370194912e-03
7.555399835109710693e-02
8.118097484111785889e-02
5.646624788641929626e-02
2.266592159867286682e-02
1.384677179157733917e-02
-1.099236309528350830e-02
-3.594567254185676575e-02
6.413827091455459595e-02
-4.437746480107307434e-02
-1.844217441976070404e-02
5.094647780060768127e-02
1.006072983145713806e-01
2.117126062512397766e-02
8.859990537166595459e-02
-2.401274070143699646e-02
-4.702860955148935318e-03
1.242725327610969543e-01
2.212503366172313690e-02
-5.558430776000022888e-02
-4.042785242199897766e-02
-8.558519184589385986e-04
5.663443356752395630e-03
8.961468935012817383e-03
-8.343397080898284912e-02
5.062634125351905823e-02
2.368366904556751251e-02
2.790289558470249176e-02
7.187866419553756714e-02
1.103518530726432800e-01
-3.333835676312446594e-02
-4.966297000646591187e-02
-1.382049545645713806e-02
-2.911435812711715698e-02
3.233070718124508858e-03
-4.063674807548522949e-02
3.437880054116249084e-02
6.565893441438674927e-02
-2.158013358712196350e-02
8.512584865093231201e-02
-4.566030111163854599e-03
1.496528647840023041e-02
5.343960225582122803e-02
-2.621432207524776459e-02
8.673396892845630646e-03
-6.887433677911758423e-02
7.332184165716171265e-02
1.165869832038879395e-01
-4.599135741591453552e-02
1.278394600376486778e-03
1.216931641101837158e-01
4.044204577803611755e-02
7.013758271932601929e-02
1.968232095241546631e-01
1.005952805280685425e-01
-3.879040852189064026e-02
-6.965906172990798950e-02
-4.756077751517295837e-02
7.932972162961959839e-02
-1.163545995950698853e-02
-3.111209347844123840e-02
-1.596722751855850220e-02
-2.493449114263057709e-02
5.412005819380283356e-03
1.154130548238754272e-01
-5.178043246269226074e-02
6.135960295796394348e-02
-7.426551729440689087e-02
-1.045595854520797729e-01
-4.055034741759300232e-02
-1.393674686551094055e-02
1.089626848697662354e-01
3.413850814104080200e-02
-7.409045100212097168e-02
-2.251419052481651306e-02
-4.211622476577758789e-02
4.025110602378845215e-02
1.918021705932915211e-03
1.747275590896606445e-01
1.070239916443824768e-01
1.257996261119842529e-01
-7.158496230840682983e-02
-1.952850818634033203e-02
3.026084974408149719e-02
-4.412435367703437805e-02
5.873204022645950317e-02
1.109069138765335083e-01
8.053385652601718903e-03
2.698832005262374878e-02
1.274262964725494385e-01
-7.600284367799758911e-02
5.531175062060356140e-02
5.841613188385963440e-02
-1.475018560886383057e-01
-1.493912786245346069e-01
-4.097500443458557129e-02
5.497867614030838013e-02
4.786626249551773071e-02
5.691524129360914230e-03
-7.051900774240493774e-02
6.534760445356369019e-02
2.849748916923999786e-02
8.883299678564071655e-02
1.705778837203979492e-01
1.212567538022994995e-01
8.078828454017639160e-03
-3.329877927899360657e-02
-7.584800571203231812e-02
-5.107713397592306137e-03
5.971021950244903564e-03
1.728708669543266296e-02
6.338388472795486450e-02
2.078627794981002808e-02
-8.644494228065013885e-03
6.825324147939682007e-02
-6.631310284137725830e-02
3.183102235198020935e-02
-5.256591364741325378e-02
-4.879917576909065247e-02
-8.080568909645080566e-02
-6.295339018106460571e-02
-1.566953770816326141e-02
1.414215266704559326e-01
-7.151766866445541382e-02
-3.624304011464118958e-02
2.292898297309875488e-02
1.751439087092876434e-02
1.756300926208496094e-01
1.161241307854652405e-01
7.294865697622299194e-02
7.362753152847290039e-03
-6.205940991640090942e-02
-5.743056908249855042e-02
-3.813261911273002625e-02
-3.009243682026863098e-02
3.048483096063137054e-02
1.279238015413284302e-01
-3.955430164933204651e-02
-6.886024773120880127e-02
5.794011056423187256e-02
-8.540743961930274963e-03
1.122287809848785400e-01
-1.125282794237136841e-01
-3.439930081367492676e-02
-8.392214030027389526e-02
2.139305509626865387e-02
1.153313517570495605e-01
-1.381127983331680298e-01
1.849785819649696350e-02
-3.308714553713798523e-02
-9.868181496858596802e-02
7.370836287736892700e-02
-3.190771862864494324e-02
3.858050704002380371e-02
-4.078666493296623230e-02
5.110544338822364807e-02
4.052340611815452576e-02
-4.320635274052619934e-02
-1.552391350269317627e-01
2.233667671680450439e-02
-2.052862197160720825e-02
3.790630772709846497e-02
-1.155346781015396118e-01
-3.466545138508081436e-03
-4.216716066002845764e-02
1.314306259155273438e-01
-7.949605584144592285e-02
4.167788662016391754e-03
5.252776294946670532e-02
8.785178512334823608e-02
6.696810573339462280e-02
1.133600831963121891e-03
-3.970713168382644653e-02
-4.053826257586479187e-02
4.602662846446037292e-02
-3.833467140793800354e-02
5.911327153444290161e-02
1.267478335648775101e-02
1.858780905604362488e-02
-1.097756065428256989e-02
1.347432136535644531e-01
-2.884507551789283752e-02
-8.537580072879791260e-02
3.006840497255325317e-02
3.233654657378792763e-03
3.507053479552268982e-02
9.112485498189926147e-02
2.553322166204452515e-02
-6.643607467412948608e-02
2.033387427218258381e-04
2.409623563289642334e-02
-6.004969775676727295e-02
4.487621039152145386e-02
-2.495221793651580811e-02
7.878047227859497070e-02
-1.460989378392696381e-02
-1.542330347001552582e-02
5.919370800256729126e-02
-3.638489544391632080e-02
-1.137343133450485766e-04
4.229899868369102478e-02
9.324370324611663818e-02
9.504225105047225952e-02
2.682247012853622437e-02
-3.515445627272129059e-03
9.739211946725845337e-02
-7.325370796024799347e-03
-1.316409856081008911e-01
1.011083461344242096e-02
-2.802582830190658569e-02
5.490587279200553894e-02
7.830055058002471924e-02
8.448947966098785400e-02
-7.559464313089847565e-03
4.816365242004394531e-02
3.572645410895347595e-02
-1.964616775512695312e-02
3.989278152585029602e-02
-4.639851301908493042e-02
6.048239395022392273e-02
6.373890489339828491e-02
4.528860375285148621e-02
-1.077598705887794495e-01
1.894092373549938202e-02
-8.281018584966659546e-02
-4.326358810067176819e-02
6.377572566270828247e-02
2.201232314109802246e-02
-6.431146711111068726e-02
-1.363896727561950684e-01
-1.954283565282821655e-02
8.696679770946502686e-02
-1.884451135993003845e-02
-1.478114724159240723e-01
-1.058965642005205154e-02
-3.537541627883911133e-02
4.829763434827327728e-03
-1.043607369065284729e-01
-5.084490031003952026e-02
-4.554031882435083389e-03
5.894922092556953430e-02
-1.525334781035780907e-03
1.348106004297733307e-02
-1.192659419029951096e-02
1.090573370456695557e-01
-1.885028742253780365e-02
-2.099795266985893250e-02
3.809629753232002258e-02
-2.505673095583915710e-02
-2.977164462208747864e-02
-5.554687976837158203e-02
1.148740574717521667e-01
2.363792993128299713e-02
4.852484911680221558e-02
1.925345696508884430e-02
5.451013892889022827e-02
2.017734944820404053e-02
-1.154598742723464966e-01
9.233027696609497070e-02
5.307247629389166832e-04
4.806579649448394775e-02
8.068568259477615356e-02
-7.842978462576866150e-03
-8.149025961756706238e-04
7.727427780628204346e-02
1.345408149063587189e-02
-2.691395021975040436e-02
8.340974152088165283e-02
5.355977453291416168e-03
8.414777368307113647e-02
-4.313882812857627869e-02
-4.383435472846031189e-03
4.853670299053192139e-02
-2.337613143026828766e-02
-1.227948721498250961e-02
2.893276885151863098e-02
7.156514376401901245e-02
1.011857688426971436e-01
5.788078904151916504e-02
1.249993033707141876e-02
8.382873982191085815e-02
-4.578016698360443115e-02
-7.713331282138824463e-02
9.251228719949722290e-02
6.306539289653301239e-03
7.536498457193374634e-02
1.077587753534317017e-01
5.900710076093673706e-02
7.729211822152137756e-03
9.553322941064834595e-02
-1.547680236399173737e-02
-2.182671800255775452e-02
3.270041942596435547e-02
-7.006390392780303955e-02
1.612663455307483673e-02
8.957489579916000366e-02
8.414041250944137573e-02
-1.064135730266571045e-01
2.051690034568309784e-02
-7.889416068792343140e-02
-7.444301247596740723e-02
5.661971494555473328e-02
-6.646949052810668945e-02
-1.360763888806104660e-02
-1.208865121006965637e-01
-1.288827359676361084e-01
1.379754990339279175e-01
-3.789027780294418335e-02
-1.036964878439903259e-01
1.551822666078805923e-02
-1.204892396926879883e-01
4.005734622478485107e-02
-1.018764972686767578e-01
-1.338940300047397614e-02
-1.746835559606552124e-02
4.641835764050483704e-02
-1.907076537609100342e-01
8.693265914916992188e-02
5.779646337032318115e-02
1.777625530958175659e-01
2.347521856427192688e-02
3.504916653037071228e-02
-8.390278369188308716e-02
-4.222927242517471313e-02
-4.223193228244781494e-02
-7.281920313835144043e-02
7.201986759901046753e-02
6.362446397542953491e-02
1.982749626040458679e-02
-6.938090175390243530e-02
-1.408000243827700615e-03
2.103612758219242096e-02
-6.467629969120025635e-02
6.621399521827697754e-02
-3.344503417611122131e-02
-2.886622445657849312e-03
4.945615679025650024e-02
-2.048142440617084503e-02
-7.690232247114181519e-02
-5.130561534315347672e-03
2.855639671906828880e-03
-7.021594792604446411e-02
2.331748977303504944e-02
-2.075733616948127747e-02
1.230544075369834900e-01
-7.056459435261785984e-04
-2.952188067138195038e-02
-1.892901025712490082e-02
2.261673472821712494e-02
-1.949063129723072052e-02
2.336057461798191071e-02
6.923112273216247559e-02
-1.963860727846622467e-02
3.202996030449867249e-02
-2.124803140759468079e-02
2.712339349091053009e-02
8.205795660614967346e-03
-8.656021207571029663e-02
3.781918063759803772e-02
-2.981506846845149994e-02
9.419372305274009705e-03
3.059844300150871277e-02
2.225046604871749878e-02
-7.137557864189147949e-02
2.739494480192661285e-02
-2.874128147959709167e-02
1.562997139990329742e-02
7.722701877355575562e-02
1.525568659417331219e-03
8.998732268810272217e-02
6.587888300418853760e-02
4.795370623469352722e-02
-9.445920586585998535e-02
4.145846143364906311e-02
-7.862877845764160156e-02
-5.866934359073638916e-02
6.178874149918556213e-02
-5.512921139597892761e-02
7.981487549841403961e-03
-1.978066563606262207e-02
-1.040169745683670044e-01
-1.016999222338199615e-02
9.769367426633834839e-02
-1.770311743021011353e-01
1.668738201260566711e-02
-1.508853435516357422e-01
-7.234137505292892456e-02
-6.165708974003791809e-02
-6.069477275013923645e-02
6.918559223413467407e-02
9.225992858409881592e-02
-3.968372195959091187e-02
3.372889012098312378e-02
-4.634219221770763397e-03
-1.544498465955257416e-02
3.802619501948356628e-02
4.241862520575523376e-02
1.527002546936273575e-02
-2.404289320111274719e-03
-3.485597670078277588e-02
-7.838734984397888184e-02
5.085032805800437927e-02
-9.448927640914916992e-02
3.360560908913612366e-02
-6.118665263056755066e-02
-1.161370873451232910e-01
9.166789241135120392e-03
1.174131333827972412e-01
-9.891030192375183105e-02
-1.559543609619140625e-02
-6.673635542392730713e-02
-6.795942783355712891e-02
-6.870155036449432373e-02
4.011436551809310913e-02
5.917368829250335693e-02
3.345110267400741577e-02
-3.760969266295433044e-02
1.370648387819528580e-02
-2.396013401448726654e-02
-2.873214706778526306e-02
-1.103238016366958618e-02
2.206353098154067993e-02
-1.367220729589462280e-01
5.761422961950302124e-02
-6.861320883035659790e-02
-1.393230855464935303e-01
5.430174991488456726e-02
-1.147097349166870117e-01
-2.804282307624816895e-02
-5.714739859104156494e-02
-4.503917321562767029e-02
-5.081524141132831573e-03
9.570249915122985840e-02
-6.190460920333862305e-02
1.060257013887166977e-02
-8.417059481143951416e-02
2.130341902375221252e-02
-3.712663426995277405e-02
1.402860414236783981e-02
5.770988296717405319e-03
4.092465341091156006e-02
-1.017696335911750793e-01
-1.650903001427650452e-02
2.931549400091171265e-02
-1.265846006572246552e-02
3.015992417931556702e-02
9.849093854427337646e-02
4.775801673531532288e-02
5.476812832057476044e-03
9.544141590595245361e-03
6.020515784621238708e-02
9.709586203098297119e-02
7.974386960268020630e-02
-5.545527487993240356e-02
7.250370830297470093e-02
1.163960713893175125e-02
-4.343251883983612061e-02
1.521787326782941818e-02
-4.798930883407592773e-02
2.991933375597000122e-03
-7.531934976577758789e-02
6.351894885301589966e-02
1.025111153721809387e-01
2.365506440401077271e-02
1.589432545006275177e-02
4.205971583724021912e-02
2.413548715412616730e-02
4.782486334443092346e-02
-1.569201238453388214e-02
-5.996106564998626709e-02
-2.327330596745014191e-02
7.143105566501617432e-02
3.570153191685676575e-02
-2.828961610794067383e-02
8.368393778800964355e-02
8.798014372587203979e-02
9.033424407243728638e-02
7.126167416572570801e-02
-3.953482955694198608e-03
5.610908940434455872e-02
-1.534663140773773193e-02
3.439468564465641975e-03
4.450111836194992065e-02
1.654640212655067444e-02
-1.354626286774873734e-02
-5.940007790923118591e-02
4.123589769005775452e-02
1.199551820755004883e-01
-1.185747329145669937e-02
8.720442652702331543e-02
-1.442332193255424500e-02
-3.170011937618255615e-02
6.144266203045845032e-02
-7.579956948757171631e-02
-2.859969809651374817e-02
3.106767125427722931e-02
6.469744443893432617e-02
-3.786745294928550720e-02
-5.756414681673049927e-02
-2.843859419226646423e-02
4.133814200758934021e-02
9.395799040794372559e-02
-4.838566109538078308e-02
2.825867198407649994e-02
-2.537480369210243225e-02
-7.509650290012359619e-02
-1.184357516467571259e-02
5.918147042393684387e-02
6.165068224072456360e-02
-1.252022664994001389e-02
-4.952162131667137146e-02
-1.738783903419971466e-02
9.987794607877731323e-02
4.399950802326202393e-02
3.884076699614524841e-02
4.095145314931869507e-02
-5.103020370006561279e-02
-3.451051190495491028e-02
-7.471170276403427124e-02
-1.882958342321217060e-03
6.372401118278503418e-02
8.948004990816116333e-02
1.348499394953250885e-02
-3.442918136715888977e-02
1.267673540860414505e-02
5.234364792704582214e-02
7.057879865169525146e-02
-8.731581270694732666e-03
-2.561640460044145584e-03
3.919390588998794556e-02
3.183766826987266541e-02
-2.263871207833290100e-02
-4.305897280573844910e-03
8.096093684434890747e-02
-2.787418477237224579e-02
-4.593662545084953308e-02
-1.614903099834918976e-02
7.398202270269393921e-02
-5.368200689554214478e-02
9.293525665998458862e-02
4.076517745852470398e-02
1.466024760156869888e-02
3.669582307338714600e-02
1.173678226768970490e-02
-3.409028053283691406e-02
4.899380728602409363e-02
1.074288878589868546e-02
2.939680404961109161e-02
-6.931711733341217041e-02
-2.920370362699031830e-02
8.294023573398590088e-02
-1.825808198191225529e-03
7.958330214023590088e-02
6.135097239166498184e-03
8.420631289482116699e-02
9.718943387269973755e-03
-1.904752687551081181e-03
1.664052344858646393e-02
1.009275913238525391e-01
1.160968560725450516e-02
-2.253678441047668457e-02
6.532279308885335922e-03
1.234999224543571472e-01
-4.122556000947952271e-02
8.195794373750686646e-02
-1.683306880295276642e-02
1.287022256292402744e-03
3.154276311397552490e-02
-8.203627169132232666e-02
-6.186617910861968994e-02
5.293903499841690063e-02
9.037749469280242920e-02
2.101094089448451996e-02
-5.754914879798889160e-02
2.020138315856456757e-02
-5.814365111291408539e-03
4.660402610898017883e-02
-5.911586806178092957e-02
-2.919570170342922211e-02
5.855110287666320801e-02
1.489654183387756348e-02
-4.767997190356254578e-02
6.356821209192276001e-02
2.703951857984066010e-02
-7.010683882981538773e-03
-4.607165697962045670e-03
-5.031482782214879990e-03
5.987009406089782715e-02
-5.175240337848663330e-02
4.045511037111282349e-02
2.338742464780807495e-02
-9.274984896183013916e-02
1.533249393105506897e-02
-8.776267059147357941e-03
-3.237497806549072266e-02
