1.122412160038948059e-01
-1.631722552701830864e-03
-2.632708661258220673e-02
4.876440018415451050e-02
4.477893561124801636e-02
6.430833134800195694e-03
1.082533895969390869e-01
-4.569452255964279175e-02
-6.811852753162384033e-02
9.652175009250640869e-03
-1.922061550430953503e-03
-8.287178725004196167e-02
-8.887598663568496704e-02
5.642536282539367676e-02
1.564976945519447327e-02
2.835428155958652496e-02
-8.767633885145187378e-02
1.999726518988609314e-02
-1.015376020222902298e-02
9.758509695529937744e-03
-1.751475036144256592e-02
-2.636587806046009064e-02
6.892371922731399536e-02
-1.005260273814201355e-02
-1.342404633760452271e-01
-3.688238188624382019e-02
-2.802882343530654907e-02
1.323229540139436722e-02
-5.720648169517517090e-02
5.401037260890007019e-02
3.019081614911556244e-02
6.262860726565122604e-03
4.592559114098548889e-02
-8.842640090733766556e-04
-3.292826563119888306e-02
-1.418479369021952152e-03
-3.142920508980751038e-02
-4.859748855233192444e-02
2.816840540617704391e-03
-4.513321816921234131e-02
1.033922582864761353e-01
4.381251335144042969e-02
-7.779537886381149292e-02
8.569893985986709595e-02
-1.737201772630214691e-02
6.346634775400161743e-02
9.853354655206203461e-03
-7.417130470275878906e-02
-4.025723785161972046e-02
6.631512939929962158e-02
4.880502820014953613e-02
-5.300883669406175613e-03
-8.484366536140441895e-02
-7.911304384469985962e-02
-5.177562683820724487e-02
-6.660041958093643188e-02
-2.505147829651832581e-03
-4.378217272460460663e-03
-9.440063498914241791e-03
8.456902205944061279e-02
5.146777629852294922e-02
-4.008736088871955872e-02
-9.878586232662200928e-02
-1.773714832961559296e-02
-2.585893310606479645e-02
5.972771719098091125e-02
-2.958576381206512451e-02
-3.127444908022880554e-02
-4.954647645354270935e-02
-2.816677466034889221e-02
4.432341456413269043e-02
-5.191942676901817322e-02
-2.901186421513557434e-02
-2.905436791479587555e-02
-4.826422035694122314e-02
-6.188111379742622375e-02
-1.644671894609928131e-02
1.108286157250404358e-01
-2.232930436730384827e-02
4.020138457417488098e-02
-1.601916551589965820e-02
-6.494197249412536621e-02
3.708385303616523743e-02
5.109699815511703491e-02
8.276600390672683716e-03
-5.522711947560310364e-02
-5.957939475774765015e-02
7.059784140437841415e-03
9.028658270835876465e-02
5.823437124490737915e-02
-5.499341338872909546e-02
-1.220367266796529293e-03
-5.253415554761886597e-02
-3.622490167617797852e-02
-6.635096669197082520e-02
1.063554137945175171e-01
-9.867829084396362305e-02
-6.434702314436435699e-03
-2.342529036104679108e-02
6.523752957582473755e-02
3.086414746940135956e-02
-5.982386320829391479e-02
-4.492964968085289001e-02
-1.524544227868318558e-02
7.124336063861846924e-02
5.818824283778667450e-03
1.099292263388633728e-01
-4.379918426275253296e-02
-5.661652982234954834e-02
7.540553063154220581e-02
8.099913597106933594e-03
7.042466104030609131e-02
6.533575709909200668e-03
5.028565879911184311e-03
-4.607959091663360596e-02
4.707664623856544495e-02
-5.405920371413230896e-02
1.548492908477783203e-02
-4.515854641795158386e-02
7.219002395868301392e-02
9.212597459554672241e-02
-8.455880731344223022e-02
-5.360037833452224731e-02
6.771766394376754761e-02
-6.932657957077026367e-02
3.495185077190399170e-02
1.536080613732337952e-03
-3.957178443670272827e-02
-3.220671042799949646e-02
-8.238541334867477417e-02
3.815194591879844666e-02
-4.100859537720680237e-02
3.950177133083343506e-02
1.122345328330993652e-01
-1.096664443612098694e-01
-9.477514773607254028e-02
-6.270305812358856201e-02
-8.311490714550018311e-02
1.893403939902782440e-02
-2.125575207173824310e-02
7.990399003028869629e-02
3.270772472023963928e-02
-6.351514160633087158e-02
5.385490879416465759e-02
9.488975629210472107e-03
-3.833413356915116310e-03
-7.868496328592300415e-02
4.144525155425071716e-02
6.959328055381774902e-02
-4.456019029021263123e-02
-7.777327299118041992e-02
-3.969816491007804871e-02
7.671845145523548126e-03
-2.446299418807029724e-02
8.430680632591247559e-02
-9.335618466138839722e-03
3.715005144476890564e-02
1.152212545275688171e-02
2.669276483356952667e-02
-8.141830563545227051e-02
-4.251480847597122192e-02
3.691044636070728302e-03
5.896804854273796082e-02
-7.795013487339019775e-03
2.232124470174312592e-02
-8.307790756225585938e-02
-3.124022297561168671e-02
1.068617030978202820e-02
-4.630412533879280090e-02
-3.040432371199131012e-02
-7.924625277519226074e-02
4.210918769240379333e-02
2.082481049001216888e-02
2.030016854405403137e-02
-1.183715090155601501e-01
-2.190610766410827637e-02
-8.787342905998229980e-02
-1.415408478351309896e-04
-5.902435630559921265e-02
7.394815981388092041e-02
-3.973361104726791382e-02
-3.949812427163124084e-02
-5.989161133766174316e-02
7.702092826366424561e-02
-9.427122771739959717e-02
-3.458289057016372681e-02
2.645047008991241455e-02
-5.695560947060585022e-02
-5.235089734196662903e-02
-8.978685946203768253e-04
6.966399401426315308e-02
5.659236758947372437e-02
-4.317236132919788361e-03
3.481426462531089783e-02
-5.636814516037702560e-03
-7.305531203746795654e-02
-4.908682778477668762e-02
-3.284218534827232361e-02
3.268552199006080627e-02
2.952445112168788910e-02
-1.019492466002702713e-02
-1.252201199531555176e-02
5.324956774711608887e-02
-3.164491802453994751e-02
-5.973412655293941498e-03
-7.142078876495361328e-02
-7.562946528196334839e-02
4.942649602890014648e-02
-6.499625742435455322e-02
6.073501706123352051e-02
-2.166342549026012421e-02
1.483021676540374756e-02
4.165201634168624878e-02
-5.532487295567989349e-03
-8.725951611995697021e-02
1.470873225480318069e-02
6.925237178802490234e-02
-3.660595417022705078e-02
6.632632575929164886e-03
9.883034229278564453e-02
2.323284186422824860e-02
1.746303983964025974e-03
-7.907791994512081146e-03
-8.778140693902969360e-02
-8.291317522525787354e-02
6.234868615865707397e-02
2.620015479624271393e-02
-1.849549449980258942e-02
-5.168197676539421082e-02
-7.412619888782501221e-02
3.554531186819076538e-02
2.148531191051006317e-02
3.381634131073951721e-02
8.917009830474853516e-02
-3.366390243172645569e-02
4.358007758855819702e-02
3.074501827359199524e-02
-9.921564906835556030e-02
-4.323560744524002075e-03
2.527484856545925140e-02
5.308117717504501343e-02
3.020054847002029419e-02
4.773583263158798218e-02
-2.351316809654235840e-02
-5.740427225828170776e-02
1.130834873765707016e-02
-1.358120590448379517e-01
4.570164158940315247e-02
-1.780353300273418427e-02
-2.576381713151931763e-02
-3.348259627819061279e-02
6.725344061851501465e-02
3.030980192124843597e-02
6.055835634469985962e-02
5.392753332853317261e-02
-7.582667749375104904e-03
-2.668622322380542755e-02
8.541195094585418701e-02
5.424293875694274902e-02
5.116607621312141418e-02
5.207637697458267212e-02
-5.914058536291122437e-02
-1.069700419902801514e-01
-4.122062586247920990e-03
-2.899689599871635437e-02
2.270345389842987061e-02
-1.440994534641504288e-02
-1.326888334006071091e-02
-7.812591269612312317e-03
5.774477869272232056e-02
6.650263071060180664e-02
6.834882497787475586e-02
1.350789982825517654e-02
-7.571584731340408325e-02
-9.382168762385845184e-03
-5.017973482608795166e-02
-5.105894804000854492e-02
-1.474105287343263626e-03
3.134082257747650146e-02
-6.211087480187416077e-02
6.005310919135808945e-03
2.187835797667503357e-02
-3.057851083576679230e-02
3.545696288347244263e-02
-1.423851996660232544e-01
1.741120778024196625e-02
-1.741530373692512512e-02
7.153475191444158554e-03
3.998986445367336273e-03
5.303849652409553528e-02
5.042195692658424377e-02
-8.394432254135608673e-03
-1.286539994180202484e-02
-1.268008491024374962e-03
-1.478784829378128052e-01
-2.081751450896263123e-02
-5.249750241637229919e-02
-4.782877862453460693e-02
-4.880845546722412109e-02
9.512903541326522827e-02
-1.115054339170455933e-01
7.474279403686523438e-02
3.529872046783566475e-03
8.354681730270385742e-02
7.089839130640029907e-02
-3.107818961143493652e-02
3.008229658007621765e-02
-1.694850064814090729e-02
-3.919899091124534607e-02
3.537014499306678772e-02
1.099219173192977905e-02
8.110519498586654663e-03
-3.586793690919876099e-02
-4.754408821463584900e-02
-2.053546160459518433e-02
-5.463387072086334229e-02
7.436832040548324585e-02
5.337872356176376343e-02
5.515338107943534851e-02
4.441294446587562561e-02
2.043364942073822021e-02
-7.397416234016418457e-02
-1.462566945701837540e-02
-4.032348468899726868e-02
-5.302304401993751526e-02
-3.610137151554226875e-03
3.562056645750999451e-02
1.329119410365819931e-02
1.664304547011852264e-02
3.772480040788650513e-02
2.606039308011531830e-02
-5.786900967359542847e-02
-6.898985803127288818e-02
1.951127499341964722e-02
-3.781534731388092041e-02
6.161533292470267043e-06
2.702946588397026062e-02
-2.356733893975615501e-03
4.694565385580062866e-02
4.051277041435241699e-02
5.517881363630294800e-04
-3.280645236372947693e-02
-1.860131509602069855e-02
3.607159852981567383e-02
1.157577801495790482e-02
-6.290031224489212036e-02
-9.363041073083877563e-02
-7.811456918716430664e-03
7.374086976051330566e-02
5.054656416177749634e-02
-2.498427778482437134e-02
1.069449931383132935e-01
-3.680603206157684326e-02
7.033314555883407593e-02
3.387797251343727112e-02
-2.417253796011209488e-03
2.077994681894779205e-02
2.914891578257083893e-02
7.084454596042633057e-02
-5.503269657492637634e-02
2.149102464318275452e-02
2.601903490722179413e-02
-5.448789149522781372e-02
2.911574766039848328e-02
6.729724258184432983e-02
3.621171414852142334e-02
2.716015093028545380e-02
3.875451907515525818e-02
7.424974441528320312e-02
6.465794146060943604e-02
-4.333607479929924011e-02
-3.295252565294504166e-03
-1.192687079310417175e-02
-3.240104531869292259e-03
5.152101814746856689e-02
8.281128853559494019e-02
3.426234796643257141e-02
3.347770124673843384e-02
6.425164639949798584e-02
-1.346516888588666916e-02
-2.253944054245948792e-03
5.106074735522270203e-02
-1.181520754471421242e-03
-2.429457753896713257e-02
-9.735671803355216980e-03
5.647857859730720520e-02
-1.030288636684417725e-02
-2.887729182839393616e-02
6.347529590129852295e-02
7.190833240747451782e-02
1.729971542954444885e-02
5.861975252628326416e-03
-3.225310938432812691e-03
9.053084999322891235e-02
-6.582553684711456299e-02
-1.119581758975982666e-01
-6.518093496561050415e-02
2.270191535353660583e-02
-4.599872976541519165e-03
-1.218945719301700592e-02
-9.065699577331542969e-02
-1.416614092886447906e-02
4.575234279036521912e-02
-5.172230303287506104e-02
-8.112587779760360718e-02
1.519196294248104095e-02
-2.212129719555377960e-02
-1.466081105172634125e-02
-3.544476255774497986e-02
-3.782783448696136475e-02
4.779669642448425293e-02
6.491558998823165894e-02
6.212168186902999878e-02
3.993022814393043518e-02
6.540441513061523438e-02
-1.868082955479621887e-02
5.394182354211807251e-02
5.789239704608917236e-02
6.195396557450294495e-02
3.387538343667984009e-02
1.018195748329162598e-01
1.892908010631799698e-03
-2.090398035943508148e-02
-4.084596410393714905e-02
3.816855326294898987e-02
-4.078948125243186951e-02
7.601086050271987915e-02
1.024384051561355591e-01
5.484082549810409546e-02
2.453603222966194153e-02
9.824998676776885986e-03
-4.281038045883178711e-02
-2.946753241121768951e-02
-3.143134340643882751e-02
-3.828651458024978638e-02
-3.495170734822750092e-03
-5.637313798069953918e-02
3.635866567492485046e-02
2.715242281556129456e-02
7.240853458642959595e-02
-6.631077826023101807e-02
-5.623358301818370819e-03
-2.953745424747467041e-02
6.133208982646465302e-03
-5.299233645200729370e-02
-2.599394321441650391e-02
-1.119448393583297729e-01
4.354349896311759949e-02
2.304476127028465271e-02
1.916610822081565857e-02
5.770437791943550110e-02
4.644799977540969849e-03
3.616979345679283142e-02
1.272138115018606186e-02
3.976111765950918198e-03
8.046011626720428467e-02
-1.766045764088630676e-02
-5.206755548715591431e-02
-3.695426136255264282e-02
2.971170283854007721e-02
2.383223734796047211e-02
-7.035986054688692093e-03
-5.859472975134849548e-02
-8.557796478271484375e-03
1.279915962368249893e-02
7.732190936803817749e-02
1.149540096521377563e-01
-5.792479217052459717e-02
-7.284283638000488281e-02
-6.641326844692230225e-02
-1.334543675184249878e-01
-5.736314877867698669e-02
-2.912650629878044128e-02
2.756986208260059357e-02
-9.211439639329910278e-02
1.531773805618286133e-02
-6.713137030601501465e-02
-1.782298088073730469e-02
-1.240612193942070007e-02
-5.472775921225547791e-02
3.049527481198310852e-02
-1.472782809287309647e-02
-5.783581733703613281e-02
-1.658189855515956879e-02
-3.339922800660133362e-02
-5.348424613475799561e-02
8.397106081247329712e-02
1.808441989123821259e-02
-1.189352292567491531e-02
3.384123742580413818e-02
-5.065747722983360291e-02
9.103415906429290771e-02
-5.200652033090591431e-02
-2.119890414178371429e-02
-4.956286400556564331e-02
-5.307661369442939758e-02
1.100202370434999466e-02
-1.208196859806776047e-02
-7.388712465763092041e-02
-1.177538302727043629e-03
1.385324150323867798e-01
-1.116914302110671997e-02
-4.917566478252410889e-02
-9.639386832714080811e-02
1.064381212927401066e-03
5.069861561059951782e-02
6.022447720170021057e-02
-1.972012221813201904e-02
3.505981341004371643e-02
7.343813031911849976e-02
4.808712378144264221e-02
1.286972016096115112e-01
-4.205485805869102478e-03
1.749590225517749786e-02
3.693841770291328430e-02
5.352867022156715393e-02
-1.462164055556058884e-02
-4.439594224095344543e-02
4.753457382321357727e-03
-5.250284075736999512e-02
2.901210915297269821e-03
-8.251145482063293457e-02
1.502477098256349564e-02
2.942713908851146698e-02
-7.584269344806671143e-02
4.633604362607002258e-02
4.964592680335044861e-02
2.489306777715682983e-02
2.465795725584030151e-02
-2.312193438410758972e-02
-8.019018173217773438e-02
-2.507548779249191284e-02
1.183870900422334671e-02
7.005881518125534058e-02
-2.631913870573043823e-02
-2.670177817344665527e-02
-4.877069965004920959e-02
3.037547506392002106e-02
-1.074087899178266525e-02
-4.866506904363632202e-02
4.056042525917291641e-03
6.335002370178699493e-03
-6.285435706377029419e-02
3.304022550582885742e-02
5.557211488485336304e-02
-3.618849441409111023e-02
3.208929672837257385e-02
-3.373866435140371323e-03
4.884641990065574646e-02
1.763823069632053375e-02
1.268008723855018616e-02
5.117897689342498779e-02
-3.587046265602111816e-02
1.390566956251859665e-02
7.492791861295700073e-02
4.784945398569107056e-02
1.886464282870292664e-02
-2.464533783495426178e-02
7.378584146499633789e-02
-6.754384841769933701e-03
-2.319402620196342468e-02
7.321719080209732056e-02
6.133054196834564209e-02
-1.384186930954456329e-02
3.048397367820143700e-03
-6.526818033307790756e-03
6.002980843186378479e-02
-1.185825001448392868e-02
-6.722118705511093140e-02
-7.976029999554157257e-03
2.541442215442657471e-02
-9.468794800341129303e-03
1.496827043592929840e-02
-6.718558073043823242e-02
-8.334396779537200928e-02
-7.584734261035919189e-02
-8.202374726533889771e-02
3.186709433794021606e-02
-1.439687679521739483e-03
-9.529784321784973145e-02
6.073713675141334534e-02
4.965549707412719727e-02
-5.552223697304725647e-02
6.556722521781921387e-02
6.987638305872678757e-03
4.736509919166564941e-02
4.589525982737541199e-02
-6.284665316343307495e-02
-8.244182914495468140e-02
7.057844102382659912e-02
-3.685726225376129150e-02
1.085260882973670959e-01
4.121501743793487549e-02
-4.589943215250968933e-02
-2.581535279750823975e-02
5.968774203211069107e-03
4.871240630745887756e-02
-6.390457856468856335e-04
-5.779964104294776917e-02
4.056185483932495117e-03
8.933651447296142578e-02
3.943700343370437622e-02
-2.569621056318283081e-02
9.759019128978252411e-03
-5.065914615988731384e-02
-6.850989907979965210e-02
-4.133339971303939819e-02
6.366131454706192017e-02
7.315691560506820679e-02
2.692709863185882568e-02
-2.588129602372646332e-02
9.768222458660602570e-03
3.941132873296737671e-02
-3.933437541127204895e-02
9.135905653238296509e-02
3.496097773313522339e-02
8.103194646537303925e-03
5.465912073850631714e-02
7.167871575802564621e-03
-7.619857043027877808e-02
-2.179486863315105438e-02
1.361219491809606552e-02
-3.643366321921348572e-02
1.875255443155765533e-02
-3.307501226663589478e-02
-3.516313806176185608e-02
-3.760232403874397278e-02
1.535623148083686829e-02
9.569887071847915649e-03
2.183653227984905243e-02
1.039314921945333481e-02
-1.400945894420146942e-02
-7.714149355888366699e-02
-2.251094207167625427e-02
2.415671758353710175e-02
-1.702693291008472443e-02
1.048558428883552551e-01
3.687291592359542847e-02
-4.556578397750854492e-02
-6.842294707894325256e-03
-7.143209874629974365e-02
1.901650428771972656e-02
5.504284799098968506e-02
7.859910838305950165e-03
4.050291329622268677e-02
-1.477180235087871552e-02
6.943370401859283447e-02
-6.293644662946462631e-03
1.994004100561141968e-02
4.166209325194358826e-02
3.711015731096267700e-02
5.017194151878356934e-02
4.169869050383567810e-02
-3.179911989718675613e-03
-9.158018976449966431e-02
3.141262382268905640e-02
-2.027147077023983002e-02
6.882802397012710571e-02
9.889429062604904175e-02
6.038726866245269775e-02
-5.517707020044326782e-02
1.615913934074342251e-03
1.929506100714206696e-02
4.429115727543830872e-02
4.052760824561119080e-02
2.285492233932018280e-02
-5.029841326177120209e-03
9.786117076873779297e-02
2.184195816516876221e-02
1.095107421278953552e-01
-1.142759283538907766e-04
6.673416495323181152e-02
-6.610356271266937256e-03
-2.697615884244441986e-02
-5.753064900636672974e-02
1.804610900580883026e-02
5.295166745781898499e-02
-5.111884698271751404e-02
3.644363582134246826e-02
1.640677079558372498e-02
6.958874315023422241e-02
-4.613958299160003662e-03
4.529595389612950385e-05
-1.447529438883066177e-02
-4.294202104210853577e-02
-3.247194737195968628e-02
3.512980043888092041e-02
3.667861223220825195e-02
2.074533328413963318e-02
-1.113045122474431992e-02
-7.766553759574890137e-02
-1.935232989490032196e-02
1.668738387525081635e-02
-4.729611799120903015e-02
-2.094916813075542450e-02
-1.624841243028640747e-02
3.448181971907615662e-02
5.853765457868576050e-02
-3.016839735209941864e-02
-6.508574634790420532e-02
-1.165157370269298553e-02
-4.053312540054321289e-02
4.734052717685699463e-02
1.164959557354450226e-02
4.773759841918945312e-02
-9.063419699668884277e-02
-3.320055454969406128e-02
2.421775646507740021e-02
-2.330706082284450531e-02
6.306540220975875854e-02
2.438805624842643738e-02
3.503886237740516663e-02
5.582397431135177612e-02
-3.959232941269874573e-02
3.054481372237205505e-02
1.156108360737562180e-02
1.201242431998252869e-01
4.139775410294532776e-02
-1.620888896286487579e-02
-3.963079303503036499e-02
4.931778088212013245e-02
-4.232759028673171997e-02
-2.658075466752052307e-02
-8.041378110647201538e-02
4.884398076683282852e-03
2.064329944550991058e-02
-2.659868076443672180e-02
-6.302490364760160446e-03
6.994661688804626465e-02
-2.716311626136302948e-02
-1.496819080784916878e-03
-4.522453993558883667e-03
-5.616139620542526245e-02
-1.666652224957942963e-02
-8.520811051130294800e-02
-3.107029711827635765e-03
3.008274920284748077e-02
2.794385887682437897e-02
-5.855282396078109741e-02
-3.439523279666900635e-02
6.125323846936225891e-02
-3.158967196941375732e-02
-2.872134186327457428e-02
8.597587049007415771e-02
1.166230067610740662e-01
-8.044365793466567993e-02
-2.196295745670795441e-02
-5.509595200419425964e-02
-5.686106905341148376e-02
1.265122648328542709e-02
1.515110284090042114e-01
7.110283523797988892e-02
2.870654873549938202e-02
-1.103964298963546753e-01
2.617547474801540375e-02
1.688941940665245056e-02
7.890178821980953217e-03
7.932931929826736450e-02
7.464543730020523071e-02
9.643719345331192017e-02
-5.443686246871948242e-02
-4.027687758207321167e-02
5.573369562625885010e-02
7.820461690425872803e-02
5.709346011281013489e-02
5.129805207252502441e-02
-1.735016703605651855e-02
-1.372057478874921799e-02
8.239219896495342255e-03
2.385384030640125275e-02
-1.118556335568428040e-01
-2.604595012962818146e-02
-1.340587157756090164e-02
5.374458432197570801e-02
-1.810863986611366272e-02
4.833722859621047974e-02
-9.351093322038650513e-02
1.692700572311878204e-02
-4.839564859867095947e-02
5.538972839713096619e-02
-2.396642928943037987e-03
-9.802713990211486816e-02
-1.442898157984018326e-02
-5.288999527692794800e-02
8.103682845830917358e-02
4.199550673365592957e-02
1.909514516592025757e-02
6.400214042514562607e-03
-2.483531832695007324e-02
-9.443625807762145996e-02
1.248451620340347290e-01
3.443691134452819824e-02
-2.869024872779846191e-03
5.706633254885673523e-02
1.613936945796012878e-02
5.296177044510841370e-02
2.043502405285835266e-02
-3.680985793471336365e-02
-5.755711346864700317e-02
2.893806621432304382e-02
9.088365733623504639e-02
4.528871551156044006e-02
5.602547526359558105e-02
-8.976948261260986328e-02
-6.413485109806060791e-02
-1.809478551149368286e-02
-4.104071296751499176e-03
-4.375995136797428131e-03
-4.710130393505096436e-03
-3.334658220410346985e-02
5.041611939668655396e-02
1.004077717661857605e-01
8.229047805070877075e-02
-6.082333996891975403e-02
-3.079984709620475769e-02
-6.793110072612762451e-02
5.558025464415550232e-02
5.016529560089111328e-02
-1.151904314756393433e-01
6.923022121191024780e-02
-8.233708329498767853e-03
5.809830874204635620e-02
-1.097786799073219299e-01
-9.184276312589645386e-02
-4.355650022625923157e-02
2.776268683373928070e-02
-1.027120836079120636e-02
-3.914655745029449463e-02
3.748066723346710205e-02
-4.460266232490539551e-02
-6.644286960363388062e-02
-2.574200369417667389e-02
-5.820311978459358215e-02
-3.601529821753501892e-02
-9.731096029281616211e-02
5.482231453061103821e-02
6.009832024574279785e-02
-6.851011514663696289e-02
-4.442285373806953430e-02
-3.259023278951644897e-02
-8.503135759383440018e-04
-1.236536446958780289e-02
4.384516796562820673e-04
9.127727895975112915e-02
-4.517206456512212753e-03
4.112351313233375549e-02
5.083636380732059479e-03
1.343395095318555832e-02
1.834657229483127594e-02
6.561311334371566772e-02
-2.683983184397220612e-02
5.081506073474884033e-02
4.101301357150077820e-02
1.240319572389125824e-02
-5.622318014502525330e-02
-3.860715078189969063e-03
-7.734318077564239502e-02
-3.771497309207916260e-02
1.011842861771583557e-01
-4.779047891497612000e-02
-5.121356621384620667e-02
9.970981627702713013e-03
4.108866676688194275e-02
-5.225037410855293274e-02
-1.700648479163646698e-02
-4.068974032998085022e-02
4.318786319345235825e-03
3.225828753784298897e-03
-6.449552625417709351e-02
6.377099547535181046e-03
2.232108078896999359e-02
1.035799831151962280e-02
-9.015610069036483765e-02
2.392722479999065399e-02
-9.338692179881036282e-04
-6.659719347953796387e-02
5.367126315832138062e-02
-1.046176180243492126e-01
-1.467976626008749008e-02
1.662986166775226593e-02
-6.380058825016021729e-02
3.981733322143554688e-02
-6.572299450635910034e-02
-1.717332005500793457e-02
-1.625356450676918030e-02
3.932075574994087219e-02
9.323979169130325317e-02
2.150119841098785400e-02
-3.061565943062305450e-02
2.207436831668019295e-03
-2.936524339020252228e-02
4.927568882703781128e-02
3.274689987301826477e-02
-3.223565220832824707e-02
5.612496659159660339e-02
1.605018600821495056e-02
-1.743532717227935791e-02
-1.102209370583295822e-02
-5.199492722749710083e-02
6.386715918779373169e-03
-7.774925325065851212e-04
-2.623891271650791168e-02
-5.973896011710166931e-02
1.610175706446170807e-02
-5.253168940544128418e-02
-4.846431687474250793e-02
-5.141914263367652893e-02
6.045737117528915405e-02
5.040139704942703247e-02
6.899641454219818115e-02
5.124390125274658203e-02
-4.196136072278022766e-02
6.473045051097869873e-02
5.109393596649169922e-02
1.701325550675392151e-02
-3.269820287823677063e-02
-1.484919339418411255e-02
1.644996553659439087e-02
-1.428132876753807068e-03
5.506008490920066833e-02
-1.905366405844688416e-02
7.717522978782653809e-02
-5.495764315128326416e-02
-1.218417193740606308e-02
-1.750980690121650696e-02
2.538179978728294373e-02
-3.084604442119598389e-02
-3.766341134905815125e-02
5.823665112257003784e-02
-7.683756202459335327e-02
-5.623261258006095886e-02
1.188934594392776489e-02
7.486535608768463135e-02
-2.526644384488463402e-03
-6.165084615349769592e-02
5.712832324206829071e-03
-4.735251888632774353e-02
-6.206290423870086670e-02
4.627206549048423767e-02
9.663901478052139282e-02
1.028675399720668793e-02
1.557272300124168396e-02
-2.475644834339618683e-02
4.926280677318572998e-02
5.305041372776031494e-02
1.810678839683532715e-02
3.244300559163093567e-02
-1.701723318547010422e-03
4.165717400610446930e-04
-7.255730032920837402e-02
-1.721840910613536835e-02
2.321479842066764832e-03
-1.883635856211185455e-02
7.541941851377487183e-02
-5.406411737203598022e-02
4.418379813432693481e-02
5.477100145071744919e-03
-2.123850025236606598e-02
6.448176503181457520e-02
-2.092862874269485474e-02
-9.024780243635177612e-03
-4.158656671643257141e-02
6.893744692206382751e-03
-1.642000116407871246e-02
4.653227701783180237e-02
-7.548294216394424438e-02
-7.292419672012329102e-02
-1.340941432863473892e-02
-4.954396188259124756e-02
-8.787668496370315552e-02
3.989861905574798584e-02
-4.648510832339525223e-03
-2.675121650099754333e-02
-4.260804504156112671e-02
7.109124958515167236e-02
2.292881347239017487e-02
6.501534581184387207e-02
5.179182067513465881e-02
7.515813410282135010e-02
-5.638529732823371887e-02
4.941606894135475159e-02
-5.947759002447128296e-02
-3.436582162976264954e-02
8.115182630717754364e-03
-4.107080399990081787e-02
1.027764985337853432e-03
3.062412142753601074e-02
-1.375516131520271301e-02
-4.776358976960182190e-02
2.403876744210720062e-02
3.891558572649955750e-02
1.783091016113758087e-02
1.979622803628444672e-02
-4.925494268536567688e-02
3.337422758340835571e-02
5.632236599922180176e-02
3.510052338242530823e-02
-3.567505918908864260e-04
6.376776099205017090e-02
-6.674345582723617554e-02
3.802625834941864014e-02
-1.016287971287965775e-02
-2.282200194895267487e-02
-1.015808712691068649e-02
-2.589794248342514038e-02
-4.768058657646179199e-02
-4.387517645955085754e-02
-1.252987235784530640e-02
5.345620447769761086e-04
-6.865417212247848511e-02
4.987904801964759827e-02
7.051014155149459839e-02
-4.927928000688552856e-02
8.366946130990982056e-02
-5.857650563120841980e-02
6.569396704435348511e-03
7.637789472937583923e-03
1.478816103190183640e-02
-6.072181463241577148e-02
6.105821579694747925e-02
9.932751953601837158e-02
5.339694395661354065e-02
-3.704259544610977173e-02
5.272743292152881622e-03
-3.753285482525825500e-02
-5.992935504764318466e-03
-4.770055785775184631e-02
-1.398756541311740875e-02
-4.486111924052238464e-02
-2.098287083208560944e-02
-2.866083011031150818e-02
-7.096718996763229370e-03
-2.748436667025089264e-02
7.860466092824935913e-02
3.606149554252624512e-02
-5.948137026280164719e-03
4.568465799093246460e-02
-5.992271006107330322e-02
5.444047506898641586e-03
4.716287925839424133e-02
1.617259718477725983e-02
-4.053718224167823792e-02
-1.918529160320758820e-02
-4.187040776014328003e-02
-5.354629456996917725e-02
-5.210795998573303223e-02
-3.631946444511413574e-02
7.151100318878889084e-03
-2.248531021177768707e-02
5.335506051778793335e-02
5.736999958753585815e-02
-1.555855665355920792e-02
9.981042146682739258e-02
-4.399979859590530396e-02
1.481396704912185669e-02
-2.685154043138027191e-02
2.812560461461544037e-02
-3.048427961766719818e-02
1.468268968164920807e-02
2.907588519155979156e-02
-4.891971871256828308e-02
4.449522867798805237e-02
2.412667125463485718e-02
-5.262314528226852417e-02
-6.632459163665771484e-02
-4.135938733816146851e-02
5.695424973964691162e-02
-7.637665420770645142e-02
-6.258069723844528198e-02
1.595952734351158142e-02
4.107839986681938171e-02
6.662515550851821899e-02
6.928092241287231445e-02
-4.276095889508724213e-03
-7.637157570570707321e-03
2.728816308081150055e-02
-9.626316279172897339e-02
2.473377250134944916e-02
2.499353513121604919e-02
-3.314788267016410828e-02
3.739300742745399475e-02
-5.987677350640296936e-02
4.754750058054924011e-02
3.133477643132209778e-02
-6.302770227193832397e-02
-7.493028789758682251e-02
-4.772030189633369446e-02
4.431907087564468384e-02
-9.305844432674348354e-04
-4.041341692209243774e-02
3.388398140668869019e-02
3.056717338040471077e-03
-4.420626536011695862e-02
4.172072932124137878e-02
3.236893191933631897e-02
6.325102597475051880e-02
-2.399640902876853943e-02
-2.740664221346378326e-02
-8.799041807651519775e-02
3.368201106786727905e-02
4.118332639336585999e-02
-1.684613712131977081e-02
9.522225707769393921e-02
-7.701066136360168457e-02
-9.511871263384819031e-03
4.530686885118484497e-02
-3.385431692004203796e-02
-3.934417665004730225e-02
4.129861295223236084e-02
-2.086162380874156952e-02
1.569414883852005005e-02
1.000902149826288223e-03
-6.375870108604431152e-02
-3.824615105986595154e-02
-4.281815141439437866e-02
3.852368146181106567e-02
6.328668445348739624e-02
-3.577589616179466248e-02
4.544205218553543091e-02
-1.725452579557895660e-02
4.903150722384452820e-02
2.152939513325691223e-02
3.682563826441764832e-02
4.078967869281768799e-02
-6.793943047523498535e-02
3.628822043538093567e-03
-7.853307574987411499e-02
-5.447612702846527100e-02
-4.156056046485900879e-02
-1.112232729792594910e-02
6.772731989622116089e-02
1.581994630396366119e-02
2.461429871618747711e-02
-1.503889169543981552e-02
7.603091746568679810e-02
3.640737384557723999e-02
2.321178093552589417e-02
-2.744083292782306671e-02
-3.747928887605667114e-03
7.610632479190826416e-02
-3.773766383528709412e-02
-4.909777082502841949e-03
7.423893362283706665e-02
2.407545223832130432e-03
4.672176018357276917e-02
-4.830276593565940857e-02
-9.714569896459579468e-03
-3.219666704535484314e-02
-7.148532569408416748e-02
-8.945938944816589355e-02
-2.322401851415634155e-02
-1.068904809653759003e-02
2.705577574670314789e-02
5.794294923543930054e-02
4.737898241728544235e-03
3.771110624074935913e-02
-3.775619668886065483e-03
3.890367597341537476e-02
4.425664991140365601e-02
3.721316158771514893e-02
6.781522929668426514e-02
5.486216023564338684e-02
8.062487095594406128e-02
3.698828816413879395e-02
-1.665449887514114380e-02
-4.983933642506599426e-03
-7.772219926118850708e-02
6.404122710227966309e-02
-1.838800869882106781e-02
-4.040201380848884583e-02
8.870378881692886353e-02
7.392170280218124390e-02
-3.658065944910049438e-02
-1.966672763228416443e-02
-3.694783430546522141e-03
8.604115247726440430e-02
8.034956641495227814e-03
4.229299724102020264e-02
-6.437812745571136475e-02
1.290325075387954712e-02
-5.756216496229171753e-02
2.055187523365020752e-02
-4.703639820218086243e-02
1.919617690145969391e-02
2.064547501504421234e-02
-3.715573251247406006e-02
-5.805587768554687500e-02
1.616280525922775269e-02
-6.893981248140335083e-02
9.358394145965576172e-02
-8.061048574745655060e-03
3.391414508223533630e-02
-2.972251363098621368e-02
-5.987621843814849854e-02
-5.063582584261894226e-02
3.867447376251220703e-02
-4.707400873303413391e-02
-4.816224798560142517e-03
-4.810426384210586548e-02
6.341621279716491699e-02
4.309076350182294846e-03
-7.518982747569680214e-04
-2.282816357910633087e-02
-6.271460652351379395e-02
8.619455248117446899e-02
4.939997568726539612e-03
2.644662372767925262e-02
6.571807712316513062e-02
3.401346132159233093e-02
-4.509805142879486084e-02
-1.916138641536235809e-02
6.472630798816680908e-02
-4.544078558683395386e-02
-5.895714834332466125e-02
-9.160732850432395935e-03
-8.809021115303039551e-02
-6.194385513663291931e-02
-2.038444951176643372e-02
4.671590868383646011e-03
6.479590386152267456e-02
9.913898259401321411e-02
-5.091309547424316406e-02
7.889293879270553589e-02
9.057976305484771729e-02
5.465102195739746094e-02
2.787742391228675842e-02
-3.082967363297939301e-02
4.860724508762359619e-02
7.886856049299240112e-02
5.943010374903678894e-02
-8.865233976393938065e-04
-2.856277860701084137e-02
-1.456367317587137222e-02
-3.135098889470100403e-02
-9.545081853866577148e-02
5.028263106942176819e-02
-4.882975667715072632e-02
3.181139379739761353e-02
-5.542527139186859131e-02
-2.075285091996192932e-02
4.420844838023185730e-02
6.774095818400382996e-03
8.835168555378913879e-03
5.852933973073959351e-02
3.783905506134033203e-02
4.124229028820991516e-02
2.608015201985836029e-02
4.751389846205711365e-02
1.254985202103853226e-02
2.282462781295180321e-03
2.010088227689266205e-02
-3.546976717188954353e-03
-4.090087115764617920e-02
6.429214030504226685e-02
1.462804432958364487e-02
2.653400599956512451e-02
-7.937264442443847656e-02
2.745555527508258820e-02
-6.669326871633529663e-02
-2.109659090638160706e-02
5.825983732938766479e-02
-3.095683269202709198e-02
2.556289918720722198e-02
-2.156097628176212311e-02
4.731818102300167084e-03
4.239562153816223145e-02
-1.544023491442203522e-02
-1.233413442969322205e-02
-2.211968973278999329e-02
-8.446753025054931641e-02
-5.386317893862724304e-02
-5.142206698656082153e-02
-6.443371623754501343e-02
7.021573185920715332e-02
2.858953550457954407e-02
6.193158030509948730e-02
-3.922744840383529663e-02
7.679456472396850586e-02
5.074701458215713501e-02
-7.833758741617202759e-02
-1.821846701204776764e-02
-4.793119430541992188e-02
-6.377780437469482422e-02
-2.455064095556735992e-03
-2.573704905807971954e-02
5.535094067454338074e-02
-4.027784988284111023e-02
-2.893159352242946625e-02
5.983239039778709412e-02
-2.841951139271259308e-02
6.190581619739532471e-02
3.879019990563392639e-02
-8.515824377536773682e-02
4.861577227711677551e-02
-3.445233404636383057e-02
2.680747956037521362e-02
6.565464287996292114e-02
5.852383747696876526e-02
5.941750854253768921e-02
1.185170985991135240e-04
-2.307385765016078949e-02
2.918051183223724365e-02
-6.038023531436920166e-02
8.209807425737380981e-02
-5.539342015981674194e-02
-2.451092377305030823e-02
3.513568639755249023e-02
4.095297306776046753e-02
9.698748588562011719e-03
7.033697515726089478e-02
3.340047970414161682e-02
5.208950489759445190e-02
8.393886685371398926e-02
3.587542101740837097e-03
3.978442773222923279e-02
1.389313396066427231e-02
-4.665998369455337524e-02
-6.958016008138656616e-02
6.143693253397941589e-02
-5.708943679928779602e-02
9.106140583753585815e-02
5.139371380209922791e-02
-6.960784643888473511e-02
1.705641672015190125e-02
-3.258796781301498413e-02
-4.997323825955390930e-02
-2.567585371434688568e-02
8.268456161022186279e-02
6.000458076596260071e-02
-8.377683162689208984e-02
-4.344420880079269409e-02
2.530311234295368195e-03
5.228217691183090210e-02
-4.365414008498191833e-02
-1.003816798329353333e-01
-1.665133610367774963e-02
-2.699219435453414917e-02
1.609622128307819366e-02
7.923348248004913330e-02
-1.742644794285297394e-02
-6.325634196400642395e-03
5.764637514948844910e-02
-5.639418959617614746e-02
7.652302831411361694e-02
2.100875042378902435e-02
-6.376862525939941406e-02
1.363024674355983734e-02
1.190653443336486816e-02
8.022609353065490723e-02
5.526365712285041809e-02
1.091433465480804443e-01
1.178682520985603333e-01
2.090629003942012787e-02
-9.350299090147018433e-02
9.462255053222179413e-03
-6.271325051784515381e-02
8.189753443002700806e-02
4.336975049227476120e-03
1.178238093852996826e-01
1.094744279980659485e-01
-4.973699897527694702e-02
2.774470485746860504e-02
3.764589130878448486e-02
-1.133487299084663391e-01
8.765530586242675781e-02
5.225672945380210876e-02
-6.061036884784698486e-02
1.474768109619617462e-02
2.735002338886260986e-02
2.185366302728652954e-02
-2.560560032725334167e-02
-2.725846134126186371e-03
-4.406800027936697006e-03
-1.230658218264579773e-01
-1.611036807298660278e-01
2.319542132318019867e-02
3.816619887948036194e-02
3.766979649662971497e-02
-3.664405643939971924e-02
3.585461899638175964e-02
4.824727401137351990e-02
2.618449507281184196e-03
1.948385313153266907e-02
-4.265680536627769470e-02
6.966166198253631592e-02
7.035931944847106934e-02
-5.902956798672676086e-02
-5.999468639492988586e-02
-4.161223024129867554e-02
4.536353424191474915e-02
-9.861456602811813354e-02
-3.311287611722946167e-02
-1.074272468686103821e-01
2.852340601384639740e-02
2.490111067891120911e-02
-4.883060604333877563e-02
9.529845416545867920e-02
3.991680219769477844e-02
-1.145411059260368347e-01
6.017117574810981750e-02
2.285457029938697815e-02
-1.088244654238224030e-02
-9.278509765863418579e-03
-6.489416956901550293e-02
-4.754922818392515182e-03
-1.175632234662771225e-02
-1.935933344066143036e-02
8.024324476718902588e-02
6.770890206098556519e-02
1.362891495227813721e-01
8.344765752553939819e-03
7.611774653196334839e-02
-5.040170997381210327e-02
-6.788244843482971191e-02
4.664387926459312439e-02
2.272665873169898987e-02
-2.051685191690921783e-02
3.643405437469482422e-02
-1.118984967470169067e-01
-8.026496320962905884e-02
-1.160503700375556946e-01
7.235369412228465080e-04
6.814753264188766479e-02
-5.710733309388160706e-02
-1.578717231750488281e-01
-2.670843526721000671e-02
-2.171180956065654755e-02
-2.117337472736835480e-02
-1.402556989341974258e-02
2.805435657501220703e-02
3.293273597955703735e-02
-2.960764802992343903e-02
-4.755150154232978821e-02
6.077898293733596802e-02
-1.417939364910125732e-02
3.176211565732955933e-02
-1.533772330731153488e-03
-8.000076562166213989e-02
-3.081833012402057648e-02
-3.751775249838829041e-02
1.022469135932624340e-03
-4.730325192213058472e-02
-5.936050415039062500e-02
7.959746569395065308e-02
2.513252012431621552e-02
4.522300511598587036e-02
7.752460986375808716e-02
-9.013030678033828735e-02
-7.765460014343261719e-02
-3.341208398342132568e-02
-5.482138134539127350e-03
6.098893657326698303e-02
4.336427152156829834e-02
-9.386966377496719360e-02
3.743252018466591835e-03
-1.410393863916397095e-01
1.467282231897115707e-02
5.652286484837532043e-02
8.488415181636810303e-02
1.398162543773651123e-01
-1.039674356579780579e-01
5.920099839568138123e-02
1.860165782272815704e-02
-8.566919714212417603e-02
5.009116604924201965e-03
-2.084952965378761292e-02
-5.630711838603019714e-02
-6.588162481784820557e-02
-9.383058547973632812e-02
-1.261625159531831741e-02
-9.778419137001037598e-02
-4.802098125219345093e-02
1.201591640710830688e-01
-6.665059924125671387e-02
-2.343437075614929199e-02
-3.782318672165274620e-03
-6.544210761785507202e-02
7.800357416272163391e-03
-1.708519831299781799e-02
-4.958880320191383362e-02
1.770011186599731445e-01
-3.136990219354629517e-02
1.697191596031188965e-02
-2.453828416764736176e-02
-5.469049513339996338e-02
1.017324160784482956e-02
7.899562269449234009e-02
-4.354203585535287857e-03
-1.026969626545906067e-01
-2.870889753103256226e-02
-1.088030710816383362e-01
5.090949311852455139e-02
-1.925814710557460785e-02
6.355435401201248169e-02
5.419590696692466736e-02
1.031931191682815552e-01
-4.353313520550727844e-02
-6.556325405836105347e-02
1.169380266219377518e-02
-5.595151707530021667e-02
6.120726838707923889e-02
4.627657309174537659e-02
-1.977077312767505646e-02
-1.427476201206445694e-02
4.151790589094161987e-02
4.235967248678207397e-02
1.617411337792873383e-02
6.675415486097335815e-02
1.133773699402809143e-01
5.955873802304267883e-02
-1.166968140751123428e-02
-3.097363747656345367e-02
-5.199420452117919922e-02
-8.155702799558639526e-02
1.461288798600435257e-02
-8.159324526786804199e-02
8.860046416521072388e-02
-2.994204685091972351e-02
-4.906844720244407654e-02
-4.674547910690307617e-02
1.334650907665491104e-02
-2.152267470955848694e-02
6.663174927234649658e-02
-9.324003010988235474e-02
-4.839257150888442993e-02
-5.808934941887855530e-02
-8.176723122596740723e-02
7.130692154169082642e-02
-7.888228446245193481e-02
1.365887187421321869e-02
4.412646964192390442e-02
-7.640121132135391235e-02
-5.339059606194496155e-02
-3.194253426045179367e-03
-7.999696582555770874e-02
-4.569149762392044067e-02
6.658750027418136597e-02
1.884612441062927246e-02
-1.264642807655036449e-03
5.011207610368728638e-02
-4.747037589550018311e-02
-2.722445502877235413e-02
-1.054290533065795898e-01
6.056921184062957764e-02
-3.072530589997768402e-02
3.703719377517700195e-02
8.380806446075439453e-02
-6.585150957107543945e-02
-9.991323947906494141e-02
-2.209128253161907196e-02
1.226407811045646667e-01
-4.054492712020874023e-02
-4.835466854274272919e-03
-4.409562051296234131e-02
6.937237083911895752e-02
1.187641639262437820e-02
-4.695755988359451294e-02
1.072328016161918640e-01
-1.173690240830183029e-02
8.848608285188674927e-02
2.608466427773237228e-03
6.701643764972686768e-02
-7.082813978195190430e-02
-9.262949973344802856e-02
3.836063668131828308e-02
-3.129830583930015564e-02
-2.610612474381923676e-02
-5.816452577710151672e-02
2.445436827838420868e-02
4.303515702486038208e-02
-4.339848086237907410e-02
5.683269351720809937e-02
-3.687815368175506592e-02
-3.156103938817977905e-02
-1.560053676366806030e-01
4.039324447512626648e-02
-1.965879835188388824e-02
1.055023819208145142e-02
-6.728985160589218140e-02
1.481950748711824417e-02
3.725250437855720520e-02
5.556149408221244812e-03
-9.079038351774215698e-02
-5.020800232887268066e-02
-7.382381707429885864e-02
2.414916828274726868e-02
-1.508188154548406601e-02
-7.236123085021972656e-02
-2.059670910239219666e-02
-2.790018357336521149e-02
-4.242537170648574829e-02
3.917952999472618103e-02
-7.097310572862625122e-02
5.950160697102546692e-02
-3.444652259349822998e-02
-6.820012629032135010e-02
8.803981542587280273e-02
-1.086351927369832993e-02
2.186147309839725494e-02
-1.918576657772064209e-02
6.798292696475982666e-02
-4.413169343024492264e-03
-4.968125373125076294e-02
-1.326607465744018555e-01
1.998701877892017365e-02
-1.614834219217300415e-01
-3.370617702603340149e-02
-1.222509332001209259e-02
9.856006503105163574e-02
1.061165258288383484e-01
-7.003878802061080933e-02
-4.424124583601951599e-02
-4.914240166544914246e-02
-1.194518953561782837e-01
-2.781275473535060883e-02
-7.241374813020229340e-03
7.026012241840362549e-02
-2.330365590751171112e-02
-4.923425242304801941e-02
-4.075465723872184753e-02
-2.844243124127388000e-02
1.395067013800144196e-02
8.656230568885803223e-02
-2.548364363610744476e-02
-2.099478431046009064e-02
1.668643392622470856e-02
-4.811616986989974976e-02
6.018496304750442505e-02
2.791746333241462708e-02
6.652431935071945190e-02
1.048570573329925537e-01
8.289885707199573517e-03
-1.444834924768656492e-04
-3.025872074067592621e-02
-8.105906844139099121e-02
-3.516013547778129578e-02
-1.204689312726259232e-02
-8.339723944664001465e-02
-7.376521825790405273e-02
-6.891650706529617310e-02
9.850108064711093903e-03
-4.797989502549171448e-02
-1.188453286886215210e-02
1.006992906332015991e-02
-6.765148136764764786e-03
1.093840226531028748e-02
-5.652682483196258545e-02
-7.086005061864852905e-02
-9.644974023103713989e-02
-1.745665632188320160e-02
4.193361476063728333e-02
-4.024225100874900818e-02
1.061033159494400024e-01
-5.605365335941314697e-02
1.150266677141189575e-01
4.870586842298507690e-02
-2.249334752559661865e-02
1.311264745891094208e-02
2.278723381459712982e-02
2.615950442850589752e-02
-1.270020604133605957e-01
-3.818573802709579468e-02
-6.440185755491256714e-02
-1.220869943499565125e-01
7.170401513576507568e-02
3.871487826108932495e-02
-6.179470568895339966e-02
-1.691907644271850586e-02
-4.186381399631500244e-02
-5.627696961164474487e-02
4.136675968766212463e-02
7.361765950918197632e-02
-3.478936478495597839e-02
2.030178904533386230e-02
-8.995318412780761719e-02
-6.399436295032501221e-02
-1.442125253379344940e-02
-2.782162651419639587e-02
2.784432657063007355e-02
2.544528432190418243e-02
4.873587563633918762e-02
-7.217391580343246460e-02
-2.546391077339649200e-02
4.540947079658508301e-02
2.724608592689037323e-02
3.692451491951942444e-02
1.072290539741516113e-01
2.188046462833881378e-02
-5.291489884257316589e-02
-2.937166020274162292e-02
8.649915456771850586e-02
5.697485539712943137e-05
-3.070265240967273712e-02
-4.683811590075492859e-02
2.116420492529869080e-02
-4.050289839506149292e-02
6.937280297279357910e-02
4.079723730683326721e-02
-8.641693741083145142e-02
7.595852762460708618e-02
8.566253632307052612e-02
2.915746904909610748e-02
-4.354992881417274475e-02
-2.885404601693153381e-02
-1.682326383888721466e-02
-1.168748550117015839e-02
4.165305569767951965e-02
-2.065709047019481659e-02
-6.733811460435390472e-03
-5.039731506258249283e-03
-7.099734619259834290e-03
9.871256351470947266e-02
-3.812976926565170288e-02
-1.839945763349533081e-01
9.044194221496582031e-02
-1.128623262047767639e-01
9.896113723516464233e-02
8.579783141613006592e-03
-4.490475729107856750e-02
-3.691563382744789124e-02
-5.187906697392463684e-02
5.241479724645614624e-02
8.755269646644592285e-02
-4.861317202448844910e-02
-1.736619919538497925e-01
3.000988811254501343e-02
-7.060383260250091553e-02
-3.002456948161125183e-02
-2.685082890093326569e-02
3.247319255024194717e-03
4.258062317967414856e-02
-3.040662594139575958e-02
-9.391852468252182007e-02
-3.511161357164382935e-02
-5.500371381640434265e-02
3.790478780865669250e-02
-8.991682901978492737e-03
1.206070650368928909e-02
-1.039575189352035522e-01
8.604889735579490662e-03
1.211363226175308228e-01
8.049995452165603638e-02
-1.392277074046432972e-03
6.754969060420989990e-02
7.260133512318134308e-03
9.528321027755737305e-02
-7.393980771303176880e-02
4.785970598459243774e-02
-9.657900664024055004e-04
-2.424365608021616936e-03
6.871151924133300781e-02
1.123357638716697693e-01
7.325562834739685059e-02
-1.000521555542945862e-01
-1.093515474349260330e-02
-8.640816062688827515e-02
9.865219704806804657e-03
1.509411074221134186e-02
1.081922426819801331e-01
1.545560359954833984e-02
-6.591894663870334625e-03
2.842848002910614014e-02
3.276622295379638672e-02
-6.136782467365264893e-02
-4.226360842585563660e-02
-1.233460828661918640e-01
1.009570527821779251e-02
3.366823121905326843e-02
-4.664576798677444458e-02
5.529380217194557190e-02
-4.670038819313049316e-02
-1.340078562498092651e-02
1.098641902208328247e-01
-2.860349602997303009e-02
-4.683733358979225159e-02
-4.560432583093643188e-02
-2.423142269253730774e-02
2.286317013204097748e-02
-4.201976954936981201e-02
-5.695638433098793030e-02
-8.718566969037055969e-03
-7.902164757251739502e-02
-3.066886775195598602e-02
4.443695768713951111e-02
-7.760042697191238403e-02
4.442627355456352234e-02
2.853247337043285370e-02
3.598648309707641602e-02
-9.176119416952133179e-02
-7.607452571392059326e-02
8.568629622459411621e-02
6.835074722766876221e-02
4.316090419888496399e-02
1.635730150155723095e-04
-4.534263163805007935e-02
1.572468318045139313e-02
-8.474984206259250641e-03
-6.084168329834938049e-02
-1.037180125713348389e-01
5.741178244352340698e-02
-1.035830751061439514e-02
4.458361119031906128e-02
-5.281081423163414001e-02
-7.457534968852996826e-02
-9.614486992359161377e-02
-4.420650005340576172e-02
2.858513034880161285e-02
4.470888152718544006e-02
-3.633760288357734680e-02
4.677122458815574646e-02
-7.075458765029907227e-02
7.790841162204742432e-02
-1.590837165713310242e-02
7.066557556390762329e-02
-4.238311666995286942e-03
3.187903761863708496e-02
2.455112338066101074e-02
5.948318913578987122e-02
-1.301873475313186646e-02
1.674801558256149292e-01
1.051632314920425415e-01
1.357173919677734375e-02
4.024071618914604187e-02
-6.266475468873977661e-02
-5.537915229797363281e-02
-9.744221717119216919e-02
-4.540501162409782410e-02
6.698022782802581787e-02
3.718569129705429077e-02
3.238672763109207153e-02
-7.304870337247848511e-02
5.438387393951416016e-02
3.312910906970500946e-03
-9.818164631724357605e-03
-3.974531590938568115e-02
-3.052489273250102997e-02
-1.780664175748825073e-02
-7.549189776182174683e-02
9.821158647537231445e-02
-6.640703231096267700e-02
-4.707938805222511292e-02
-6.526595354080200195e-02
9.710877202451229095e-03
-1.118825562298297882e-02
6.148580089211463928e-02
2.427325025200843811e-02
1.228813920170068741e-02
-4.751211777329444885e-02
-7.593780755996704102e-02
7.041092496365308762e-03
-3.480125591158866882e-02
-3.844040632247924805e-02
-6.096290796995162964e-02
-5.646106600761413574e-02
-5.238841474056243896e-02
3.781213611364364624e-02
6.788186728954315186e-02
6.843692064285278320e-02
2.664855122566223145e-02
-4.376923292875289917e-02
-3.586535528302192688e-02
9.097708016633987427e-02
-3.722817078232765198e-02
1.520397141575813293e-02
7.237618416547775269e-02
2.778859436511993408e-02
-5.358275026082992554e-02
7.826066017150878906e-02
6.983392685651779175e-02
6.227058544754981995e-02
6.088927760720252991e-02
4.953862354159355164e-02
3.463100641965866089e-02
-4.739768803119659424e-02
-2.252319827675819397e-02
-6.309083104133605957e-02
-7.642235606908798218e-02
-1.777020096778869629e-02
-6.232692301273345947e-02
7.350487262010574341e-02
5.327999964356422424e-02
1.410034671425819397e-02
-1.896281912922859192e-02
-3.729164600372314453e-02
-8.532066131010651588e-04
4.217769950628280640e-02
5.868125706911087036e-02
-1.515470724552869797e-02
6.751688197255134583e-03
-1.993553899228572845e-02
-1.946287602186203003e-02
1.672105491161346436e-02
-5.074197053909301758e-02
5.723937600851058960e-02
4.148478619754314423e-03
-4.216071963310241699e-02
4.187214002013206482e-02
-1.052728015929460526e-02
-3.125432133674621582e-02
5.422529578208923340e-02
-4.504451155662536621e-02
-5.712691228836774826e-03
3.791444748640060425e-02
-1.487098541110754013e-02
-3.647922351956367493e-02
-1.096249558031558990e-03
-1.225475221872329712e-02
-3.735254984349012375e-03
6.095261499285697937e-02
-2.039158716797828674e-02
-1.005206927657127380e-01
-5.502512305974960327e-02
-7.022470980882644653e-02
3.480049967765808105e-02
-5.258281156420707703e-02
-2.392456121742725372e-02
-8.465161919593811035e-02
2.238616161048412323e-02
-7.956122979521751404e-03
5.345571786165237427e-02
7.306800037622451782e-02
-5.126098543405532837e-02
-8.551459759473800659e-02
-6.785218417644500732e-02
-6.490093469619750977e-02
-8.731652051210403442e-02
4.436432197690010071e-02
-4.574035853147506714e-02
2.535858750343322754e-02
2.106561511754989624e-02
4.242092743515968323e-02
7.814637571573257446e-02
8.559317793697118759e-04
2.940431050956249237e-02
-1.199346594512462616e-02
4.723364487290382385e-02
-1.918392628431320190e-02
2.753455750644207001e-02
-5.190376564860343933e-02
1.608943566679954529e-02
4.582066088914871216e-02
4.455978050827980042e-03
-2.626096084713935852e-02
1.715283654630184174e-02
1.426016632467508316e-02
1.757639646530151367e-02
-3.976295143365859985e-02
-2.413636818528175354e-02
-1.515601295977830887e-02
-7.305328547954559326e-02
-1.237700507044792175e-02
-5.345031619071960449e-02
1.297146920114755630e-02
-6.003545224666595459e-02
-6.519546359777450562e-02
3.517410159111022949e-02
-1.167082134634256363e-02
-1.749642193317413330e-02
4.173328354954719543e-02
5.868329852819442749e-02
7.304524537175893784e-03
2.306599169969558716e-02
-8.854742348194122314e-02
4.185815900564193726e-02
3.244247753173112869e-03
5.785661935806274414e-02
6.118592992424964905e-02
-5.228187888860702515e-02
-5.703098699450492859e-02
5.621362850069999695e-02
8.927591890096664429e-02
9.418039582669734955e-03
8.204068988561630249e-03
-1.803966797888278961e-02
-8.813733607530593872e-02
-7.530172169208526611e-02
-3.014331683516502380e-02
4.452965513337403536e-04
-3.703704848885536194e-02
6.396742165088653564e-02
-5.121208727359771729e-02
7.465475052595138550e-02
5.057592317461967468e-02
-8.562555164098739624e-02
3.381302952766418457e-02
-6.683303415775299072e-02
-4.119503498077392578e-02
-3.805182874202728271e-02
7.062337547540664673e-02
-2.117291279137134552e-02
2.029974758625030518e-02
-3.242114558815956116e-02
-4.796190652996301651e-03
-5.522817000746726990e-02
-2.477324753999710083e-02
-4.667918011546134949e-02
5.530566722154617310e-02
1.365715451538562775e-02
1.515165320597589016e-03
5.159628763794898987e-02
4.723577946424484253e-02
6.672180444002151489e-02
-5.528036877512931824e-02
-3.721811249852180481e-02
-5.180344358086585999e-02
2.449051290750503540e-02
2.146067284047603607e-02
-1.071943063288927078e-02
2.096184529364109039e-02
4.277098923921585083e-02
-7.253035157918930054e-02
-4.063144326210021973e-02
-4.381529986858367920e-02
1.837813481688499451e-02
-2.942301891744136810e-02
2.985121449455618858e-03
5.601394176483154297e-02
-5.328923836350440979e-02
3.790204226970672607e-02
-1.491467468440532684e-02
4.038327932357788086e-02
-1.075046733021736145e-01
-6.697209924459457397e-02
6.491844356060028076e-02
-1.042818054556846619e-01
1.967485994100570679e-02
3.164463490247726440e-02
-2.367792278528213501e-02
2.192621032008901238e-04
-1.984239742159843445e-02
-4.403773322701454163e-02
1.075248867273330688e-01
-3.239218145608901978e-03
3.959369286894798279e-02
-2.722459612414240837e-03
7.370474189519882202e-02
-4.317036643624305725e-02
2.129161544144153595e-02
-6.913337856531143188e-02
-2.569938637316226959e-02
-8.380195125937461853e-03
5.821687728166580200e-02
-2.673239447176456451e-02
-5.796593148261308670e-03
8.871708996593952179e-03
-3.764061257243156433e-02
1.288740802556276321e-02
4.199635982513427734e-02
-3.912241011857986450e-02
3.129576146602630615e-02
-7.799117593094706535e-04
2.613420598208904266e-02
-7.977707311511039734e-03
4.994475096464157104e-02
-4.817439243197441101e-02
-2.597560361027717590e-02
-8.723680861294269562e-03
6.488119065761566162e-02
-1.382930390536785126e-02
6.214373931288719177e-02
-1.005966663360595703e-01
6.925749778747558594e-02
-7.023539394140243530e-02
6.808900088071823120e-02
7.821839302778244019e-02
-4.742136970162391663e-02
-5.580577626824378967e-02
8.299894630908966064e-02
1.005113348364830017e-01
2.823406644165515900e-02
1.070639025419950485e-02
-4.997558519244194031e-02
-6.838832050561904907e-02
4.149945825338363647e-02
-5.630801245570182800e-02
1.530388183891773224e-02
-1.811483316123485565e-02
1.703946478664875031e-02
1.206481643021106720e-02
6.363674253225326538e-02
3.167297318577766418e-02
1.931200176477432251e-02
-5.410555377602577209e-02
3.353145718574523926e-02
7.681785523891448975e-02
1.812154799699783325e-02
8.861321955919265747e-02
-5.032227933406829834e-02
2.932686731219291687e-02
-5.599474161863327026e-02
1.540202181786298752e-02
-2.295918017625808716e-02
3.445450216531753540e-02
-5.214714258909225464e-02
1.286708749830722809e-03
2.464200742542743683e-02
1.214405428618192673e-02
-3.005609288811683655e-02
-4.778328165411949158e-02
-6.034678965806961060e-02
3.815844887867569923e-03
6.833834922872483730e-04
2.813426591455936432e-02
-1.388579607009887695e-02
-2.038972743321210146e-04
-3.633850067853927612e-02
5.470309406518936157e-02
8.492361754179000854e-02
3.144304826855659485e-02
-1.786220632493495941e-02
4.845466464757919312e-02
2.523176837712526321e-03
-4.893540963530540466e-02
6.078699231147766113e-02
-3.554333746433258057e-02
3.451229631900787354e-02
6.153880432248115540e-02
-1.908881776034832001e-02
4.662780556827783585e-03
1.004411950707435608e-01
1.049402803182601929e-01
4.062873125076293945e-02
-1.728443987667560577e-02
-4.968782514333724976e-02
2.041700296103954315e-02
-6.358776986598968506e-02
-2.377728372812271118e-02
-1.384953968226909637e-02
4.927118495106697083e-02
-5.821313709020614624e-02
2.565957792103290558e-02
8.735671639442443848e-03
-7.857178896665573120e-02
3.278596326708793640e-02
-4.243295267224311829e-02
4.391895607113838196e-02
4.907833784818649292e-02
3.566209599375724792e-02
1.023566573858261108e-01
2.229002863168716431e-02
1.548518333584070206e-02
5.938772484660148621e-02
-5.684079229831695557e-02
-2.119804173707962036e-02
-1.804770529270172119e-02
4.929827060550451279e-03
-1.825784891843795776e-02
-2.124385535717010498e-02
-3.558640927076339722e-02
-6.429360713809728622e-03
8.332136273384094238e-02
3.310187533497810364e-02
-5.308688059449195862e-02
9.507391601800918579e-03
3.992259502410888672e-03
2.251861058175563812e-02
2.772085554897785187e-02
8.345337212085723877e-02
-8.064684271812438965e-02
5.780718289315700531e-03
2.864240668714046478e-02
1.589755900204181671e-02
-7.434500753879547119e-02
9.544922970235347748e-03
6.735313218086957932e-03
3.088595112785696983e-03
-3.580819070339202881e-02
-4.827552288770675659e-02
1.371382363140583038e-02
8.214122802019119263e-02
-6.993410643190145493e-03
-1.094445958733558655e-02
-5.665700882673263550e-02
8.420721441507339478e-02
-1.122414618730545044e-01
-2.769739367067813873e-02
4.420168697834014893e-03
-3.072222881019115448e-02
-6.129761785268783569e-02
9.051696956157684326e-02
4.666413646191358566e-03
-1.643790863454341888e-02
5.574928945861756802e-04
1.222569867968559265e-02
3.059126064181327820e-02
5.001183971762657166e-02
-5.461183190345764160e-02
-2.860041335225105286e-02
6.967628002166748047e-02
4.698915779590606689e-02
2.564587071537971497e-02
4.783615842461585999e-02
4.336344543844461441e-03
-2.306570857763290405e-02
2.963327802717685699e-02
9.637000970542430878e-03
-4.102912545204162598e-02
-2.152420207858085632e-02
-1.728247036226093769e-03
-1.537537574768066406e-02
-2.276972122490406036e-02
2.947649173438549042e-02
2.386028505861759186e-02
3.842133283615112305e-02
3.073226660490036011e-02
4.163895209785550833e-04
-3.069985285401344299e-02
6.655117124319076538e-02
1.999816857278347015e-02
5.979130044579505920e-02
-8.022048324346542358e-02
8.189056813716888428e-02
-9.551160782575607300e-02
7.504612207412719727e-02
-5.206060037016868591e-02
5.106823518872261047e-02
-1.047292025759816170e-03
3.758400678634643555e-02
-4.562208801507949829e-02
1.599334366619586945e-02
-5.267919227480888367e-02
-4.120495542883872986e-02
4.185359925031661987e-03
3.985410183668136597e-02
2.281411737203598022e-02
-4.024484660476446152e-04
-8.438601158559322357e-03
-4.780291765928268433e-02
1.082742959260940552e-02
6.330445408821105957e-02
2.022551186382770538e-02
5.194895714521408081e-02
-4.011833295226097107e-02
-3.057632222771644592e-02
-1.619118079543113708e-02
-7.406043261289596558e-02
5.651671066880226135e-02
1.150034926831722260e-02
4.721983149647712708e-02
-5.706392973661422729e-02
2.169176377356052399e-02
-1.701321080327033997e-02
6.034060567617416382e-02
1.021093968302011490e-02
-9.143492579460144043e-02
2.599733695387840271e-02
1.581157743930816650e-02
-2.444546297192573547e-02
2.836789004504680634e-02
-2.197211794555187225e-02
1.455732993781566620e-02
7.692594826221466064e-02
-1.361644081771373749e-02
-3.934738785028457642e-02
-1.900383830070495605e-02
4.566786065697669983e-02
6.592290103435516357e-02
1.734679378569126129e-02
4.257902875542640686e-02
6.026303023099899292e-02
3.507050499320030212e-02
-3.106222115457057953e-02
3.664527833461761475e-02
4.527316987514495850e-02
1.696910150349140167e-02
-8.565017580986022949e-02
4.075458645820617676e-02
6.396143883466720581e-02
1.967886928468942642e-03
4.066258296370506287e-02
-3.826157422736287117e-03
-3.296196460723876953e-02
-3.010702319443225861e-02
-3.136656060814857483e-02
4.074006900191307068e-02
1.062401919625699520e-03
-1.671180874109268188e-02
3.645900264382362366e-02
-6.124271452426910400e-02
3.185762837529182434e-02
-4.956044256687164307e-02
6.704764813184738159e-02
3.132111579179763794e-02
-1.862121559679508209e-02
1.307481899857521057e-03
2.160382829606533051e-02
-5.174369737505912781e-02
-4.117314517498016357e-02
-6.579343229532241821e-02
7.930405437946319580e-03
5.834791064262390137e-02
-1.966787269338965416e-03
-4.205517470836639404e-02
-1.968384534120559692e-02
-4.460005089640617371e-03
-1.810987107455730438e-02
1.974418386816978455e-02
2.447146980557590723e-04
1.719730161130428314e-02
4.347665980458259583e-02
-4.415423423051834106e-02
-6.436406821012496948e-02
6.634552031755447388e-02
1.811393350362777710e-02
-4.308457951992750168e-03
-4.698532819747924805e-02
4.783036187291145325e-02
1.570204272866249084e-02
-3.249868983402848244e-03
-3.984314948320388794e-02
-3.481522435322403908e-03
8.207231760025024414e-02
4.315759241580963135e-02
5.733235180377960205e-02
-1.894401572644710541e-02
4.281716793775558472e-02
7.325486280024051666e-03
5.253010988235473633e-02
9.008787572383880615e-02
5.166518501937389374e-03
1.453295052051544189e-01
-6.975265592336654663e-02
-7.453299313783645630e-02
-2.802239730954170227e-02
6.818941328674554825e-03
2.253907360136508942e-02
-8.152249455451965332e-02
6.387831270694732666e-02
8.213859796524047852e-02
-1.098819822072982788e-02
7.342669996432960033e-04
1.473481650464236736e-03
2.174827083945274353e-02
9.782000444829463959e-03
-2.576464228332042694e-02
5.778878554701805115e-02
-4.496573284268379211e-02
2.995153144001960754e-02
-4.084770381450653076e-02
6.655166856944561005e-03
-4.715493693947792053e-02
-1.314425002783536911e-02
-8.527063578367233276e-02
1.351386122405529022e-02
-1.316743064671754837e-02
-3.711250424385070801e-02
-4.284764453768730164e-02
-4.892836883664131165e-02
-2.111289463937282562e-02
4.169413074851036072e-02
-1.882760971784591675e-02
3.148619085550308228e-02
-2.777879312634468079e-02
2.017970383167266846e-01
-2.559620514512062073e-02
4.333196952939033508e-02
4.829497076570987701e-03
8.683836460113525391e-02
-2.354039065539836884e-02
2.844381332397460938e-02
-6.776076555252075195e-02
1.104768458753824234e-02
-6.671594455838203430e-04
4.543862491846084595e-02
-5.315152555704116821e-02
-6.701863557100296021e-02
-1.365008298307657242e-02
1.618544571101665497e-02
8.630038239061832428e-03
1.255095005035400391e-01
2.223151177167892456e-01
-4.660839214920997620e-02
-1.858887076377868652e-02
-1.027517765760421753e-02
-2.755624242126941681e-03
-9.590453654527664185e-02
-4.497917369008064270e-02
3.657433390617370605e-02
5.106808245182037354e-02
7.868964225053787231e-02
-1.976444758474826813e-02
9.244156628847122192e-02
-5.291034653782844543e-02
3.133363649249076843e-02
7.419377565383911133e-02
-7.229156047105789185e-02
-3.820108540821820498e-04
-8.375903218984603882e-02
4.919915273785591125e-02
1.995393447577953339e-02
-3.255260363221168518e-02
-3.449384123086929321e-02
-1.656319946050643921e-02
-8.576498180627822876e-02
3.434274112805724144e-03
-5.438869446516036987e-02
2.145722974091768265e-03
-3.379592671990394592e-02
6.321407109498977661e-02
-1.856617070734500885e-02
6.689675152301788330e-02
8.740111254155635834e-03
4.713634029030799866e-02
-2.998663112521171570e-02
1.173948496580123901e-01
-1.588934659957885742e-02
1.681846380233764648e-02
-5.825794488191604614e-02
-2.888220176100730896e-02
2.310189418494701385e-02
-6.250147521495819092e-02
-3.301845118403434753e-02
2.663215622305870056e-02
-1.498717069625854492e-02
-2.189737372100353241e-02
3.321852162480354309e-02
5.626137927174568176e-02
2.072754129767417908e-02
6.813754793256521225e-03
-4.647673666477203369e-02
1.991418749094009399e-02
-2.505041658878326416e-03
-2.668346278369426727e-02
-1.910394430160522461e-02
8.608282357454299927e-02
-4.493027180433273315e-02
-9.636145830154418945e-02
-1.424974296241998672e-02
-2.532953629270195961e-03
-2.095220983028411865e-02
-1.364136580377817154e-02
-1.142092049121856689e-02
-5.541057512164115906e-02
-2.593277022242546082e-02
3.235289081931114197e-02
5.295896157622337341e-02
2.041120268404483795e-02
-1.137971412390470505e-02
-1.494766026735305786e-02
1.593407429754734039e-02
-4.569686949253082275e-02
5.914691835641860962e-02
1.302952412515878677e-02
6.749324500560760498e-02
4.942516237497329712e-02
1.771641150116920471e-02
7.720825728029012680e-03
8.837751112878322601e-03
1.476785982958972454e-03
-6.725230067968368530e-02
4.646199196577072144e-02
3.518425673246383667e-02
-4.612034186720848083e-02
1.120225414633750916e-01
7.120801508426666260e-02
6.460551172494888306e-03
-5.624845623970031738e-02
-1.092182751744985580e-02
-2.822780748829245567e-03
-4.239151999354362488e-02
1.410824526101350784e-02
-7.438665255904197693e-03
-7.738594710826873779e-02
-8.682282641530036926e-03
-3.011108189821243286e-02
3.449197858572006226e-02
2.534123323857784271e-02
-3.792673721909523010e-02
7.371194660663604736e-02
9.031723439693450928e-02
6.713399291038513184e-02
3.923513367772102356e-02
2.466623112559318542e-02
3.700178489089012146e-02
2.625978318974375725e-03
5.813457071781158447e-03
3.601908683776855469e-03
-1.906873844563961029e-02
5.664602667093276978e-02
5.248812958598136902e-02
6.420217454433441162e-02
5.891007184982299805e-02
2.766256034374237061e-02
1.638609357178211212e-02
1.398224267177283764e-04
1.108835916966199875e-02
4.301329329609870911e-02
-1.992753706872463226e-02
-1.962384767830371857e-02
4.505340941250324249e-03
-7.284483872354030609e-03
-1.541778910905122757e-02
-6.115344166755676270e-02
-4.039335995912551880e-02
3.475150465965270996e-02
-9.080231189727783203e-03
-2.403910085558891296e-02
1.483812183141708374e-02
-4.300628229975700378e-02
-2.882586233317852020e-02
-3.248358517885208130e-02
-1.132975611835718155e-02
-1.302947569638490677e-02
7.129851728677749634e-02
5.444168299436569214e-02
-1.310542109422385693e-03
3.261803835630416870e-02
4.474481567740440369e-02
-6.636950373649597168e-02
4.250279627740383148e-03
3.066544607281684875e-02
3.367995098233222961e-02
-8.909200876951217651e-02
7.393656671047210693e-02
-3.728194534778594971e-02
4.092984367161989212e-03
-2.992612309753894806e-02
-9.997372515499591827e-03
6.733732670545578003e-02
1.343679130077362061e-01
2.108015585690736771e-03
1.944657228887081146e-02
-6.293355673551559448e-02
-2.591620199382305145e-02
3.334770724177360535e-02
-6.781620532274246216e-02
-3.565718419849872589e-03
4.746781662106513977e-02
8.380487561225891113e-03
6.385680753737688065e-03
-3.866308555006980896e-02
9.264535456895828247e-02
-1.270313281565904617e-02
-1.531626749783754349e-02
-2.148140408098697662e-02
-8.174711465835571289e-02
-5.358585342764854431e-02
-3.536667674779891968e-02
6.904781609773635864e-02
-4.830674454569816589e-02
-4.447111487388610840e-02
3.772453218698501587e-02
-9.534769505262374878e-02
7.392753381282091141e-03
-6.401436775922775269e-02
-1.338935922831296921e-02
1.845604367554187775e-02
2.913331426680088043e-02
7.702343910932540894e-02
-2.140553109347820282e-02
2.309696748852729797e-02
1.562487147748470306e-02
-2.141643315553665161e-02
4.319366440176963806e-02
-3.463899949565529823e-03
6.096234172582626343e-02
-3.192362142726778984e-03
-2.555382438004016876e-02
-1.754475757479667664e-02
5.238492507487535477e-03
-6.372148543596267700e-02
-4.295213893055915833e-02
-4.047619551420211792e-02
-1.636536978185176849e-02
-2.280565537512302399e-02
-4.360342025756835938e-02
6.331147998571395874e-02
1.338558085262775421e-02
1.561152748763561249e-02
-1.066651791334152222e-01
5.053828656673431396e-02
6.363984430208802223e-04
7.847569137811660767e-02
1.877080090343952179e-02
-1.291219890117645264e-02
7.562846690416336060e-02
-3.085169754922389984e-02
4.420441575348377228e-03
-3.053735475987195969e-03
-4.626338556408882141e-02
4.806771874427795410e-02
5.370148271322250366e-02
6.282992195338010788e-03
-3.490202128887176514e-02
3.466879203915596008e-02
2.710405737161636353e-02
-8.906540274620056152e-02
2.156792208552360535e-02
-1.226112768054008484e-01
1.370489248074591160e-03
7.588446140289306641e-02
8.337301760911941528e-02
-4.335784539580345154e-02
-1.743533182889223099e-03
-1.132708601653575897e-02
-1.734821312129497528e-02
2.170766890048980713e-02
1.572635211050510406e-02
1.291236560791730881e-02
-3.991529718041419983e-02
1.091703847050666809e-01
3.348929062485694885e-02
4.076407104730606079e-02
8.486872911453247070e-02
5.646981298923492432e-02
-5.281904712319374084e-02
5.505428090691566467e-02
1.141194906085729599e-02
-1.943801715970039368e-02
-1.049387641251087189e-02
-2.305045025423169136e-03
-6.023910641670227051e-02
5.981275346130132675e-03
3.729714080691337585e-02
2.233944647014141083e-02
-1.093964744359254837e-02
3.821861743927001953e-02
1.549728563986718655e-03
-1.474519073963165283e-02
-4.452946595847606659e-04
-8.193930238485336304e-02
-5.963844805955886841e-02
1.671374402940273285e-02
8.935379981994628906e-02
7.927033118903636932e-03
-1.311405468732118607e-02
-1.094589289277791977e-02
-2.757890522480010986e-02
-1.020762976258993149e-02
-5.229640752077102661e-02
6.375771760940551758e-02
6.358641386032104492e-02
-4.802757874131202698e-02
-1.109077595174312592e-02
7.587086409330368042e-02
2.257997915148735046e-02
-9.183444082736968994e-02
3.509601112455129623e-03
2.328219823539257050e-02
2.887197211384773254e-02
8.358212187886238098e-03
8.175812661647796631e-02
2.208883501589298248e-02
7.084941864013671875e-02
-5.841979384422302246e-02
-2.680986002087593079e-02
-4.791945964097976685e-02
3.087572753429412842e-02
-5.396013613790273666e-03
4.733292385935783386e-03
-1.662842370569705963e-02
4.876909777522087097e-02
3.885654732584953308e-02
6.460916996002197266e-02
7.005330175161361694e-02
5.501946806907653809e-02
-4.496167600154876709e-02
6.341001391410827637e-02
2.446941286325454712e-02
-9.570792317390441895e-03
1.476702000945806503e-02
4.397144913673400879e-02
1.999248750507831573e-03
6.832167971879243851e-03
5.405022948980331421e-02
-8.461375534534454346e-02
-2.902603335678577423e-02
-2.935772761702537537e-03
5.500826612114906311e-02
5.971799418330192566e-02
6.800066679716110229e-02
-8.456326276063919067e-02
2.452593483030796051e-02
7.620059698820114136e-02
5.113549530506134033e-02
-6.391580402851104736e-02
4.585320875048637390e-02
-6.089672911912202835e-03
3.437000513076782227e-02
2.300501987338066101e-02
-3.324950113892555237e-02
3.298109397292137146e-02
4.939633980393409729e-02
-3.625619411468505859e-02
2.011241577565670013e-02
1.471638679504394531e-02
1.202469505369663239e-02
-7.513580471277236938e-02
-1.346330507658421993e-03
-6.895450502634048462e-02
-1.649590209126472473e-02
7.046297658234834671e-03
-9.912823326885700226e-03
5.435232445597648621e-02
-4.335843026638031006e-02
-8.618121966719627380e-03
-3.195580095052719116e-02
-2.438548207283020020e-02
-1.612844131886959076e-02
1.057231333106756210e-02
-5.805842578411102295e-02
6.882412359118461609e-03
-8.032900840044021606e-02
-2.171658538281917572e-02
4.638295993208885193e-02
-8.566611213609576225e-04
1.430807076394557953e-02
-1.124908328056335449e-01
-4.585856199264526367e-02
4.224212840199470520e-03
-5.017395317554473877e-02
7.531933486461639404e-03
-2.223000116646289825e-02
3.772852942347526550e-02
7.907561212778091431e-02
2.400322444736957550e-02
-3.952011931687593460e-03
1.276300288736820221e-03
2.050118707120418549e-02
-5.396989732980728149e-02
-6.435851752758026123e-02
-1.424349658191204071e-02
7.379041612148284912e-02
9.534070640802383423e-02
4.943742230534553528e-02
-5.702577065676450729e-03
3.439998626708984375e-02
-7.416421175003051758e-02
-4.633433371782302856e-02
1.065172255039215088e-02
3.144546970725059509e-02
-3.049834258854389191e-02
3.664743900299072266e-02
-4.985198006033897400e-02
3.906330466270446777e-02
-2.477253228425979614e-02
8.082537353038787842e-02
2.377593331038951874e-02
3.600900247693061829e-02
-4.053357616066932678e-02
6.365510821342468262e-02
7.824208587408065796e-02
1.543986378237605095e-03
-1.856726710684597492e-03
-4.633822292089462280e-02
-1.527010928839445114e-02
-2.615843154489994049e-02
-8.777868002653121948e-02
-2.627010457217693329e-03
2.857845649123191833e-02
-6.967871636152267456e-02
3.281436860561370850e-02
1.287933811545372009e-02
-5.247109383344650269e-02
4.165776818990707397e-02
4.785396158695220947e-02
4.840572178363800049e-02
-3.457878157496452332e-02
1.871005818247795105e-02
-3.042192943394184113e-02
-8.406808972358703613e-02
-5.673957243561744690e-02
-3.670765087008476257e-02
-1.001619361340999603e-02
3.649617731571197510e-02
1.162482053041458130e-02
8.211472630500793457e-02
-2.484139613807201385e-02
1.440682727843523026e-02
1.594103686511516571e-02
-5.809157714247703552e-02
-3.864951431751251221e-02
5.269593093544244766e-03
-5.502754449844360352e-02
-5.006785970181226730e-03
3.571280837059020996e-02
2.693084254860877991e-02
-6.773415207862854004e-02
-5.532768741250038147e-02
-5.686954781413078308e-02
-4.194095730781555176e-02
-4.550538584589958191e-02
3.508538007736206055e-02
4.813251085579395294e-03
-2.250918745994567871e-02
-4.668695852160453796e-03
1.021438390016555786e-01
2.488765120506286621e-02
6.974127888679504395e-02
1.819946989417076111e-02
7.131950557231903076e-02
6.012619473040103912e-03
-4.214474558830261230e-02
5.025621876120567322e-02
-9.898747503757476807e-02
4.237787052989006042e-02
-1.228112820535898209e-02
1.805882784537971020e-03
-3.718547523021697998e-02
5.314591899514198303e-02
-6.723169982433319092e-02
6.740155071020126343e-02
6.844681687653064728e-03
-7.476690411567687988e-02
9.240961074829101562e-02
-7.340230047702789307e-02
3.704366460442543030e-02
2.113187313079833984e-02
-4.861878231167793274e-02
-4.554361850023269653e-02
2.839176543056964874e-02
7.046248763799667358e-03
6.796156615018844604e-02
-6.803023070096969604e-02
5.082375928759574890e-02
6.492359098047018051e-04
8.582182228565216064e-02
-3.662815317511558533e-02
-7.497914601117372513e-03
-1.523195579648017883e-02
3.823063895106315613e-02
-7.770235091447830200e-02
3.080633655190467834e-02
-4.465821385383605957e-02
-2.138052694499492645e-02
9.476465056650340557e-04
-1.136897411197423935e-02
-8.802362531423568726e-02
-6.251180917024612427e-02
-1.713183708488941193e-03
-6.150879710912704468e-02
-2.139975875616073608e-02
9.009764529764652252e-03
-4.791875183582305908e-02
2.877398207783699036e-02
9.946860373020172119e-04
1.441637519747018814e-02
5.222000926733016968e-02
6.180953979492187500e-02
2.676534280180931091e-02
-4.423204809427261353e-02
6.391354650259017944e-02
1.521315146237611771e-02
1.972181722521781921e-02
2.595168724656105042e-02
-5.307574197649955750e-02
3.003537841141223907e-02
2.586274966597557068e-02
-4.706784710288047791e-02
6.337234284728765488e-03
-1.396543579176068306e-03
8.640138059854507446e-02
-6.110974028706550598e-02
-1.213699765503406525e-02
5.812275782227516174e-02
2.522442676126956940e-02
-3.265241906046867371e-02
1.253449358046054840e-02
-1.543571613729000092e-02
3.661539033055305481e-02
7.681297510862350464e-02
-9.521117433905601501e-03
5.991409346461296082e-02
-6.256914883852005005e-02
-5.787174031138420105e-02
-2.162374183535575867e-02
5.375388637185096741e-02
9.082859009504318237e-02
1.928926073014736176e-02
6.680405884981155396e-02
1.557052694261074066e-02
-3.782833740115165710e-02
5.910888686776161194e-02
-6.985858827829360962e-02
-4.536291211843490601e-02
5.310177057981491089e-02
6.235346198081970215e-02
-7.110312581062316895e-02
1.754565536975860596e-02
3.084419481456279755e-02
4.850826039910316467e-02
-3.719077259302139282e-02
-5.389803275465965271e-02
6.729047745466232300e-02
9.567224234342575073e-02
1.088797673583030701e-01
6.233072653412818909e-02
-2.107018791139125824e-02
-4.371674358844757080e-02
3.829008340835571289e-02
-5.874824523925781250e-02
-2.834158390760421753e-02
1.070990320295095444e-02
-2.365527302026748657e-02
-7.275211811065673828e-02
-2.977542020380496979e-02
-6.879490613937377930e-02
3.701370209455490112e-02
-2.681297436356544495e-02
2.867640927433967590e-02
-2.241628803312778473e-02
3.203273192048072815e-02
-1.347358059138059616e-02
-3.961740061640739441e-02
5.730660632252693176e-02
8.778940886259078979e-02
3.418273106217384338e-02
-2.079919166862964630e-02
7.169303297996520996e-02
5.561466142535209656e-02
4.087830334901809692e-02
-1.622730679810047150e-02
6.668988615274429321e-02
1.911390572786331177e-02
3.460321575403213501e-02
-8.333015441894531250e-02
-5.851991102099418640e-02
2.921463735401630402e-02
-6.598497182130813599e-02
1.125720702111721039e-02
-4.426075145602226257e-03
1.332589238882064819e-02
-4.630472883582115173e-02
6.151081761345267296e-04
4.750701785087585449e-02
-1.960584893822669983e-02
-7.168849557638168335e-02
-7.648348063230514526e-02
4.189471527934074402e-02
-1.431731879711151123e-02
-7.623075693845748901e-02
4.565346986055374146e-03
-5.754312500357627869e-02
2.386586554348468781e-02
-4.379462078213691711e-02
-3.270003199577331543e-02
-4.459911491721868515e-03
-7.792866230010986328e-02
1.110517233610153198e-02
7.941895723342895508e-02
2.333436720073223114e-02
-7.485119998455047607e-02
2.530707791447639465e-02
3.328599035739898682e-02
-4.924158379435539246e-02
-5.821340903639793396e-02
-4.019510746002197266e-02
-2.303442545235157013e-02
4.433272033929824829e-02
-1.817985996603965759e-02
-8.081442117691040039e-02
-6.893055140972137451e-02
2.213796973228454590e-02
-1.023645177483558655e-01
-4.219821188598871231e-03
2.532751858234405518e-02
-1.094901468604803085e-02
-4.694092273712158203e-02
9.495222568511962891e-02
2.091603167355060577e-02
4.329086840152740479e-02
4.748875275254249573e-02
-7.415660074912011623e-04
-3.448538109660148621e-02
-4.726479575037956238e-02
5.330064520239830017e-02
7.569092512130737305e-02
-2.609160728752613068e-02
-4.894543439149856567e-02
-5.568208917975425720e-02
2.838415093719959259e-03
6.257541943341493607e-03
2.015742287039756775e-02
2.707072161138057709e-02
-5.577277392148971558e-02
6.686027348041534424e-02
-5.395336821675300598e-02
-2.611558884382247925e-02
4.821117594838142395e-02
-7.752914726734161377e-02
7.350433617830276489e-02
-1.640708744525909424e-02
1.322522200644016266e-02
7.728717476129531860e-02
-5.904524028301239014e-02
-7.767405360937118530e-02
1.117690056562423706e-01
2.881337702274322510e-02
-2.435718663036823273e-02
1.257095765322446823e-02
-1.887481845915317535e-02
-5.746250972151756287e-02
1.157039497047662735e-02
-2.844222448766231537e-02
-4.711470752954483032e-02
8.409111201763153076e-02
9.695655666291713715e-03
-7.230617851018905640e-02
-9.246130287647247314e-02
-4.057576134800910950e-02
4.082562029361724854e-02
-6.174461543560028076e-02
-4.290082957595586777e-03
-8.363316208124160767e-02
1.901591895148158073e-03
4.906575754284858704e-02
2.278208546340465546e-02
1.705415174365043640e-02
1.167707592248916626e-01
7.533815503120422363e-02
6.550259888172149658e-02
-6.790675967931747437e-02
-6.865623593330383301e-02
-6.367146223783493042e-02
4.089100658893585205e-02
-4.448680952191352844e-02
-5.991083383560180664e-02
-7.484595477581024170e-02
-8.557841926813125610e-02
-8.710574358701705933e-02
-4.003369808197021484e-02
-3.678688034415245056e-02
9.059080854058265686e-03
-7.967737317085266113e-02
2.409671247005462646e-02
1.819077134132385254e-02
-4.865111410617828369e-02
-1.631565392017364502e-02
1.341839553788304329e-03
2.271384373307228088e-02
-5.914052203297615051e-02
-8.441250026226043701e-02
-4.312893375754356384e-02
-3.491807356476783752e-02
-1.806531450711190701e-03
5.938613787293434143e-02
-4.406226426362991333e-02
-1.746897026896476746e-02
-5.358925461769104004e-02
-7.028956711292266846e-02
1.038841716945171356e-02
-6.217950209975242615e-02
3.855558112263679504e-02
5.584977194666862488e-02
9.431394189596176147e-02
-5.826498940587043762e-02
3.372070565819740295e-02
3.552837669849395752e-02
-5.727363377809524536e-02
5.116195604205131531e-02
2.173962630331516266e-02
7.567626237869262695e-02
4.779298976063728333e-02
-8.293320983648300171e-02
-4.784009978175163269e-02
-2.660580351948738098e-02
-5.983610078692436218e-02
-1.090890355408191681e-02
8.745843172073364258e-02
3.740594536066055298e-02
-2.902591135352849960e-03
-3.855230985209345818e-03
5.482966825366020203e-02
-5.808305367827415466e-02
-5.398177728056907654e-02
-6.308561563491821289e-02
6.715211272239685059e-02
6.527111679315567017e-02
-4.488207027316093445e-02
-5.523532629013061523e-02
-6.692866235971450806e-02
1.658970117568969727e-02
-1.177361514419317245e-02
3.798783943057060242e-02
-5.303314700722694397e-02
9.476943872869014740e-03
-9.138807654380798340e-02
-5.066945403814315796e-02
-2.024976350367069244e-02
-9.118545055389404297e-02
-6.699944380670785904e-03
-5.620413273572921753e-02
-4.219949245452880859e-02
-2.576499618589878082e-02
-2.782348357141017914e-02
-8.866727352142333984e-03
-5.963250249624252319e-02
1.711893081665039062e-02
7.742512971162796021e-02
-2.639552950859069824e-02
4.114265553653240204e-03
-2.521705627441406250e-02
-1.182810142636299133e-01
3.103021904826164246e-02
-1.449912670068442822e-03
4.602332040667533875e-02
-1.553834509104490280e-02
-2.788598835468292236e-02
2.601868100464344025e-02
-6.104298308491706848e-02
5.644093081355094910e-02
6.823842227458953857e-02
-3.048345074057579041e-02
-1.104683578014373779e-01
-1.344157150015234947e-03
-3.736542165279388428e-02
-4.993610829114913940e-02
-1.865739747881889343e-02
1.122020408511161804e-01
4.745055735111236572e-02
-3.746711090207099915e-02
-4.330338537693023682e-02
3.898433223366737366e-02
-8.688849955797195435e-02
8.444167673587799072e-02
-4.994349926710128784e-02
4.516703635454177856e-02
-1.287529710680246353e-02
-1.714384742081165314e-02
-7.886204868555068970e-02
-4.015986621379852295e-02
2.127997204661369324e-02
5.754082649946212769e-02
-3.203704580664634705e-02
2.200150303542613983e-02
5.211942270398139954e-02
4.905843362212181091e-02
-2.191533520817756653e-02
1.698470488190650940e-02
4.805867746472358704e-02
-1.773814205080270767e-03
-9.350385516881942749e-03
-2.347528003156185150e-02
-4.444425180554389954e-02
5.396196991205215454e-02
-3.833800926804542542e-02
-1.980000175535678864e-02
1.512196846306324005e-02
5.223555490374565125e-03
-4.675141721963882446e-02
-3.605645149946212769e-02
-2.766934037208557129e-02
2.937243506312370300e-02
5.992134660482406616e-02
9.928272664546966553e-02
-2.680440805852413177e-02
-3.123662993311882019e-02
-3.752401843667030334e-02
-8.295194804668426514e-02
-5.327696725726127625e-02
-1.304702647030353546e-02
3.233921527862548828e-02
-2.947592176496982574e-02
4.065619409084320068e-02
-4.276119545102119446e-02
2.780613675713539124e-02
-5.384084209799766541e-02
2.024457417428493500e-02
2.004303783178329468e-02
2.516436949372291565e-02
-2.776046283543109894e-02
-4.829415678977966309e-02
8.297325257444754243e-05
5.882652103900909424e-02
-6.401926511898636818e-04
3.279443085193634033e-02
3.526310250163078308e-02
4.947332665324211121e-02
-9.022637456655502319e-02
6.285819108597934246e-04
1.163598373532295227e-01
1.839437708258628845e-02
3.226319700479507446e-02
1.807607710361480713e-02
-3.221891820430755615e-02
-7.481535524129867554e-02
-3.540355712175369263e-02
-9.593543596565723419e-03
-4.475522413849830627e-02
1.738632656633853912e-02
3.858326375484466553e-02
-9.622830897569656372e-03
-5.512891337275505066e-03
-2.649416029453277588e-02
1.261635101400315762e-03
-4.884593933820724487e-02
2.610137499868869781e-02
-1.926168613135814667e-02
-6.516145076602697372e-03
-6.788261979818344116e-02
-5.156205222010612488e-02
6.951020658016204834e-02
-7.578506600111722946e-03
7.867018133401870728e-02
-5.343905836343765259e-02
6.890752818435430527e-03
2.274376340210437775e-02
-9.464289061725139618e-03
2.478509955108165741e-02
6.851089000701904297e-02
3.451913828030228615e-03
-1.145001268014311790e-03
9.108327329158782959e-02
5.299310386180877686e-02
-4.345718398690223694e-02
-1.039396878331899643e-02
2.281777188181877136e-02
5.893769860267639160e-02
7.777405530214309692e-02
-4.197562113404273987e-02
7.900138944387435913e-02
9.035436436533927917e-03
-5.417089164257049561e-02
-4.246362671256065369e-02
-3.682462498545646667e-02
-7.768111675977706909e-02
3.698389232158660889e-02
1.073472946882247925e-02
-5.422079120762646198e-04
-1.168572343885898590e-03
-3.660061210393905640e-02
6.070115044713020325e-02
-3.408372029662132263e-02
-8.019509166479110718e-02
-8.813678286969661713e-03
-6.797257810831069946e-02
-2.396235428750514984e-02
1.130851078778505325e-02
-1.388853695243597031e-02
6.802574545145034790e-02
-4.149434715509414673e-02
7.796981930732727051e-02
-7.929355837404727936e-03
-5.941923335194587708e-02
5.249230936169624329e-02
-6.485648453235626221e-02
-3.216812387108802795e-02
4.627470299601554871e-02
-4.439846798777580261e-02
-7.065601646900177002e-02
-6.283506006002426147e-02
-1.389286667108535767e-02
5.429572984576225281e-02
-5.325251445174217224e-02
1.154934894293546677e-02
6.533021479845046997e-02
2.080303989350795746e-02
-3.191946819424629211e-02
3.647447796538472176e-03
2.463560178875923157e-02
4.534771293401718140e-02
-1.493485411629080772e-03
4.187469184398651123e-02
8.958060294389724731e-03
-3.875249251723289490e-02
1.359175331890583038e-02
2.283205091953277588e-02
1.237534359097480774e-02
2.562146075069904327e-02
-8.594581857323646545e-03
6.019266694784164429e-02
-3.166180476546287537e-02
-6.463804841041564941e-02
-3.902766481041908264e-02
4.672828596085309982e-03
-3.457852452993392944e-02
-3.307969495654106140e-02
-1.217945571988821030e-02
-1.044538710266351700e-02
1.315629035234451294e-01
-3.488969057798385620e-03
-9.803286939859390259e-02
-4.547902382910251617e-03
-1.289197057485580444e-01
1.456634514033794403e-02
2.643278986215591431e-02
-6.703340262174606323e-02
2.815164998173713684e-02
3.216378390789031982e-02
-6.284867227077484131e-02
-1.908579841256141663e-02
1.112775690853595734e-02
3.414789214730262756e-02
3.777110576629638672e-02
-1.534356921911239624e-02
-6.063422188162803650e-02
-5.082820355892181396e-02
-2.587264403700828552e-02
7.698124647140502930e-02
6.194603815674781799e-02
6.568443030118942261e-03
-4.343937337398529053e-02
-2.135229296982288361e-02
-2.497763000428676605e-02
-3.656652942299842834e-02
1.655979664064943790e-03
-1.766439713537693024e-02
-2.571884542703628540e-02
6.636671256273984909e-03
-2.873438782989978790e-02
-2.728445082902908325e-02
2.780304290354251862e-02
2.468871884047985077e-02
7.503873854875564575e-02
4.099356755614280701e-02
3.762828558683395386e-02
3.780949115753173828e-02
2.195632085204124451e-02
9.639316052198410034e-02
2.918189950287342072e-02
1.537182275205850601e-02
-8.747661858797073364e-02
-5.574665218591690063e-02
-3.506432473659515381e-02
2.729807607829570770e-02
-3.255879506468772888e-02
-4.953234642744064331e-02
7.722369581460952759e-02
3.109962306916713715e-02
-1.148732751607894897e-02
-5.094535648822784424e-02
-7.044658064842224121e-02
-4.525820910930633545e-02
-2.479732036590576172e-02
6.041165441274642944e-03
2.430325932800769806e-02
4.791132640093564987e-03
-9.097556769847869873e-02
-4.736422374844551086e-02
5.465812981128692627e-02
-3.588166832923889160e-02
4.508481174707412720e-02
-2.153358608484268188e-02
-1.093327300623059273e-03
3.625627607107162476e-03
3.022871538996696472e-02
-2.854492980986833572e-03
4.170015826821327209e-02
-2.120583690702915192e-02
-5.844877101480960846e-03
1.350970822386443615e-03
-5.746684595942497253e-02
-5.129130184650421143e-02
-1.401865761727094650e-02
5.705060064792633057e-02
2.573031745851039886e-02
-9.030029177665710449e-03
-1.695299148559570312e-02
2.033829130232334137e-02
6.624846160411834717e-02
-8.720197714865207672e-03
-5.085732042789459229e-02
-1.943118753843009472e-03
-1.038346905261278152e-02
-6.311724334955215454e-02
1.046679681167006493e-03
6.805889308452606201e-02
2.596314437687397003e-02
-5.089574679732322693e-02
-7.842642068862915039e-02
3.850751742720603943e-02
4.393208399415016174e-02
-4.039904847741127014e-02
4.351146891713142395e-02
8.229517936706542969e-02
8.014854975044727325e-03
5.239093210548162460e-03
-3.751650080084800720e-02
2.819671109318733215e-02
-3.027782030403614044e-02
2.454078011214733124e-02
3.737904503941535950e-02
1.390297152101993561e-02
-6.529744714498519897e-02
4.569200798869132996e-02
7.751817349344491959e-03
-7.679570466279983521e-02
-6.995274871587753296e-02
-6.735754758119583130e-02
-7.347808778285980225e-02
1.470573153346776962e-02
4.353820532560348511e-02
-9.559723548591136932e-03
-3.392298519611358643e-02
2.536405436694622040e-02
-4.198225587606430054e-02
2.387983724474906921e-02
-7.933622598648071289e-02
3.031606599688529968e-02
2.370901638641953468e-03
5.759512633085250854e-02
2.105057239532470703e-02
7.044118829071521759e-03
-4.752543568611145020e-02
-3.970950469374656677e-02
2.573352679610252380e-02
-2.482108026742935181e-02
-3.289629518985748291e-02
1.304350420832633972e-02
1.951375044882297516e-02
3.873473033308982849e-02
8.832887746393680573e-03
-3.603712841868400574e-02
-4.267140477895736694e-02
9.353201836347579956e-03
-1.985801197588443756e-02
-4.352601245045661926e-02
9.367267042398452759e-02
1.249424833804368973e-02
4.917109385132789612e-02
-5.124086886644363403e-02
6.823313981294631958e-02
-8.147651329636573792e-03
7.973708957433700562e-02
-3.907030448317527771e-02
3.223466128110885620e-02
8.758707903325557709e-03
-6.521482765674591064e-02
-3.522527962923049927e-02
1.194943487644195557e-01
8.153288066387176514e-02
2.251083590090274811e-02
-1.014554947614669800e-01
-8.694887906312942505e-02
-4.196678102016448975e-02
-8.394838124513626099e-02
4.927235841751098633e-02
-1.139783021062612534e-02
2.068968862295150757e-02
-6.096237897872924805e-02
7.411779463291168213e-02
2.278517372906208038e-02
-3.270389139652252197e-02
2.273627370595932007e-02
-5.804105103015899658e-02
-2.613327093422412872e-02
2.746523544192314148e-02
-4.937869682908058167e-02
8.563211560249328613e-02
8.047679066658020020e-02
1.616317778825759888e-02
3.717067465186119080e-02
-1.762980967760086060e-02
5.532583594322204590e-02
1.974061690270900726e-02
-1.536969188600778580e-02
1.496263686567544937e-02
1.156452484428882599e-02
-2.319746464490890503e-02
1.057462915778160095e-01
1.228998228907585144e-02
2.117982693016529083e-02
4.884752258658409119e-02
1.635436201468110085e-03
4.870789870619773865e-02
-7.378527428954839706e-03
-7.872613146901130676e-03
-9.488929994404315948e-03
9.365332126617431641e-02
-6.368929892778396606e-02
-1.560454163700342178e-02
4.407727718353271484e-02
-5.483192577958106995e-02
-3.588646277785301208e-02
2.807284705340862274e-02
-6.407777965068817139e-02
-6.363669782876968384e-02
-4.201306402683258057e-02
-5.494422093033790588e-02
2.806128468364477158e-03
2.228444255888462067e-02
2.698163315653800964e-02
1.142562832683324814e-02
5.298696458339691162e-03
5.841833353042602539e-02
-5.211579054594039917e-02
4.865172877907752991e-02
-1.947053358890116215e-03
3.157989308238029480e-02
2.794267795979976654e-02
5.587158724665641785e-02
4.036382213234901428e-02
8.300111629068851471e-03
-5.387242883443832397e-02
-8.713353425264358521e-02
7.409761846065521240e-02
-1.740811578929424286e-02
8.094931021332740784e-03
-2.335531450808048248e-02
7.742860168218612671e-02
-5.937720183283090591e-03
-3.604087233543395996e-02
-8.412292599678039551e-02
-5.349620431661605835e-02
1.027885358780622482e-02
-4.387378692626953125e-02
-3.050079336389899254e-03
-5.691574141383171082e-02
-8.138365298509597778e-02
1.104199606925249100e-02
-6.316705793142318726e-02
3.635860234498977661e-02
-3.931296989321708679e-02
3.908273577690124512e-02
-2.546757459640502930e-02
1.413458958268165588e-02
3.310018405318260193e-02
-3.683221712708473206e-02
-1.161547750234603882e-02
3.453705459833145142e-02
6.263665854930877686e-02
8.903410285711288452e-02
-6.193653680384159088e-03
-3.564371168613433838e-02
-4.802913591265678406e-02
2.096951380372047424e-02
3.310360014438629150e-02
-6.046400964260101318e-02
-7.889713346958160400e-02
8.577944338321685791e-02
-1.259004231542348862e-02
-8.249147981405258179e-02
1.775172725319862366e-02
-5.886044353246688843e-02
-7.499577105045318604e-02
2.457505557686090469e-03
-3.714765980839729309e-02
2.584623580332845449e-04
-4.224020987749099731e-02
4.486134275794029236e-02
-2.063589543104171753e-02
-2.816087938845157623e-02
2.234080247581005096e-02
6.059479899704456329e-03
3.797646611928939819e-02
6.111511960625648499e-02
2.050124295055866241e-02
-5.723197385668754578e-02
3.830931382253766060e-03
6.385745108127593994e-02
-4.696924611926078796e-02
5.336372926831245422e-02
-8.093924075365066528e-02
1.915572443976998329e-03
-2.811739919707179070e-03
-3.558233380317687988e-02
1.588965021073818207e-02
1.698013767600059509e-02
-1.326865050941705704e-03
2.119538560509681702e-02
2.501742541790008545e-02
-1.443287450820207596e-02
-1.309703290462493896e-02
4.233393073081970215e-02
-3.623007982969284058e-02
4.794579371809959412e-02
7.394959032535552979e-02
1.065081730484962463e-01
4.471587762236595154e-02
4.318396002054214478e-02
-6.032364442944526672e-02
-5.435287486761808395e-03
-2.867106348276138306e-02
1.170727610588073730e-02
3.669986501336097717e-02
2.844119817018508911e-02
-3.006219398230314255e-03
-6.875519454479217529e-02
-3.465782850980758667e-03
9.781406819820404053e-02
-1.712157018482685089e-02
-3.745356947183609009e-02
-4.390256479382514954e-02
-9.328863024711608887e-02
-6.650898605585098267e-02
1.157786790281534195e-02
3.057998232543468475e-02
3.636324405670166016e-02
4.320478811860084534e-02
-2.131037600338459015e-02
-3.300749137997627258e-02
1.037461310625076294e-01
3.002360835671424866e-02
-8.855722262524068356e-04
8.096719160676002502e-03
-4.403599724173545837e-02
-1.383099425584077835e-02
3.310886770486831665e-02
1.047063916921615601e-01
8.011116087436676025e-02
-4.975289106369018555e-02
3.753961622714996338e-02
-1.140101328492164612e-01
-8.500625193119049072e-02
-1.619884558022022247e-02
-7.206460461020469666e-03
-6.562342494726181030e-02
7.987492717802524567e-03
2.304976060986518860e-02
7.224477082490921021e-02
-2.338482998311519623e-02
7.663985341787338257e-02
1.523907389491796494e-02
-7.308705151081085205e-02
-1.176943443715572357e-02
6.597497034817934036e-03
-4.553249105811119080e-02
5.277568101882934570e-02
3.559347614645957947e-02
9.972333163022994995e-02
9.933295845985412598e-02
-2.527406997978687286e-02
-5.284218117594718933e-02
4.288471117615699768e-02
9.618367999792098999e-03
-7.775749266147613525e-02
1.071460358798503876e-02
1.758707500994205475e-02
-7.182181626558303833e-02
-7.138794660568237305e-02
2.917467989027500153e-02
7.155138999223709106e-02
-3.658248484134674072e-02
-3.150128573179244995e-02
-5.481060594320297241e-02
2.092150226235389709e-02
-1.785936392843723297e-02
8.352306485176086426e-02
-8.054365217685699463e-02
4.415800422430038452e-02
9.444386512041091919e-02
6.710896641016006470e-02
-6.221723742783069611e-04
1.231515407562255859e-02
-1.721360348165035248e-02
1.012766808271408081e-01
-6.350709497928619385e-02
-8.368422091007232666e-02
-5.726782605051994324e-02
-4.414866492152214050e-02
7.344219833612442017e-03
-2.557559311389923096e-02
-1.251715272665023804e-01
-3.382829949259757996e-02
1.920504122972488403e-02
1.723045110702514648e-02
8.465275750495493412e-04
-8.721023052930831909e-02
1.854477077722549438e-02
-8.820450305938720703e-02
7.951027154922485352e-02
8.715100586414337158e-02
-5.469560623168945312e-02
7.106366008520126343e-02
4.531036689877510071e-02
-4.048592224717140198e-02
-5.768442153930664062e-02
-7.521490007638931274e-02
-1.993546076118946075e-02
7.211324572563171387e-02
7.824280112981796265e-02
9.815533459186553955e-02
-1.035251915454864502e-01
1.139447279274463654e-02
5.972403287887573242e-02
-6.345579028129577637e-02
-4.123501852154731750e-02
-7.582316547632217407e-02
-3.378678485751152039e-02
-8.492887951433658600e-03
-8.477794378995895386e-02
-3.441734239459037781e-02
-3.302861936390399933e-03
-3.854373842477798462e-02
-5.114122852683067322e-02
5.792893096804618835e-02
-4.407173022627830505e-03
2.744876546785235405e-03
-5.665387958288192749e-02
-5.426343530416488647e-02
7.998184859752655029e-02
-1.131429523229598999e-02
-9.219849854707717896e-02
-2.940970100462436676e-02
-7.143956143409013748e-03
8.742728084325790405e-02
-2.483085170388221741e-02
-3.525069355964660645e-02
-5.267215892672538757e-02
-6.015594117343425751e-03
7.032616436481475830e-02
9.204000979661941528e-02
-1.172898858785629272e-01
-2.778054960072040558e-02
-2.320508658885955811e-02
5.103082582354545593e-02
1.799819804728031158e-02
-4.087881371378898621e-02
5.554626509547233582e-02
3.645959123969078064e-02
1.295194670092314482e-04
-3.536781668663024902e-02
3.885952010750770569e-02
-9.708688594400882721e-04
-8.079102262854576111e-03
4.545380547642707825e-02
1.590116135776042938e-02
-5.861923843622207642e-02
2.865436300635337830e-02
-1.420275494456291199e-02
2.578316628932952881e-02
7.291283458471298218e-02
-1.006361097097396851e-01
-9.095457941293716431e-02
8.283459581434726715e-03
-9.430886059999465942e-02
-2.090599946677684784e-02
3.717411309480667114e-02
-2.859112061560153961e-02
-6.497935205698013306e-02
-1.970564574003219604e-02
2.776940166950225830e-02
3.315249830484390259e-02
-7.897083461284637451e-02
-1.155788917094469070e-02
-6.818924844264984131e-02
-5.553878843784332275e-03
4.341729730367660522e-02
9.855208918452262878e-03
6.919192522764205933e-02
7.163456082344055176e-02
-9.281442500650882721e-03
-6.571888923645019531e-02
-2.562673203647136688e-02
-9.494160115718841553e-02
5.541623756289482117e-02
1.414028520230203867e-04
8.354061283171176910e-03
-2.927229553461074829e-02
-1.175937056541442871e-02
-2.005623467266559601e-02
7.169041782617568970e-02
-1.333420127630233765e-01
6.772962212562561035e-02
1.847430132329463959e-02
8.045041561126708984e-02
4.519839957356452942e-02
3.846557438373565674e-02
1.069395523518323898e-02
-9.658064693212509155e-02
-1.557815913110971451e-02
1.088174991309642792e-02
6.807682663202285767e-02
2.740240655839443207e-02
-5.846964567899703979e-02
-4.398744180798530579e-02
3.161938162520527840e-03
1.609581336379051208e-02
5.996603891253471375e-02
-8.021367830224335194e-04
1.372290495783090591e-02
2.329118363559246063e-02
-1.017611101269721985e-01
-1.091396436095237732e-02
-2.176884328946471214e-03
1.267724321223795414e-03
-7.125199586153030396e-02
1.222915854305028915e-02
6.075667589902877808e-02
-6.289628893136978149e-02
-4.832186549901962280e-02
-8.433455973863601685e-02
-5.051305517554283142e-02
-1.304548792541027069e-02
5.076528526842594147e-03
-4.307944327592849731e-02
-8.139053732156753540e-02
-2.348703332245349884e-02
1.670236326754093170e-02
-7.621880620718002319e-02
2.214383706450462341e-02
6.820936501026153564e-02
-3.111879713833332062e-02
-3.055279841646552086e-03
-7.330641150474548340e-03
-3.860712982714176178e-03
5.891793966293334961e-02
-9.602287411689758301e-02
-1.083433851599693298e-01
-3.235568478703498840e-02
2.327576652169227600e-02
-2.196617238223552704e-02
-9.942669421434402466e-02
1.051535606384277344e-01
-4.564891010522842407e-02
4.837483167648315430e-03
-2.184515632688999176e-02
-3.915459662675857544e-02
7.818850874900817871e-02
3.847941011190414429e-02
6.753178685903549194e-02
-1.607646420598030090e-02
1.509181596338748932e-02
-5.520445853471755981e-02
-2.411368489265441895e-02
-1.856538839638233185e-02
-5.488843657076358795e-03
-2.050544321537017822e-02
2.563167596235871315e-03
-1.495218742638826370e-02
3.720494359731674194e-02
-4.496583715081214905e-02
-5.172270536422729492e-02
4.937937483191490173e-02
5.615619197487831116e-02
1.674866676330566406e-02
-5.146770924329757690e-02
-6.538068503141403198e-02
-2.976976521313190460e-02
5.150160565972328186e-02
-3.146190941333770752e-02
-4.009683057665824890e-02
-4.753504320979118347e-02
-7.681582868099212646e-02
-3.934823721647262573e-02
-6.902971118688583374e-02
5.664342641830444336e-02
6.944841146469116211e-02
2.474822662770748138e-02
-1.515975501388311386e-02
-3.170061856508255005e-02
4.578432440757751465e-02
-5.712499096989631653e-02
2.029670961201190948e-02
-2.419937169179320335e-03
4.872184246778488159e-02
1.490373630076646805e-03
1.078532729297876358e-02
2.899602241814136505e-02
5.969626829028129578e-02
5.174770206212997437e-02
7.405720651149749756e-02
-1.928224973380565643e-02
8.985264226794242859e-03
-1.081334501504898071e-01
-1.539822202175855637e-02
1.295283623039722443e-02
2.999782934784889221e-02
-9.099794179201126099e-02
-7.861915230751037598e-02
2.760128676891326904e-02
4.595928266644477844e-02
2.602389315143227577e-03
5.374889820814132690e-02
-3.853471949696540833e-02
5.905679985880851746e-02
-2.213592175394296646e-03
-2.869715541601181030e-02
4.710606113076210022e-02
2.006757818162441254e-02
5.754831247031688690e-03
2.092822827398777008e-02
-6.248160451650619507e-02
-5.302663892507553101e-02
-6.196265667676925659e-02
4.214171320199966431e-02
3.685943316668272018e-03
-2.776383049786090851e-02
-1.626071333885192871e-02
-5.624438077211380005e-02
5.169290676712989807e-02
-5.797360837459564209e-02
1.781185041181743145e-03
-1.925850287079811096e-02
4.019373655319213867e-02
-1.541476231068372726e-02
2.178500639274716377e-03
-3.254360333085060120e-02
-3.476006537675857544e-02
8.691259473562240601e-02
-7.534238509833812714e-03
-2.863604016602039337e-02
9.395139291882514954e-03
-5.092462152242660522e-02
9.264575317502021790e-03
8.690254762768745422e-03
-5.238446965813636780e-02
-6.929147988557815552e-02
-7.698509097099304199e-02
-1.224157679826021194e-02
-5.038370564579963684e-02
-3.415393084287643433e-02
-8.388196676969528198e-02
-5.305530875921249390e-02
8.328355848789215088e-03
-3.966724872589111328e-02
-3.922725841403007507e-02
-4.790131747722625732e-02
-9.137257933616638184e-02
-3.170943632721900940e-02
2.483046241104602814e-02
6.523385643959045410e-02
-6.011825986206531525e-03
-1.302311867475509644e-01
-2.914818935096263885e-02
-2.620786800980567932e-02
-1.288306899368762970e-02
-3.126486018300056458e-02
8.042956888675689697e-02
-2.523059083614498377e-04
-7.778567075729370117e-02
-6.657939404249191284e-02
-1.004003211855888367e-01
-1.618712581694126129e-02
-8.411237038671970367e-03
-2.835296280682086945e-02
-8.103738725185394287e-02
-1.360625727102160454e-03
1.417339686304330826e-02
