1.533432118594646454e-02
-2.755412831902503967e-02
-9.501029737293720245e-03
1.083593908697366714e-02
-5.464896932244300842e-02
2.485062740743160248e-02
-3.200817853212356567e-02
1.317263767123222351e-02
1.452902238816022873e-02
-2.493862248957157135e-02
-4.441094771027565002e-02
-2.935772016644477844e-02
1.920974696986377239e-03
4.921472817659378052e-02
-1.733151264488697052e-02
-9.964326396584510803e-03
2.364652045071125031e-02
3.156818682327866554e-03
3.880594857037067413e-03
-3.354430943727493286e-02
3.661885857582092285e-02
-3.459770604968070984e-02
5.159196257591247559e-02
-2.136058360338211060e-02
-3.854358941316604614e-02
-6.257836706936359406e-03
-3.442416712641716003e-02
-3.770589828491210938e-02
-3.836219012737274170e-02
-2.993240393698215485e-02
-8.178301155567169189e-02
2.706644497811794281e-02
-8.494778536260128021e-03
-5.372096225619316101e-02
-6.610360741615295410e-02
-2.897169068455696106e-02
8.267039433121681213e-03
2.480253577232360840e-02
-2.930634468793869019e-02
-3.080979362130165100e-02
2.296662516891956329e-02
-5.095127224922180176e-02
-8.449989371001720428e-03
-1.299640443176031113e-02
9.935478679835796356e-03
8.018298074603080750e-03
-2.842887304723262787e-02
-3.558764234185218811e-02
3.802549839019775391e-02
2.487795986235141754e-02
-4.415675252676010132e-02
-2.156675793230533600e-02
2.625851519405841827e-02
-2.982610091567039490e-02
-4.340708628296852112e-02
-5.314680933952331543e-02
3.332286723889410496e-04
1.092581637203693390e-02
3.753907512873411179e-03
1.848727650940418243e-02
-3.401933982968330383e-02
-5.603908002376556396e-02
-2.795796841382980347e-02
-1.729270070791244507e-02
9.013981558382511139e-03
7.656299322843551636e-02
-1.753128133714199066e-02
-3.281285613775253296e-02
2.169891633093357086e-02
-1.606199517846107483e-02
-6.545806769281625748e-03
-2.137528732419013977e-02
-2.753960341215133667e-02
-7.791391015052795410e-02
-7.570452522486448288e-03
-2.367197349667549133e-02
4.022807627916336060e-02
-9.731101454235613346e-05
3.276015073060989380e-02
-3.920679166913032532e-02
7.633233070373535156e-02
2.645954489707946777e-02
3.915669023990631104e-02
-1.084698643535375595e-02
2.184079959988594055e-02
1.387240458279848099e-02
-1.367575302720069885e-02
2.119376556947827339e-03
1.190766692161560059e-02
4.964381456375122070e-02
-2.073052152991294861e-02
1.531000714749097824e-02
-3.370898216962814331e-02
-8.187741972506046295e-03
3.009883454069495201e-03
-1.301325764507055283e-02
1.200371142476797104e-02
4.958164691925048828e-02
-4.314081743359565735e-02
-1.832429505884647369e-02
-3.170774504542350769e-02
-2.926108799874782562e-02
8.104830048978328705e-03
9.126882068812847137e-03
-4.008164256811141968e-02
2.426019171252846718e-03
2.142835641279816628e-03
-1.845871657133102417e-02
-9.398374706506729126e-03
-6.918922299519181252e-04
-2.511294744908809662e-02
-4.282556474208831787e-02
-1.769266836345195770e-02
-5.236418917775154114e-02
3.205372020602226257e-02
-1.741270907223224640e-02
-1.436868961900472641e-02
-2.190080413129180670e-04
-5.764833837747573853e-02
-7.390341162681579590e-02
8.571301586925983429e-03
1.001915661618113518e-03
-1.929344236850738525e-02
-3.717239201068878174e-02
2.872330695390701294e-02
-1.014538202434778214e-02
9.539529681205749512e-03
5.133011564612388611e-02
-1.006543356925249100e-02
-3.977403510361909866e-03
1.115322951227426529e-02
-9.627798135625198483e-05
-4.952899325871840119e-05
-4.986453428864479065e-02
-7.514884322881698608e-02
-4.114067554473876953e-02
6.131837144494056702e-02
-1.293333625653758645e-04
1.352686155587434769e-02
-4.396983236074447632e-02
6.173142232000827789e-03
-1.006334181874990463e-02
1.612192206084728241e-02
-6.660277722403407097e-04
-4.464208334684371948e-02
-3.680044785141944885e-02
-3.055490739643573761e-02
-3.146292641758918762e-02
1.459326408803462982e-02
-5.439476296305656433e-02
-6.479667354142293334e-05
-5.016613751649856567e-02
-2.998880483210086823e-02
-6.180968880653381348e-02
-8.853578940033912659e-03
-2.004531025886535645e-02
7.155507802963256836e-02
-3.568345913663506508e-03
4.583667218685150146e-02
-7.151915132999420166e-02
3.180234925821423531e-03
1.042785961180925369e-02
-4.443033598363399506e-03
2.202728949487209320e-02
9.633726440370082855e-03
1.672470383346080780e-02
-2.725895494222640991e-02
3.172041848301887512e-03
-6.437314301729202271e-02
-1.443838141858577728e-02
4.408493638038635254e-02
-1.291134674102067947e-02
-3.667514026165008545e-02
-3.761508315801620483e-02
4.959248472005128860e-03
-2.823286503553390503e-02
-3.824995458126068115e-02
4.084899555891752243e-03
-5.362182483077049255e-02
-9.457359090447425842e-03
4.581723362207412720e-03
-4.088914021849632263e-02
-2.276471257209777832e-02
-2.077180659398436546e-03
4.129868373274803162e-02
2.274888567626476288e-02
-3.590355860069394112e-03
-1.088368985801935196e-02
-3.640545159578323364e-02
-3.601373406127095222e-03
-4.468668717890977859e-03
-4.926503449678421021e-02
-5.289141088724136353e-02
2.295062690973281860e-02
-1.954549737274646759e-02
-3.748144209384918213e-02
6.387287285178899765e-03
-1.140309497714042664e-02
7.291652262210845947e-02
-9.553798474371433258e-03
