7.132890075445175171e-02
-3.532025497406721115e-03
-5.283430963754653931e-02
3.903729096055030823e-02
4.727606847882270813e-02
5.028914287686347961e-02
1.051522940397262573e-01
-3.026301413774490356e-02
-2.906163409352302551e-02
1.773194782435894012e-02
2.188282273709774017e-02
-1.004122421145439148e-01
-9.284996241331100464e-02
5.982223525643348694e-02
5.985187739133834839e-02
1.579073723405599594e-04
-8.851619064807891846e-02
4.236980155110359192e-02
1.592760905623435974e-02
3.413970023393630981e-02
4.771995590999722481e-04
3.218936501070857048e-03
7.035323977470397949e-02
-3.889471059665083885e-03
-8.207934349775314331e-02
-5.351683497428894043e-02
-9.456635452806949615e-03
-4.013589117676019669e-03
-1.177320722490549088e-02
6.331846863031387329e-02
1.599700003862380981e-02
-2.667895518243312836e-03
4.093059152364730835e-02
-4.812771081924438477e-02
-4.386466369032859802e-02
-1.028291508555412292e-02
-2.759789861738681793e-02
-1.619786582887172699e-02
-7.312685716897249222e-03
-6.064771488308906555e-02
1.288914233446121216e-01
3.319330140948295593e-02
-8.821966499090194702e-02
4.929086193442344666e-02
-3.457786887884140015e-02
3.284532949328422546e-02
1.755718141794204712e-02
-2.994501218199729919e-02
-4.919804260134696960e-02
3.751108795404434204e-02
-6.435483694076538086e-03
-5.522512365132570267e-03
-1.172322332859039307e-01
-8.839251101016998291e-02
-4.961073398590087891e-02
-6.013512238860130310e-02
-3.171673417091369629e-02
8.380425162613391876e-03
3.423365578055381775e-02
8.994841575622558594e-02
6.061554327607154846e-02
-7.224392145872116089e-02
-8.600067347288131714e-02
-3.177210316061973572e-02
1.620763726532459259e-02
5.469335615634918213e-02
-2.730283513665199280e-02
-2.054566703736782074e-02
-4.838345944881439209e-02
-4.750844091176986694e-02
3.732024505734443665e-02
-4.375614970922470093e-02
-2.522471547126770020e-02
-1.245011668652296066e-02
3.230850910767912865e-03
-6.995138525962829590e-02
-7.960003800690174103e-03
9.894911199808120728e-02
1.154416706413030624e-02
4.014298319816589355e-02
-3.013185597956180573e-02
-8.746402710676193237e-02
2.641361020505428314e-02
1.710554212331771851e-02
-7.770577911287546158e-03
-8.742423355579376221e-02
-6.693086773157119751e-02
4.170570522546768188e-02
6.582637876272201538e-02
3.722475469112396240e-02
-3.168351575732231140e-02
-2.019894309341907501e-02
-8.186223357915878296e-02
-8.175494521856307983e-02
-9.835133701562881470e-02
7.282435148954391479e-02
-9.111022204160690308e-02
3.994839265942573547e-02
-3.429628163576126099e-02
1.433619577437639236e-02
-1.573443599045276642e-02
-6.494405865669250488e-02
-6.996626406908035278e-02
-9.292111732065677643e-03
9.001468122005462646e-02
1.360993273556232452e-02
9.794854372739791870e-02
-4.865362867712974548e-02
-1.745047792792320251e-02
7.345419377088546753e-02
1.491872221231460571e-02
5.308101698756217957e-02
4.446269199252128601e-02
-2.458546124398708344e-02
1.650511170737445354e-03
5.053234472870826721e-02
-5.768838897347450256e-02
2.305713482201099396e-02
-2.665036916732788086e-02
4.786303266882896423e-02
7.969599962234497070e-02
-8.210844546556472778e-02
-4.722779989242553711e-02
1.008266359567642212e-01
-4.138490557670593262e-02
4.138687625527381897e-02
1.834561862051486969e-02
-5.730922520160675049e-02
-9.210771881043910980e-03
-7.987026125192642212e-02
3.180928900837898254e-02
-5.939578637480735779e-02
5.294122733175754547e-03
9.547346830368041992e-02
-1.339748650789260864e-01
-1.143869236111640930e-01
-5.349756777286529541e-02
-5.975287407636642456e-02
-1.714882254600524902e-02
-4.686836898326873779e-02
1.099330335855484009e-01
1.978434249758720398e-02
-1.096095591783523560e-01
2.721503563225269318e-02
-2.081635175272822380e-03
-3.288300335407257080e-02
-7.057593762874603271e-02
9.364388883113861084e-02
6.072704121470451355e-02
-1.032179072499275208e-01
-7.578070461750030518e-02
-5.649621412158012390e-02
6.735895294696092606e-04
-6.256642192602157593e-02
9.458287060260772705e-02
2.320065349340438843e-02
8.000447601079940796e-02
1.925967261195182800e-02
4.834344983100891113e-02
-8.873067051172256470e-02
-2.757973968982696533e-02
-2.613295242190361023e-02
4.780862480401992798e-02
-1.357900723814964294e-02
5.172904580831527710e-02
-8.405998349189758301e-02
-3.607249259948730469e-02
-3.431719262152910233e-03
-6.872405856847763062e-02
-4.228221252560615540e-02
-8.909463137388229370e-02
6.551038473844528198e-02
3.213087096810340881e-02
3.721840679645538330e-02
-1.063413769006729126e-01
-2.863015234470367432e-02
-9.580434113740921021e-02
-2.522383257746696472e-02
-3.963323310017585754e-02
8.741758763790130615e-02
-6.112067401409149170e-02
-4.483968392014503479e-02
-9.518740326166152954e-02
4.590184614062309265e-02
-6.897278875112533569e-02
-3.582306206226348877e-02
3.199448436498641968e-02
-5.230479314923286438e-02
-9.035900980234146118e-02
-2.239444851875305176e-02
1.049347147345542908e-01
7.454878836870193481e-02
1.762025989592075348e-02
-2.157891867682337761e-03
2.527541946619749069e-03
-7.643537968397140503e-02
-5.502318963408470154e-03
1.262366492301225662e-02
3.816105658188462257e-03
-7.031260523945093155e-03
-4.111819434911012650e-03
-2.113334834575653076e-02
4.507491365075111389e-02
-6.562061607837677002e-02
4.981616977602243423e-03
-8.265580236911773682e-02
-5.718730390071868896e-02
5.504021048545837402e-02
-4.833015426993370056e-02
5.666453018784523010e-02
-2.453160472214221954e-02
-3.104046173393726349e-02
4.303882271051406860e-02
-3.200676664710044861e-02
-8.111985772848129272e-02
2.789817750453948975e-02
6.802587211132049561e-02
-4.920345544815063477e-02
-1.674831099808216095e-02
6.648102402687072754e-02
-2.775460307020694017e-04
-4.653881769627332687e-03
9.468333795666694641e-03
-6.074449419975280762e-02
-7.453802227973937988e-02
7.550168037414550781e-02
1.769012212753295898e-02
-5.431687831878662109e-02
-4.247442632913589478e-02
-8.911655098199844360e-02
2.554197981953620911e-02
1.285518519580364227e-02
2.834439976140856743e-03
8.374340087175369263e-02
-2.333850972354412079e-02
2.985033579170703888e-02
3.435540571808815002e-02
-8.482497930526733398e-02
-6.095553934574127197e-02
-5.107027944177389145e-03
1.008560135960578918e-01
4.051188379526138306e-02
5.765512213110923767e-02
-6.551051139831542969e-02
-6.119072809815406799e-02
1.580515690147876740e-02
-9.540512412786483765e-02
9.484952688217163086e-02
-5.643511936068534851e-02
-9.526539593935012817e-02
-3.012205287814140320e-02
5.652702599763870239e-02
1.753272302448749542e-02
3.316823393106460571e-02
7.454555481672286987e-02
-4.216298460960388184e-03
-4.794764332473278046e-03
8.071216195821762085e-02
7.656762748956680298e-02
3.827700391411781311e-02
5.723126605153083801e-02
-1.033183112740516663e-01
-1.017477586865425110e-01
-4.494597017765045166e-02
-1.903077587485313416e-02
3.669946268200874329e-02
-2.388272993266582489e-02
-2.446020580828189850e-02
-1.958056353032588959e-02
1.318375580012798309e-02
4.006199166178703308e-02
6.812240928411483765e-02
3.576290234923362732e-02
-3.650612011551856995e-02
-4.580693785101175308e-03
-5.140368640422821045e-02
-6.653773784637451172e-02
-1.674032770097255707e-02
4.702707380056381226e-02
-7.155746221542358398e-02
-1.931854989379644394e-03
1.302044186741113663e-02
-9.261047840118408203e-02
4.083705693483352661e-02
-1.486937403678894043e-01
6.278441753238439560e-03
-1.628337614238262177e-02
3.531810268759727478e-02
-5.336044728755950928e-02
3.585367649793624878e-02
8.582168817520141602e-02
-7.537900004535913467e-03
-3.277111425995826721e-02
-3.376404941082000732e-02
-1.400588452816009521e-01
-2.127122692763805389e-02
-5.340787582099437714e-03
-2.758267894387245178e-02
-9.707361459732055664e-02
4.374825209379196167e-02
-8.707199990749359131e-02
4.874060675501823425e-02
-2.233419381082057953e-02
7.067783921957015991e-02
7.006957381963729858e-02
-1.765295118093490601e-02
6.813253462314605713e-02
-1.418585889041423798e-02
-5.997233465313911438e-02
4.333816841244697571e-02
3.278597723692655563e-03
-1.840543746948242188e-02
-8.442504703998565674e-02
-7.476965337991714478e-02
-2.094706706702709198e-02
-7.524731010198593140e-02
7.290852814912796021e-02
6.052095443010330200e-02
3.177070990204811096e-02
3.109322860836982727e-02
1.929766312241554260e-02
-7.625269144773483276e-02
-1.456138771027326584e-02
-3.450429812073707581e-02
-8.718021959066390991e-02
-1.333993393927812576e-02
3.154960647225379944e-02
-1.053756009787321091e-02
2.221433073282241821e-02
3.211824595928192139e-02
-2.866601338610053062e-03
-6.842769682407379150e-02
-8.768656849861145020e-02
7.139896973967552185e-03
4.883490968495607376e-03
-3.757928498089313507e-03
3.584036603569984436e-02
6.059417966753244400e-03
3.882940113544464111e-02
2.618987858295440674e-02
7.158251851797103882e-02
-4.617768526077270508e-02
4.491739673539996147e-04
6.911172997206449509e-03
2.278984896838665009e-02
-4.628375545144081116e-02
-2.285570465028285980e-02
2.155858650803565979e-02
3.042365051805973053e-02
3.031247481703758240e-02
1.086137630045413971e-02
8.837883174419403076e-02
-6.322977691888809204e-02
5.684388056397438049e-02
4.402712732553482056e-02
-5.063889548182487488e-03
5.209894478321075439e-02
1.611608080565929413e-02
6.446945667266845703e-02
-7.746036350727081299e-02
-8.101100102066993713e-03
-1.024887617677450180e-02
-8.500545471906661987e-02
-1.298622786998748779e-02
7.052931934595108032e-02
2.997067384421825409e-02
1.596982032060623169e-02
5.325088277459144592e-02
6.910831481218338013e-02
2.399642951786518097e-02
-7.740603387355804443e-02
-9.866427630186080933e-03
-1.582651957869529724e-02
2.895283512771129608e-02
2.091876603662967682e-02
7.958962023258209229e-02
2.141869068145751953e-02
2.268817042931914330e-03
6.173069030046463013e-02
-3.603877499699592590e-02
-2.530962042510509491e-02
3.851206973195075989e-02
-4.001956805586814880e-02
-2.483722008764743805e-02
2.998443692922592163e-02
4.710135608911514282e-02
-1.589433103799819946e-02
-9.899633936583995819e-03
1.885377801954746246e-02
6.109467148780822754e-02
1.073607057332992554e-01
-9.143819333985447884e-04
9.720322676002979279e-03
6.805163621902465820e-02
-7.221500575542449951e-02
-9.111676365137100220e-02
1.882395707070827484e-02
5.387489125132560730e-02
-7.508437335491180420e-02
-6.736350804567337036e-02
-8.917798101902008057e-02
-5.360170081257820129e-02
2.115473523736000061e-02
-7.730945199728012085e-02
-8.426900953054428101e-02
3.377807885408401489e-02
-1.506811846047639847e-02
-3.565702214837074280e-02
-5.359060317277908325e-02
-7.182191312313079834e-02
1.803301461040973663e-02
4.197952151298522949e-02
6.915748864412307739e-02
-8.293271064758300781e-03
5.819762870669364929e-02
-4.010253772139549255e-02
4.367833584547042847e-02
7.494240999221801758e-02
6.800019741058349609e-02
-1.555823814123868942e-02
7.944098860025405884e-02
-8.321343921124935150e-03
-1.800101809203624725e-02
2.984146587550640106e-03
7.072980981320142746e-03
-5.808027833700180054e-02
6.500052660703659058e-02
8.705713599920272827e-02
5.605623871088027954e-02
3.894422668963670731e-03
-1.274979021400213242e-02
-7.526909559965133667e-02
-7.826671749353408813e-02
-1.860918849706649780e-02
-1.337341498583555222e-02
-2.640467137098312378e-02
-6.958439201116561890e-02
6.216610223054885864e-02
-1.633432693779468536e-02
7.069037854671478271e-02
-8.168011554516851902e-04
-3.193499520421028137e-02
-4.913869127631187439e-02
-2.450221218168735504e-02
-3.592061623930931091e-02
-7.317040581256151199e-03
-3.320775181055068970e-02
6.616530567407608032e-02
-3.802429139614105225e-02
-3.769572079181671143e-02
3.982197865843772888e-02
-1.381139177829027176e-02
4.452758654952049255e-02
4.678114876151084900e-02
-4.437297582626342773e-02
5.490323156118392944e-02
-2.342990413308143616e-02
-4.814759269356727600e-02
-4.388630390167236328e-02
-1.171389885712414980e-04
2.221081592142581940e-02
-3.128907829523086548e-02
-6.853249669075012207e-02
-2.388156717643141747e-04
-2.365530654788017273e-02
7.804256677627563477e-02
7.590448856353759766e-02
-7.550146430730819702e-02
-5.635812506079673767e-02
-7.832916080951690674e-02
-1.182605847716331482e-01
-3.257493674755096436e-02
-3.510667383670806885e-02
1.648318581283092499e-02
-9.719120711088180542e-02
4.457166884094476700e-03
-3.575671836733818054e-02
7.730989716947078705e-03
1.955613493919372559e-02
-4.464816674590110779e-02
3.233350440859794617e-02
2.221978455781936646e-02
-4.641639813780784607e-02
-1.854950748383998871e-02
-2.215327136218547821e-02
-7.556230574846267700e-02
6.267443299293518066e-02
1.031236350536346436e-02
9.015501476824283600e-03
6.302869319915771484e-02
-7.569795474410057068e-03
5.474350973963737488e-02
-7.622531801462173462e-02
-5.574164167046546936e-02
-2.275311574339866638e-02
-6.924745440483093262e-02
2.034614235162734985e-02
-3.245134279131889343e-02
-5.757942795753479004e-02
-1.833778369473293424e-04
8.397513628005981445e-02
-1.346025709062814713e-02
-4.335683211684226990e-02
-8.699193596839904785e-02
-4.359643906354904175e-02
4.078434780240058899e-02
4.996549338102340698e-02
-2.780536003410816193e-02
5.225604772567749023e-02
6.761340051889419556e-02
5.183649808168411255e-02
9.949851781129837036e-02
-3.022636100649833679e-02
4.160455614328384399e-02
3.440025821328163147e-02
6.529387086629867554e-02
-6.505980342626571655e-02
-6.727976351976394653e-02
6.012505851686000824e-03
-8.168875426054000854e-02
9.485037997364997864e-03
-6.699056178331375122e-02
1.758945174515247345e-02
3.319595754146575928e-02
-7.519505918025970459e-02
6.968693435192108154e-02
8.425650745630264282e-02
5.443824827671051025e-02
2.700101584196090698e-02
-9.217308834195137024e-03
-7.598596811294555664e-02
1.089919079095125198e-02
6.696850527077913284e-03
7.800357043743133545e-02
-6.306104362010955811e-03
-3.544767200946807861e-02
-6.477226316928863525e-02
2.884372510015964508e-02
3.324314719066023827e-03
-3.327947109937667847e-02
3.274770453572273254e-02
-1.769292727112770081e-02
-7.707808911800384521e-02
5.625690333545207977e-03
9.960727393627166748e-02
-4.467014968395233154e-02
6.355974823236465454e-02
-1.084479223936796188e-02
5.911289155483245850e-02
7.609934080392122269e-03
-4.868644848465919495e-02
5.617317184805870056e-02
-4.569651186466217041e-02
6.004978716373443604e-02
3.269718959927558899e-02
7.617946714162826538e-02
-7.878286996856331825e-04
-2.521348744630813599e-02
9.116984158754348755e-02
-2.001087926328182220e-02
-1.649544201791286469e-02
4.030854254961013794e-02
2.782220952212810516e-02
1.645978912711143494e-02
3.999032080173492432e-03
-1.273066829890012741e-02
2.230777777731418610e-02
-2.662884816527366638e-02
-7.029811292886734009e-02
-2.326639182865619659e-02
4.603076353669166565e-02
1.866226829588413239e-02
9.990797378122806549e-03
-5.703563615679740906e-02
-8.433844894170761108e-02
-7.495597004890441895e-02
-4.640183970332145691e-02
7.196541130542755127e-02
-1.875556260347366333e-02
-8.701987564563751221e-02
7.427752763032913208e-02
8.140034228563308716e-02
-7.024213671684265137e-02
7.557362318038940430e-02
5.021619051694869995e-02
4.132063686847686768e-02
3.655920177698135376e-02
-6.363713741302490234e-02
-6.051130965352058411e-02
9.703442454338073730e-02
-2.402573078870773315e-02
7.849271595478057861e-02
7.598922401666641235e-02
-6.139214336872100830e-02
-1.157129276543855667e-02
1.036928035318851471e-02
6.382614374160766602e-02
-1.820982899516820908e-03
-6.592383980751037598e-02
-1.080758217722177505e-02
6.897357106208801270e-02
3.663501515984535217e-02
-1.916717737913131714e-02
4.317831620573997498e-02
-7.148505747318267822e-02
-9.603235870599746704e-02
-3.285480290651321411e-02
6.446835398674011230e-02
8.683200180530548096e-02
4.751400556415319443e-03
-4.935164377093315125e-02
-1.981300674378871918e-02
5.271026492118835449e-02
-4.864965006709098816e-02
7.705789804458618164e-02
5.162250623106956482e-02
-3.524448722600936890e-02
3.469223901629447937e-02
3.695841133594512939e-02
-9.273118525743484497e-02
-1.007529161870479584e-02
2.866778336465358734e-02
-3.741711378097534180e-02
1.064445916563272476e-02
-3.025114722549915314e-02
-3.227365016937255859e-02
-1.544699538499116898e-02
4.654185846447944641e-02
2.686763741075992584e-02
3.602197021245956421e-02
3.659037873148918152e-02
2.162590809166431427e-02
-8.331374078989028931e-02
-2.150672860443592072e-02
4.569215700030326843e-02
-3.416259214282035828e-02
9.874035418033599854e-02
3.712472319602966309e-02
-2.930372767150402069e-02
1.306547224521636963e-02
-8.399906754493713379e-02
9.769232943654060364e-03
5.258770659565925598e-02
-1.685471273958683014e-02
6.723139435052871704e-02
-2.536091022193431854e-02
7.670862972736358643e-02
-1.122897490859031677e-02
4.330139607191085815e-02
5.375785008072853088e-02
-1.967467553913593292e-02
6.798920780420303345e-02
6.450826674699783325e-02
2.059659175574779510e-02
-1.128028407692909241e-01
2.840767428278923035e-02
-1.818865723907947540e-02
5.040995404124259949e-02
1.295266449451446533e-01
6.590764224529266357e-02
-7.938699424266815186e-02
-4.708669707179069519e-02
1.372520439326763153e-02
4.291543364524841309e-02
5.526524782180786133e-02
5.720264464616775513e-02
-5.147653073072433472e-02
8.458389341831207275e-02
3.393231704831123352e-02
9.187505394220352173e-02
-2.949216403067111969e-03
8.026582747697830200e-02
-6.159232463687658310e-03
-1.946351490914821625e-02
-5.767489597201347351e-02
5.319855734705924988e-02
7.738972455263137817e-02
-3.012443892657756805e-02
3.047301433980464935e-02
2.796716429293155670e-02
9.182221442461013794e-02
3.598689660429954529e-02
-2.936556376516819000e-02
-1.427318528294563293e-02
-1.798253133893013000e-02
-3.691101446747779846e-02
4.488345608115196228e-02
4.695219174027442932e-02
2.290737256407737732e-02
-6.271144375205039978e-03
-8.977044373750686646e-02
-1.345865707844495773e-02
3.272720053791999817e-02
-7.050006091594696045e-02
-1.706625684164464474e-03
-2.496474236249923706e-02
4.756727069616317749e-02
6.990072876214981079e-02
-3.019735589623451233e-02
-8.317412436008453369e-02
-6.791061162948608398e-02
-4.334011301398277283e-02
4.655980691313743591e-02
5.569489300251007080e-02
1.917484588921070099e-02
-7.720572501420974731e-02
-4.151316732168197632e-02
6.764592602849006653e-03
-1.442357432097196579e-02
6.158342212438583374e-02
1.956771500408649445e-02
-1.058919727802276611e-02
2.069244161248207092e-02
-2.951293997466564178e-02
3.889690712094306946e-02
2.560506947338581085e-02
9.532980620861053467e-02
2.602220699191093445e-02
-1.119993906468153000e-02
-6.234850734472274780e-02
6.360690295696258545e-02
-3.251255303621292114e-02
-2.426713891327381134e-02
-5.823478102684020996e-02
2.033186890184879303e-02
5.458826199173927307e-02
4.984667757526040077e-04
2.952378429472446442e-02
6.334470212459564209e-02
-2.835218049585819244e-02
1.661101356148719788e-02
2.236643806099891663e-02
-8.772249519824981689e-02
1.103083509951829910e-02
-5.604427680373191833e-02
-1.578295975923538208e-02
4.018775373697280884e-02
5.357756093144416809e-02
-5.098577216267585754e-02
-2.534673549234867096e-02
4.225064441561698914e-02
-4.919938370585441589e-02
1.177057158201932907e-02
8.160214871168136597e-02
1.225320324301719666e-01
-8.509080857038497925e-02
-2.891867980360984802e-02
-7.807700335979461670e-02
-6.763476133346557617e-02
-6.921194959431886673e-03
1.293793171644210815e-01
6.683234125375747681e-02
2.712020464241504669e-02
-9.481623023748397827e-02
2.371945418417453766e-02
-1.783485524356365204e-02
5.254996940493583679e-02
9.072166681289672852e-02
6.398146599531173706e-02
9.625194966793060303e-02
-8.706719428300857544e-02
-5.586839467287063599e-02
6.266255676746368408e-02
8.280195295810699463e-02
3.916832432150840759e-02
8.236345648765563965e-02
-5.387480184435844421e-02
-3.269073739647865295e-02
6.947417557239532471e-02
4.006585106253623962e-02
-7.993905991315841675e-02
-2.404484897851943970e-02
-3.150408156216144562e-03
3.962552547454833984e-02
5.409927573055028915e-03
4.481160268187522888e-02
-7.155295461416244507e-02
6.671907007694244385e-02
-3.712031990289688110e-02
6.969185918569564819e-02
1.147014740854501724e-02
-6.839862465858459473e-02
-9.181513451039791107e-03
-6.574897468090057373e-02
1.014004871249198914e-01
4.567644000053405762e-02
-1.285648997873067856e-02
1.079856301657855511e-03
2.676748484373092651e-02
-8.635491132736206055e-02
7.460249960422515869e-02
3.209204971790313721e-02
8.402003441005945206e-04
4.902754351496696472e-02
1.499320846050977707e-02
6.102912500500679016e-02
2.062369138002395630e-02
-4.456767067313194275e-02
-4.134030267596244812e-02
3.560328111052513123e-02
5.146261677145957947e-02
6.073272228240966797e-02
6.951400637626647949e-02
-7.197339832782745361e-02
-7.844556123018264771e-02
-4.037204757332801819e-02
3.036230616271495819e-02
-1.790140569210052490e-02
-8.099304512143135071e-03
-3.624372184276580811e-02
3.453249484300613403e-02
7.350998371839523315e-02
6.738571077585220337e-02
-7.981456816196441650e-02
-4.321099817752838135e-02
-2.459258958697319031e-02
3.430370241403579712e-02
4.173814505338668823e-02
-7.877413183450698853e-02
7.221614569425582886e-02
1.189846731722354889e-02
6.417008489370346069e-02
-1.112445443868637085e-01
-1.053734272718429565e-01
-3.003972023725509644e-02
4.643159359693527222e-02
1.608204841613769531e-02
-4.639955237507820129e-03
4.013889655470848083e-02
-4.972089454531669617e-02
-4.434146732091903687e-02
9.768115356564521790e-03
-1.018226221203804016e-01
-2.886561676859855652e-02
-7.868777960538864136e-02
7.250282913446426392e-02
5.952616408467292786e-02
-6.566970050334930420e-02
-2.204409986734390259e-02
-2.559542097151279449e-02
-5.189250037074089050e-02
-4.108737688511610031e-03
1.607755385339260101e-02
8.744361251592636108e-02
-1.925569027662277222e-02
4.710483178496360779e-02
4.483180586248636246e-03
1.560028176754713058e-02
2.671132981777191162e-02
6.414107233285903931e-02
-6.691320240497589111e-02
5.763756856322288513e-02
3.079273365437984467e-02
6.178243085741996765e-02
-8.632533997297286987e-02
-3.789545735344290733e-03
-6.268111616373062134e-02
-4.914110153913497925e-02
1.100738868117332458e-01
-5.493355914950370789e-02
-7.936903834342956543e-02
-2.297617122530937195e-02
-1.839816453866660595e-03
-4.967044293880462646e-02
-2.528618462383747101e-02
-1.530303061008453369e-02
-1.568646170198917389e-02
3.251340240240097046e-03
-2.587007358670234680e-02
1.277996040880680084e-02
5.522264540195465088e-02
1.585512608289718628e-02
-9.285870939493179321e-02
4.261713102459907532e-02
1.952674798667430878e-02
-5.816542357206344604e-02
9.941388666629791260e-02
-5.959065631031990051e-02
-1.854695193469524384e-02
1.935628987848758698e-02
-5.292175337672233582e-02
6.650490313768386841e-02
-1.106651201844215393e-01
1.503380760550498962e-02
1.408769749104976654e-02
3.813492879271507263e-02
9.609507769346237183e-02
5.725612491369247437e-02
4.435959272086620331e-03
1.467319391667842865e-02
-9.078028053045272827e-02
4.310595616698265076e-02
7.841923832893371582e-02
-3.282727673649787903e-02
2.773762121796607971e-02
1.795523799955844879e-02
-3.346705064177513123e-02
-2.259003929793834686e-02
-4.986263439059257507e-02
-1.410027127712965012e-02
-5.133606493473052979e-02
7.604713551700115204e-03
-5.900491029024124146e-02
2.954822778701782227e-02
-8.241762220859527588e-02
-6.018309667706489563e-02
-6.033048033714294434e-02
7.723564654588699341e-02
7.365972548723220825e-02
6.390560418367385864e-02
5.156442895531654358e-02
-3.560130670666694641e-02
7.490080595016479492e-02
6.829424947500228882e-02
3.180651366710662842e-02
-3.078975481912493706e-03
-7.534750271588563919e-03
1.239661034196615219e-02
2.062527090311050415e-02
5.977075919508934021e-02
-3.271372243762016296e-02
7.728163897991180420e-02
-7.611021399497985840e-02
-4.889994859695434570e-02
-2.601572498679161072e-02
7.262960541993379593e-03
-2.245467528700828552e-02
-2.600378356873989105e-02
3.724272176623344421e-02
-8.122113347053527832e-02
-3.774656355381011963e-02
1.477407757192850113e-02
8.200893551111221313e-02
-2.308690361678600311e-02
-6.512955576181411743e-02
-1.152569893747568130e-02
-5.090360343456268311e-02
-7.212525606155395508e-02
5.039661005139350891e-02
1.057777553796768188e-01
1.605377160012722015e-02
3.948730416595935822e-03
-3.711534664034843445e-02
5.391757562756538391e-02
7.002305239439010620e-02
2.175597473978996277e-02
1.896237581968307495e-02
1.877667196094989777e-02
8.819607901386916637e-04
-8.352755010128021240e-02
-6.045034900307655334e-02
3.621995076537132263e-02
-1.243765652179718018e-02
9.269299358129501343e-02
-8.772617578506469727e-02
7.455325126647949219e-02
1.599130593240261078e-02
-7.306557614356279373e-03
9.389293938875198364e-02
-3.957946598529815674e-02
-2.420824766159057617e-02
-1.994901336729526520e-02
-1.094285747967660427e-03
-2.402876317501068115e-02
8.077801018953323364e-02
-6.071362271904945374e-02
-7.425143569707870483e-02
-1.103113126009702682e-02
-3.646025061607360840e-02
-6.707324832677841187e-02
4.071326553821563721e-02
5.798187106847763062e-03
-5.164760723710060120e-02
-6.722845882177352905e-02
7.293368130922317505e-02
-1.798384240828454494e-03
9.003995358943939209e-02
7.033100724220275879e-02
7.324630767107009888e-02
-5.886626243591308594e-02
9.195361286401748657e-02
-6.035275384783744812e-02
-4.627894237637519836e-02
2.165653044357895851e-03
-5.154493823647499084e-02
-2.011240459978580475e-02
4.690465331077575684e-02
-1.387554034590721130e-02
-4.409772157669067383e-02
3.155566006898880005e-02
6.988849490880966187e-02
-1.264640362933278084e-03
1.609331741929054260e-02
-5.348132178187370300e-02
4.249138757586479187e-02
6.682950258255004883e-02
3.012006729841232300e-02
1.536347530782222748e-02
7.529343664646148682e-02
-6.350435316562652588e-02
3.719657659530639648e-02
2.124755084514617920e-02
-2.083632163703441620e-02
-4.596705734729766846e-02
-4.892379045486450195e-02
-6.723610311746597290e-02
-3.509906306862831116e-02
-4.756360314786434174e-03
2.202721498906612396e-02
-9.545981884002685547e-02
2.797462418675422668e-02
8.764439821243286133e-02
-7.392499595880508423e-02
7.759307324886322021e-02
-6.734830886125564575e-02
4.580443352460861206e-02
8.495242334902286530e-03
1.576146669685840607e-02
-7.625368237495422363e-02
7.218467444181442261e-02
8.683994412422180176e-02
5.831973999738693237e-02
-5.209843814373016357e-02
3.705839812755584717e-02
-4.595785588026046753e-02
-3.296510502696037292e-02
-3.863347321748733521e-02
-1.382844988256692886e-02
-5.699315294623374939e-02
-2.851330488920211792e-02
1.494929427281022072e-03
-6.892810575664043427e-03
-2.854866720736026764e-02
9.755955636501312256e-02
5.091308802366256714e-02
-4.020873829722404480e-02
6.810338795185089111e-02
-5.954169109463691711e-02
-1.272933674044907093e-03
3.522455692291259766e-02
3.466953337192535400e-02
-6.459376215934753418e-02
-1.463617850095033646e-02
-4.591165482997894287e-02
-5.944744125008583069e-02
-6.916184723377227783e-02
-5.857751145958900452e-02
1.649414747953414917e-02
-1.851023361086845398e-02
5.691094323992729187e-02
2.122124843299388885e-02
1.922467723488807678e-02
1.145360022783279419e-01
-4.137520119547843933e-02
-9.974665008485317230e-03
-2.267120964825153351e-02
2.698172442615032196e-02
-9.701701812446117401e-03
3.321882709860801697e-02
7.368608377873897552e-03
-4.429978877305984497e-02
6.690078973770141602e-02
2.525080926716327667e-02
-4.817320778965950012e-02
-7.807479053735733032e-02
-2.271532081067562103e-02
6.747230142354965210e-02
-7.656321674585342407e-02
-5.297252908349037170e-02
4.102337732911109924e-02
4.838937520980834961e-02
7.430982589721679688e-02
7.085996121168136597e-02
-5.561308190226554871e-02
-6.566293071955442429e-03
1.611732761375606060e-03
-7.637823373079299927e-02
4.668001458048820496e-02
4.383872263133525848e-03
-3.046235442161560059e-02
6.229412183165550232e-02
-6.279653310775756836e-02
5.594893172383308411e-02
1.676938869059085846e-02
-7.950154691934585571e-02
-8.217927068471908569e-02
-5.833831056952476501e-02
5.052027851343154907e-02
1.747054047882556915e-02
-3.105597570538520813e-02
1.923344284296035767e-02
-4.490588791668415070e-03
-6.410867720842361450e-02
4.838168248534202576e-02
4.164333269000053406e-02
8.712126314640045166e-02
-7.132235914468765259e-02
-2.886418020352721214e-03
-9.464233368635177612e-02
3.811092674732208252e-02
2.231117710471153259e-02
1.523954235017299652e-02
1.048770546913146973e-01
-7.303661853075027466e-02
-4.198618978261947632e-02
8.286069333553314209e-02
-3.369662165641784668e-02
-2.006058394908905029e-02
6.352044641971588135e-02
-4.575978964567184448e-02
1.554111391305923462e-02
3.412594273686408997e-02
-8.316309005022048950e-02
-3.756136447191238403e-02
-3.625038266181945801e-02
6.212545931339263916e-02
8.166547864675521851e-02
-3.266044333577156067e-02
5.401069670915603638e-02
1.936184614896774292e-02
7.120448350906372070e-02
4.471036791801452637e-02
2.506640180945396423e-02
2.405138313770294189e-02
-7.341780513525009155e-02
-2.831359207630157471e-02
-4.620407149195671082e-02
-3.613284602761268616e-02
-5.002588778734207153e-02
-7.776009384542703629e-03
1.068848446011543274e-01
1.788647100329399109e-02
2.091926150023937225e-02
-2.720224857330322266e-02
7.347100973129272461e-02
3.204371035099029541e-02
3.109801374375820160e-02
-3.434800729155540466e-02
2.099996432662010193e-02
9.488017112016677856e-02
-7.734722644090652466e-02
-1.579929701983928680e-02
7.126455754041671753e-02
1.276531815528869629e-02
5.141203477978706360e-02
-5.985325574874877930e-02
-5.011323094367980957e-02
-5.220977123826742172e-03
-7.543753832578659058e-02
-7.109569013118743896e-02
-3.415792062878608704e-02
2.348027005791664124e-02
2.673248760402202606e-02
4.787930101156234741e-02
-2.171586640179157257e-02
3.934623301029205322e-02
5.091674625873565674e-03
5.840424075722694397e-02
6.604200601577758789e-02
2.593214064836502075e-02
5.763571336865425110e-02
8.102676272392272949e-02
7.283224910497665405e-02
3.954653069376945496e-02
-1.740793325006961823e-02
2.842285297811031342e-02
-7.689112424850463867e-02
7.211580127477645874e-02
-3.817567601799964905e-02
-1.405072864145040512e-02
9.835565835237503052e-02
9.220416098833084106e-02
-5.151091516017913818e-02
-1.099971774965524673e-02
-6.134769879281520844e-03
6.337597221136093140e-02
3.338277339935302734e-02
4.911470785737037659e-02
-7.525500655174255371e-02
1.029673777520656586e-02
-3.767297789454460144e-02
1.909004896879196167e-02
-4.575196281075477600e-02
2.760323695838451385e-02
2.795830182731151581e-02
-6.655997037887573242e-02
-6.360625475645065308e-02
2.159410156309604645e-02
-6.409452110528945923e-02
8.906083554029464722e-02
-1.912251487374305725e-02
3.152207657694816589e-02
-3.017920255661010742e-02
-5.945644155144691467e-02
-5.981313809752464294e-02
4.607440531253814697e-02
-9.415683150291442871e-02
1.401633303612470627e-02
-4.773093014955520630e-02
7.967815548181533813e-02
-4.051600024104118347e-02
4.058830067515373230e-02
-1.545887161046266556e-02
-5.209495127201080322e-02
7.887451350688934326e-02
1.846929825842380524e-02
3.310037776827812195e-02
8.663894236087799072e-02
5.771023780107498169e-02
-8.406655490398406982e-02
-1.728909276425838470e-02
8.006507158279418945e-02
-6.077143549919128418e-02
-6.076003983616828918e-02
-2.265171706676483154e-02
-7.362683862447738647e-02
-7.505029439926147461e-02
-3.199823200702667236e-02
1.680249907076358795e-02
8.133851736783981323e-02
9.966296702623367310e-02
-5.656900629401206970e-02
9.223884344100952148e-02
8.209278434514999390e-02
6.472627818584442139e-02
1.802931423299014568e-03
-1.820397377014160156e-02
6.991805881261825562e-02
6.644768267869949341e-02
6.753659993410110474e-02
2.370028942823410034e-02
-3.922361135482788086e-02
-2.255097962915897369e-02
-6.366175413131713867e-02
-1.094055995345115662e-01
5.265743285417556763e-02
-5.781262740492820740e-02
5.393588542938232422e-02
-5.754526704549789429e-02
-2.361871115863323212e-02
3.801575303077697754e-02
1.425136066973209381e-02
6.006066687405109406e-03
6.203017011284828186e-02
4.411583766341209412e-02
5.874659866094589233e-02
1.391940191388130188e-02
8.903942257165908813e-02
2.261577360332012177e-02
-4.208891652524471283e-03
-8.141824044287204742e-03
2.922098152339458466e-02
-4.045264050364494324e-02
8.839100599288940430e-02
-1.135482173413038254e-02
4.405307024717330933e-02
-7.790594547986984253e-02
5.040534958243370056e-02
-6.576322019100189209e-02
-4.366397485136985779e-02
7.003793120384216309e-02
-1.119892578572034836e-02
2.014067582786083221e-02
-2.086683921515941620e-02
7.778808940201997757e-03
6.648039072751998901e-02
-1.292380876839160919e-02
-1.763648912310600281e-02
-2.162709645926952362e-02
-5.944333225488662720e-02
-4.539098963141441345e-02
-3.945652768015861511e-02
-7.309313118457794189e-02
7.379809767007827759e-02
3.140477836132049561e-02
3.837831318378448486e-02
-1.858166977763175964e-02
1.056219935417175293e-01
4.986522346735000610e-02
-8.589959889650344849e-02
8.627283386886119843e-03
-5.959003791213035583e-02
-7.562780380249023438e-02
-2.227428555488586426e-02
-2.645844034850597382e-02
5.672220140695571899e-02
-3.900159895420074463e-02
-3.064265660941600800e-02
7.096946984529495239e-02
-3.441202640533447266e-02
7.196044921875000000e-02
4.523691907525062561e-02
-1.026745960116386414e-01
6.127833575010299683e-02
-4.169860109686851501e-02
2.791342511773109436e-02
6.302418559789657593e-02
9.915812313556671143e-02
7.549748569726943970e-02
8.659019134938716888e-03
-3.309323638677597046e-02
7.303278893232345581e-02
-6.536070257425308228e-02
7.160156965255737305e-02
-8.696808665990829468e-02
-5.306205153465270996e-02
5.744846165180206299e-02
5.352523922920227051e-02
2.409976162016391754e-02
7.490005344152450562e-02
3.621618822216987610e-02
6.237486377358436584e-02
7.508460432291030884e-02
-4.470989573746919632e-03
6.019841507077217102e-02
5.247638374567031860e-02
-4.326974228024482727e-02
-7.760837674140930176e-02
4.622425511479377747e-02
-4.730111360549926758e-02
8.738275617361068726e-02
6.195303052663803101e-02
-7.783363759517669678e-02
3.675772994756698608e-02
-4.181628301739692688e-02
-8.726080507040023804e-02
-1.387620251625776291e-02
9.332004189491271973e-02
5.620922148227691650e-02
-9.996729344129562378e-02
-2.530329674482345581e-02
-1.150497584603726864e-03
5.329083651304244995e-02
-5.855054408311843872e-02
-9.857553988695144653e-02
-4.077789559960365295e-02
-2.537644095718860626e-02
3.261083737015724182e-02
6.909808516502380371e-02
-4.326122999191284180e-02
1.639077439904212952e-03
7.219392806291580200e-02
-5.423283949494361877e-02
9.603619575500488281e-02
2.256463281810283661e-02
-9.037646651268005371e-02
-7.001449819654226303e-03
3.923577070236206055e-02
9.410484135150909424e-02
6.339848786592483521e-02
9.577605128288269043e-02
1.106348708271980286e-01
-2.361157163977622986e-02
-7.816333323717117310e-02
-4.147677868604660034e-02
-3.715753555297851562e-02
1.075010299682617188e-01
-2.058005891740322113e-02
9.160175174474716187e-02
5.259805172681808472e-02
1.032537873834371567e-02
3.665202483534812927e-02
2.599444054067134857e-02
-6.728855520486831665e-02
3.151243180036544800e-02
1.093541085720062256e-01
-5.738015845417976379e-02
4.436894878745079041e-02
3.006955608725547791e-02
6.841072440147399902e-02
5.485408008098602295e-03
-1.905321329832077026e-02
-4.234782606363296509e-02
-1.222672462463378906e-01
-1.032381132245063782e-01
3.499014675617218018e-02
6.365413218736648560e-02
4.809191450476646423e-02
-7.897657342255115509e-03
2.175935916602611542e-02
-5.717296898365020752e-02
7.551942765712738037e-02
2.668870054185390472e-02
-6.086050719022750854e-02
9.696882963180541992e-02
1.035988181829452515e-01
-3.927844390273094177e-02
-8.820527582429349422e-04
-6.384746171534061432e-03
3.949543833732604980e-02
-8.478492498397827148e-02
-5.600221455097198486e-02
-1.670237258076667786e-02
-5.685333162546157837e-03
5.369501560926437378e-02
-3.529747575521469116e-02
9.205954521894454956e-02
1.201732307672500610e-01
-9.717262536287307739e-02
4.942542314529418945e-02
7.795211859047412872e-03
-1.262335944920778275e-02
-2.740298770368099213e-02
-2.653660438954830170e-02
-5.239664390683174133e-02
5.257036164402961731e-02
-9.174409322440624237e-03
6.022580340504646301e-02
3.661360591650009155e-02
8.415460586547851562e-02
8.841871470212936401e-02
7.934085279703140259e-02
-6.113680452108383179e-02
1.646803505718708038e-02
-4.287444055080413818e-03
9.079182893037796021e-02
-1.404371764510869980e-02
7.324040681123733521e-02
-1.317021250724792480e-01
-5.395090207457542419e-02
-1.157210916280746460e-01
-2.487763389945030212e-02
4.781033843755722046e-02
-4.816784709692001343e-02
-9.878220409154891968e-02
-1.685981266200542450e-02
-1.613264530897140503e-02
-2.857713587582111359e-02
-1.010138448327779770e-02
1.724635064601898193e-02
-6.969669461250305176e-02
3.448849171400070190e-02
-4.944465681910514832e-02
5.459084361791610718e-02
3.603315353393554688e-02
6.906986981630325317e-02
3.687697928398847580e-03
-5.792614817619323730e-02
-8.994631469249725342e-03
-5.833855643868446350e-02
2.946026436984539032e-02
-5.595504865050315857e-02
2.238518744707107544e-02
4.389557614922523499e-02
5.657980218529701233e-02
4.367039725184440613e-02
6.753384321928024292e-02
-2.812859043478965759e-02
-5.972512438893318176e-02
-4.949288442730903625e-02
-8.583548478782176971e-03
6.463099271059036255e-02
3.737673535943031311e-02
-4.263088852167129517e-02
-4.359563440084457397e-02
-5.958979576826095581e-02
4.477221146225929260e-02
3.926783800125122070e-02
5.114601179957389832e-02
8.673512935638427734e-02
-3.597382456064224243e-02
6.988163292407989502e-02
2.301846072077751160e-02
2.837320324033498764e-03
1.094227470457553864e-02
3.446520119905471802e-02
-5.979559198021888733e-02
-5.935861542820930481e-02
-9.977938979864120483e-02
3.332508727908134460e-02
-8.996555209159851074e-02
-7.323104143142700195e-02
8.126123994588851929e-02
-5.606534332036972046e-02
1.950777322053909302e-02
5.659694783389568329e-03
-6.178354099392890930e-02
2.713265828788280487e-02
-6.039065308868885040e-03
-5.081317201256752014e-02
8.703848719596862793e-02
3.199098631739616394e-02
-6.508289836347103119e-03
-6.992613524198532104e-02
1.693982444703578949e-02
6.114144250750541687e-02
9.417983144521713257e-02
2.019990608096122742e-02
-8.474393188953399658e-02
-3.114544413983821869e-02
-7.137422263622283936e-02
5.818458274006843567e-02
5.011235177516937256e-02
4.093151539564132690e-03
7.425390928983688354e-02
1.076276823878288269e-01
-5.364546552300453186e-02
7.045697420835494995e-03
3.992776945233345032e-02
-6.510480493307113647e-02
3.219350799918174744e-02
3.874043747782707214e-02
-6.833094358444213867e-02
6.929967552423477173e-03
-2.846025628969073296e-03
4.908460751175880432e-02
4.267672076821327209e-02
4.240744933485984802e-02
1.034793108701705933e-01
5.574323236942291260e-03
5.370350927114486694e-02
-4.491663724184036255e-02
-6.912522017955780029e-02
-2.471130527555942535e-02
-3.702553361654281616e-02
-2.925841510295867920e-02
1.013680770993232727e-01
-1.435033418238162994e-02
-4.825696349143981934e-02
-3.182018920779228210e-02
1.135444175451993942e-02
-3.777953982353210449e-02
3.126717731356620789e-02
-1.041964069008827209e-01
2.806691825389862061e-02
-4.436694085597991943e-02
-6.883191317319869995e-02
9.237772971391677856e-02
-8.234820514917373657e-02
2.269251272082328796e-03
-1.921948418021202087e-02
-2.343916706740856171e-02
-4.641159623861312866e-02
-4.545156843960285187e-03
-6.804756075143814087e-02
-4.928127303719520569e-02
9.182253479957580566e-02
7.310255616903305054e-02
4.061312973499298096e-02
4.864660277962684631e-02
-8.005838841199874878e-02
-5.424194410443305969e-02
-1.994318142533302307e-02
3.512930497527122498e-02
7.137835491448640823e-04
3.058149665594100952e-02
7.213918119668960571e-02
-6.863786838948726654e-03
-6.957487761974334717e-02
-4.913766309618949890e-02
8.791185170412063599e-02
-4.170111939311027527e-02
-1.050857920199632645e-02
-5.322126206010580063e-03
3.694105520844459534e-02
5.573858320713043213e-02
-2.493451535701751709e-02
8.091992139816284180e-02
-3.264577686786651611e-02
2.252880111336708069e-02
7.156832516193389893e-02
5.710586160421371460e-02
-7.823506742715835571e-02
-1.527252793312072754e-02
-1.728500705212354660e-03
4.469989985227584839e-02
-3.802951052784919739e-02
-4.293769225478172302e-02
2.538855560123920441e-02
5.844195187091827393e-02
-7.617876678705215454e-02
3.630203008651733398e-02
-6.606879085302352905e-02
-3.397472575306892395e-02
-9.058324247598648071e-02
5.994548648595809937e-02
-1.381871756166219711e-02
1.393670681864023209e-02
-8.908351510763168335e-02
1.373413484543561935e-02
-2.644180320203304291e-02
6.113163754343986511e-02
-9.231100976467132568e-02
-7.432281225919723511e-02
-3.867038711905479431e-02
4.685625433921813965e-02
-1.515108346939086914e-02
-5.310766398906707764e-02
-2.671250142157077789e-03
-3.949687257409095764e-02
-6.339479237794876099e-02
3.181985020637512207e-02
-3.582512028515338898e-03
2.022642455995082855e-02
-1.121882349252700806e-02
-8.054652065038681030e-02
6.854160875082015991e-02
5.765224248170852661e-02
6.966220587491989136e-02
-4.296536371111869812e-02
5.079855397343635559e-02
-1.266773696988821030e-02
-5.143215879797935486e-02
-9.156007319688796997e-02
-2.582455426454544067e-02
-8.308118581771850586e-02
3.812573850154876709e-03
-4.895417392253875732e-02
7.291649281978607178e-02
4.459776356816291809e-02
-6.168522872030735016e-03
-6.067253276705741882e-02
-4.693017154932022095e-02
-4.190847650170326233e-02
-1.199700217694044113e-02
5.662295594811439514e-02
6.744815409183502197e-02
-1.759691536426544189e-02
-4.741165786981582642e-02
-2.188373543322086334e-02
-5.697961524128913879e-02
-8.612348698079586029e-03
5.743895843625068665e-02
-1.178371068090200424e-02
3.588040173053741455e-02
2.935620956122875214e-02
-4.636526480317115784e-02
8.808652311563491821e-02
2.570291981101036072e-02
8.299421519041061401e-02
4.322291910648345947e-02
6.792774051427841187e-02
-6.326968781650066376e-03
-9.256552159786224365e-02
-1.290547754615545273e-02
9.815373778110370040e-05
-8.852120372466742992e-04
-6.594403833150863647e-02
-5.453835427761077881e-02
-6.868434697389602661e-02
-2.331912517547607422e-03
-5.831579491496086121e-02
4.603469371795654297e-02
-5.089398100972175598e-02
1.117997802793979645e-02
9.038741700351238251e-03
-7.039977610111236572e-02
-6.901778280735015869e-03
-8.346509188413619995e-02
-2.338033728301525116e-02
-1.238600467331707478e-03
-6.240317225456237793e-02
6.126280874013900757e-02
-8.174152672290802002e-02
6.437630206346511841e-02
2.283934690058231354e-02
-1.615824177861213684e-03
-2.235502004623413086e-02
7.576396223157644272e-03
-2.488283440470695496e-02
-8.663062006235122681e-02
-4.959678649902343750e-02
-7.119181007146835327e-02
-8.180057257413864136e-02
4.367929697036743164e-02
9.936246275901794434e-02
-6.198831647634506226e-02
-2.630227012559771538e-03
-2.062558010220527649e-02
-4.783951118588447571e-02
2.798574045300483704e-02
8.382313698530197144e-02
-8.412887156009674072e-02
1.097318716347217560e-02
-2.614417113363742828e-02
-5.822544544935226440e-02
7.853509858250617981e-03
-2.242704294621944427e-02
1.665145531296730042e-02
1.391486171633005142e-02
-2.871577069163322449e-02
-2.109073847532272339e-02
-5.834959447383880615e-03
5.389387160539627075e-02
3.095222637057304382e-02
4.403228312730789185e-02
1.269464939832687378e-01
5.031811818480491638e-02
-7.155142258852720261e-03
-3.574069216847419739e-02
8.481708355247974396e-03
-1.904001086950302124e-02
5.336021631956100464e-02
-7.540477067232131958e-02
3.907560929656028748e-02
-3.052619472146034241e-02
6.422448903322219849e-02
9.535920619964599609e-02
-7.275588065385818481e-02
7.709436863660812378e-02
4.585644230246543884e-02
2.614224888384342194e-02
-7.852313667535781860e-02
-1.506283879280090332e-02
-5.389055237174034119e-02
1.936430670320987701e-02
6.524442881345748901e-02
-6.009825319051742554e-02
-2.087934315204620361e-02
-8.085210621356964111e-02
3.473076596856117249e-02
1.028776243329048157e-01
-3.649908304214477539e-02
-1.181784719228744507e-01
6.953806430101394653e-02
-5.463010817766189575e-02
9.592960029840469360e-02
2.345475368201732635e-02
-2.538369782269001007e-02
-3.192206844687461853e-02
-9.489306807518005371e-02
4.626857489347457886e-02
6.095583736896514893e-02
-5.553045868873596191e-02
-1.116010546684265137e-01
4.531889781355857849e-02
-6.008668243885040283e-02
-4.068526625633239746e-02
-6.340378522872924805e-02
-3.215193282812833786e-03
-2.878096699714660645e-02
1.779793947935104370e-02
-8.478175848722457886e-02
-5.842927843332290649e-02
-4.837767034769058228e-02
4.628392681479454041e-02
-1.295373681932687759e-02
2.642882615327835083e-02
-8.528885990381240845e-02
1.069606747478246689e-02
6.568870693445205688e-02
8.125557750463485718e-02
7.047043740749359131e-02
3.624990582466125488e-02
2.696240134537220001e-02
7.463787496089935303e-02
-7.503621280193328857e-02
1.069859564304351807e-01
2.271440625190734863e-02
-9.265480563044548035e-03
4.241947457194328308e-02
1.082329973578453064e-01
5.937442928552627563e-02
-8.018838614225387573e-02
-5.146846920251846313e-02
-1.277231704443693161e-02
5.083185806870460510e-02
-1.745450310409069061e-02
9.541017562150955200e-02
-6.675831973552703857e-02
4.547126963734626770e-02
2.768117748200893402e-02
4.544460400938987732e-02
2.707917615771293640e-02
-3.721986338496208191e-02
-7.951710373163223267e-02
-1.218410674482584000e-02
3.764878585934638977e-02
-3.167122974991798401e-02
9.490709751844406128e-02
-8.193978667259216309e-02
-2.820688299834728241e-02
7.771717011928558350e-02
-2.354601211845874786e-02
1.351938489824533463e-02
-4.295151680707931519e-02
-1.085918489843606949e-02
3.368514031171798706e-02
-8.198688924312591553e-02
-5.527748540043830872e-02
-7.846173644065856934e-02
-4.034196957945823669e-02
-3.434589877724647522e-02
9.141617338173091412e-04
-5.091520771384239197e-02
8.076675236225128174e-02
3.123329579830169678e-02
4.125595092773437500e-02
-5.837139859795570374e-02
-6.584057211875915527e-02
4.185720533132553101e-02
7.382322847843170166e-02
1.203436255455017090e-01
-5.888829007744789124e-02
-3.734788298606872559e-02
1.730559393763542175e-02
2.418953459709882736e-03
-1.116082165390253067e-02
-1.037390753626823425e-01
6.884821504354476929e-02
-5.610596388578414917e-02
3.943251818418502808e-02
-9.815205633640289307e-02
-8.346456289291381836e-02
-1.147691905498504639e-01
-7.810260355472564697e-02
3.609157353639602661e-02
6.326595693826675415e-02
-4.952453076839447021e-02
4.845677316188812256e-02
-6.649149209260940552e-02
8.869158476591110229e-02
-1.079816138371825218e-03
2.492112666368484497e-02
2.147188223898410797e-02
5.432687327265739441e-02
5.907091870903968811e-02
6.095966324210166931e-02
-1.521675568073987961e-02
1.463447958230972290e-01
3.481524810194969177e-02
3.339868038892745972e-02
4.464669525623321533e-02
-9.485308825969696045e-02
-5.253705382347106934e-02
-1.308359056711196899e-01
-6.321869790554046631e-02
8.405493944883346558e-02
5.720161646604537964e-02
7.054293993860483170e-03
-9.131298959255218506e-02
5.043739802204072475e-04
-1.142799574881792068e-02
2.230742387473583221e-02
-7.520508021116256714e-02
-5.927281454205513000e-02
-4.146456252783536911e-03
-7.370144128799438477e-02
7.974698394536972046e-02
-9.308256208896636963e-02
-1.650742255151271820e-02
-9.225362539291381836e-02
3.208077326416969299e-02
-5.008714739233255386e-03
6.887602061033248901e-02
7.789107039570808411e-03
2.873107232153415680e-02
-5.920004099607467651e-02
-5.954360961914062500e-02
3.236078657209873199e-03
-7.909551262855529785e-02
-5.697632208466529846e-02
-1.148827895522117615e-01
-3.701845183968544006e-02
-7.005810737609863281e-02
5.357372015714645386e-02
9.808292239904403687e-02
1.021485179662704468e-01
3.553204983472824097e-02
-5.610429123044013977e-02
-2.614992670714855194e-02
1.189771592617034912e-01
-1.719048991799354553e-02
-4.383591935038566589e-02
1.243988648056983948e-01
4.391742870211601257e-02
-2.685663476586341858e-02
8.838102221488952637e-02
7.589124143123626709e-02
7.339794188737869263e-02
2.765421941876411438e-02
7.144281268119812012e-02
3.610903769731521606e-02
-9.818030893802642822e-02
-3.146224468946456909e-02
-1.116658374667167664e-01
-8.764203637838363647e-02
-2.103695645928382874e-03
-3.545339033007621765e-02
7.205650210380554199e-02
5.816705152392387390e-02
-1.963305985555052757e-03
-4.650800302624702454e-02
-2.319500967860221863e-02
-2.684637345373630524e-02
3.853793814778327942e-02
7.648918032646179199e-02
1.617530710063874722e-03
3.094202606007456779e-03
-2.324933931231498718e-02
2.337335236370563507e-02
-1.008454244583845139e-02
-5.250635370612144470e-02
4.576973617076873779e-02
1.109999883919954300e-02
-7.772601395845413208e-02
5.519716069102287292e-02
-2.122627384960651398e-02
1.975752180442214012e-03
6.005582585930824280e-02
-7.529249787330627441e-02
-1.839477941393852234e-02
1.298410538583993912e-02
1.140402816236019135e-02
-4.454007744789123535e-02
9.855463169515132904e-03
-6.535394117236137390e-03
5.931517574936151505e-03
7.842426747083663940e-02
-3.322815522551536560e-02
-9.924766421318054199e-02
-4.205825924873352051e-02
-4.138752073049545288e-02
-2.429528161883354187e-02
-3.771697357296943665e-02
-2.776927873492240906e-02
-6.498815864324569702e-02
2.874834649264812469e-02
-1.281569246202707291e-02
5.769364163279533386e-02
3.346294537186622620e-02
-3.723462671041488647e-02
-9.258226305246353149e-02
-1.068592965602874756e-01
-8.946336060762405396e-02
-1.230522915720939636e-01
4.080699756741523743e-02
-4.351939260959625244e-02
6.597808003425598145e-02
1.197522971779108047e-02
4.877340048551559448e-02
7.755526155233383179e-02
-1.299177762120962143e-02
5.898983031511306763e-02
-4.058917984366416931e-02
4.765762761235237122e-02
-2.780542150139808655e-02
5.814523622393608093e-02
-6.497183442115783691e-02
2.615065127611160278e-02
9.881255030632019043e-02
-2.615647204220294952e-02
-3.575508669018745422e-02
-1.227228250354528427e-02
2.499727346003055573e-02
1.732826419174671173e-02
-5.979618802666664124e-02
-5.433665588498115540e-02
1.638298295438289642e-02
-8.170760422945022583e-02
-5.292024090886116028e-02
-7.007572054862976074e-02
-3.306486830115318298e-02
-8.260124176740646362e-02
-8.763705939054489136e-02
3.528226912021636963e-02
-3.316001966595649719e-02
-7.073661545291543007e-04
5.102345719933509827e-02
6.374844908714294434e-02
2.711360342800617218e-02
3.729310259222984314e-02
-1.033959761261940002e-01
-1.054651848971843719e-02
1.949845068156719208e-02
8.343736082315444946e-02
9.049577265977859497e-02
-5.789919570088386536e-02
-7.293340563774108887e-02
5.033561587333679199e-02
5.802427604794502258e-02
2.510038949549198151e-02
9.730433113873004913e-03
-4.498816654086112976e-02
-8.913005143404006958e-02
-1.115823388099670410e-01
-3.767618909478187561e-02
3.582718782126903534e-03
-2.779118530452251434e-02
4.839970171451568604e-02
-8.984888345003128052e-02
5.017983168363571167e-02
4.927284270524978638e-02
-8.552473038434982300e-02
2.394710667431354523e-02
-8.524615317583084106e-02
-3.974840044975280762e-02
-3.459488227963447571e-02
4.939149692654609680e-02
-3.810204938054084778e-02
7.097107917070388794e-02
-6.886179745197296143e-02
1.816953904926776886e-02
-5.929133296012878418e-02
-3.997811302542686462e-02
-1.016352847218513489e-01
9.719888865947723389e-02
1.810454763472080231e-03
2.258454263210296631e-02
6.158176064491271973e-02
2.911104261875152588e-02
6.378684192895889282e-02
-1.158315613865852356e-01
-3.376853466033935547e-02
-6.866992264986038208e-02
4.309849441051483154e-02
2.418293431401252747e-02
2.201434597373008728e-02
3.259985893964767456e-02
5.494403466582298279e-02
-5.634901300072669983e-02
-1.297299843281507492e-02
-4.037543013691902161e-02
-3.018719144165515900e-02
-9.911946021020412445e-03
1.948917284607887268e-02
8.919417858123779297e-02
-5.568454414606094360e-02
3.174755349755287170e-02
7.383768912404775620e-03
4.177910462021827698e-02
-1.034051775932312012e-01
-7.375390827655792236e-02
4.470080882310867310e-02
-1.126248836517333984e-01
-1.450516469776630402e-02
4.314661771059036255e-02
-1.287588011473417282e-02
3.372484818100929260e-02
-2.795538119971752167e-02
-8.109493553638458252e-02
1.244101971387863159e-01
-2.890443243086338043e-02
5.454532057046890259e-02
-1.794557645916938782e-02
9.348680824041366577e-02
-5.225126445293426514e-02
3.109439462423324585e-02
-7.713101804256439209e-02
-2.315809018909931183e-02
1.977018080651760101e-02
3.577852994203567505e-02
-1.429314818233251572e-02
-3.036698326468467712e-02
2.429119870066642761e-02
-8.342068642377853394e-02
3.062394261360168457e-02
3.391343727707862854e-02
-2.691901102662086487e-02
4.462865367531776428e-02
-1.011328585445880890e-02
2.282231114804744720e-02
-4.864563047885894775e-02
7.504030317068099976e-02
-5.105130746960639954e-02
-1.441543549299240112e-02
-1.640705950558185577e-02
8.909706026315689087e-02
-4.125439096242189407e-03
7.765153050422668457e-02
-8.995938301086425781e-02
1.061117574572563171e-01
-4.788814485073089600e-02
3.131083026528358459e-02
1.196639612317085266e-01
-4.688719660043716431e-02
-3.843075037002563477e-02
9.154924005270004272e-02
8.942788094282150269e-02
4.483987763524055481e-02
1.245062332600355148e-03
-3.742329776287078857e-02
-7.093133032321929932e-02
2.619558759033679962e-02
-6.501562148332595825e-02
2.749542240053415298e-03
-1.142238639295101166e-02
2.181452326476573944e-02
4.819285497069358826e-02
6.411807239055633545e-02
1.369087211787700653e-02
3.570896014571189880e-02
-8.091391623020172119e-02
4.875252768397331238e-02
7.446599751710891724e-02
2.662747167050838470e-02
1.062289029359817505e-01
-5.030759423971176147e-02
1.969934441149234772e-02
-4.580328240990638733e-02
5.152734369039535522e-02
-5.640763044357299805e-02
4.851901531219482422e-02
-9.488624334335327148e-02
1.916144602000713348e-02
2.763508632779121399e-02
2.645459398627281189e-02
-4.763498529791831970e-02
-3.027433343231678009e-02
-5.613353848457336426e-02
-2.727784588932991028e-02
-1.009832881391048431e-02
-2.496118657290935516e-03
-2.935339137911796570e-02
-8.696153759956359863e-03
-7.050352543592453003e-02
3.228948265314102173e-02
9.969296306371688843e-02
4.836564883589744568e-02
-3.158141672611236572e-02
6.094677746295928955e-02
1.027591153979301453e-02
-5.129666998982429504e-02
1.818982511758804321e-02
-2.798506245017051697e-02
4.305350407958030701e-02
6.766740977764129639e-02
-3.933341056108474731e-02
-4.046436864882707596e-03
9.000030905008316040e-02
6.692972779273986816e-02
6.009135022759437561e-02
-2.666486613452434540e-02
-7.491090893745422363e-02
3.786413371562957764e-02
-8.594417572021484375e-02
-3.402070701122283936e-02
-2.308440208435058594e-02
7.338475435972213745e-02
-8.503842353820800781e-02
2.380140684545040131e-02
-3.468929976224899292e-02
-8.172678202390670776e-02
5.588328838348388672e-02
-5.698114261031150818e-02
4.143296554684638977e-02
9.469822794198989868e-02
5.810025706887245178e-02
5.591224133968353271e-02
2.726140432059764862e-02
6.991367787122726440e-02
2.957608550786972046e-02
-4.656072333455085754e-02
-1.752684079110622406e-02
-3.149363398551940918e-02
-3.216788172721862793e-02
6.086603272706270218e-03
-2.700519189238548279e-02
-2.611054666340351105e-02
-7.542777340859174728e-03
7.312878221273422241e-02
2.538523636758327484e-02
-9.617312252521514893e-02
7.160983048379421234e-03
-4.009854514151811600e-03
4.099060222506523132e-02
2.124710939824581146e-02
1.098368242383003235e-01
-7.450834661722183228e-02
1.039482280611991882e-02
4.850433394312858582e-02
4.008189588785171509e-02
-6.470449268817901611e-02
-3.661210462450981140e-02
4.003393650054931641e-02
7.198152132332324982e-03
-3.308683633804321289e-02
-6.917984783649444580e-02
-4.651814233511686325e-03
9.930033981800079346e-02
-2.178704552352428436e-02
5.311798304319381714e-03
-6.535451114177703857e-02
7.203487306833267212e-02
-1.109544932842254639e-01
-4.713657498359680176e-02
7.649458013474941254e-03
-2.310822531580924988e-02
-3.787131980061531067e-02
9.673506021499633789e-02
-7.829999551177024841e-03
-2.957278117537498474e-02
-1.189910992980003357e-02
1.025110948830842972e-02
2.798753231763839722e-02
6.912165880203247070e-02
-3.192470967769622803e-02
-3.137037158012390137e-02
4.878075420856475830e-02
6.811395287513732910e-02
6.177430599927902222e-02
1.156473718583583832e-02
1.039377413690090179e-02
-3.940575197339057922e-02
4.459278285503387451e-02
-2.256428264081478119e-02
-3.871107473969459534e-02
-3.047221899032592773e-02
2.371867373585700989e-02
-8.343821391463279724e-03
-4.834555089473724365e-02
2.810047566890716553e-02
6.409890484064817429e-03
5.208095535635948181e-02
3.746477887034416199e-02
1.498856022953987122e-02
-4.673748835921287537e-02
8.085976541042327881e-02
4.058448225259780884e-02
7.695801556110382080e-02
-7.281948626041412354e-02
1.125143244862556458e-01
-6.837575882673263550e-02
4.083134606480598450e-02
-2.919507399201393127e-02
6.116069853305816650e-02
6.365121342241764069e-03
1.756623573601245880e-02
-7.151436805725097656e-02
1.625932566821575165e-02
-7.697094976902008057e-02
-2.778692916035652161e-02
7.426408585160970688e-03
3.125289082527160645e-02
2.748497575521469116e-02
-1.094589242711663246e-03
-6.899479310959577560e-03
-4.373195767402648926e-02
4.737900942564010620e-02
6.055156514048576355e-02
2.092904224991798401e-02
5.724855884909629822e-02
-4.846249893307685852e-02
-5.862051993608474731e-02
-2.615597844123840332e-02
-7.380498945713043213e-02
8.615718036890029907e-02
2.594619803130626678e-02
2.350550144910812378e-02
-3.618593141436576843e-02
5.336008220911026001e-02
-6.066966429352760315e-02
7.252397388219833374e-02
-1.216781884431838989e-02
-8.259017020463943481e-02
1.907616853713989258e-02
3.466215357184410095e-02
-2.267668209969997406e-02
6.270695477724075317e-02
-1.795626990497112274e-02
6.187046878039836884e-03
8.921214938163757324e-02
-2.072571590542793274e-02
-3.527153283357620239e-03
-4.759519174695014954e-02
9.283360093832015991e-03
9.302637726068496704e-02
4.641633108258247375e-02
5.102352052927017212e-02
5.415111407637596130e-02
2.149034291505813599e-02
-2.822793461382389069e-02
5.911659449338912964e-02
3.971145302057266235e-02
5.942584481090307236e-03
-8.145326375961303711e-02
7.121238112449645996e-02
6.565093994140625000e-02
1.701623201370239258e-02
3.740350529551506042e-02
-2.832962758839130402e-02
-2.573829703032970428e-02
-8.602687716484069824e-02
-7.165937870740890503e-02
1.339375134557485580e-02
-1.575341820716857910e-02
1.031913887709379196e-02
4.276448115706443787e-02
-7.549742609262466431e-02
9.180503897368907928e-03
-5.096592381596565247e-02
5.930291116237640381e-02
4.408800229430198669e-02
-1.744691748172044754e-03
-3.162636980414390564e-02
-5.549005232751369476e-03
-3.292794153094291687e-02
-2.577305585145950317e-02
-6.072283163666725159e-02
7.453030906617641449e-03
7.912843674421310425e-02
6.744100712239742279e-03
-5.175646394491195679e-02
-1.553586497902870178e-02
-4.281963780522346497e-02
-7.271196693181991577e-02
-7.189559750258922577e-03
4.912086296826601028e-03
4.434994235634803772e-02
5.045035108923912048e-02
-9.892678260803222656e-02
-6.773214042186737061e-02
7.040297240018844604e-02
-2.749212272465229034e-02
-3.680104017257690430e-02
-5.199257284402847290e-02
6.438494473695755005e-02
3.067623451352119446e-02
1.939917565323412418e-03
-7.722520828247070312e-02
-5.596267431974411011e-02
1.011538803577423096e-01
5.521278083324432373e-02
-4.086481872946023941e-03
-4.266878217458724976e-02
6.499086320400238037e-02
3.386388346552848816e-02
5.476016923785209656e-02
5.962030589580535889e-02
-3.259216900914907455e-03
1.215440481901168823e-01
-7.473480701446533203e-02
-1.296118497848510742e-01
-1.457867398858070374e-02
-1.799414120614528656e-02
5.042413831688463688e-04
-6.259617209434509277e-02
6.173095107078552246e-02
9.484104812145233154e-02
-5.116286501288414001e-02
2.962254174053668976e-02
-3.557007014751434326e-02
5.802557803690433502e-03
3.573819622397422791e-02
-8.791552484035491943e-02
2.245508879423141479e-02
-3.263384476304054260e-02
5.469834059476852417e-02
-3.590502589941024780e-02
1.126343291252851486e-02
-5.442119762301445007e-02
-2.665002830326557159e-02
-1.070741266012191772e-01
9.775552898645401001e-03
-3.949041664600372314e-02
-1.079470068216323853e-01
-7.335086166858673096e-02
-5.356575921177864075e-02
1.237349957227706909e-02
4.368172585964202881e-02
-8.413694053888320923e-02
5.046092718839645386e-02
-2.337031997740268707e-02
1.344297677278518677e-01
-4.983608424663543701e-02
7.128908485174179077e-02
1.272491645067930222e-03
7.484316080808639526e-02
-2.877054363489151001e-02
-2.823755145072937012e-03
-1.230711713433265686e-01
-6.384778302162885666e-03
2.395967394113540649e-02
1.325797941535711288e-02
-7.017324119806289673e-02
-3.521056473255157471e-02
6.598646286875009537e-03
4.649292677640914917e-03
-5.845472961664199829e-02
8.448205143213272095e-02
1.510141193866729736e-01
-6.776889413595199585e-02
-2.974548749625682831e-02
2.975194901227951050e-02
-5.414933431893587112e-03
-1.211008355021476746e-01
-2.680631168186664581e-02
1.831583562307059765e-03
4.995417594909667969e-02
2.643728069961071014e-02
1.185974851250648499e-02
5.159569531679153442e-02
-7.092400640249252319e-02
6.198747828602790833e-02
1.604754477739334106e-02
-1.275152713060379028e-01
8.517750538885593414e-03
-6.592735648155212402e-02
3.486760705709457397e-02
1.938375085592269897e-02
-3.271232917904853821e-02
-5.248946323990821838e-02
-3.244066843762993813e-03
-9.262897819280624390e-02
1.984338276088237762e-02
-8.731615543365478516e-02
2.758692950010299683e-02
-2.784400619566440582e-02
1.100432202219963074e-01
-5.115133523941040039e-02
6.132663786411285400e-02
-1.277156407013535500e-03
4.442442953586578369e-02
3.786284010857343674e-03
1.084318310022354126e-01
-6.419306993484497070e-02
2.928829938173294067e-02
-2.226384915411472321e-02
-4.382339119911193848e-02
1.177037879824638367e-02
-6.881466507911682129e-02
-1.558392029255628586e-02
3.394254669547080994e-02
-8.206224068999290466e-03
-4.876321926712989807e-02
4.549248516559600830e-02
9.689626842737197876e-02
3.671360760927200317e-02
5.310986936092376709e-02
-3.241792321205139160e-02
4.273693636059761047e-02
1.654217950999736786e-02
-8.258436620235443115e-02
-8.595331013202667236e-02
7.450646907091140747e-02
-7.460866123437881470e-02
-6.109284982085227966e-02
8.672106079757213593e-03
-6.306861992925405502e-03
-4.102007672190666199e-02
-4.496153071522712708e-02
-1.899917609989643097e-03
-5.440841242671012878e-02
-2.364468574523925781e-02
9.272319264709949493e-03
5.068193003535270691e-02
4.253483936190605164e-02
-1.526629202999174595e-03
9.870661422610282898e-03
3.250712156295776367e-02
-5.266559869050979614e-02
7.941386848688125610e-02
1.772844977676868439e-02
7.585714757442474365e-02
2.948713488876819611e-02
-2.246664650738239288e-02
-2.362433262169361115e-02
3.470176458358764648e-02
9.564206004142761230e-03
-5.029791966080665588e-02
1.910587586462497711e-02
3.930558636784553528e-02
-6.880296021699905396e-02
1.072673350572586060e-01
4.367094486951828003e-02
4.636945202946662903e-02
-5.688432604074478149e-02
1.153669040650129318e-02
-1.015347801148891449e-02
-6.414884328842163086e-02
-1.443529129028320312e-02
1.645446009933948517e-02
-9.625747799873352051e-02
-4.624295607209205627e-02
-7.476509362459182739e-02
4.712314531207084656e-02
6.883623450994491577e-02
-2.534739114344120026e-02
8.289106190204620361e-02
1.219474524259567261e-01
9.089758247137069702e-02
5.561123788356781006e-02
-2.468717843294143677e-02
2.692899852991104126e-02
-1.672441326081752777e-02
-1.731220260262489319e-02
3.936250880360603333e-02
-1.284600142389535904e-02
7.034566998481750488e-02
2.779648266732692719e-02
6.967052817344665527e-02
5.632699653506278992e-02
1.706231152638792992e-03
3.623734414577484131e-02
-4.235636442899703979e-02
-1.742477342486381531e-02
6.076193973422050476e-02
-1.812697388231754303e-02
9.817108511924743652e-04
2.404926158487796783e-02
3.590731695294380188e-02
-2.248830720782279968e-02
-6.842787563800811768e-02
-5.229440331459045410e-02
2.658776007592678070e-02
-7.799299061298370361e-02
-5.859153345227241516e-02
4.114394634962081909e-02
-3.682862222194671631e-02
-1.183065585792064667e-02
-9.719330817461013794e-02
-3.162011271342635155e-03
-2.881157770752906799e-02
3.489403426647186279e-02
3.249798715114593506e-02
3.009494021534919739e-02
2.296984754502773285e-02
4.744983464479446411e-02
-8.071551471948623657e-02
-2.138422243297100067e-02
-9.496549144387245178e-03
3.927550837397575378e-02
-7.773472368717193604e-02
6.595945358276367188e-02
-8.885332942008972168e-02
2.773547545075416565e-02
1.300396281294524670e-03
-9.431264363229274750e-03
4.030073806643486023e-02
1.364809721708297729e-01
-1.715628430247306824e-02
2.033848874270915985e-02
-1.067246347665786743e-01
-3.796355053782463074e-02
3.097619861364364624e-02
-9.755346924066543579e-02
2.485469728708267212e-02
2.424241229891777039e-02
2.355728857219219208e-02
-5.453776195645332336e-02
-3.526088595390319824e-02
7.377209514379501343e-02
-4.456687718629837036e-02
6.182753946632146835e-03
-7.781565934419631958e-02
-1.375133693218231201e-01
-6.936894357204437256e-02
-1.880554668605327606e-02
6.101428344845771790e-02
-4.107892513275146484e-02
8.977991528809070587e-03
2.728730440139770508e-02
-9.263651072978973389e-02
8.072210475802421570e-03
-7.639825344085693359e-02
-6.198734045028686523e-02
3.295306861400604248e-02
4.894253239035606384e-02
1.117370277643203735e-01
-3.685764223337173462e-02
-1.122059300541877747e-02
-9.169064462184906006e-03
-3.246902301907539368e-02
1.033973023295402527e-01
-3.244859725236892700e-02
4.142406955361366272e-02
-5.043260753154754639e-03
3.187622129917144775e-02
-3.080186620354652405e-02
-2.778443694114685059e-02
-6.262597441673278809e-02
-2.704758197069168091e-02
-6.148031726479530334e-02
1.879349350929260254e-02
-5.265299603343009949e-02
-6.049685180187225342e-02
9.134931862354278564e-02
2.284089848399162292e-02
5.924724414944648743e-02
-9.642188996076583862e-02
8.534449338912963867e-02
2.209813892841339111e-02
4.100966081023216248e-02
-5.694350600242614746e-02
-1.843715272843837738e-02
6.560155749320983887e-02
3.968848846852779388e-03
4.391166567802429199e-02
-3.676461754366755486e-03
-6.613240391016006470e-02
3.498839959502220154e-02
7.662820816040039062e-02
3.669887408614158630e-02
-4.556480795145034790e-02
2.685126475989818573e-02
1.365933474153280258e-02
-8.875941485166549683e-02
4.337025433778762817e-02
-9.065028280019760132e-02
1.493628229945898056e-02
9.656899422407150269e-02
1.093890070915222168e-01
-3.741088882088661194e-02
-4.034181591123342514e-03
-3.994586318731307983e-02
-6.852492690086364746e-02
-7.599982898682355881e-03
6.677260994911193848e-02
2.245812490582466125e-02
-3.133509308099746704e-02
7.663910090923309326e-02
3.592485189437866211e-02
3.722794353961944580e-02
9.664331376552581787e-02
1.947806775569915771e-02
-5.458855256438255310e-02
6.445392966270446777e-02
5.179963260889053345e-02
-2.883848547935485840e-02
-3.104621171951293945e-02
-1.520889531821012497e-02
-4.480262100696563721e-02
-2.268198179081082344e-03
3.404811024665832520e-02
5.714314524084329605e-03
-1.983154937624931335e-02
8.350598067045211792e-02
2.186988666653633118e-02
-5.879217758774757385e-03
2.489777468144893646e-02
-6.767460703849792480e-02
-4.866892471909523010e-02
-3.458223119378089905e-02
6.270950287580490112e-02
-6.524072960019111633e-04
-4.777628928422927856e-02
2.225343696773052216e-02
-1.849513966590166092e-03
-6.178086623549461365e-04
-7.970682531595230103e-02
7.518622279167175293e-02
7.697696238756179810e-02
-6.895256787538528442e-02
-9.093676693737506866e-03
6.452280282974243164e-02
7.804579101502895355e-03
-9.974485635757446289e-02
3.153738798573613167e-03
5.386997386813163757e-02
5.238730832934379578e-02
3.280273452401161194e-02
9.346626698970794678e-02
3.521000593900680542e-02
8.619607239961624146e-02
-9.878571331501007080e-02
-1.088123694062232971e-01
-1.132501140236854553e-01
7.684722542762756348e-02
-9.010666050016880035e-03
2.319576963782310486e-02
-7.110939919948577881e-02
6.171249970793724060e-02
4.472531005740165710e-02
5.619253590703010559e-02
3.052859194576740265e-02
7.828412204980850220e-02
-7.665148377418518066e-02
6.923794746398925781e-02
2.701744437217712402e-02
-2.726510725915431976e-02
-2.021198906004428864e-02
4.495768621563911438e-02
2.948403730988502502e-02
8.192240260541439056e-03
6.283067911863327026e-02
-9.217863529920578003e-02
1.035243924707174301e-02
1.022306270897388458e-02
5.992984026670455933e-02
5.318867042660713196e-02
5.329218134284019470e-02
-8.328282088041305542e-02
-1.583681628108024597e-02
5.589789897203445435e-02
5.324390903115272522e-02
-8.722981065511703491e-02
7.190488278865814209e-02
-2.178778685629367828e-02
5.179639533162117004e-02
-2.981924824416637421e-02
-2.728959172964096069e-02
2.706860378384590149e-02
3.031299263238906860e-02
-3.130488470196723938e-02
-2.799106296151876450e-03
-1.951984129846096039e-02
6.945907603949308395e-03
-6.699559092521667480e-02
-2.352850884199142456e-02
-5.936901271343231201e-02
4.275173321366310120e-02
-1.013367436826229095e-02
9.048165753483772278e-03
7.473485171794891357e-02
-6.179774552583694458e-02
-6.320245563983917236e-02
-7.300440222024917603e-02
-5.882998462766408920e-03
-1.334151905030012131e-02
4.825842566788196564e-03
-7.672714442014694214e-02
-1.936002448201179504e-02
-8.099619299173355103e-02
4.289480298757553101e-02
3.232952952384948730e-02
-5.674429982900619507e-02
-1.774690672755241394e-02
-1.077769622206687927e-01
-4.167346283793449402e-02
2.035481669008731842e-02
-1.004202142357826233e-01
-2.448746003210544586e-02
-1.560776121914386749e-02
5.268537625670433044e-02
1.361807715147733688e-02
-4.618240520358085632e-03
-3.872694447636604309e-02
-1.663928851485252380e-02
6.317479163408279419e-02
-7.508730888366699219e-02
-4.201023653149604797e-02
2.482066862285137177e-03
8.969940990209579468e-02
9.085793048143386841e-02
7.500194013118743896e-02
-1.341967005282640457e-02
6.763536483049392700e-02
-3.135800361633300781e-02
-6.675821542739868164e-02
2.879619412124156952e-02
5.658423900604248047e-02
-5.500438623130321503e-03
6.782966107130050659e-02
-7.982029765844345093e-02
2.220815606415271759e-02
-6.758185476064682007e-02
4.407551139593124390e-02
2.586484141647815704e-02
5.117359012365341187e-02
-2.932445704936981201e-02
8.206699788570404053e-02
6.116265431046485901e-02
-4.285775870084762573e-02
-8.065007627010345459e-03
-4.669707641005516052e-02
-6.041229888796806335e-02
-6.914667040109634399e-02
-8.830722421407699585e-02
-2.198110707104206085e-02
2.564031444489955902e-02
-9.506435692310333252e-02
3.063880093395709991e-02
1.913061365485191345e-02
-1.208298373967409134e-02
3.246530517935752869e-02
4.099897295236587524e-02
9.478420019149780273e-03
-3.687575086951255798e-02
4.229493811726570129e-02
-1.629630662500858307e-02
-1.229272410273551941e-01
-1.008860319852828979e-01
-5.955436453223228455e-02
-1.315549667924642563e-02
-9.029511602420825511e-06
-1.265177410095930099e-02
4.369285330176353455e-02
-4.899106174707412720e-02
4.072427377104759216e-02
-9.817918762564659119e-03
-3.847752138972282410e-02
-3.682897239923477173e-02
2.393712289631366730e-02
-7.426025718450546265e-02
1.105812843888998032e-02
5.719866976141929626e-02
5.527990311384201050e-02
-3.276300057768821716e-02
-8.933611959218978882e-02
-4.804481938481330872e-02
-2.294247597455978394e-02
-1.159279420971870422e-02
6.309838593006134033e-02
-2.111334167420864105e-02
-6.904262304306030273e-02
-3.950784355401992798e-02
7.433003187179565430e-02
1.464530546218156815e-02
8.401999622583389282e-02
2.088854834437370300e-02
7.722159475088119507e-02
-7.684054318815469742e-03
-5.304381623864173889e-02
6.046732515096664429e-02
-8.312951028347015381e-02
-1.377610024064779282e-02
-4.466035962104797363e-02
1.381850056350231171e-02
-5.632360652089118958e-02
4.608823359012603760e-02
-1.091276556253433228e-01
6.569024175405502319e-02
1.696526445448398590e-02
-3.483660891652107239e-02
8.377344906330108643e-02
-5.718222633004188538e-02
9.564252570271492004e-03
3.032380342483520508e-02
-4.474184289574623108e-02
-4.468028247356414795e-02
1.452801655977964401e-02
-2.524404972791671753e-02
2.355585061013698578e-02
-5.999703705310821533e-02
1.435979176312685013e-02
-2.017282135784626007e-02
5.280245468020439148e-02
-3.946411237120628357e-02
1.314723771065473557e-02
-1.991562359035015106e-02
8.608436584472656250e-02
-6.443341076374053955e-02
5.386222153902053833e-02
-9.029753506183624268e-02
2.981055760756134987e-03
1.349529623985290527e-02
2.967168763279914856e-02
-4.947092011570930481e-02
-8.651705086231231689e-02
2.505954355001449585e-02
-3.421066328883171082e-02
2.678764797747135162e-02
3.159223869442939758e-02
-7.066289335489273071e-02
-2.413063310086727142e-02
-1.170781534165143967e-02
-4.192618280649185181e-02
3.055061213672161102e-02
8.744776248931884766e-02
4.303803294897079468e-02
-5.779736116528511047e-02
4.796400293707847595e-02
4.507567733526229858e-02
2.855296060442924500e-02
5.820591375231742859e-02
-1.226172000169754028e-01
-1.630258187651634216e-02
3.970864042639732361e-02
-6.079317629337310791e-02
7.998599670827388763e-03
-1.328684948384761810e-02
7.928735762834548950e-02
-6.781689077615737915e-02
6.018016114830970764e-02
6.375446170568466187e-02
-2.605127543210983276e-02
-6.195700913667678833e-02
1.628048717975616455e-02
-1.033027190715074539e-03
6.548202037811279297e-02
6.943078711628913879e-03
-4.493446648120880127e-02
8.271511644124984741e-02
-7.919035851955413818e-02
-1.134250164031982422e-01
-5.218473821878433228e-02
2.326665073633193970e-02
8.071117848157882690e-02
5.930238589644432068e-02
6.011326238512992859e-02
3.870934247970581055e-02
-3.557598590850830078e-02
7.562451809644699097e-02
-6.397669762372970581e-02
-3.494967147707939148e-02
6.045197695493698120e-02
8.094400912523269653e-02
-3.042654134333133698e-02
4.959805402904748917e-03
4.980746284127235413e-02
8.555307984352111816e-02
-1.658311486244201660e-02
-4.687977954745292664e-02
7.523650676012039185e-02
8.068490028381347656e-02
6.836356967687606812e-02
2.793678641319274902e-02
-5.508490838110446930e-03
-4.274181649088859558e-02
4.012800008058547974e-02
-6.584210693836212158e-02
-3.752396628260612488e-02
-2.639769949018955231e-02
-3.272383287549018860e-02
-7.845479995012283325e-02
-7.224413007497787476e-02
-8.965104073286056519e-02
5.473629012703895569e-02
-3.227114304900169373e-02
2.158515900373458862e-02
-3.629059344530105591e-02
3.918757662177085876e-02
-1.661736145615577698e-02
4.718439187854528427e-03
6.202231720089912415e-02
8.929952234029769897e-02
-1.869299565441906452e-03
-3.226318955421447754e-02
1.069738268852233887e-01
8.946631103754043579e-02
-2.132147736847400665e-02
-6.208539381623268127e-02
5.435031652450561523e-02
-2.886037575080990791e-03
9.454272687435150146e-03
-1.100405678153038025e-01
-9.838780760765075684e-02
9.741771966218948364e-03
-4.902281612157821655e-02
-8.873025886714458466e-03
1.540732756257057190e-02
6.443664897233247757e-03
-3.191145509481430054e-02
1.509352587163448334e-02
6.824940443038940430e-02
1.413051225244998932e-02
-6.424961239099502563e-02
-4.434112459421157837e-02
1.900875568389892578e-02
-3.816202748566865921e-03
-4.755087941884994507e-02
3.741831332445144653e-02
-5.627153813838958740e-02
3.330478444695472717e-02
-9.477031230926513672e-02
-7.446506619453430176e-02
-3.087607026100158691e-02
-8.228617161512374878e-02
1.501685101538896561e-02
7.443565130233764648e-02
9.789793752133846283e-03
-7.594572752714157104e-02
2.325000241398811340e-02
4.169072583317756653e-02
-3.973445296287536621e-02
-1.232969537377357483e-01
-4.580072313547134399e-02
-1.738940738141536713e-02
5.856795236468315125e-02
-4.392972961068153381e-02
-1.143394559621810913e-01
-7.735826820135116577e-02
2.676626108586788177e-02
-6.732306629419326782e-02
-6.610221229493618011e-03
5.170500651001930237e-02
-3.689953312277793884e-02
-5.140473321080207825e-02
1.161819696426391602e-01
3.450432047247886658e-02
3.602468175813555717e-03
1.291536074131727219e-02
-5.131330713629722595e-02
-4.654063284397125244e-02
-7.423776388168334961e-02
4.224583134055137634e-02
5.540025234222412109e-02
-2.483052760362625122e-02
-3.215862438082695007e-02
-6.378959864377975464e-02
4.410188645124435425e-02
1.245901640504598618e-02
4.460655525326728821e-02
1.474273577332496643e-02
-4.134410247206687927e-02
1.016109287738800049e-01
-2.772720344364643097e-02
1.538459397852420807e-02
3.537638112902641296e-02
-5.849587544798851013e-02
1.140953376889228821e-01
2.236030437052249908e-02
2.405728027224540710e-02
1.041426286101341248e-01
-1.254904419183731079e-01
-1.107891276478767395e-01
7.886929810047149658e-02
2.013741992413997650e-02
-8.775151334702968597e-03
1.793337985873222351e-02
-4.956412687897682190e-02
-6.678488105535507202e-02
3.855219110846519470e-02
-1.903733611106872559e-02
-3.454138338565826416e-02
1.382211968302726746e-02
-2.175580710172653198e-02
-8.321958780288696289e-02
-9.938896447420120239e-02
-5.197414383292198181e-02
3.850485384464263916e-02
-7.818704098463058472e-02
-4.397956654429435730e-03
-1.426589395850896835e-02
1.383723877370357513e-02
-1.416349783539772034e-02
3.195481374859809875e-02
2.716114930808544159e-02
1.282662153244018555e-01
1.154133379459381104e-01
6.067613605409860611e-03
-8.251064270734786987e-02
-6.459368020296096802e-02
-6.862256675958633423e-02
-1.857559941709041595e-02
-7.062614709138870239e-02
-7.945176213979721069e-02
-8.716140687465667725e-02
-4.186870157718658447e-02
-7.809280604124069214e-02
-1.858722185716032982e-03
-3.790761157870292664e-02
2.727308496832847595e-02
-9.058064222335815430e-02
6.441550701856613159e-02
5.178613588213920593e-03
-2.938755042850971222e-02
4.062449559569358826e-02
1.624282449483871460e-03
4.960676655173301697e-02
-3.597775474190711975e-02
-6.333888322114944458e-02
-5.757380276918411255e-02
-3.235320746898651123e-02
-2.680249512195587158e-02
4.344084113836288452e-02
-1.012099683284759521e-01
-1.181305618956685066e-03
-3.878439217805862427e-02
-8.026050776243209839e-02
-2.616088092327117920e-02
-7.019352912902832031e-02
2.094058506190776825e-02
5.133217200636863708e-02
9.001735597848892212e-02
-8.600970357656478882e-02
3.965402394533157349e-02
5.887056142091751099e-02
-6.176978349685668945e-02
5.503160133957862854e-02
1.326580066233873367e-02
8.840801566839218140e-02
4.298921674489974976e-02
-3.328390792012214661e-02
-4.540815204381942749e-02
-5.574617534875869751e-02
-7.893890887498855591e-02
-1.251939125359058380e-02
1.035550013184547424e-01
7.480711489915847778e-02
-6.590033322572708130e-02
-2.375428937375545502e-02
3.566437214612960815e-02
-7.325682044029235840e-02
-9.851981699466705322e-02
-8.305954188108444214e-02
5.216343328356742859e-02
6.247700750827789307e-02
-9.012289345264434814e-03
-5.491971224546432495e-02
-3.126538172364234924e-02
8.905676193535327911e-03
7.935880683362483978e-03
4.147348552942276001e-02
-3.191046044230461121e-02
2.244022302329540253e-02
-7.522150874137878418e-02
-3.435130696743726730e-03
-3.295574709773063660e-02
-8.399353921413421631e-02
2.166866883635520935e-02
-3.046726249158382416e-02
-6.687378138303756714e-02
-1.001488603651523590e-02
-7.881168276071548462e-02
-3.086034581065177917e-02
-1.013210713863372803e-01
2.785637229681015015e-02
9.880750626325607300e-02
-3.966035321354866028e-02
-4.240080714225769043e-02
-1.842945255339145660e-02
-1.227239295840263367e-01
3.618451207876205444e-02
-9.360529482364654541e-03
4.418060183525085449e-03
-9.426007978618144989e-03
-2.053011953830718994e-02
4.508912935853004456e-02
-7.675867527723312378e-02
3.489672020077705383e-02
6.867954134941101074e-02
-3.671985492110252380e-02
-6.377150863409042358e-02
-1.230206107720732689e-03
-3.382487595081329346e-02
-5.818997696042060852e-02
-6.995701231062412262e-03
1.218954920768737793e-01
7.481110841035842896e-02
-9.654299914836883545e-02
-6.309159845113754272e-02
-1.666979305446147919e-02
-8.636369556188583374e-02
4.037575796246528625e-02
-5.585705116391181946e-02
3.390417993068695068e-02
3.092385362833738327e-03
2.599574252963066101e-02
-5.936628952622413635e-02
1.914105378091335297e-02
2.318908832967281342e-02
8.426495641469955444e-02
-5.028732493519783020e-02
5.823378637433052063e-02
6.594105809926986694e-02
9.136953949928283691e-02
3.252591937780380249e-02
1.810522004961967468e-02
7.841137796640396118e-02
3.185852989554405212e-02
2.364595979452133179e-02
-4.940499365329742432e-02
-1.531623210757970810e-02
-4.965124186128377914e-03
-5.723965167999267578e-02
-6.599790602922439575e-02
1.592253893613815308e-02
4.418450221419334412e-02
-4.421621188521385193e-02
-9.625531733036041260e-02
-2.791533805429935455e-02
5.810048803687095642e-02
7.083928585052490234e-02
1.024369075894355774e-01
-9.625454246997833252e-02
-4.967142641544342041e-02
-3.736060112714767456e-02
-7.471619546413421631e-02
-5.440615117549896240e-02
-4.157032445073127747e-02
5.711563397198915482e-03
-3.115273825824260712e-02
4.403115063905715942e-02
-7.126020640134811401e-02
3.878686949610710144e-02
-5.429015681147575378e-02
5.368107929825782776e-02
1.517856772989034653e-02
2.817323990166187286e-02
-8.257004618644714355e-02
-3.759369254112243652e-02
3.687315387651324272e-03
6.906779110431671143e-02
-1.122366520576179028e-03
6.620543450117111206e-02
5.016213282942771912e-02
5.019114166498184204e-02
-7.519522309303283691e-02
1.251692418009042740e-02
1.041546761989593506e-01
3.339700028300285339e-02
1.130132749676704407e-02
2.544522285461425781e-02
-5.140582099556922913e-02
-9.916317462921142578e-02
-3.549519181251525879e-02
9.289356879889965057e-03
-5.316016077995300293e-02
2.609942294657230377e-02
4.307999089360237122e-02
-2.298000268638134003e-02
-1.129171904176473618e-02
-1.403953321278095245e-02
2.294725738465785980e-02
-7.884445041418075562e-02
2.231052704155445099e-02
-1.884309947490692139e-02
7.767821080051362514e-04
-7.995415478944778442e-02
-6.410593539476394653e-02
7.561709731817245483e-02
-1.036444120109081268e-02
8.236947655677795410e-02
-6.571725755929946899e-02
-1.376364566385746002e-02
-2.037394791841506958e-02
5.339032504707574844e-03
5.834671854972839355e-02
8.027389645576477051e-02
-1.853788271546363831e-02
-2.724456414580345154e-02
1.042286977171897888e-01
4.748779535293579102e-02
-7.569918036460876465e-02
-6.118634250015020370e-03
4.477544128894805908e-02
8.416479080915451050e-02
9.607001394033432007e-02
-4.485970363020896912e-02
3.223896771669387817e-02
3.003345429897308350e-02
-6.398544460535049438e-02
-6.379114836454391479e-02
-4.258801788091659546e-02
-7.136376947164535522e-02
5.896751582622528076e-02
1.306090690195560455e-02
1.390680763870477676e-02
2.078625559806823730e-02
-5.332439392805099487e-02
8.192817121744155884e-02
-6.416223943233489990e-02
-9.971295297145843506e-02
-2.612887136638164520e-02
-9.384657442569732666e-02
-1.862359978258609772e-02
2.704396471381187439e-02
-3.005451755598187447e-03
7.928939163684844971e-02
-3.875887021422386169e-02
7.355380803346633911e-02
-2.033997327089309692e-02
-4.673615843057632446e-02
6.833215802907943726e-02
-9.455896168947219849e-02
-4.304341971874237061e-02
6.347819417715072632e-02
-3.665811195969581604e-02
-7.594739645719528198e-02
-7.895688712596893311e-02
-2.255736850202083588e-02
6.798969209194183350e-02
-6.490969657897949219e-02
6.723281461745500565e-03
3.736813738942146301e-02
-1.795952394604682922e-02
-2.027970924973487854e-02
3.993857651948928833e-02
3.516989946365356445e-02
3.217823058366775513e-02
-1.727217435836791992e-02
5.316929891705513000e-02
-1.944708637893199921e-02
-6.404867023229598999e-02
2.713909931480884552e-02
2.407346665859222412e-02
8.033220656216144562e-03
3.520989045500755310e-02
-1.183737069368362427e-02
1.781895756721496582e-02
-2.804969809949398041e-02
-7.318344712257385254e-02
-6.336118280887603760e-02
5.077817011624574661e-03
-1.519116293638944626e-02
-1.155014149844646454e-02
-1.643423736095428467e-02
-1.257920265197753906e-02
1.242419108748435974e-01
-5.481688305735588074e-02
-8.851780742406845093e-02
-1.125969365239143372e-02
-1.111605837941169739e-01
9.398060850799083710e-03
3.652226179838180542e-02
-6.732742488384246826e-02
2.235097624361515045e-02
3.420929610729217529e-02
-8.380232751369476318e-02
-1.815691706724464893e-03
-1.917408779263496399e-02
4.133542999625205994e-02
7.817573845386505127e-02
-3.055737353861331940e-02
-1.002415716648101807e-01
-7.189076393842697144e-02
-1.922164484858512878e-02
6.650240719318389893e-02
5.892924964427947998e-02
3.630300983786582947e-02
-6.021692603826522827e-02
-1.524723134934902191e-03
-2.170705422759056091e-02
-4.197587445378303528e-02
-5.183487012982368469e-02
-4.482959583401679993e-02
-1.309998240321874619e-02
3.176235035061836243e-02
-3.976302966475486755e-02
-4.848449677228927612e-02
8.974743075668811798e-03
2.664286084473133087e-02
8.549363166093826294e-02
1.912108249962329865e-02
6.014434993267059326e-02
4.667964950203895569e-02
5.442276597023010254e-02
1.122066825628280640e-01
2.756759710609912872e-02
-2.734562754631042480e-02
-6.295472383499145508e-02
-6.563057005405426025e-02
-4.706303775310516357e-02
4.052604362368583679e-02
-2.083170413970947266e-02
-3.790279850363731384e-02
8.919605612754821777e-02
4.553093761205673218e-02
1.550000440329313278e-02
-4.995057731866836548e-02
-5.799003690481185913e-02
-7.447704672813415527e-02
-4.022114351391792297e-02
3.682918380945920944e-03
6.728690583258867264e-03
2.105214633047580719e-02
-8.327166736125946045e-02
-4.967337101697921753e-02
6.817768514156341553e-02
-6.041916087269783020e-02
4.110638052225112915e-02
-2.343273162841796875e-02
1.835208036936819553e-03
1.717975363135337830e-02
1.996131055057048798e-02
-1.177108101546764374e-02
5.575407296419143677e-02
-7.224755827337503433e-03
-1.101018674671649933e-02
-2.682732045650482178e-02
-6.667046993970870972e-02
-6.372462958097457886e-02
-1.935991458594799042e-02
5.940716713666915894e-02
1.039476410369388759e-04
-5.851020663976669312e-02
-7.305847015231847763e-03
3.942510485649108887e-02
8.037638664245605469e-02
-2.572958730161190033e-02
-7.466580718755722046e-02
-1.034504361450672150e-02
-1.120647042989730835e-02
-1.018708348274230957e-01
4.547064658254384995e-03
7.795415073633193970e-02
5.661799758672714233e-02
-5.097439140081405640e-02
-8.259984850883483887e-02
1.264705089852213860e-03
8.385030180215835571e-02
-4.663519561290740967e-02
3.638201579451560974e-02
1.020848453044891357e-01
1.965901441872119904e-02
3.799914568662643433e-02
-2.642560377717018127e-02
3.576423972845077515e-02
9.184429422020912170e-03
4.135294258594512939e-02
6.297567486763000488e-02
-7.567434106022119522e-03
-9.884694218635559082e-02
4.774074628949165344e-02
-9.720025584101676941e-03
-5.831394717097282410e-02
-6.399139016866683960e-02
-6.037235260009765625e-02
-7.925312966108322144e-02
6.659604609012603760e-03
3.604871779680252075e-02
-1.279126107692718506e-02
-2.820922061800956726e-02
2.569255232810974121e-02
-6.983322650194168091e-02
1.131988409906625748e-02
-8.212479948997497559e-02
5.422101914882659912e-02
2.846748800948262215e-03
5.388927832245826721e-02
1.827258616685867310e-02
1.444632187485694885e-02
-5.696759000420570374e-02
-5.069740489125251770e-02
-2.855357155203819275e-02
-8.469227701425552368e-02
-1.999623328447341919e-02
3.796140849590301514e-02
3.171313926577568054e-02
2.337798103690147400e-02
3.715366823598742485e-03
-4.883379861712455750e-02
-5.602272227406501770e-02
-1.332276966422796249e-02
-1.947112195193767548e-02
-6.379736214876174927e-02
1.013311371207237244e-01
2.481415867805480957e-02
6.819715350866317749e-02
-9.921392053365707397e-02
9.324853867292404175e-02
6.813634536229074001e-04
7.469987124204635620e-02
-5.554687604308128357e-02
5.134064331650733948e-02
4.209909215569496155e-02
-5.927008390426635742e-02
-4.194110259413719177e-02
1.288787722587585449e-01
6.591116636991500854e-02
4.289574921131134033e-02
-1.290706545114517212e-01
-8.029620349407196045e-02
-5.295900627970695496e-02
-9.215481579303741455e-02
6.842569261789321899e-02
-2.382321469485759735e-02
3.006944432854652405e-02
-8.366388827562332153e-02
9.044849127531051636e-02
2.701102057471871376e-04
-3.681886941194534302e-02
5.915505066514015198e-02
-8.865839242935180664e-02
-6.143756955862045288e-02
9.910061955451965332e-03
-4.917512461543083191e-02
8.260261267423629761e-02
7.810147106647491455e-02
3.094261139631271362e-02
4.302601516246795654e-02
8.989173918962478638e-03
6.769084185361862183e-02
3.140147402882575989e-02
-8.822274208068847656e-02
1.805537380278110504e-02
3.102594800293445587e-02
-1.070633530616760254e-02
1.057002395391464233e-01
-2.930754097178578377e-03
5.115783773362636566e-03
5.589046329259872437e-02
1.371348462998867035e-02
3.100689873099327087e-02
-1.607223041355609894e-02
-1.673893071711063385e-02
9.409160353243350983e-03
1.091585606336593628e-01
-8.166000992059707642e-02
-6.144709885120391846e-02
6.558134406805038452e-02
-5.605512112379074097e-02
-5.694771185517311096e-02
3.393381088972091675e-02
-6.741120666265487671e-02
-6.273934245109558105e-02
-4.756301641464233398e-02
-5.891823768615722656e-02
1.688806712627410889e-02
1.639628410339355469e-02
4.422286897897720337e-02
-1.301247440278530121e-02
2.250137180089950562e-02
7.096309214830398560e-02
-7.148757576942443848e-02
5.635606124997138977e-02
6.199409719556570053e-03
4.794847592711448669e-02
3.159929811954498291e-02
6.405258923768997192e-02
1.538566220551729202e-02
1.407536212354898453e-02
-6.370589882135391235e-02
-8.923627436161041260e-02
6.039274111390113831e-02
-1.769478432834148407e-02
3.352892026305198669e-02
-3.285295143723487854e-02
7.585746794939041138e-02
-3.408068418502807617e-02
-4.158904775977134705e-02
-9.642079472541809082e-02
-5.886232107877731323e-02
1.440353132784366608e-02
-9.675496816635131836e-02
1.222469657659530640e-02
-4.672288149595260620e-02
-7.392715662717819214e-02
-6.581665365956723690e-05
-1.042293161153793335e-01
2.988676354289054871e-02
-4.463493451476097107e-02
5.186714977025985718e-02
-6.431958079338073730e-02
1.297125965356826782e-02
2.717995271086692810e-02
-2.567308023571968079e-02
-1.185045018792152405e-02
4.555890709161758423e-02
3.399858996272087097e-02
1.176662966609001160e-01
2.251351019367575645e-03
-5.851124227046966553e-02
-5.219367519021034241e-02
2.411339432001113892e-02
6.219150871038436890e-02
-5.744063109159469604e-02
-8.864801377058029175e-02
1.063544675707817078e-01
-1.491237804293632507e-02
-6.422331929206848145e-02
-2.555119106546044350e-03
-6.589587032794952393e-02
-8.256442099809646606e-02
-2.206256904173642397e-04
-2.877000533044338226e-02
6.587621755897998810e-03
-2.873497270047664642e-02
4.642234370112419128e-02
-2.179699018597602844e-02
-5.771339312195777893e-02
2.826757170259952545e-02
1.176584511995315552e-02
3.887637332081794739e-02
4.857176169753074646e-02
2.010012418031692505e-02
-5.268123745918273926e-02
2.442305441945791245e-03
5.927325785160064697e-02
-9.585314244031906128e-02
5.796252936124801636e-02
-8.681778609752655029e-02
6.394714582711458206e-03
2.881544409319758415e-03
-1.081484034657478333e-01
3.440266102552413940e-02
3.840914741158485413e-02
2.010574378073215485e-02
1.761626824736595154e-02
-2.908533206209540367e-04
-1.482534687966108322e-02
-1.348073780536651611e-02
3.687787055969238281e-02
-7.069053500890731812e-02
6.181072816252708435e-02
5.383095517754554749e-02
9.214603155851364136e-02
5.505431070923805237e-02
6.777332723140716553e-02
-9.680846333503723145e-02
2.045974833890795708e-03
-1.403212081640958786e-02
-1.251377351582050323e-02
5.699606612324714661e-02
3.869804739952087402e-02
3.736099600791931152e-02
-6.629741936922073364e-02
-9.456939995288848877e-03
7.730045169591903687e-02
-5.535546690225601196e-02
-1.772786863148212433e-02
-5.944143608212471008e-02
-7.176820933818817139e-02
-7.617927342653274536e-02
2.456534095108509064e-02
3.850780799984931946e-02
2.749779261648654938e-02
5.587405338883399963e-02
-4.506517946720123291e-02
-1.633845269680023193e-02
8.003446459770202637e-02
4.214270040392875671e-02
1.821492798626422882e-02
-1.301232259720563889e-02
-7.571902126073837280e-02
-2.589752338826656342e-02
5.665262043476104736e-02
6.724319607019424438e-02
6.499209254980087280e-02
-5.676089227199554443e-02
4.172918200492858887e-02
-1.066633611917495728e-01
-7.319619506597518921e-02
-5.272569600492715836e-03
-6.740411370992660522e-02
-6.326565891504287720e-02
2.527988329529762268e-02
3.662423044443130493e-02
5.884606018662452698e-02
-4.129346925765275955e-03
6.967789679765701294e-02
6.540447473526000977e-02
-5.819716304540634155e-02
-4.698007181286811829e-02
-1.115587539970874786e-02
-5.653973296284675598e-02
6.356357038021087646e-02
6.825110316276550293e-02
1.024453565478324890e-01
1.191862896084785461e-01
-3.370881080627441406e-02
-2.853355742990970612e-02
9.134975075721740723e-02
7.136622816324234009e-02
-4.258528724312782288e-02
3.238157555460929871e-02
4.422030877321958542e-03
-1.038006916642189026e-01
-8.401087671518325806e-02
-2.106491662561893463e-02
6.780146062374114990e-02
-9.742991626262664795e-02
2.079565636813640594e-02
-1.165152043104171753e-01
2.136698924005031586e-02
-8.325750939548015594e-03
8.210329711437225342e-02
-1.456090807914733887e-01
5.985143035650253296e-02
1.070984229445457458e-01
6.610541790723800659e-02
-2.623378532007336617e-03
4.866927862167358398e-03
1.591124013066291809e-02
7.688003033399581909e-02
-1.656256616115570068e-02
-9.372883290052413940e-02
-6.919708847999572754e-02
-2.192364260554313660e-02
-3.370969789102673531e-03
-3.015177883207798004e-02
-1.035567447543144226e-01
-5.776884406805038452e-02
7.156642526388168335e-02
3.722873702645301819e-02
-1.578927412629127502e-02
-6.854934245347976685e-02
3.087127115577459335e-03
-5.870412290096282959e-02
1.162551417946815491e-01
7.470783591270446777e-02
-1.048604492098093033e-02
9.753314405679702759e-02
1.823970302939414978e-02
-7.433483004570007324e-02
-6.672799587249755859e-02
-6.781519204378128052e-02
1.218465436249971390e-02
8.504730463027954102e-02
8.753586560487747192e-02
1.081325709819793701e-01
-1.044053286314010620e-01
5.284375324845314026e-02
1.127236559987068176e-01
-4.840148612856864929e-02
-2.523786202073097229e-02
-8.490449935197830200e-02
-5.778944492340087891e-02
-7.017608731985092163e-03
-1.273811459541320801e-01
-3.289077430963516235e-02
-6.748891621828079224e-02
-1.758467406034469604e-02
-1.141928136348724365e-01
5.415024235844612122e-02
1.657850481569766998e-02
8.719618781469762325e-04
-1.025805249810218811e-01
-4.760407283902168274e-02
9.047127515077590942e-02
-2.597796544432640076e-02
-8.332579582929611206e-02
-1.295699179172515869e-02
1.938907243311405182e-02
5.878997594118118286e-02
2.314926870167255402e-02
-2.750198170542716980e-02
-5.624598637223243713e-02
2.455867081880569458e-02
8.095437288284301758e-02
1.024934276938438416e-01
-8.093261718750000000e-02
-5.075853317975997925e-02
1.725655794143676758e-02
5.940524861216545105e-02
-6.394689902663230896e-03
-1.575955562293529510e-02
5.236180499196052551e-02
7.018719613552093506e-02
1.525489799678325653e-02
-6.496786326169967651e-02
8.290245383977890015e-02
-1.393100060522556305e-02
-3.473909571766853333e-02
6.807929277420043945e-02
2.729240804910659790e-02
-5.123951658606529236e-02
7.283310592174530029e-02
-7.005447521805763245e-03
6.361954845488071442e-03
7.734237611293792725e-02
-1.163765490055084229e-01
-7.953618466854095459e-02
3.766075894236564636e-02
-7.367034256458282471e-02
-4.841978196054697037e-03
3.339959681034088135e-02
-5.425395816564559937e-02
-6.616029888391494751e-02
-6.097970157861709595e-02
2.216097153723239899e-02
-1.989396102726459503e-02
-4.509776085615158081e-02
-3.958586230874061584e-02
-8.738118410110473633e-02
1.173389609903097153e-02
2.655499801039695740e-02
-2.511895075440406799e-02
7.377089560031890869e-02
7.381792366504669189e-02
-3.329560533165931702e-02
-4.749383777379989624e-02
1.243018172681331635e-02
-6.603408604860305786e-02
1.826948858797550201e-02
4.934063553810119629e-02
3.564572706818580627e-02
-2.734102495014667511e-02
-2.218092093244194984e-03
-4.797047749161720276e-02
6.522532552480697632e-02
-8.538968861103057861e-02
6.046500429511070251e-02
7.253777235746383667e-02
6.694638729095458984e-02
5.135041847825050354e-02
6.781125813722610474e-02
1.222993433475494385e-02
-9.571112692356109619e-02
3.558293683454394341e-03
-1.018275786191225052e-02
1.006295979022979736e-01
6.682229042053222656e-02
-9.900344163179397583e-02
-8.223516494035720825e-02
-2.041524834930896759e-02
3.146258741617202759e-02
9.529362618923187256e-02
-2.450265921652317047e-02
1.722466573119163513e-02
2.865825593471527100e-02
-7.895955443382263184e-02
1.749780029058456421e-02
4.611428454518318176e-02
3.460004180669784546e-02
-5.253629013895988464e-02
1.549413986504077911e-02
3.838796541094779968e-02
-5.764422193169593811e-02
-9.426938742399215698e-02
-8.749396353960037231e-02
-1.070776432752609253e-01
3.040478937327861786e-02
-5.862600356340408325e-02
-7.133895158767700195e-02
-6.786084920167922974e-02
-2.376156114041805267e-02
-3.103718347847461700e-02
-7.298062741756439209e-02
2.024863101541996002e-02
6.163049489259719849e-02
-3.293242305517196655e-02
4.825485404580831528e-03
2.022889442741870880e-02
-3.295349329710006714e-02
1.115546450018882751e-01
-1.019245237112045288e-01
-1.063029095530509949e-01
2.511373022571206093e-03
1.446444634348154068e-02
-1.800257898867130280e-02
-8.280669897794723511e-02
9.302636981010437012e-02
-4.236438777297735214e-03
2.746532857418060303e-02
-6.443902850151062012e-02
-1.042147260159254074e-02
6.696651130914688110e-02
6.092788651585578918e-02
1.024054884910583496e-01
-4.802132770419120789e-02
4.574485495686531067e-02
-2.641652524471282959e-02
-5.668872967362403870e-02
-4.609640687704086304e-02
-2.195445634424686432e-02
1.123330948757939041e-04
3.242553770542144775e-02
-1.889302954077720642e-02
3.874325379729270935e-02
-3.172241523861885071e-02
-4.948754981160163879e-02
8.326154202222824097e-02
1.091571524739265442e-01
3.627343475818634033e-02
-2.416194975376129150e-02
-6.446387618780136108e-02
-5.428370088338851929e-02
7.340197265148162842e-02
-6.336244195699691772e-02
-3.319453448057174683e-02
-1.105153560638427734e-01
-8.238862454891204834e-02
-9.954140335321426392e-02
-1.043761819601058960e-01
8.438158780336380005e-02
7.831126451492309570e-02
-1.239119376987218857e-02
-8.476002141833305359e-03
-4.229133948683738708e-02
3.107903897762298584e-02
-4.405532032251358032e-02
5.519037321209907532e-02
2.761447429656982422e-02
1.361254137009382248e-02
4.724989086389541626e-02
1.907011494040489197e-02
5.306577682495117188e-02
9.867523610591888428e-02
4.618791118264198303e-02
8.794764429330825806e-02
2.403413876891136169e-02
-1.762398518621921539e-03
-7.556164264678955078e-02
-2.047616057097911835e-02
-3.173128888010978699e-02
6.562751531600952148e-02
-1.126090884208679199e-01
-5.873391777276992798e-02
5.821438506245613098e-02
2.847132273018360138e-02
2.391267009079456329e-02
7.262537628412246704e-02
-7.123220711946487427e-02
8.986381441354751587e-02
-5.236832424998283386e-03
-7.791074924170970917e-03
8.823502808809280396e-02
2.461037039756774902e-02
-1.412456203252077103e-02
3.296503052115440369e-02
-7.424564659595489502e-02
-4.809646680951118469e-02
-4.129955172538757324e-02
6.420946121215820312e-02
3.967184945940971375e-02
-2.287697046995162964e-02
-3.934146836400032043e-02
-4.404566437005996704e-02
2.608533762395381927e-02
-6.030530855059623718e-02
-5.829650908708572388e-02
-4.371904302388429642e-03
1.777281425893306732e-02
-3.863612562417984009e-02
2.333994023501873016e-02
-5.175824463367462158e-02
-6.755056232213973999e-02
8.719436824321746826e-02
-1.760493963956832886e-02
-5.679549276828765869e-02
2.582849189639091492e-02
-8.352313190698623657e-03
4.941286146640777588e-02
-3.596038371324539185e-02
-2.411395125091075897e-02
-6.207125633955001831e-02
-5.718101561069488525e-02
-3.222417319193482399e-03
-9.356728941202163696e-02
-4.298417642712593079e-02
-3.377001732587814331e-02
-5.800562724471092224e-02
7.168544083833694458e-02
-7.562284171581268311e-02
-7.871261984109878540e-02
-2.552612312138080597e-02
-1.085437983274459839e-01
-3.966621309518814087e-02
6.387040764093399048e-02
6.729433685541152954e-02
2.496065758168697357e-02
-7.199312746524810791e-02
-5.432456359267234802e-02
-4.938822984695434570e-02
-1.793657429516315460e-02
-2.214744128286838531e-02
1.193946152925491333e-01
-3.004450723528862000e-02
-6.536546349525451660e-02
-5.214331671595573425e-02
-6.129957363009452820e-02
5.710113327950239182e-03
2.035262249410152435e-02
1.287225447595119476e-02
-5.205251276493072510e-02
1.064072921872138977e-02
-5.363425239920616150e-03
