-2.505582524463534355e-03
-4.006553441286087036e-02
-2.071750164031982422e-02
1.067184563726186752e-02
-1.522227004170417786e-02
-2.554419217631220818e-03
-4.449883103370666504e-02
9.217544458806514740e-03
1.000871136784553528e-02
4.247523844242095947e-02
-3.292155265808105469e-02
-2.002934925258159637e-02
-4.614131059497594833e-03
3.714538365602493286e-02
6.598313339054584503e-03
-2.991270273923873901e-02
2.383555256528779864e-04
-2.625602670013904572e-02
-7.070406805723905563e-03
1.587579958140850067e-03
4.258513078093528748e-02
-1.296000275760889053e-02
4.498899355530738831e-02
-4.021071828901767731e-03
-6.560877431184053421e-03
6.052759476006031036e-03
-2.616405859589576721e-02
-4.848815500736236572e-02
-2.300239168107509613e-02
1.569171808660030365e-02
-2.941668406128883362e-02
-1.376409642398357391e-02
-1.388480793684720993e-02
-3.938432037830352783e-02
-2.649780549108982086e-02
-1.071921363472938538e-02
9.900848381221294403e-03
-1.525777857750654221e-02
1.301054283976554871e-02
-2.405440062284469604e-02
-5.170775949954986572e-02
-2.792159095406532288e-02
4.181631084065884352e-04
-3.288339124992489815e-03
1.838316023349761963e-02
-4.286621231585741043e-03
-1.939261890947818756e-02
-3.679126873612403870e-02
-2.218704111874103546e-02
6.999072618782520294e-03
-4.278451576828956604e-02
-1.230794936418533325e-02
3.339772671461105347e-02
-1.066702045500278473e-02
-2.860922180116176605e-02
-1.247546169906854630e-02
-1.387821417301893234e-02
3.204351663589477539e-02
1.241190358996391296e-02
-4.304170981049537659e-02
-4.860570281744003296e-02
-4.134085774421691895e-02
-4.182963445782661438e-02
-1.977718435227870941e-02
1.042785588651895523e-02
1.600783877074718475e-02
-3.305862098932266235e-02
-1.945864222943782806e-02
1.821261085569858551e-02
-1.635607145726680756e-02
2.038105577230453491e-02
-3.896348876878619194e-03
-4.396760836243629456e-02
-1.291684689931571484e-03
1.142280269414186478e-02
-1.324530132114887238e-02
2.095950208604335785e-02
9.107707592193037271e-05
2.043796330690383911e-02
-3.132354468107223511e-02
5.249014869332313538e-02
-2.050162851810455322e-02
2.400721795856952667e-02
-3.058915771543979645e-02
2.550196833908557892e-03
-1.367252785712480545e-02
-1.857393048703670502e-02
-8.422946557402610779e-03
-1.850316487252712250e-02
6.188758090138435364e-02
-3.523901849985122681e-02
1.355679240077733994e-02
5.052266176789999008e-03
-3.592195361852645874e-02
-2.710564993321895599e-03
2.138197422027587891e-02
8.008077740669250488e-03
-4.720821976661682129e-03
-3.960188105702400208e-02
1.301450282335281372e-02
-6.231157854199409485e-02
-4.215038567781448364e-02
-2.446680702269077301e-02
-3.690707497298717499e-03
-3.256954252719879150e-02
-2.806660719215869904e-02
-2.991974726319313049e-02
1.668321900069713593e-02
-1.853420585393905640e-02
1.118267979472875595e-02
-3.124763257801532745e-02
-4.704463109374046326e-02
3.589069528970867395e-04
-2.890163473784923553e-02
6.387335062026977539e-02
-2.059277519583702087e-02
-2.290238253772258759e-02
-1.851585507392883301e-02
-1.830439269542694092e-02
-8.241938427090644836e-03
3.303414955735206604e-02
6.805604207329452038e-04
-2.153949066996574402e-02
7.496406789869070053e-03
3.921334072947502136e-02
2.264920808374881744e-02
4.423637315630912781e-02
7.410523295402526855e-02
-1.156735979020595551e-02
2.304707653820514679e-03
-3.662066161632537842e-02
-2.384049352258443832e-03
4.759536683559417725e-02
-2.988338284194469452e-02
-2.560058608651161194e-02
-1.900913566350936890e-02
-8.921179105527698994e-04
-2.127227932214736938e-02
2.270144037902355194e-02
-1.593216881155967712e-02
-6.644902285188436508e-03
-6.215261237230151892e-05
6.891596317291259766e-02
-3.927134722471237183e-02
-2.738076727837324142e-03
3.868633648380637169e-03
-4.989063739776611328e-02
-1.986696384847164154e-02
-1.840997487306594849e-02
-2.607875503599643707e-02
-2.511814236640930176e-03
-2.147791534662246704e-02
-1.744387112557888031e-02
-8.229231461882591248e-03
1.625296077691018581e-03
-1.715301722288131714e-02
1.182632768177427351e-04
-5.818294361233711243e-03
8.028598129749298096e-02
-3.177190944552421570e-02
-3.166625648736953735e-02
2.905433252453804016e-02
1.264142883883323520e-05
3.213741583749651909e-03
-4.276963695883750916e-02
-7.854729890823364258e-03
-1.797269214875996113e-05
-1.058373972773551941e-02
-2.506284043192863464e-02
-4.476611316204071045e-02
2.646167948842048645e-02
-2.656275965273380280e-02
-1.587890274822711945e-02
-2.308544516563415527e-02
4.369670059531927109e-03
-1.821127161383628845e-02
1.672068051993846893e-02
-2.820586040616035461e-02
-2.666126936674118042e-02
-1.753432117402553558e-02
1.170341623947024345e-03
-7.823263294994831085e-03
-4.141288809478282928e-03
3.662186674773693085e-03
6.832975894212722778e-02
1.000970602035522461e-02
-7.803632412105798721e-03
1.701341196894645691e-02
-1.839313656091690063e-02
-9.004652500152587891e-03
-7.751677650958299637e-03
-1.991080120205879211e-02
-1.303364615887403488e-02
-2.608169242739677429e-02
2.449306286871433258e-02
3.085039556026458740e-03
1.952178776264190674e-02
-3.174525871872901917e-02
3.935572504997253418e-02
3.045769594609737396e-02
