-2.831669757142663002e-03
-1.456217025406658649e-03
-7.833627052605152130e-03
-4.164267331361770630e-02
-1.378896366804838181e-02
7.305919425562024117e-04
-1.773785240948200226e-02
1.543794176541268826e-03
-5.508032068610191345e-02
-6.377444416284561157e-02
-3.883857652544975281e-02
-9.650864638388156891e-03
7.848969660699367523e-03
-4.602841660380363464e-02
-2.522104233503341675e-02
-2.810115925967693329e-02
1.322003733366727829e-02
-1.919729262590408325e-02
6.281291600316762924e-03
8.347240276634693146e-03
1.972082443535327911e-02
-2.259238995611667633e-02
-2.124618366360664368e-02
5.560772959142923355e-03
1.517066638916730881e-02
9.026779793202877045e-03
2.139901742339134216e-02
-2.002419903874397278e-02
2.526182495057582855e-02
3.738206252455711365e-02
-1.413343474268913269e-02
4.316414240747690201e-03
9.490055963397026062e-04
3.847309201955795288e-02
5.464702844619750977e-03
-8.397568017244338989e-03
2.739277668297290802e-03
2.826909348368644714e-02
1.082541607320308685e-02
3.153802361339330673e-03
-5.119862779974937439e-02
-9.498129598796367645e-03
-3.752647433429956436e-03
8.018788648769259453e-04
-4.800473898649215698e-02
-3.278506919741630554e-02
-2.303220331668853760e-02
-1.683644659351557493e-04
1.303332205861806870e-02
-3.518484532833099365e-02
-1.461788825690746307e-02
-2.444252185523509979e-02
1.791745610535144806e-02
3.603052720427513123e-02
5.929938983172178268e-03
1.259295968338847160e-03
-5.130821373313665390e-03
-2.037884853780269623e-02
-2.460237592458724976e-03
-5.778927006758749485e-04
1.975760422646999359e-02
-2.529605105519294739e-02
-2.093417942523956299e-02
-2.048058994114398956e-02
-9.803877212107181549e-03
-1.383208110928535461e-02
4.318275954574346542e-03
-1.824184507131576538e-02
9.381435811519622803e-03
1.657096669077873230e-02
1.706151664257049561e-02
-3.145341947674751282e-02
-4.344041272997856140e-02
-2.772906795144081116e-02
-7.123888283967971802e-02
-3.108938038349151611e-02
1.547413226217031479e-02
2.856254577636718750e-02
-5.083387717604637146e-03
-1.277355477213859558e-02
-3.500699251890182495e-02
-3.710797429084777832e-02
-2.686398802325129509e-03
2.278080442920327187e-03
1.313336286693811417e-02
-2.203266136348247528e-02
-9.583936072885990143e-03
1.645023375749588013e-02
3.116425685584545135e-02
1.047674100846052170e-02
9.361819364130496979e-03
-4.089335352182388306e-02
-7.237832993268966675e-03
-3.187715634703636169e-02
1.378693524748086929e-02
9.796366095542907715e-03
1.445447001606225967e-02
-1.328156515955924988e-02
4.738207161426544189e-02
-4.606317263096570969e-03
