-3.494816645979881287e-02
2.158978395164012909e-02
9.786338545382022858e-03
1.477133296430110931e-02
4.611719027161598206e-02
-2.156186476349830627e-02
-2.171845361590385437e-02
-4.274796321988105774e-02
4.053558036684989929e-02
1.735438406467437744e-02
-4.279954358935356140e-02
2.712272806093096733e-03
3.490279242396354675e-02
-1.097510196268558502e-02
-5.080900713801383972e-02
1.858182251453399658e-02
3.466125950217247009e-02
4.148715175688266754e-03
2.179588191211223602e-02
-9.711303748190402985e-03
1.572540588676929474e-02
1.387536339461803436e-02
4.736025258898735046e-02
-1.181040611118078232e-02
9.670460596680641174e-03
4.947170987725257874e-02
7.642395794391632080e-03
-3.694421797990798950e-02
-1.401952700689435005e-03
1.431359723210334778e-02
8.159510791301727295e-03
-1.662096567451953888e-02
6.467335391789674759e-03
2.048512734472751617e-02
-2.855875901877880096e-02
-4.960261657834053040e-02
6.682346109300851822e-03
-1.304710656404495239e-02
2.396815456449985504e-02
1.422479469329118729e-02
2.365754917263984680e-03
1.652078470215201378e-03
-2.312962152063846588e-02
2.396131120622158051e-02
-7.230534404516220093e-02
-2.114646136760711670e-02
-2.274284698069095612e-02
-1.250882819294929504e-02
-7.443967624567449093e-04
9.247701615095138550e-03
