1.932550370693206787e-01
-3.583918139338493347e-02
-1.480268836021423340e-01
1.244616061449050903e-01
5.446877330541610718e-02
-6.505223363637924194e-02
8.132012933492660522e-02
-2.204717881977558136e-02
-3.260487318038940430e-01
-4.157184958457946777e-01
9.321947395801544189e-02
1.076186373829841614e-01
-2.626182697713375092e-02
1.704930327832698822e-02
3.399206325411796570e-02
-2.991070151329040527e-01
7.513191550970077515e-02
5.913931131362915039e-02
-2.718650102615356445e-01
-3.158343434333801270e-01
2.079783231019973755e-01
9.104663133621215820e-02
-5.745374597609043121e-03
3.807968273758888245e-02
2.160980105400085449e-01
-1.884994655847549438e-01
1.227054670453071594e-01
-6.048666313290596008e-02
-1.421032249927520752e-01
-3.742140829563140869e-01
1.593345850706100464e-01
7.494058459997177124e-02
-4.016322270035743713e-02
5.973840504884719849e-02
1.959799230098724365e-01
-1.527152210474014282e-01
-2.427560649812221527e-02
1.170762628316879272e-01
-3.388484716415405273e-01
-3.106850981712341309e-01
1.874169558286666870e-01
4.023466631770133972e-02
-1.035115122795104980e-01
5.875375494360923767e-02
1.741721779108047485e-01
-2.075593769550323486e-01
1.228381022810935974e-01
9.751165658235549927e-02
-3.659382462501525879e-01
-3.626734316349029541e-01
1.597465425729751587e-01
1.874541491270065308e-01
-1.637206524610519409e-01
1.011978760361671448e-01
1.943248808383941650e-01
-2.969800829887390137e-01
-2.836312912404537201e-02
1.552611589431762695e-01
-2.326160818338394165e-01
-3.428478240966796875e-01
1.477150768041610718e-01
1.403437647968530655e-02
-1.071344092488288879e-01
1.851337999105453491e-01
1.068228781223297119e-01
-1.284603476524353027e-01
-3.862397745251655579e-02
-1.650454825721681118e-03
-3.747309744358062744e-01
-1.884953230619430542e-01
2.314448654651641846e-01
2.340453267097473145e-01
-4.885498061776161194e-02
1.405104696750640869e-01
3.163731992244720459e-01
-1.866756230592727661e-01
-1.513960659503936768e-01
8.428089320659637451e-02
-1.790153831243515015e-01
-1.825108081102371216e-01
4.951307550072669983e-02
3.211108148097991943e-01
-1.592220664024353027e-01
1.509773135185241699e-01
1.172566935420036316e-01
-3.340353071689605713e-01
5.471565946936607361e-02
9.211798012256622314e-02
-1.887843608856201172e-01
-1.000631973147392273e-01
1.779655925929546356e-02
-5.687600001692771912e-02
5.211657285690307617e-02
-4.143980517983436584e-02
-2.704460620880126953e-01
1.906680129468441010e-02
-4.682563245296478271e-01
-6.444315612316131592e-02
-6.587599962949752808e-02
-8.523574471473693848e-02
-3.198986351490020752e-01
-2.156497538089752197e-02
1.541004031896591187e-01
-8.073870837688446045e-02
-2.617097496986389160e-01
-7.832814753055572510e-02
-6.985533237457275391e-01
-1.257764846086502075e-01
-7.493937015533447266e-02
-4.452317208051681519e-02
-1.131502389907836914e-01
-1.188201159238815308e-01
1.567378193140029907e-01
2.319757593795657158e-03
-8.368660509586334229e-02
5.536254122853279114e-02
-5.128640532493591309e-01
-2.407744228839874268e-01
-1.147001236677169800e-02
-5.482196807861328125e-02
6.744407862424850464e-02
-8.442120999097824097e-02
1.448965221643447876e-01
-3.721401393413543701e-01
-2.432947903871536255e-01
-1.625360362231731415e-02
-3.807778060436248779e-01
1.579746976494789124e-02
-9.611542522907257080e-02
-7.251891493797302246e-02
-7.235892862081527710e-02
-4.743318557739257812e-01
1.502886563539505005e-01
-2.808527350425720215e-01
-3.355945646762847900e-01
1.680569164454936981e-02
-3.763195574283599854e-01
-2.188007682561874390e-01
-1.404568403959274292e-01
-1.348357647657394409e-01
-5.634447932243347168e-02
-3.420851528644561768e-01
4.904654994606971741e-02
-4.187567625194787979e-03
-2.760215103626251221e-01
2.395422011613845825e-02
-3.812246620655059814e-01
-2.196975201368331909e-01
-6.428638845682144165e-02
-8.888128399848937988e-02
1.400074064731597900e-01
-3.185711801052093506e-01
1.345714777708053589e-01
-3.019575178623199463e-01
-3.960072100162506104e-01
5.804725456982851028e-03
-1.201568096876144409e-01
-7.798624783754348755e-02
-9.018471837043762207e-02
-1.729061827063560486e-02
1.768133193254470825e-01
-5.263807177543640137e-01
1.886054575443267822e-01
-2.574073672294616699e-01
-1.627518534660339355e-01
5.298404023051261902e-02
-1.802678704261779785e-01
-1.933797895908355713e-01
-1.372564397752285004e-02
-3.927795961499214172e-02
-4.810689948499202728e-03
-4.889537990093231201e-01
1.032007336616516113e-01
4.886203911155462265e-03
-3.797482252120971680e-01
3.044436499476432800e-02
-3.679137676954269409e-02
-2.234716266393661499e-01
-3.229075297713279724e-02
1.130104158073663712e-02
