1.164074689149856567e-01
-2.895135059952735901e-02
-2.146140187978744507e-01
9.439335018396377563e-02
-2.677578479051589966e-02
3.950975462794303894e-02
-8.415762335062026978e-03
-2.002853527665138245e-02
-1.908984929323196411e-01
-3.023258447647094727e-01
-5.991260707378387451e-02
1.091607734560966492e-01
-6.666067242622375488e-02
-3.022014349699020386e-02
-5.146658420562744141e-02
-2.260454446077346802e-01
-6.459535658359527588e-02
7.106570154428482056e-02
-1.520646363496780396e-01
-1.818213313817977905e-01
9.999351948499679565e-02
7.855588942766189575e-02
-5.516445636749267578e-02
5.094606429338455200e-02
1.883888989686965942e-01
-6.767252087593078613e-02
2.676035091280937195e-02
-1.521817296743392944e-01
-5.849963426589965820e-02
-2.439142465591430664e-01
9.255317598581314087e-02
3.314919397234916687e-02
-8.898960053920745850e-02
-7.249911129474639893e-02
1.112388446927070618e-01
-1.019972488284111023e-01
-6.505412608385086060e-02
1.436835378408432007e-01
-1.774709820747375488e-01
-2.258078008890151978e-01
9.877112507820129395e-02
-6.008225679397583008e-02
-1.976152658462524414e-01
-3.044351562857627869e-02
1.385428905487060547e-01
-1.289177834987640381e-01
1.149981394410133362e-01
-5.978771951049566269e-03
-2.933200895786285400e-01
-2.917710542678833008e-01
5.755006894469261169e-02
2.655351907014846802e-02
-2.682197093963623047e-01
8.635903149843215942e-02
1.657433211803436279e-01
-1.997633725404739380e-01
-1.168987974524497986e-01
8.543428033590316772e-02
-1.724735349416732788e-01
-2.790891230106353760e-01
9.635068476200103760e-02
-8.027543872594833374e-02
-2.150671035051345825e-01
3.617180138826370239e-02
-4.583344981074333191e-02
-4.778710380196571350e-02
-2.976253814995288849e-02
-2.171787433326244354e-02
-2.427153140306472778e-01
-1.227088868618011475e-01
1.793608516454696655e-01
1.008598059415817261e-01
-1.312709301710128784e-01
3.981267660856246948e-02
2.495738714933395386e-01
-1.277369856834411621e-01
-1.512461304664611816e-01
2.215877873823046684e-03
-1.889890804886817932e-02
-1.190256252884864807e-01
-3.889701515436172485e-02
1.657184958457946777e-01
-3.034035563468933105e-01
9.649714827537536621e-02
2.431180700659751892e-02
-2.856109738349914551e-01
1.200050637125968933e-01
1.715916767716407776e-02
-7.474584877490997314e-02
2.287983521819114685e-02
9.173039346933364868e-02
-1.194445765577256680e-03
1.432559639215469360e-01
6.099995225667953491e-02
-1.824592947959899902e-01
9.603218734264373779e-02
-2.906163632869720459e-01
-4.583232104778289795e-02
8.087279647588729858e-02
-1.050880923867225647e-02
-2.202779799699783325e-01
1.120181530714035034e-01
2.869504988193511963e-01
-4.581512510776519775e-02
-1.548114717006683350e-01
-4.386624321341514587e-02
-3.862508237361907959e-01
-1.169200539588928223e-01
6.235632672905921936e-02
7.612027972936630249e-02
-1.061643566936254501e-02
-7.985450327396392822e-02
3.049409389495849609e-01
4.641961306333541870e-02
5.748577043414115906e-02
1.334856450557708740e-01
-2.781985998153686523e-01
-2.006070315837860107e-01
1.580845266580581665e-01
3.358018025755882263e-02
9.326317161321640015e-02
7.907475531101226807e-02
2.559555470943450928e-01
-2.188379466533660889e-01
-7.694867439568042755e-03
9.523104131221771240e-02
-2.647869288921356201e-01
8.234865218400955200e-02
9.271609014831483364e-04
2.662115916609764099e-02
-3.191559389233589172e-02
-2.912082374095916748e-01
2.721343636512756348e-01
-1.802483797073364258e-01
-1.562253534793853760e-01
1.379901468753814697e-01
-1.335361301898956299e-01
-1.283773034811019897e-02
7.126659154891967773e-03
-4.614843800663948059e-02
-2.337244525551795959e-02
-1.430289726704359055e-02
1.386463046073913574e-01
5.014642328023910522e-02
-1.507860273122787476e-01
6.573887169361114502e-02
-1.705843061208724976e-01
-4.805549234151840210e-02
3.394354507327079773e-02
2.573515661060810089e-02
1.545817553997039795e-01
-2.817585170269012451e-01
2.587410211563110352e-01
-9.567487984895706177e-02
-2.102677971124649048e-01
9.958199411630630493e-02
-6.639172136783599854e-02
-9.353802353143692017e-02
1.733330078423023224e-02
1.350388973951339722e-01
1.902658939361572266e-01
-2.350357472896575928e-01
2.834341228008270264e-01
-1.479452848434448242e-01
1.045979484915733337e-01
2.189636081457138062e-01
-2.213271260261535645e-01
-6.777385622262954712e-02
1.762800812721252441e-01
9.525953978300094604e-02
-1.175624057650566101e-01
-1.760640889406204224e-01
2.321817129850387573e-01
1.058802306652069092e-01
-2.563091516494750977e-01
1.212386339902877808e-01
2.016905881464481354e-02
-1.170057505369186401e-01
4.833401367068290710e-02
1.059496402740478516e-01
